svm_type c_svc
kernel_type rbf
gamma 0.0078125
nr_class 2
total_sv 1257
rho -1.890457827595476
label 1 0
probA -3.8681880084053728
probB -0.38905355276348119
nr_sv 617 640
SV
6.6157555861957755 1:-0.74596404 2:-0.65479521 3:-0.74667374 4:-0.78926326 5:-0.75391267 6:-0.71628319 7:-0.77826112 8:-0.74061538 9:-0.76387544 10:-0.74191861 11:-0.73943854 12:-0.74719518 13:-0.70479244 14:-0.6107163 15:-0.8302419 16:-0.76730657 17:-0.66904407 18:-0.72140098 19:-0.59904761 20:-0.58665455 21:-0.76917231 22:-0.64535375 23:-0.67197078 24:-0.87527739 25:-0.79823457 26:-0.59928051 27:-0.76000865 28:-0.83680155 29:-0.65865652 30:-0.55761862 31:-0.83188639 32:-0.58974865 33:-0.77076518 34:-0.64810367 35:-0.41946993 36:-0.44771484 37:-0.83705551 38:-0.59832311 39:-0.75938678 40:-1.0789592 41:-0.94780942 42:-0.60883264 43:-0.64345418 44:-0.78243604 45:-0.63620754 46:-0.44519948 47:-0.82280936 48:-0.68531675 49:-0.82203958 50:-0.60544507 51:-0.71652158 52:-0.55667237 53:-0.62818293 54:-0.41199799 55:-0.67845899 56:-0.69015412 57:-0.63074214 58:-0.35374729 59:-0.55038556 60:-0.61753907 61:-0.73268326 62:-0.64649909 63:-0.66570917 64:-0.86353544 65:-0.61700371 66:-0.59588501 67:-0.68933631 68:-0.58570676 69:-0.66666229 70:-0.57460369 71:-0.60315105 72:-0.8425988 73:-0.53245802 74:-0.98008047 75:-0.8814595 76:-0.89917479 77:-0.67678511 78:-0.78057933 79:-0.80688598 80:-0.85770847 81:-0.44363692 82:-0.95299231 83:-0.38104089 84:-0.63698625 85:-0.69772263 86:-1.0143653 87:-0.60885247 88:-0.69388251 89:-0.81450829 90:-0.55916235 91:-0.77668507 92:-0.90256081 93:0.41024571 94:0.448799 95:0.61882134 96:0.43695553 97:0.50183437 98:0.4549533 99:0.50338622 100:0.43092859 101:0.60167402 102:0.44534199 103:0.48288696 104:0.34800465 105:0.30551667 106:0.42664799 107:0.46113397 108:0.50738861 109:0.26029728 110:0.52211046 111:0.64839906 112:0.43053844 113:0.62315493 114:0.52374075 115:0.66130996 116:0.5852243 117:0.49759644 118:0.26044299 119:0.67437605 120:0.31057981 121:0.26571147 122:0.35153422 123:0.43949584 124:0.14880485 125:0.24176693 126:0.59844068 127:0.6823698 128:0.16718335 129:0.47262623 130:0.2663482 131:0.65615293 132:0.33732262 133:0.32866032 134:0.40588843 135:0.56257316 136:0.58559474 137:-0.051310845 138:0.53003466 139:0.19311259 140:0.69596184 141:0.36737528 142:0.70765204 143:0.17302922 144:0.65377115 145:0.72894056 146:0.42886131 147:0.68850428 148:0.76495959 149:0.54517677 150:0.70798613 151:0.13579622 152:0.25897908 153:0.66265651 154:0.44235092 155:0.48300255 156:0.67453322 157:0.18568689 158:0.22122496 159:0.64625694 160:0.79708068 161:0.54803405 162:0.68693516 163:0.61262375 164:0.74280942 165:0.58584188 166:0.11709192 167:1.2218542 168:0.00093927247 169:0.36022702 170:0.35245817 171:0.55597631 172:0.63761492 173:0.23251728 174:0.45877642 175:0.83426672 176:-0.15283173 177:0.67383923 178:0.80034635 179:0.63755657 180:0.44435381 181:0.50222203 182:-0.23466577 183:0.50928294 184:0.23163833 
6.5541197785607306 1:0.41024571 2:0.448799 3:0.61882134 4:0.43695553 5:0.50183437 6:0.4549533 7:0.50338622 8:0.43092859 9:0.60167402 10:0.44534199 11:0.48288696 12:0.34800465 13:0.30551667 14:0.42664799 15:0.46113397 16:0.50738861 17:0.26029728 18:0.52211046 19:0.64839906 20:0.43053844 21:0.62315493 22:0.52374075 23:0.66130996 24:0.5852243 25:0.49759644 26:0.26044299 27:0.67437605 28:0.31057981 29:0.26571147 30:0.35153422 31:0.43949584 32:0.14880485 33:0.24176693 34:0.59844068 35:0.6823698 36:0.16718335 37:0.47262623 38:0.2663482 39:0.65615293 40:0.33732262 41:0.32866032 42:0.40588843 43:0.56257316 44:0.58559474 45:-0.051310845 46:0.53003466 47:0.19311259 48:0.69596184 49:0.36737528 50:0.70765204 51:0.17302922 52:0.65377115 53:0.72894056 54:0.42886131 55:0.68850428 56:0.76495959 57:0.54517677 58:0.70798613 59:0.13579622 60:0.25897908 61:0.66265651 62:0.44235092 63:0.48300255 64:0.67453322 65:0.18568689 66:0.22122496 67:0.64625694 68:0.79708068 69:0.54803405 70:0.68693516 71:0.61262375 72:0.74280942 73:0.58584188 74:0.11709192 75:1.2218542 76:0.00093927247 77:0.36022702 78:0.35245817 79:0.55597631 80:0.63761492 81:0.23251728 82:0.45877642 83:0.83426672 84:-0.15283173 85:0.67383923 86:0.80034635 87:0.63755657 88:0.44435381 89:0.50222203 90:-0.23466577 91:0.50928294 92:0.23163833 93:-0.74596404 94:-0.65479521 95:-0.74667374 96:-0.78926326 97:-0.75391267 98:-0.71628319 99:-0.77826112 100:-0.74061538 101:-0.76387544 102:-0.74191861 103:-0.73943854 104:-0.74719518 105:-0.70479244 106:-0.6107163 107:-0.8302419 108:-0.76730657 109:-0.66904407 110:-0.72140098 111:-0.59904761 112:-0.58665455 113:-0.76917231 114:-0.64535375 115:-0.67197078 116:-0.87527739 117:-0.79823457 118:-0.59928051 119:-0.76000865 120:-0.83680155 121:-0.65865652 122:-0.55761862 123:-0.83188639 124:-0.58974865 125:-0.77076518 126:-0.64810367 127:-0.41946993 128:-0.44771484 129:-0.83705551 130:-0.59832311 131:-0.75938678 132:-1.0789592 133:-0.94780942 134:-0.60883264 135:-0.64345418 136:-0.78243604 137:-0.63620754 138:-0.44519948 139:-0.82280936 140:-0.68531675 141:-0.82203958 142:-0.60544507 143:-0.71652158 144:-0.55667237 145:-0.62818293 146:-0.41199799 147:-0.67845899 148:-0.69015412 149:-0.63074214 150:-0.35374729 151:-0.55038556 152:-0.61753907 153:-0.73268326 154:-0.64649909 155:-0.66570917 156:-0.86353544 157:-0.61700371 158:-0.59588501 159:-0.68933631 160:-0.58570676 161:-0.66666229 162:-0.57460369 163:-0.60315105 164:-0.8425988 165:-0.53245802 166:-0.98008047 167:-0.8814595 168:-0.89917479 169:-0.67678511 170:-0.78057933 171:-0.80688598 172:-0.85770847 173:-0.44363692 174:-0.95299231 175:-0.38104089 176:-0.63698625 177:-0.69772263 178:-1.0143653 179:-0.60885247 180:-0.69388251 181:-0.81450829 182:-0.55916235 183:-0.77668507 184:-0.90256081 
26.491576905958183 1:-0.75139226 2:-0.65945172 3:-0.57111009 4:-0.75043839 5:-0.72597563 6:-0.68472673 7:-0.67577796 8:-0.70584365 9:-0.65400985 10:-0.67789077 11:-0.73038467 12:-0.72118093 13:-0.85006565 14:-0.64711505 15:-0.69979989 16:-0.63767655 17:-0.5845585 18:-0.84096939 19:-0.51447496 20:-0.68837384 21:-0.62603587 22:-0.50781322 23:-0.38524374 24:-0.78399603 25:-0.75935964 26:-0.67925479 27:-0.60063257 28:-0.82005146 29:-1.0033361 30:-0.79478893 31:-0.66605393 32:-0.61929079 33:-0.43325448 34:-0.80392171 35:-0.78674984 36:-0.52457711 37:-0.72791536 38:-0.59832311 39:-0.45166076 40:-0.91233785 41:-0.68187823 42:-0.55809658 43:-0.56027988 44:-0.66083331 45:-0.6069627 46:-0.5952355 47:-0.54573974 48:-0.43417518 49:-0.82203958 50:-0.98061567 51:-0.42000465 52:-0.81605312 53:-0.30885975 54:-0.69228442 55:-0.28789805 56:-0.5782223 57:-0.84454558 58:-0.53070286 59:-0.4131492 60:-0.65927803 61:-0.73268326 62:-0.10207409 63:-0.53807454 64:-0.66115799 65:-0.5099783 66:-0.59588501 67:-0.32089679 68:-0.58570676 69:-0.47486813 70:-0.41691134 71:-0.11684113 72:-0.68405798 73:-0.53245802 74:-0.7972184 75:-0.57214866 76:-1.0277625 77:-0.70919174 78:-0.67757592 79:-0.86367191 80:-0.67645715 81:-0.53379082 82:-0.83534491 83:-0.51607507 84:-0.77531612 85:-0.65853515 86:-0.10700949 87:-0.65679128 88:-0.7751851 89:-0.75465691 90:-0.81875961 91:-0.65223656 92:-0.88266258 93:-0.31442097 94:-0.31021305 95:-0.54380019 96:-0.48837052 97:-0.44396058 98:-0.40833501 99:-0.39817446 100:-0.39461908 101:-0.40401371 102:-0.37262706 103:-0.4841235 104:-0.40974582 105:-0.19633622 106:-0.26492821 107:-0.45196008 108:-0.40002152 109:-0.35926362 110:-0.0039905341 111:-0.47218863 112:-0.31540308 113:-0.4178374 114:-0.59033754 115:-0.55727996 116:-0.57861298 117:-0.37061034 118:-0.17941555 119:-0.62961004 120:-0.58555016 121:-0.15730439 122:-0.08327801 123:-0.085640298 124:-0.41249581 125:-0.32075091 126:-0.024831497 127:-0.49292591 128:-0.14026574 129:-0.10945454 130:-0.51971663 131:-0.69784158 132:-0.57909506 133:-0.46913327 134:-0.10147211 135:-0.47710558 136:-0.44802852 137:-0.25602469 138:-0.52021749 139:-0.63809628 140:-0.18303362 141:-0.16125355 142:0.23868879 143:-0.12348771 144:0.048549388 145:-0.46852134 146:-0.58016985 147:-0.58081875 148:-0.018563179 149:-0.36348784 150:0.088641633 151:-0.68762191 152:-0.32536635 153:-0.10145813 154:-0.53761409 155:-0.66570917 156:-0.58020701 157:-0.61700371 158:-0.26904102 159:-0.55117149 160:-0.7195249 161:-0.73059368 162:-0.52203957 163:-0.44104774 164:-0.52551716 165:-0.53245802 166:-0.24863221 167:-0.57214866 168:-0.64199935 169:-0.25549893 170:-0.059555469 171:-0.80688598 172:-0.26864168 173:-0.26332914 174:0.10583424 175:-0.38104089 176:-0.083666797 177:-0.46259774 178:-0.71191338 179:-0.51297485 180:-0.93779029 181:-0.2459202 182:-0.42936372 183:-0.73520223 184:-0.74337496 
26.374867313460793 1:-0.31442097 2:-0.31021305 3:-0.54380019 4:-0.48837052 5:-0.44396058 6:-0.40833501 7:-0.39817446 8:-0.39461908 9:-0.40401371 10:-0.37262706 11:-0.4841235 12:-0.40974582 13:-0.19633622 14:-0.26492821 15:-0.45196008 16:-0.40002152 17:-0.35926362 18:-0.0039905341 19:-0.47218863 20:-0.31540308 21:-0.4178374 22:-0.59033754 23:-0.55727996 24:-0.57861298 25:-0.37061034 26:-0.17941555 27:-0.62961004 28:-0.58555016 29:-0.15730439 30:-0.08327801 31:-0.085640298 32:-0.41249581 33:-0.32075091 34:-0.024831497 35:-0.49292591 36:-0.14026574 37:-0.10945454 38:-0.51971663 39:-0.69784158 40:-0.57909506 41:-0.46913327 42:-0.10147211 43:-0.47710558 44:-0.44802852 45:-0.25602469 46:-0.52021749 47:-0.63809628 48:-0.18303362 49:-0.16125355 50:0.23868879 51:-0.12348771 52:0.048549388 53:-0.46852134 54:-0.58016985 55:-0.58081875 56:-0.018563179 57:-0.36348784 58:0.088641633 59:-0.68762191 60:-0.32536635 61:-0.10145813 62:-0.53761409 63:-0.66570917 64:-0.58020701 65:-0.61700371 66:-0.26904102 67:-0.55117149 68:-0.7195249 69:-0.73059368 70:-0.52203957 71:-0.44104774 72:-0.52551716 73:-0.53245802 74:-0.24863221 75:-0.57214866 76:-0.64199935 77:-0.25549893 78:-0.059555469 79:-0.80688598 80:-0.26864168 81:-0.26332914 82:0.10583424 83:-0.38104089 84:-0.083666797 85:-0.46259774 86:-0.71191338 87:-0.51297485 88:-0.93779029 89:-0.2459202 90:-0.42936372 91:-0.73520223 92:-0.74337496 93:-0.75139226 94:-0.65945172 95:-0.57111009 96:-0.75043839 97:-0.72597563 98:-0.68472673 99:-0.67577796 100:-0.70584365 101:-0.65400985 102:-0.67789077 103:-0.73038467 104:-0.72118093 105:-0.85006565 106:-0.64711505 107:-0.69979989 108:-0.63767655 109:-0.5845585 110:-0.84096939 111:-0.51447496 112:-0.68837384 113:-0.62603587 114:-0.50781322 115:-0.38524374 116:-0.78399603 117:-0.75935964 118:-0.67925479 119:-0.60063257 120:-0.82005146 121:-1.0033361 122:-0.79478893 123:-0.66605393 124:-0.61929079 125:-0.43325448 126:-0.80392171 127:-0.78674984 128:-0.52457711 129:-0.72791536 130:-0.59832311 131:-0.45166076 132:-0.91233785 133:-0.68187823 134:-0.55809658 135:-0.56027988 136:-0.66083331 137:-0.6069627 138:-0.5952355 139:-0.54573974 140:-0.43417518 141:-0.82203958 142:-0.98061567 143:-0.42000465 144:-0.81605312 145:-0.30885975 146:-0.69228442 147:-0.28789805 148:-0.5782223 149:-0.84454558 150:-0.53070286 151:-0.4131492 152:-0.65927803 153:-0.73268326 154:-0.10207409 155:-0.53807454 156:-0.66115799 157:-0.5099783 158:-0.59588501 159:-0.32089679 160:-0.58570676 161:-0.47486813 162:-0.41691134 163:-0.11684113 164:-0.68405798 165:-0.53245802 166:-0.7972184 167:-0.57214866 168:-1.0277625 169:-0.70919174 170:-0.67757592 171:-0.86367191 172:-0.67645715 173:-0.53379082 174:-0.83534491 175:-0.51607507 176:-0.77531612 177:-0.65853515 178:-0.10700949 179:-0.65679128 180:-0.7751851 181:-0.75465691 182:-0.81875961 183:-0.65223656 184:-0.88266258 
11.503227570340325 1:-0.5478342 2:-0.56166489 3:-0.42675775 4:-0.49160593 5:-0.51516987 6:-0.50189591 7:-0.48245552 8:-0.54243406 9:-0.49119381 10:-0.60525081 11:-0.50671617 12:-0.48867989 13:-0.57272589 14:-0.6107163 15:-0.43891588 16:-0.51884904 17:-0.65496314 18:-0.60183257 19:-0.47218863 20:-0.45102881 21:-0.4308498 22:-0.3977808 23:-0.32789833 24:-0.55579264 25:-0.46131851 26:-0.65926122 27:-0.44125649 28:-0.44317437 29:-0.65865652 30:-0.51809024 31:-0.334389 32:-0.58974865 33:-0.65826162 34:-0.64810367 35:-0.49292591 36:-0.52457711 37:-0.25497473 38:-0.44111014 39:-0.32857035 40:-0.82902715 41:-0.68187823 42:-0.60883264 43:-0.39393128 44:-0.41762783 45:-0.6069627 46:-0.67025351 47:-0.54573974 48:-0.68531675 49:-0.75596098 50:-0.41785977 51:-0.42000465 52:-0.55667237 53:-0.54835213 54:-0.24382613 55:-0.48317852 56:-0.69015412 57:-0.47038956 58:-0.53070286 59:-0.4131492 60:-0.36710531 61:-0.56657138 62:-0.31984409 63:-0.4104399 64:-0.25640308 65:-0.5099783 66:-0.43246301 67:-0.41300667 68:-0.22885839 69:-0.41093674 70:-0.3117831 71:-0.31947026 72:-0.20843551 73:-0.53245802 74:-0.7972184 75:-0.1391135 76:-0.83488093 77:-0.2230923 78:-0.88358274 79:-0.52295634 80:-0.49520583 81:-0.62394471 82:-0.83534491 83:-0.51607507 84:-0.56782132 85:-0.50178522 86:-0.56068741 87:-0.225342 88:-0.44997473 89:-0.27584589 90:-0.68896098 91:-0.65223656 92:-0.34541035 93:0.13612086 94:0.12749942 95:0.21307423 96:-0.064532365 97:0.1751804 98:0.14643299 99:0.050182926 100:0.0052382877 101:0.15867106 102:-0.026340481 103:0.10035553 104:0.07490687 105:0.25929338 106:0.0080623974 107:0.21329415 108:-0.065143974 109:0.03500241 110:0.25905996 111:0.22553578 112:0.057567681 113:0.18073319 114:0.083611058 115:0.30290116 116:0.31138024 117:-0.059610893 118:0.20046228 119:0.080337945 120:-0.25892335 121:0.359715 122:0.1538923 123:0.46713459 124:-0.14661655 125:-0.15199556 126:0.52053165 127:0.02126596 128:-0.29399029 129:0.29072599 130:0.18774172 131:0.34842691 132:-0.16254157 133:-0.30957455 134:0.15220816 135:-0.061234083 136:-0.052819625 137:-0.02206601 138:-0.070109424 139:0.47018221 140:-0.057462843 141:-0.16125355 142:0.33248144 143:0.7660631 144:0.39439039 145:0.2499558 146:-0.24382613 147:0.88378475 148:0.31723229 149:0.22447161 150:0.2655972 151:0.68474165 152:-0.36710531 153:0.1310985 154:0.0068109136 155:0.2915506 156:0.22930282 157:0.02514877 158:0.057802964 159:0.23176248 160:-0.0058281563 161:-0.027348426 162:0.31898633 163:0.28841714 164:0.66353901 165:-0.19696805 166:0.66567812 167:0.35578383 168:0.38670244 169:0.42504028 170:-0.26556229 171:-0.57974227 172:-0.22332885 173:0.32267117 174:-0.011813154 175:0.024061646 176:0.19299293 177:0.12521449 178:-0.031396503 179:-0.033586758 180:0.28174862 181:-0.036440376 182:0.024931486 183:-0.15444249 184:-0.52449443 
11.512412240846579 1:0.13612086 2:0.12749942 3:0.21307423 4:-0.064532365 5:0.1751804 6:0.14643299 7:0.050182926 8:0.0052382877 9:0.15867106 10:-0.026340481 11:0.10035553 12:0.07490687 13:0.25929338 14:0.0080623974 15:0.21329415 16:-0.065143974 17:0.03500241 18:0.25905996 19:0.22553578 20:0.057567681 21:0.18073319 22:0.083611058 23:0.30290116 24:0.31138024 25:-0.059610893 26:0.20046228 27:0.080337945 28:-0.25892335 29:0.359715 30:0.1538923 31:0.46713459 32:-0.14661655 33:-0.15199556 34:0.52053165 35:0.02126596 36:-0.29399029 37:0.29072599 38:0.18774172 39:0.34842691 40:-0.16254157 41:-0.30957455 42:0.15220816 43:-0.061234083 44:-0.052819625 45:-0.02206601 46:-0.070109424 47:0.47018221 48:-0.057462843 49:-0.16125355 50:0.33248144 51:0.7660631 52:0.39439039 53:0.2499558 54:-0.24382613 55:0.88378475 56:0.31723229 57:0.22447161 58:0.2655972 59:0.68474165 60:-0.36710531 61:0.1310985 62:0.0068109136 63:0.2915506 64:0.22930282 65:0.02514877 66:0.057802964 67:0.23176248 68:-0.0058281563 69:-0.027348426 70:0.31898633 71:0.28841714 72:0.66353901 73:-0.19696805 74:0.66567812 75:0.35578383 76:0.38670244 77:0.42504028 78:-0.26556229 79:-0.57974227 80:-0.22332885 81:0.32267117 82:-0.011813154 83:0.024061646 84:0.19299293 85:0.12521449 86:-0.031396503 87:-0.033586758 88:0.28174862 89:-0.036440376 90:0.024931486 91:-0.15444249 92:-0.52449443 93:-0.5478342 94:-0.56166489 95:-0.42675775 96:-0.49160593 97:-0.51516987 98:-0.50189591 99:-0.48245552 100:-0.54243406 101:-0.49119381 102:-0.60525081 103:-0.50671617 104:-0.48867989 105:-0.57272589 106:-0.6107163 107:-0.43891588 108:-0.51884904 109:-0.65496314 110:-0.60183257 111:-0.47218863 112:-0.45102881 113:-0.4308498 114:-0.3977808 115:-0.32789833 116:-0.55579264 117:-0.46131851 118:-0.65926122 119:-0.44125649 120:-0.44317437 121:-0.65865652 122:-0.51809024 123:-0.334389 124:-0.58974865 125:-0.65826162 126:-0.64810367 127:-0.49292591 128:-0.52457711 129:-0.25497473 130:-0.44111014 131:-0.32857035 132:-0.82902715 133:-0.68187823 134:-0.60883264 135:-0.39393128 136:-0.41762783 137:-0.6069627 138:-0.67025351 139:-0.54573974 140:-0.68531675 141:-0.75596098 142:-0.41785977 143:-0.42000465 144:-0.55667237 145:-0.54835213 146:-0.24382613 147:-0.48317852 148:-0.69015412 149:-0.47038956 150:-0.53070286 151:-0.4131492 152:-0.36710531 153:-0.56657138 154:-0.31984409 155:-0.4104399 156:-0.25640308 157:-0.5099783 158:-0.43246301 159:-0.41300667 160:-0.22885839 161:-0.41093674 162:-0.3117831 163:-0.31947026 164:-0.20843551 165:-0.53245802 166:-0.7972184 167:-0.1391135 168:-0.83488093 169:-0.2230923 170:-0.88358274 171:-0.52295634 172:-0.49520583 173:-0.62394471 174:-0.83534491 175:-0.51607507 176:-0.56782132 177:-0.50178522 178:-0.56068741 179:-0.225342 180:-0.44997473 181:-0.27584589 182:-0.68896098 183:-0.65223656 184:-0.34541035 
20.624949839504527 1:0.3315366 2:0.38360778 3:0.61491992 4:0.035765214 5:0.30309798 6:0.28814208 7:0.35398513 8:0.36257931 9:0.28026101 10:0.36672824 11:0.38457575 12:0.30727318 13:0.39135993 14:0.26285363 15:0.44808976 16:0.15090606 17:0.34478286 18:0.23514628 19:0.77525805 20:0.19319341 21:0.55809291 22:0.71629749 23:0.57529185 24:0.51676329 25:-0.059610893 26:0.120488 27:0.67437605 28:-0.30917363 29:0.3910495 30:0.19342068 31:0.90935449 32:-0.11707441 33:0.18551514 34:0.59844068 35:0.31508989 36:-0.063403468 37:0.54538633 38:0.22704496 39:0.34842691 40:0.67056541 41:-0.36276079 42:0.20294421 43:0.81209606 44:-0.083220309 45:0.21189267 46:0.22996262 47:-0.083957037 48:0.9471034 49:0.30129668 50:0.051103485 51:1.359097 52:-0.38375187 53:0.48944818 54:0.59703317 55:1.5672664 56:0.42916412 57:0.17102075 58:0.8849417 59:1.3709234 60:-0.49232219 61:0.76232363 62:1.3134309 63:0.22773328 64:0.18882733 65:0.72081396 66:0.13951396 67:0.78442175 68:0.88629278 69:-0.027348426 70:1.6330893 71:0.045262179 72:0.66353901 73:0.69767187 74:-0.065770142 75:0.97440549 76:0.065233134 77:0.13338062 78:-0.57457252 79:-0.06866891 80:-0.087390361 81:0.14236339 82:-0.011813154 83:0.83426672 84:-0.22199666 85:0.86977664 86:0.34666843 87:0.82931181 88:0.20044602 89:-0.21599451 90:-0.49426303 91:0.052971708 92:-0.46479974 93:0.19583123 94:0.29047747 95:0.037510575 96:0.071354677 97:0.14435025 98:0.092974731 99:0.16365926 100:0.17468902 101:0.1393778 102:0.20510353 103:0.12503837 104:0.13346484 105:0.16024347 106:0.37204987 107:0.095896347 108:0.21572107 109:0.41518751 110:0.35471469 111:0.16210629 112:0.1762402 113:0.076633957 114:0.34493806 115:-0.14152575 116:-0.25912824 117:0.16068038 118:0.040513719 119:0.065849211 120:0.02582823 121:-0.016299102 122:-0.0042212411 123:0.19074714 124:0.53285267 125:0.24176693 126:0.83216774 127:0.094721942 128:0.3209079 129:-0.10945454 130:0.34495468 131:-0.082389528 132:0.25401192 133:0.64777775 134:0.10147211 135:0.14670167 136:0.068783111 137:0.70905486 138:0.30498063 139:0.37782567 140:-0.18303362 141:1.0281613 142:-0.042689165 143:0.61780463 144:-0.38375187 145:0.64910976 146:0.31674674 147:0.0050226457 148:-0.69015412 149:0.17102075 150:0.53103056 151:-0.4131492 152:0.17550116 153:-0.0017910005 154:0.66012092 155:-0.21898795 156:0.14835184 157:0.45325042 158:0.30293595 159:0.093597662 160:0.48483836 161:-0.027348426 162:0.10872985 163:-0.11684113 164:-0.68405798 165:-0.53245802 166:-0.065770142 167:-0.015389169 168:-0.3848239 169:0.03616073 170:1.073482 171:-0.011882981 172:0.048548129 173:0.052209493 174:0.10583424 175:0.024061646 176:-0.014501865 177:0.046839523 178:0.64912037 179:-0.2732808 180:0.037840837 181:0.053336691 182:-0.3644644 183:0.17742022 184:0.052554257 
20.625862759571085 1:0.19583123 2:0.29047747 3:0.037510575 4:0.071354677 5:0.14435025 6:0.092974731 7:0.16365926 8:0.17468902 9:0.1393778 10:0.20510353 11:0.12503837 12:0.13346484 13:0.16024347 14:0.37204987 15:0.095896347 16:0.21572107 17:0.41518751 18:0.35471469 19:0.16210629 20:0.1762402 21:0.076633957 22:0.34493806 23:-0.14152575 24:-0.25912824 25:0.16068038 26:0.040513719 27:0.065849211 28:0.02582823 29:-0.016299102 30:-0.0042212411 31:0.19074714 32:0.53285267 33:0.24176693 34:0.83216774 35:0.094721942 36:0.3209079 37:-0.10945454 38:0.34495468 39:-0.082389528 40:0.25401192 41:0.64777775 42:0.10147211 43:0.14670167 44:0.068783111 45:0.70905486 46:0.30498063 47:0.37782567 48:-0.18303362 49:1.0281613 50:-0.042689165 51:0.61780463 52:-0.38375187 53:0.64910976 54:0.31674674 55:0.0050226457 56:-0.69015412 57:0.17102075 58:0.53103056 59:-0.4131492 60:0.17550116 61:-0.0017910005 62:0.66012092 63:-0.21898795 64:0.14835184 65:0.45325042 66:0.30293595 67:0.093597662 68:0.48483836 69:-0.027348426 70:0.10872985 71:-0.11684113 72:-0.68405798 73:-0.53245802 74:-0.065770142 75:-0.015389169 76:-0.3848239 77:0.03616073 78:1.073482 79:-0.011882981 80:0.048548129 81:0.052209493 82:0.10583424 83:0.024061646 84:-0.014501865 85:0.046839523 86:0.64912037 87:-0.2732808 88:0.037840837 89:0.053336691 90:-0.3644644 91:0.17742022 92:0.052554257 93:0.3315366 94:0.38360778 95:0.61491992 96:0.035765214 97:0.30309798 98:0.28814208 99:0.35398513 100:0.36257931 101:0.28026101 102:0.36672824 103:0.38457575 104:0.30727318 105:0.39135993 106:0.26285363 107:0.44808976 108:0.15090606 109:0.34478286 110:0.23514628 111:0.77525805 112:0.19319341 113:0.55809291 114:0.71629749 115:0.57529185 116:0.51676329 117:-0.059610893 118:0.120488 119:0.67437605 120:-0.30917363 121:0.3910495 122:0.19342068 123:0.90935449 124:-0.11707441 125:0.18551514 126:0.59844068 127:0.31508989 128:-0.063403468 129:0.54538633 130:0.22704496 131:0.34842691 132:0.67056541 133:-0.36276079 134:0.20294421 135:0.81209606 136:-0.083220309 137:0.21189267 138:0.22996262 139:-0.083957037 140:0.9471034 141:0.30129668 142:0.051103485 143:1.359097 144:-0.38375187 145:0.48944818 146:0.59703317 147:1.5672664 148:0.42916412 149:0.17102075 150:0.8849417 151:1.3709234 152:-0.49232219 153:0.76232363 154:1.3134309 155:0.22773328 156:0.18882733 157:0.72081396 158:0.13951396 159:0.78442175 160:0.88629278 161:-0.027348426 162:1.6330893 163:0.045262179 164:0.66353901 165:0.69767187 166:-0.065770142 167:0.97440549 168:0.065233134 169:0.13338062 170:-0.57457252 171:-0.06866891 172:-0.087390361 173:0.14236339 174:-0.011813154 175:0.83426672 176:-0.22199666 177:0.86977664 178:0.34666843 179:0.82931181 180:0.20044602 181:-0.21599451 182:-0.49426303 183:0.052971708 184:-0.46479974 
2.4118357367734706 1:0.3315366 2:0.38360778 3:0.61491992 4:0.035765214 5:0.30309798 6:0.28814208 7:0.35398513 8:0.36257931 9:0.28026101 10:0.36672824 11:0.38457575 12:0.30727318 13:0.39135993 14:0.26285363 15:0.44808976 16:0.15090606 17:0.34478286 18:0.23514628 19:0.77525805 20:0.19319341 21:0.55809291 22:0.71629749 23:0.57529185 24:0.51676329 25:-0.059610893 26:0.120488 27:0.67437605 28:-0.30917363 29:0.3910495 30:0.19342068 31:0.90935449 32:-0.11707441 33:0.18551514 34:0.59844068 35:0.31508989 36:-0.063403468 37:0.54538633 38:0.22704496 39:0.34842691 40:0.67056541 41:-0.36276079 42:0.20294421 43:0.81209606 44:-0.083220309 45:0.21189267 46:0.22996262 47:-0.083957037 48:0.9471034 49:0.30129668 50:0.051103485 51:1.359097 52:-0.38375187 53:0.48944818 54:0.59703317 55:1.5672664 56:0.42916412 57:0.17102075 58:0.8849417 59:1.3709234 60:-0.49232219 61:0.76232363 62:1.3134309 63:0.22773328 64:0.18882733 65:0.72081396 66:0.13951396 67:0.78442175 68:0.88629278 69:-0.027348426 70:1.6330893 71:0.045262179 72:0.66353901 73:0.69767187 74:-0.065770142 75:0.97440549 76:0.065233134 77:0.13338062 78:-0.57457252 79:-0.06866891 80:-0.087390361 81:0.14236339 82:-0.011813154 83:0.83426672 84:-0.22199666 85:0.86977664 86:0.34666843 87:0.82931181 88:0.20044602 89:-0.21599451 90:-0.49426303 91:0.052971708 92:-0.46479974 93:1.0833443 94:1.3009414 95:1.5200481 96:1.3428691 97:1.1400201 98:1.4325243 99:1.3283542 100:1.3653399 101:1.3178568 102:1.3958926 103:1.1385051 104:1.3230725 105:0.89321282 106:1.2274204 107:1.0220346 108:1.2743662 109:0.96434377 110:1.4786577 111:1.2192645 112:1.5494507 113:1.2607627 114:1.0601488 115:2.1666269 116:1.4752175 117:1.2750951 118:1.4600572 119:1.4857452 120:1.1815846 121:0.89240163 122:0.9049316 123:0.71588328 124:0.85781621 125:0.80428477 126:2.0008031 127:1.0496497 128:1.0126684 129:0.61814643 130:0.62007737 131:2.3178735 132:0.67056541 133:1.0200814 134:0.91324896 135:2.0181234 136:0.98080363 137:0.8260342 138:0.8301067 139:1.2090345 140:1.0098888 141:1.4907115 142:1.1766153 143:1.6556139 144:1.3454532 145:1.0482637 146:0.87731961 147:1.7625468 148:1.2126869 149:1.1331362 150:1.4158084 151:1.3709234 152:1.8450595 153:0.92843551 154:1.5312009 155:1.3126277 156:1.4030921 157:0.61378854 158:0.46635794 159:1.0146965 160:1.6892016 161:1.8905932 162:1.7382175 163:2.5578634 164:2.011136 165:1.9278018 166:1.7628505 167:0.91254333 168:1.4796981 169:0.71669994 170:2.0005127 171:1.0670497 172:1.7251228 173:0.90867149 174:2.1058399 175:1.3744034 176:1.7146214 177:1.4575889 178:0.95157232 179:1.5483939 180:1.6638927 181:1.2204386 182:1.9070116 183:1.2144912 184:0.82858525 
2.4091978892697958 1:1.0833443 2:1.3009414 3:1.5200481 4:1.3428691 5:1.1400201 6:1.4325243 7:1.3283542 8:1.3653399 9:1.3178568 10:1.3958926 11:1.1385051 12:1.3230725 13:0.89321282 14:1.2274204 15:1.0220346 16:1.2743662 17:0.96434377 18:1.4786577 19:1.2192645 20:1.5494507 21:1.2607627 22:1.0601488 23:2.1666269 24:1.4752175 25:1.2750951 26:1.4600572 27:1.4857452 28:1.1815846 29:0.89240163 30:0.9049316 31:0.71588328 32:0.85781621 33:0.80428477 34:2.0008031 35:1.0496497 36:1.0126684 37:0.61814643 38:0.62007737 39:2.3178735 40:0.67056541 41:1.0200814 42:0.91324896 43:2.0181234 44:0.98080363 45:0.8260342 46:0.8301067 47:1.2090345 48:1.0098888 49:1.4907115 50:1.1766153 51:1.6556139 52:1.3454532 53:1.0482637 54:0.87731961 55:1.7625468 56:1.2126869 57:1.1331362 58:1.4158084 59:1.3709234 60:1.8450595 61:0.92843551 62:1.5312009 63:1.3126277 64:1.4030921 65:0.61378854 66:0.46635794 67:1.0146965 68:1.6892016 69:1.8905932 70:1.7382175 71:2.5578634 72:2.011136 73:1.9278018 74:1.7628505 75:0.91254333 76:1.4796981 77:0.71669994 78:2.0005127 79:1.0670497 80:1.7251228 81:0.90867149 82:2.1058399 83:1.3744034 84:1.7146214 85:1.4575889 86:0.95157232 87:1.5483939 88:1.6638927 89:1.2204386 90:1.9070116 91:1.2144912 92:0.82858525 93:0.3315366 94:0.38360778 95:0.61491992 96:0.035765214 97:0.30309798 98:0.28814208 99:0.35398513 100:0.36257931 101:0.28026101 102:0.36672824 103:0.38457575 104:0.30727318 105:0.39135993 106:0.26285363 107:0.44808976 108:0.15090606 109:0.34478286 110:0.23514628 111:0.77525805 112:0.19319341 113:0.55809291 114:0.71629749 115:0.57529185 116:0.51676329 117:-0.059610893 118:0.120488 119:0.67437605 120:-0.30917363 121:0.3910495 122:0.19342068 123:0.90935449 124:-0.11707441 125:0.18551514 126:0.59844068 127:0.31508989 128:-0.063403468 129:0.54538633 130:0.22704496 131:0.34842691 132:0.67056541 133:-0.36276079 134:0.20294421 135:0.81209606 136:-0.083220309 137:0.21189267 138:0.22996262 139:-0.083957037 140:0.9471034 141:0.30129668 142:0.051103485 143:1.359097 144:-0.38375187 145:0.48944818 146:0.59703317 147:1.5672664 148:0.42916412 149:0.17102075 150:0.8849417 151:1.3709234 152:-0.49232219 153:0.76232363 154:1.3134309 155:0.22773328 156:0.18882733 157:0.72081396 158:0.13951396 159:0.78442175 160:0.88629278 161:-0.027348426 162:1.6330893 163:0.045262179 164:0.66353901 165:0.69767187 166:-0.065770142 167:0.97440549 168:0.065233134 169:0.13338062 170:-0.57457252 171:-0.06866891 172:-0.087390361 173:0.14236339 174:-0.011813154 175:0.83426672 176:-0.22199666 177:0.86977664 178:0.34666843 179:0.82931181 180:0.20044602 181:-0.21599451 182:-0.49426303 183:0.052971708 184:-0.46479974 
7.4252913677621466 1:0.3315366 2:0.38360778 3:0.61491992 4:0.035765214 5:0.30309798 6:0.28814208 7:0.35398513 8:0.36257931 9:0.28026101 10:0.36672824 11:0.38457575 12:0.30727318 13:0.39135993 14:0.26285363 15:0.44808976 16:0.15090606 17:0.34478286 18:0.23514628 19:0.77525805 20:0.19319341 21:0.55809291 22:0.71629749 23:0.57529185 24:0.51676329 25:-0.059610893 26:0.120488 27:0.67437605 28:-0.30917363 29:0.3910495 30:0.19342068 31:0.90935449 32:-0.11707441 33:0.18551514 34:0.59844068 35:0.31508989 36:-0.063403468 37:0.54538633 38:0.22704496 39:0.34842691 40:0.67056541 41:-0.36276079 42:0.20294421 43:0.81209606 44:-0.083220309 45:0.21189267 46:0.22996262 47:-0.083957037 48:0.9471034 49:0.30129668 50:0.051103485 51:1.359097 52:-0.38375187 53:0.48944818 54:0.59703317 55:1.5672664 56:0.42916412 57:0.17102075 58:0.8849417 59:1.3709234 60:-0.49232219 61:0.76232363 62:1.3134309 63:0.22773328 64:0.18882733 65:0.72081396 66:0.13951396 67:0.78442175 68:0.88629278 69:-0.027348426 70:1.6330893 71:0.045262179 72:0.66353901 73:0.69767187 74:-0.065770142 75:0.97440549 76:0.065233134 77:0.13338062 78:-0.57457252 79:-0.06866891 80:-0.087390361 81:0.14236339 82:-0.011813154 83:0.83426672 84:-0.22199666 85:0.86977664 86:0.34666843 87:0.82931181 88:0.20044602 89:-0.21599451 90:-0.49426303 91:0.052971708 92:-0.46479974 93:-0.14614631 94:0.2113167 95:-0.2511941 96:-0.061296959 97:-0.088517609 98:-0.11585218 99:-0.042608424 100:-0.069942413 101:-0.082017668 102:-0.054933148 103:-0.10272643 104:-0.07517772 105:-0.18973289 106:0.062660518 107:-0.25629707 108:-0.097551479 109:-0.20437339 110:0.856902 111:0.077533635 112:0.34577236 113:-0.26168855 114:0.12487322 115:-0.34223468 116:-0.66989434 117:0.12180545 118:-0.059454129 119:-0.35432409 120:-0.0076719561 121:-0.23564066 122:0.27247745 123:-0.30675025 124:-0.26478511 125:0.016759791 126:0.52053165 127:0.094721942 128:-0.37085256 129:-0.10945454 130:-0.087380972 131:-0.32857035 132:-0.74571646 133:-0.20320208 134:0.15220816 135:-0.39393128 136:0.038382427 137:-0.13904535 138:-0.22014544 139:-0.26867012 140:-0.24581901 141:-0.095174944 142:1.7393712 143:0.024770756 144:1.6048339 145:-0.14919817 146:0.54097589 147:-0.092617588 148:-0.35435865 149:0.59862763 150:-0.17679172 151:0.68474165 152:0.25897908 153:-0.46690425 154:-0.42872909 155:-0.4104399 156:0.14835184 157:-0.563491 158:0.71149093 159:0.18570754 160:0.30641417 161:-0.28307397 162:0.16129397 163:-0.56262522 164:-0.68405798 165:-0.53245802 166:-0.43149427 167:-0.81959733 168:-0.57770548 169:0.16578725 170:0.35245817 171:0.044902947 172:0.0032352988 173:-0.1280983 174:0.22348163 175:-0.24600671 176:-0.014501865 177:-0.42341026 178:-0.10700949 179:-0.17740319 180:-0.69388251 181:0.20296514 182:-0.10486714 183:-0.278891 184:0.012757796 
7.4180623195390725 1:-0.14614631 2:0.2113167 3:-0.2511941 4:-0.061296959 5:-0.088517609 6:-0.11585218 7:-0.042608424 8:-0.069942413 9:-0.082017668 10:-0.054933148 11:-0.10272643 12:-0.07517772 13:-0.18973289 14:0.062660518 15:-0.25629707 16:-0.097551479 17:-0.20437339 18:0.856902 19:0.077533635 20:0.34577236 21:-0.26168855 22:0.12487322 23:-0.34223468 24:-0.66989434 25:0.12180545 26:-0.059454129 27:-0.35432409 28:-0.0076719561 29:-0.23564066 30:0.27247745 31:-0.30675025 32:-0.26478511 33:0.016759791 34:0.52053165 35:0.094721942 36:-0.37085256 37:-0.10945454 38:-0.087380972 39:-0.32857035 40:-0.74571646 41:-0.20320208 42:0.15220816 43:-0.39393128 44:0.038382427 45:-0.13904535 46:-0.22014544 47:-0.26867012 48:-0.24581901 49:-0.095174944 50:1.7393712 51:0.024770756 52:1.6048339 53:-0.14919817 54:0.54097589 55:-0.092617588 56:-0.35435865 57:0.59862763 58:-0.17679172 59:0.68474165 60:0.25897908 61:-0.46690425 62:-0.42872909 63:-0.4104399 64:0.14835184 65:-0.563491 66:0.71149093 67:0.18570754 68:0.30641417 69:-0.28307397 70:0.16129397 71:-0.56262522 72:-0.68405798 73:-0.53245802 74:-0.43149427 75:-0.81959733 76:-0.57770548 77:0.16578725 78:0.35245817 79:0.044902947 80:0.0032352988 81:-0.1280983 82:0.22348163 83:-0.24600671 84:-0.014501865 85:-0.42341026 86:-0.10700949 87:-0.17740319 88:-0.69388251 89:0.20296514 90:-0.10486714 91:-0.278891 92:0.012757796 93:0.3315366 94:0.38360778 95:0.61491992 96:0.035765214 97:0.30309798 98:0.28814208 99:0.35398513 100:0.36257931 101:0.28026101 102:0.36672824 103:0.38457575 104:0.30727318 105:0.39135993 106:0.26285363 107:0.44808976 108:0.15090606 109:0.34478286 110:0.23514628 111:0.77525805 112:0.19319341 113:0.55809291 114:0.71629749 115:0.57529185 116:0.51676329 117:-0.059610893 118:0.120488 119:0.67437605 120:-0.30917363 121:0.3910495 122:0.19342068 123:0.90935449 124:-0.11707441 125:0.18551514 126:0.59844068 127:0.31508989 128:-0.063403468 129:0.54538633 130:0.22704496 131:0.34842691 132:0.67056541 133:-0.36276079 134:0.20294421 135:0.81209606 136:-0.083220309 137:0.21189267 138:0.22996262 139:-0.083957037 140:0.9471034 141:0.30129668 142:0.051103485 143:1.359097 144:-0.38375187 145:0.48944818 146:0.59703317 147:1.5672664 148:0.42916412 149:0.17102075 150:0.8849417 151:1.3709234 152:-0.49232219 153:0.76232363 154:1.3134309 155:0.22773328 156:0.18882733 157:0.72081396 158:0.13951396 159:0.78442175 160:0.88629278 161:-0.027348426 162:1.6330893 163:0.045262179 164:0.66353901 165:0.69767187 166:-0.065770142 167:0.97440549 168:0.065233134 169:0.13338062 170:-0.57457252 171:-0.06866891 172:-0.087390361 173:0.14236339 174:-0.011813154 175:0.83426672 176:-0.22199666 177:0.86977664 178:0.34666843 179:0.82931181 180:0.20044602 181:-0.21599451 182:-0.49426303 183:0.052971708 184:-0.46479974 
2.3883511151034713 1:0.3315366 2:0.38360778 3:0.61491992 4:0.035765214 5:0.30309798 6:0.28814208 7:0.35398513 8:0.36257931 9:0.28026101 10:0.36672824 11:0.38457575 12:0.30727318 13:0.39135993 14:0.26285363 15:0.44808976 16:0.15090606 17:0.34478286 18:0.23514628 19:0.77525805 20:0.19319341 21:0.55809291 22:0.71629749 23:0.57529185 24:0.51676329 25:-0.059610893 26:0.120488 27:0.67437605 28:-0.30917363 29:0.3910495 30:0.19342068 31:0.90935449 32:-0.11707441 33:0.18551514 34:0.59844068 35:0.31508989 36:-0.063403468 37:0.54538633 38:0.22704496 39:0.34842691 40:0.67056541 41:-0.36276079 42:0.20294421 43:0.81209606 44:-0.083220309 45:0.21189267 46:0.22996262 47:-0.083957037 48:0.9471034 49:0.30129668 50:0.051103485 51:1.359097 52:-0.38375187 53:0.48944818 54:0.59703317 55:1.5672664 56:0.42916412 57:0.17102075 58:0.8849417 59:1.3709234 60:-0.49232219 61:0.76232363 62:1.3134309 63:0.22773328 64:0.18882733 65:0.72081396 66:0.13951396 67:0.78442175 68:0.88629278 69:-0.027348426 70:1.6330893 71:0.045262179 72:0.66353901 73:0.69767187 74:-0.065770142 75:0.97440549 76:0.065233134 77:0.13338062 78:-0.57457252 79:-0.06866891 80:-0.087390361 81:0.14236339 82:-0.011813154 83:0.83426672 84:-0.22199666 85:0.86977664 86:0.34666843 87:0.82931181 88:0.20044602 89:-0.21599451 90:-0.49426303 91:0.052971708 92:-0.46479974 93:-0.12986166 94:-0.17051758 95:-0.3331238 96:-0.32983564 97:-0.19657398 98:-0.2616198 99:-0.25120488 100:-0.27553467 101:-0.28345203 102:-0.19591237 103:-0.28374089 104:-0.17207302 105:0.01497026 106:-0.24672883 107:0.030675344 108:-0.42162652 109:-0.021321309 110:-0.21921367 111:-0.45104546 112:-0.078058051 113:-0.27470095 114:-0.21897811 115:-0.44258915 116:-0.39605027 117:-0.35765203 118:0.040513719 119:-0.51370016 120:-0.34267381 121:0.062037168 122:-0.20186316 123:0.27366338 124:-0.17615869 125:-0.095743777 126:-0.33646758 127:-0.41946993 128:-0.14026574 129:0.21796589 130:0.030528752 131:-0.20547994 132:-0.079230874 133:-0.36276079 134:0.10147211 135:-0.47710558 136:-0.69123399 137:0.32887201 138:-0.22014544 139:0.19311259 140:-0.74810214 141:-0.02909634 142:-0.41785977 143:-0.42000465 144:-0.12437111 145:-0.54835213 146:-0.29988342 147:-0.58081875 148:-0.35435865 149:-0.25658612 150:0.35407499 151:-0.55038556 152:0.0085453219 153:-0.26757 154:-0.31984409 155:0.22773328 156:-0.58020701 157:0.078661477 158:-0.35075202 159:-0.55117149 160:-0.050434203 161:-0.41093674 162:-0.25921898 163:-0.44104774 164:-0.68405798 165:-0.42062803 166:-0.24863221 167:-0.5102865 168:-0.25623618 169:-0.15827904 170:-0.26556229 171:-0.75010006 172:-0.31395451 173:-0.037944401 174:0.45877642 175:-0.11097253 176:-0.014501865 177:-0.5409727 178:-0.48507442 179:-0.51297485 180:-0.36867213 181:-0.36562296 182:-0.16976646 183:-0.4863052 184:-0.28571566 
2.3670283826498717 1:-0.12986166 2:-0.17051758 3:-0.3331238 4:-0.32983564 5:-0.19657398 6:-0.2616198 7:-0.25120488 8:-0.27553467 9:-0.28345203 10:-0.19591237 11:-0.28374089 12:-0.17207302 13:0.01497026 14:-0.24672883 15:0.030675344 16:-0.42162652 17:-0.021321309 18:-0.21921367 19:-0.45104546 20:-0.078058051 21:-0.27470095 22:-0.21897811 23:-0.44258915 24:-0.39605027 25:-0.35765203 26:0.040513719 27:-0.51370016 28:-0.34267381 29:0.062037168 30:-0.20186316 31:0.27366338 32:-0.17615869 33:-0.095743777 34:-0.33646758 35:-0.41946993 36:-0.14026574 37:0.21796589 38:0.030528752 39:-0.20547994 40:-0.079230874 41:-0.36276079 42:0.10147211 43:-0.47710558 44:-0.69123399 45:0.32887201 46:-0.22014544 47:0.19311259 48:-0.74810214 49:-0.02909634 50:-0.41785977 51:-0.42000465 52:-0.12437111 53:-0.54835213 54:-0.29988342 55:-0.58081875 56:-0.35435865 57:-0.25658612 58:0.35407499 59:-0.55038556 60:0.0085453219 61:-0.26757 62:-0.31984409 63:0.22773328 64:-0.58020701 65:0.078661477 66:-0.35075202 67:-0.55117149 68:-0.050434203 69:-0.41093674 70:-0.25921898 71:-0.44104774 72:-0.68405798 73:-0.42062803 74:-0.24863221 75:-0.5102865 76:-0.25623618 77:-0.15827904 78:-0.26556229 79:-0.75010006 80:-0.31395451 81:-0.037944401 82:0.45877642 83:-0.11097253 84:-0.014501865 85:-0.5409727 86:-0.48507442 87:-0.51297485 88:-0.36867213 89:-0.36562296 90:-0.16976646 91:-0.4863052 92:-0.28571566 93:0.3315366 94:0.38360778 95:0.61491992 96:0.035765214 97:0.30309798 98:0.28814208 99:0.35398513 100:0.36257931 101:0.28026101 102:0.36672824 103:0.38457575 104:0.30727318 105:0.39135993 106:0.26285363 107:0.44808976 108:0.15090606 109:0.34478286 110:0.23514628 111:0.77525805 112:0.19319341 113:0.55809291 114:0.71629749 115:0.57529185 116:0.51676329 117:-0.059610893 118:0.120488 119:0.67437605 120:-0.30917363 121:0.3910495 122:0.19342068 123:0.90935449 124:-0.11707441 125:0.18551514 126:0.59844068 127:0.31508989 128:-0.063403468 129:0.54538633 130:0.22704496 131:0.34842691 132:0.67056541 133:-0.36276079 134:0.20294421 135:0.81209606 136:-0.083220309 137:0.21189267 138:0.22996262 139:-0.083957037 140:0.9471034 141:0.30129668 142:0.051103485 143:1.359097 144:-0.38375187 145:0.48944818 146:0.59703317 147:1.5672664 148:0.42916412 149:0.17102075 150:0.8849417 151:1.3709234 152:-0.49232219 153:0.76232363 154:1.3134309 155:0.22773328 156:0.18882733 157:0.72081396 158:0.13951396 159:0.78442175 160:0.88629278 161:-0.027348426 162:1.6330893 163:0.045262179 164:0.66353901 165:0.69767187 166:-0.065770142 167:0.97440549 168:0.065233134 169:0.13338062 170:-0.57457252 171:-0.06866891 172:-0.087390361 173:0.14236339 174:-0.011813154 175:0.83426672 176:-0.22199666 177:0.86977664 178:0.34666843 179:0.82931181 180:0.20044602 181:-0.21599451 182:-0.49426303 183:0.052971708 184:-0.46479974 
2.8937446057141063 1:0.3315366 2:0.38360778 3:0.61491992 4:0.035765214 5:0.30309798 6:0.28814208 7:0.35398513 8:0.36257931 9:0.28026101 10:0.36672824 11:0.38457575 12:0.30727318 13:0.39135993 14:0.26285363 15:0.44808976 16:0.15090606 17:0.34478286 18:0.23514628 19:0.77525805 20:0.19319341 21:0.55809291 22:0.71629749 23:0.57529185 24:0.51676329 25:-0.059610893 26:0.120488 27:0.67437605 28:-0.30917363 29:0.3910495 30:0.19342068 31:0.90935449 32:-0.11707441 33:0.18551514 34:0.59844068 35:0.31508989 36:-0.063403468 37:0.54538633 38:0.22704496 39:0.34842691 40:0.67056541 41:-0.36276079 42:0.20294421 43:0.81209606 44:-0.083220309 45:0.21189267 46:0.22996262 47:-0.083957037 48:0.9471034 49:0.30129668 50:0.051103485 51:1.359097 52:-0.38375187 53:0.48944818 54:0.59703317 55:1.5672664 56:0.42916412 57:0.17102075 58:0.8849417 59:1.3709234 60:-0.49232219 61:0.76232363 62:1.3134309 63:0.22773328 64:0.18882733 65:0.72081396 66:0.13951396 67:0.78442175 68:0.88629278 69:-0.027348426 70:1.6330893 71:0.045262179 72:0.66353901 73:0.69767187 74:-0.065770142 75:0.97440549 76:0.065233134 77:0.13338062 78:-0.57457252 79:-0.06866891 80:-0.087390361 81:0.14236339 82:-0.011813154 83:0.83426672 84:-0.22199666 85:0.86977664 86:0.34666843 87:0.82931181 88:0.20044602 89:-0.21599451 90:-0.49426303 91:0.052971708 92:-0.46479974 93:0.52695233 94:0.63505963 95:0.40034212 96:0.91256018 97:0.62692985 98:0.68392986 99:0.52453354 100:0.66463678 101:0.63124995 102:0.5441186 103:0.74263441 104:0.59861202 105:0.35834329 106:0.91803107 107:0.056763745 108:0.91788366 109:0.62640146 110:0.61776519 111:0.56382641 112:0.66788348 113:0.29784483 114:0.30367591 115:0.40325562 116:0.67650566 117:0.93817899 118:0.76028223 119:0.63090985 120:1.072709 121:0.10903893 122:0.82587483 123:-0.11327904 124:0.88735835 125:0.97304012 126:0.75425872 127:0.97619373 128:0.78208154 129:-0.00031439548 130:0.030528752 131:0.2868817 132:-0.079230874 133:0.86052271 134:0.81177685 135:0.60416031 136:1.1632077 137:0.76754453 138:0.53003466 139:0.37782567 140:0.44482028 141:0.36737528 142:0.61385939 143:0.17302922 144:1.0860724 145:0.170125 146:0.65309046 147:1.1767054 148:0.093368645 149:0.91933279 150:0.17711942 151:-0.0014401346 152:0.84332451 153:0.23076563 154:0.98677592 155:0.10009865 156:0.22930282 157:0.77432666 158:-0.10561903 159:0.27781742 160:0.12798998 161:0.61196544 162:0.10872985 163:0.36946879 164:0.5842686 165:0.80950186 166:1.5799884 167:0.417646 168:0.45099631 169:0.45744691 170:1.3824923 171:0.15847481 172:1.9063742 173:0.32267117 174:1.2823082 175:0.83426672 176:0.95380718 177:0.43871434 178:0.57350739 179:0.11022967 180:1.8264979 181:0.95110736 182:0.73882395 183:0.92411133 184:1.2464481 
2.9010806515651866 1:0.52695233 2:0.63505963 3:0.40034212 4:0.91256018 5:0.62692985 6:0.68392986 7:0.52453354 8:0.66463678 9:0.63124995 10:0.5441186 11:0.74263441 12:0.59861202 13:0.35834329 14:0.91803107 15:0.056763745 16:0.91788366 17:0.62640146 18:0.61776519 19:0.56382641 20:0.66788348 21:0.29784483 22:0.30367591 23:0.40325562 24:0.67650566 25:0.93817899 26:0.76028223 27:0.63090985 28:1.072709 29:0.10903893 30:0.82587483 31:-0.11327904 32:0.88735835 33:0.97304012 34:0.75425872 35:0.97619373 36:0.78208154 37:-0.00031439548 38:0.030528752 39:0.2868817 40:-0.079230874 41:0.86052271 42:0.81177685 43:0.60416031 44:1.1632077 45:0.76754453 46:0.53003466 47:0.37782567 48:0.44482028 49:0.36737528 50:0.61385939 51:0.17302922 52:1.0860724 53:0.170125 54:0.65309046 55:1.1767054 56:0.093368645 57:0.91933279 58:0.17711942 59:-0.0014401346 60:0.84332451 61:0.23076563 62:0.98677592 63:0.10009865 64:0.22930282 65:0.77432666 66:-0.10561903 67:0.27781742 68:0.12798998 69:0.61196544 70:0.10872985 71:0.36946879 72:0.5842686 73:0.80950186 74:1.5799884 75:0.417646 76:0.45099631 77:0.45744691 78:1.3824923 79:0.15847481 80:1.9063742 81:0.32267117 82:1.2823082 83:0.83426672 84:0.95380718 85:0.43871434 86:0.57350739 87:0.11022967 88:1.8264979 89:0.95110736 90:0.73882395 91:0.92411133 92:1.2464481 93:0.3315366 94:0.38360778 95:0.61491992 96:0.035765214 97:0.30309798 98:0.28814208 99:0.35398513 100:0.36257931 101:0.28026101 102:0.36672824 103:0.38457575 104:0.30727318 105:0.39135993 106:0.26285363 107:0.44808976 108:0.15090606 109:0.34478286 110:0.23514628 111:0.77525805 112:0.19319341 113:0.55809291 114:0.71629749 115:0.57529185 116:0.51676329 117:-0.059610893 118:0.120488 119:0.67437605 120:-0.30917363 121:0.3910495 122:0.19342068 123:0.90935449 124:-0.11707441 125:0.18551514 126:0.59844068 127:0.31508989 128:-0.063403468 129:0.54538633 130:0.22704496 131:0.34842691 132:0.67056541 133:-0.36276079 134:0.20294421 135:0.81209606 136:-0.083220309 137:0.21189267 138:0.22996262 139:-0.083957037 140:0.9471034 141:0.30129668 142:0.051103485 143:1.359097 144:-0.38375187 145:0.48944818 146:0.59703317 147:1.5672664 148:0.42916412 149:0.17102075 150:0.8849417 151:1.3709234 152:-0.49232219 153:0.76232363 154:1.3134309 155:0.22773328 156:0.18882733 157:0.72081396 158:0.13951396 159:0.78442175 160:0.88629278 161:-0.027348426 162:1.6330893 163:0.045262179 164:0.66353901 165:0.69767187 166:-0.065770142 167:0.97440549 168:0.065233134 169:0.13338062 170:-0.57457252 171:-0.06866891 172:-0.087390361 173:0.14236339 174:-0.011813154 175:0.83426672 176:-0.22199666 177:0.86977664 178:0.34666843 179:0.82931181 180:0.20044602 181:-0.21599451 182:-0.49426303 183:0.052971708 184:-0.46479974 
5.252882806871658 1:-0.78667565 2:-0.74792552 3:-0.75447657 4:-0.86367759 5:-0.81021274 6:-0.79511178 7:-0.79983652 8:-0.79085878 9:-0.7770945 10:-0.78733869 11:-0.82584947 12:-0.80588788 13:-0.82365234 14:-0.66531442 15:-0.69979989 16:-0.81051658 17:-0.57047757 18:-0.93662411 19:-0.81047925 20:-0.72228028 21:-0.82122193 22:-0.74163212 23:-0.65763443 24:-0.69271467 25:-0.79823457 26:-0.61927408 27:-0.80347485 28:-0.99592743 29:-0.89366533 30:-0.67620378 31:-0.69369267 32:-0.76700149 33:-0.48950626 34:-0.80392171 35:-0.78674984 36:-0.52457711 37:-0.65515527 38:-0.83414256 39:-0.39011555 40:-0.66240576 41:-0.68187823 42:-0.55809658 43:-0.68504133 44:-1.0560422 45:-0.75318688 46:-0.5952355 47:-0.26867012 48:-0.24581901 49:-0.75596098 50:-1.0744083 51:-0.86478005 52:-0.90251338 53:-0.9475061 54:-0.804399 55:-0.58081875 56:-0.69015412 57:-0.63074214 58:-0.70765843 59:-0.55038556 60:-0.78449491 61:-0.69946088 62:-0.53761409 63:-0.92097845 64:-0.90401094 65:-0.61700371 66:-0.84101799 67:-0.78144619 68:-0.67491885 69:-0.85845645 70:-0.41691134 71:-0.6842027 72:-0.60478757 73:-0.53245802 74:-0.24863221 75:-0.75773516 76:-0.77058707 77:-0.67678511 78:-0.67757592 79:-0.6365282 80:-1.0389598 81:-0.39855998 82:-0.83534491 83:-0.65110925 84:-0.70615119 85:-0.77609759 86:-0.78752637 87:-0.80060771 88:-0.69388251 89:-0.96413674 90:-0.68896098 91:-0.94261643 92:-1.0617467 93:-0.78667565 94:-0.74792552 95:-0.75447657 96:-0.86367759 97:-0.81021274 98:-0.79511178 99:-0.79983652 100:-0.79085878 101:-0.7770945 102:-0.78733869 103:-0.82584947 104:-0.80588788 105:-0.82365234 106:-0.66531442 107:-0.69979989 108:-0.81051658 109:-0.57047757 110:-0.93662411 111:-0.81047925 112:-0.72228028 113:-0.82122193 114:-0.74163212 115:-0.65763443 116:-0.69271467 117:-0.79823457 118:-0.61927408 119:-0.80347485 120:-0.99592743 121:-0.89366533 122:-0.67620378 123:-0.69369267 124:-0.76700149 125:-0.48950626 126:-0.80392171 127:-0.78674984 128:-0.52457711 129:-0.65515527 130:-0.83414256 131:-0.39011555 132:-0.66240576 133:-0.68187823 134:-0.55809658 135:-0.68504133 136:-1.0560422 137:-0.75318688 138:-0.5952355 139:-0.26867012 140:-0.24581901 141:-0.75596098 142:-1.0744083 143:-0.86478005 144:-0.90251338 145:-0.9475061 146:-0.804399 147:-0.58081875 148:-0.69015412 149:-0.63074214 150:-0.70765843 151:-0.55038556 152:-0.78449491 153:-0.69946088 154:-0.53761409 155:-0.92097845 156:-0.90401094 157:-0.61700371 158:-0.84101799 159:-0.78144619 160:-0.67491885 161:-0.85845645 162:-0.41691134 163:-0.6842027 164:-0.60478757 165:-0.53245802 166:-0.24863221 167:-0.75773516 168:-0.77058707 169:-0.67678511 170:-0.67757592 171:-0.6365282 172:-1.0389598 173:-0.39855998 174:-0.83534491 175:-0.65110925 176:-0.70615119 177:-0.77609759 178:-0.78752637 179:-0.80060771 180:-0.69388251 181:-0.96413674 182:-0.68896098 183:-0.94261643 184:-1.0617467 
128 1:-0.78667565 2:-0.74792552 3:-0.75447657 4:-0.86367759 5:-0.81021274 6:-0.79511178 7:-0.79983652 8:-0.79085878 9:-0.7770945 10:-0.78733869 11:-0.82584947 12:-0.80588788 13:-0.82365234 14:-0.66531442 15:-0.69979989 16:-0.81051658 17:-0.57047757 18:-0.93662411 19:-0.81047925 20:-0.72228028 21:-0.82122193 22:-0.74163212 23:-0.65763443 24:-0.69271467 25:-0.79823457 26:-0.61927408 27:-0.80347485 28:-0.99592743 29:-0.89366533 30:-0.67620378 31:-0.69369267 32:-0.76700149 33:-0.48950626 34:-0.80392171 35:-0.78674984 36:-0.52457711 37:-0.65515527 38:-0.83414256 39:-0.39011555 40:-0.66240576 41:-0.68187823 42:-0.55809658 43:-0.68504133 44:-1.0560422 45:-0.75318688 46:-0.5952355 47:-0.26867012 48:-0.24581901 49:-0.75596098 50:-1.0744083 51:-0.86478005 52:-0.90251338 53:-0.9475061 54:-0.804399 55:-0.58081875 56:-0.69015412 57:-0.63074214 58:-0.70765843 59:-0.55038556 60:-0.78449491 61:-0.69946088 62:-0.53761409 63:-0.92097845 64:-0.90401094 65:-0.61700371 66:-0.84101799 67:-0.78144619 68:-0.67491885 69:-0.85845645 70:-0.41691134 71:-0.6842027 72:-0.60478757 73:-0.53245802 74:-0.24863221 75:-0.75773516 76:-0.77058707 77:-0.67678511 78:-0.67757592 79:-0.6365282 80:-1.0389598 81:-0.39855998 82:-0.83534491 83:-0.65110925 84:-0.70615119 85:-0.77609759 86:-0.78752637 87:-0.80060771 88:-0.69388251 89:-0.96413674 90:-0.68896098 91:-0.94261643 92:-1.0617467 93:-0.78667565 94:-0.74792552 95:-0.75447657 96:-0.86367759 97:-0.81021274 98:-0.79511178 99:-0.79983652 100:-0.79085878 101:-0.7770945 102:-0.78733869 103:-0.82584947 104:-0.80588788 105:-0.82365234 106:-0.66531442 107:-0.69979989 108:-0.81051658 109:-0.57047757 110:-0.93662411 111:-0.81047925 112:-0.72228028 113:-0.82122193 114:-0.74163212 115:-0.65763443 116:-0.69271467 117:-0.79823457 118:-0.61927408 119:-0.80347485 120:-0.99592743 121:-0.89366533 122:-0.67620378 123:-0.69369267 124:-0.76700149 125:-0.48950626 126:-0.80392171 127:-0.78674984 128:-0.52457711 129:-0.65515527 130:-0.83414256 131:-0.39011555 132:-0.66240576 133:-0.68187823 134:-0.55809658 135:-0.68504133 136:-1.0560422 137:-0.75318688 138:-0.5952355 139:-0.26867012 140:-0.24581901 141:-0.75596098 142:-1.0744083 143:-0.86478005 144:-0.90251338 145:-0.9475061 146:-0.804399 147:-0.58081875 148:-0.69015412 149:-0.63074214 150:-0.70765843 151:-0.55038556 152:-0.78449491 153:-0.69946088 154:-0.53761409 155:-0.92097845 156:-0.90401094 157:-0.61700371 158:-0.84101799 159:-0.78144619 160:-0.67491885 161:-0.85845645 162:-0.41691134 163:-0.6842027 164:-0.60478757 165:-0.53245802 166:-0.24863221 167:-0.75773516 168:-0.77058707 169:-0.67678511 170:-0.67757592 171:-0.6365282 172:-1.0389598 173:-0.39855998 174:-0.83534491 175:-0.65110925 176:-0.70615119 177:-0.77609759 178:-0.78752637 179:-0.80060771 180:-0.69388251 181:-0.96413674 182:-0.68896098 183:-0.94261643 184:-1.0617467 
4.7260618513843342 1:-0.93595156 2:-0.87365144 3:-0.86761759 4:-0.80544029 5:-0.86580284 6:-0.90277921 7:-0.86675451 8:-0.8931544 9:-0.82051494 10:-0.87400686 11:-0.85983826 12:-0.93362716 13:-0.96232222 14:-0.8837069 15:-0.93459551 16:-0.84292408 17:-0.92250081 18:-0.98445148 19:-0.76819292 20:-0.75618671 21:-0.91230876 22:-0.81040239 23:-0.844007 24:-0.80681637 25:-0.82415119 26:-0.77922264 27:-0.80347485 28:-0.76142613 29:-1.0033361 30:-0.83431732 31:-0.91480262 32:-0.79654363 33:-0.88326875 34:-0.88183073 35:-0.86020583 36:-0.75516393 37:-0.9098156 38:-0.79483932 39:-0.9440224 40:-0.99564855 41:-0.84143695 42:-0.81177685 43:-0.89297708 44:-0.75203536 45:-0.87016622 46:-0.82028953 47:-0.73045282 48:-1.0620291 49:-0.95419679 50:-1.0744083 51:-0.86478005 52:-0.81605312 53:-0.9475061 54:-0.74834171 55:-0.67845899 56:-0.46629048 57:-0.79109472 58:-0.70765843 59:-0.4131492 60:-0.78449491 61:-0.89879513 62:-0.75538409 63:-0.98479576 64:-0.82305995 65:-0.88456724 66:-1.00444 67:-0.64328137 68:-0.7195249 69:-0.85845645 70:-0.78486017 71:-0.80578018 72:-0.8425988 73:-0.644288 74:-0.61435634 75:-0.75773516 76:-0.89917479 77:-0.80641162 78:-0.98658615 79:-0.86367191 80:-0.63114432 81:-0.84932945 82:-0.71769752 83:-0.65110925 84:-0.63698625 85:-0.77609759 86:-0.78752637 87:-0.80060771 88:-0.69388251 89:-0.81450829 90:-0.75386029 91:-0.77668507 92:-0.66378204 93:-0.93595156 94:-0.87365144 95:-0.86761759 96:-0.80544029 97:-0.86580284 98:-0.90277921 99:-0.86675451 100:-0.8931544 101:-0.82051494 102:-0.87400686 103:-0.85983826 104:-0.93362716 105:-0.96232222 106:-0.8837069 107:-0.93459551 108:-0.84292408 109:-0.92250081 110:-0.98445148 111:-0.76819292 112:-0.75618671 113:-0.91230876 114:-0.81040239 115:-0.844007 116:-0.80681637 117:-0.82415119 118:-0.77922264 119:-0.80347485 120:-0.76142613 121:-1.0033361 122:-0.83431732 123:-0.91480262 124:-0.79654363 125:-0.88326875 126:-0.88183073 127:-0.86020583 128:-0.75516393 129:-0.9098156 130:-0.79483932 131:-0.9440224 132:-0.99564855 133:-0.84143695 134:-0.81177685 135:-0.89297708 136:-0.75203536 137:-0.87016622 138:-0.82028953 139:-0.73045282 140:-1.0620291 141:-0.95419679 142:-1.0744083 143:-0.86478005 144:-0.81605312 145:-0.9475061 146:-0.74834171 147:-0.67845899 148:-0.46629048 149:-0.79109472 150:-0.70765843 151:-0.4131492 152:-0.78449491 153:-0.89879513 154:-0.75538409 155:-0.98479576 156:-0.82305995 157:-0.88456724 158:-1.00444 159:-0.64328137 160:-0.7195249 161:-0.85845645 162:-0.78486017 163:-0.80578018 164:-0.8425988 165:-0.644288 166:-0.61435634 167:-0.75773516 168:-0.89917479 169:-0.80641162 170:-0.98658615 171:-0.86367191 172:-0.63114432 173:-0.84932945 174:-0.71769752 175:-0.65110925 176:-0.63698625 177:-0.77609759 178:-0.78752637 179:-0.80060771 180:-0.69388251 181:-0.81450829 182:-0.75386029 183:-0.77668507 184:-0.66378204 
128 1:-0.93595156 2:-0.87365144 3:-0.86761759 4:-0.80544029 5:-0.86580284 6:-0.90277921 7:-0.86675451 8:-0.8931544 9:-0.82051494 10:-0.87400686 11:-0.85983826 12:-0.93362716 13:-0.96232222 14:-0.8837069 15:-0.93459551 16:-0.84292408 17:-0.92250081 18:-0.98445148 19:-0.76819292 20:-0.75618671 21:-0.91230876 22:-0.81040239 23:-0.844007 24:-0.80681637 25:-0.82415119 26:-0.77922264 27:-0.80347485 28:-0.76142613 29:-1.0033361 30:-0.83431732 31:-0.91480262 32:-0.79654363 33:-0.88326875 34:-0.88183073 35:-0.86020583 36:-0.75516393 37:-0.9098156 38:-0.79483932 39:-0.9440224 40:-0.99564855 41:-0.84143695 42:-0.81177685 43:-0.89297708 44:-0.75203536 45:-0.87016622 46:-0.82028953 47:-0.73045282 48:-1.0620291 49:-0.95419679 50:-1.0744083 51:-0.86478005 52:-0.81605312 53:-0.9475061 54:-0.74834171 55:-0.67845899 56:-0.46629048 57:-0.79109472 58:-0.70765843 59:-0.4131492 60:-0.78449491 61:-0.89879513 62:-0.75538409 63:-0.98479576 64:-0.82305995 65:-0.88456724 66:-1.00444 67:-0.64328137 68:-0.7195249 69:-0.85845645 70:-0.78486017 71:-0.80578018 72:-0.8425988 73:-0.644288 74:-0.61435634 75:-0.75773516 76:-0.89917479 77:-0.80641162 78:-0.98658615 79:-0.86367191 80:-0.63114432 81:-0.84932945 82:-0.71769752 83:-0.65110925 84:-0.63698625 85:-0.77609759 86:-0.78752637 87:-0.80060771 88:-0.69388251 89:-0.81450829 90:-0.75386029 91:-0.77668507 92:-0.66378204 93:-0.49355205 94:-0.3847173 95:-0.48918038 96:-0.45278106 97:-0.47177338 98:-0.4408927 99:-0.47195891 100:-0.47166129 101:-0.43706667 102:-0.46274865 103:-0.48809376 104:-0.47123687 105:-0.5265026 106:-0.35592507 107:-0.53022529 108:-0.45403403 109:-0.35926362 110:-0.36269576 111:-0.26075699 112:-0.50188846 113:-0.48289942 114:-0.45279701 115:-0.61462537 116:-0.28194857 117:-0.51315175 118:-0.29937697 119:-0.42676776 120:-0.46829951 121:-0.53331849 122:-0.28091993 123:-0.5278602 124:-0.56020651 125:-0.3770027 126:0.053077525 127:-0.5663819 128:-0.44771484 129:-0.61877522 130:-0.32320042 131:-0.75938678 132:-0.24585227 133:-0.52231951 134:-0.20294421 135:-0.64345418 136:-0.38722715 137:-0.48998337 138:-0.37018147 139:-0.083957037 140:-0.18303362 141:-0.22733215 142:-0.41785977 143:0.17302922 144:-0.72959287 145:-0.38869055 146:-0.3559407 147:-0.28789805 148:0.20530047 149:-0.52384042 150:-0.44222508 151:-0.4131492 152:-0.49232219 153:-0.53334901 154:-0.31984409 155:-0.4104399 156:-0.49925602 157:-0.29592747 158:-0.677596 159:-0.41300667 160:-0.45188862 161:-0.41093674 162:-0.62716781 163:-0.6842027 164:-0.60478757 165:-0.30879804 166:-0.43149427 167:-0.26283783 168:-0.19194231 169:-0.41753208 170:-0.47156911 171:-0.80688598 172:-0.35926734 173:-0.44363692 174:-0.36475534 175:0.42916418 176:-0.36032653 177:-0.34503529 178:-0.48507442 179:-0.51297485 180:-0.28736954 181:-0.5152514 182:-0.23466577 183:-0.278891 184:-0.56429089 
128 1:-0.49355205 2:-0.3847173 3:-0.48918038 4:-0.45278106 5:-0.47177338 6:-0.4408927 7:-0.47195891 8:-0.47166129 9:-0.43706667 10:-0.46274865 11:-0.48809376 12:-0.47123687 13:-0.5265026 14:-0.35592507 15:-0.53022529 16:-0.45403403 17:-0.35926362 18:-0.36269576 19:-0.26075699 20:-0.50188846 21:-0.48289942 22:-0.45279701 23:-0.61462537 24:-0.28194857 25:-0.51315175 26:-0.29937697 27:-0.42676776 28:-0.46829951 29:-0.53331849 30:-0.28091993 31:-0.5278602 32:-0.56020651 33:-0.3770027 34:0.053077525 35:-0.5663819 36:-0.44771484 37:-0.61877522 38:-0.32320042 39:-0.75938678 40:-0.24585227 41:-0.52231951 42:-0.20294421 43:-0.64345418 44:-0.38722715 45:-0.48998337 46:-0.37018147 47:-0.083957037 48:-0.18303362 49:-0.22733215 50:-0.41785977 51:0.17302922 52:-0.72959287 53:-0.38869055 54:-0.3559407 55:-0.28789805 56:0.20530047 57:-0.52384042 58:-0.44222508 59:-0.4131492 60:-0.49232219 61:-0.53334901 62:-0.31984409 63:-0.4104399 64:-0.49925602 65:-0.29592747 66:-0.677596 67:-0.41300667 68:-0.45188862 69:-0.41093674 70:-0.62716781 71:-0.6842027 72:-0.60478757 73:-0.30879804 74:-0.43149427 75:-0.26283783 76:-0.19194231 77:-0.41753208 78:-0.47156911 79:-0.80688598 80:-0.35926734 81:-0.44363692 82:-0.36475534 83:0.42916418 84:-0.36032653 85:-0.34503529 86:-0.48507442 87:-0.51297485 88:-0.28736954 89:-0.5152514 90:-0.23466577 91:-0.278891 92:-0.56429089 93:-0.93595156 94:-0.87365144 95:-0.86761759 96:-0.80544029 97:-0.86580284 98:-0.90277921 99:-0.86675451 100:-0.8931544 101:-0.82051494 102:-0.87400686 103:-0.85983826 104:-0.93362716 105:-0.96232222 106:-0.8837069 107:-0.93459551 108:-0.84292408 109:-0.92250081 110:-0.98445148 111:-0.76819292 112:-0.75618671 113:-0.91230876 114:-0.81040239 115:-0.844007 116:-0.80681637 117:-0.82415119 118:-0.77922264 119:-0.80347485 120:-0.76142613 121:-1.0033361 122:-0.83431732 123:-0.91480262 124:-0.79654363 125:-0.88326875 126:-0.88183073 127:-0.86020583 128:-0.75516393 129:-0.9098156 130:-0.79483932 131:-0.9440224 132:-0.99564855 133:-0.84143695 134:-0.81177685 135:-0.89297708 136:-0.75203536 137:-0.87016622 138:-0.82028953 139:-0.73045282 140:-1.0620291 141:-0.95419679 142:-1.0744083 143:-0.86478005 144:-0.81605312 145:-0.9475061 146:-0.74834171 147:-0.67845899 148:-0.46629048 149:-0.79109472 150:-0.70765843 151:-0.4131492 152:-0.78449491 153:-0.89879513 154:-0.75538409 155:-0.98479576 156:-0.82305995 157:-0.88456724 158:-1.00444 159:-0.64328137 160:-0.7195249 161:-0.85845645 162:-0.78486017 163:-0.80578018 164:-0.8425988 165:-0.644288 166:-0.61435634 167:-0.75773516 168:-0.89917479 169:-0.80641162 170:-0.98658615 171:-0.86367191 172:-0.63114432 173:-0.84932945 174:-0.71769752 175:-0.65110925 176:-0.63698625 177:-0.77609759 178:-0.78752637 179:-0.80060771 180:-0.69388251 181:-0.81450829 182:-0.75386029 183:-0.77668507 184:-0.66378204 
38.300021905736905 1:-0.93595156 2:-0.87365144 3:-0.86761759 4:-0.80544029 5:-0.86580284 6:-0.90277921 7:-0.86675451 8:-0.8931544 9:-0.82051494 10:-0.87400686 11:-0.85983826 12:-0.93362716 13:-0.96232222 14:-0.8837069 15:-0.93459551 16:-0.84292408 17:-0.92250081 18:-0.98445148 19:-0.76819292 20:-0.75618671 21:-0.91230876 22:-0.81040239 23:-0.844007 24:-0.80681637 25:-0.82415119 26:-0.77922264 27:-0.80347485 28:-0.76142613 29:-1.0033361 30:-0.83431732 31:-0.91480262 32:-0.79654363 33:-0.88326875 34:-0.88183073 35:-0.86020583 36:-0.75516393 37:-0.9098156 38:-0.79483932 39:-0.9440224 40:-0.99564855 41:-0.84143695 42:-0.81177685 43:-0.89297708 44:-0.75203536 45:-0.87016622 46:-0.82028953 47:-0.73045282 48:-1.0620291 49:-0.95419679 50:-1.0744083 51:-0.86478005 52:-0.81605312 53:-0.9475061 54:-0.74834171 55:-0.67845899 56:-0.46629048 57:-0.79109472 58:-0.70765843 59:-0.4131492 60:-0.78449491 61:-0.89879513 62:-0.75538409 63:-0.98479576 64:-0.82305995 65:-0.88456724 66:-1.00444 67:-0.64328137 68:-0.7195249 69:-0.85845645 70:-0.78486017 71:-0.80578018 72:-0.8425988 73:-0.644288 74:-0.61435634 75:-0.75773516 76:-0.89917479 77:-0.80641162 78:-0.98658615 79:-0.86367191 80:-0.63114432 81:-0.84932945 82:-0.71769752 83:-0.65110925 84:-0.63698625 85:-0.77609759 86:-0.78752637 87:-0.80060771 88:-0.69388251 89:-0.81450829 90:-0.75386029 91:-0.77668507 92:-0.66378204 93:-0.31442097 94:-0.13792197 95:0.057017648 96:0.11665036 97:-0.052096508 98:-0.080666277 99:-0.12968058 100:-0.073015672 101:-0.081964664 102:-0.14349963 103:0.017694293 104:-0.12746532 105:-0.40103938 106:-0.37412445 107:-0.43891588 108:-0.011131467 109:-0.20437339 110:-0.41052312 111:-0.091611676 112:0.10842733 113:-0.39181259 114:-0.040175419 115:0.53228279 116:0.24291922 117:-0.13736075 118:0.22045585 119:0.22522529 120:0.16820402 121:-0.37664595 122:-0.47856185 123:-0.63841518 124:-0.028447987 125:-0.43325448 126:-0.72601269 127:-0.125646 128:-0.14026574 129:-0.61877522 130:-0.55901987 131:-0.020844323 132:-0.16254157 133:-0.043643358 134:0.20294421 135:0.063527366 136:-0.17442236 137:-0.37300403 138:-0.37018147 139:-0.083957037 140:0.25646411 141:-0.49164657 142:-0.23027447 143:-0.12348771 144:-0.55667237 145:-0.30885975 146:-0.13171155 147:0.39558358 148:-0.24242683 149:-0.096233543 150:0.35407499 151:-0.4131492 152:0.30071804 153:-0.59979376 154:-0.21095909 155:-0.53807454 156:-0.094501111 157:-0.13538935 158:-0.677596 159:0.093597662 160:0.26180812 161:-0.28307397 162:0.84462752 163:0.73420123 164:0.5842686 165:-0.53245802 166:0.11709192 167:0.85068116 168:0.065233134 169:-0.19068567 170:-0.16255888 171:-0.06866891 172:-0.087390361 173:0.14236339 174:0.34112903 175:-0.51607507 176:0.60798252 177:-0.18828537 178:-0.18262248 179:0.73343419 180:0.60695899 181:-0.096291754 182:0.15473012 183:0.13593739 184:0.35102771 
38.298815998582519 1:-0.31442097 2:-0.13792197 3:0.057017648 4:0.11665036 5:-0.052096508 6:-0.080666277 7:-0.12968058 8:-0.073015672 9:-0.081964664 10:-0.14349963 11:0.017694293 12:-0.12746532 13:-0.40103938 14:-0.37412445 15:-0.43891588 16:-0.011131467 17:-0.20437339 18:-0.41052312 19:-0.091611676 20:0.10842733 21:-0.39181259 22:-0.040175419 23:0.53228279 24:0.24291922 25:-0.13736075 26:0.22045585 27:0.22522529 28:0.16820402 29:-0.37664595 30:-0.47856185 31:-0.63841518 32:-0.028447987 33:-0.43325448 34:-0.72601269 35:-0.125646 36:-0.14026574 37:-0.61877522 38:-0.55901987 39:-0.020844323 40:-0.16254157 41:-0.043643358 42:0.20294421 43:0.063527366 44:-0.17442236 45:-0.37300403 46:-0.37018147 47:-0.083957037 48:0.25646411 49:-0.49164657 50:-0.23027447 51:-0.12348771 52:-0.55667237 53:-0.30885975 54:-0.13171155 55:0.39558358 56:-0.24242683 57:-0.096233543 58:0.35407499 59:-0.4131492 60:0.30071804 61:-0.59979376 62:-0.21095909 63:-0.53807454 64:-0.094501111 65:-0.13538935 66:-0.677596 67:0.093597662 68:0.26180812 69:-0.28307397 70:0.84462752 71:0.73420123 72:0.5842686 73:-0.53245802 74:0.11709192 75:0.85068116 76:0.065233134 77:-0.19068567 78:-0.16255888 79:-0.06866891 80:-0.087390361 81:0.14236339 82:0.34112903 83:-0.51607507 84:0.60798252 85:-0.18828537 86:-0.18262248 87:0.73343419 88:0.60695899 89:-0.096291754 90:0.15473012 91:0.13593739 92:0.35102771 93:-0.93595156 94:-0.87365144 95:-0.86761759 96:-0.80544029 97:-0.86580284 98:-0.90277921 99:-0.86675451 100:-0.8931544 101:-0.82051494 102:-0.87400686 103:-0.85983826 104:-0.93362716 105:-0.96232222 106:-0.8837069 107:-0.93459551 108:-0.84292408 109:-0.92250081 110:-0.98445148 111:-0.76819292 112:-0.75618671 113:-0.91230876 114:-0.81040239 115:-0.844007 116:-0.80681637 117:-0.82415119 118:-0.77922264 119:-0.80347485 120:-0.76142613 121:-1.0033361 122:-0.83431732 123:-0.91480262 124:-0.79654363 125:-0.88326875 126:-0.88183073 127:-0.86020583 128:-0.75516393 129:-0.9098156 130:-0.79483932 131:-0.9440224 132:-0.99564855 133:-0.84143695 134:-0.81177685 135:-0.89297708 136:-0.75203536 137:-0.87016622 138:-0.82028953 139:-0.73045282 140:-1.0620291 141:-0.95419679 142:-1.0744083 143:-0.86478005 144:-0.81605312 145:-0.9475061 146:-0.74834171 147:-0.67845899 148:-0.46629048 149:-0.79109472 150:-0.70765843 151:-0.4131492 152:-0.78449491 153:-0.89879513 154:-0.75538409 155:-0.98479576 156:-0.82305995 157:-0.88456724 158:-1.00444 159:-0.64328137 160:-0.7195249 161:-0.85845645 162:-0.78486017 163:-0.80578018 164:-0.8425988 165:-0.644288 166:-0.61435634 167:-0.75773516 168:-0.89917479 169:-0.80641162 170:-0.98658615 171:-0.86367191 172:-0.63114432 173:-0.84932945 174:-0.71769752 175:-0.65110925 176:-0.63698625 177:-0.77609759 178:-0.78752637 179:-0.80060771 180:-0.69388251 181:-0.81450829 182:-0.75386029 183:-0.77668507 184:-0.66378204 
33.89976978266219 1:-0.93595156 2:-0.87365144 3:-0.86761759 4:-0.80544029 5:-0.86580284 6:-0.90277921 7:-0.86675451 8:-0.8931544 9:-0.82051494 10:-0.87400686 11:-0.85983826 12:-0.93362716 13:-0.96232222 14:-0.8837069 15:-0.93459551 16:-0.84292408 17:-0.92250081 18:-0.98445148 19:-0.76819292 20:-0.75618671 21:-0.91230876 22:-0.81040239 23:-0.844007 24:-0.80681637 25:-0.82415119 26:-0.77922264 27:-0.80347485 28:-0.76142613 29:-1.0033361 30:-0.83431732 31:-0.91480262 32:-0.79654363 33:-0.88326875 34:-0.88183073 35:-0.86020583 36:-0.75516393 37:-0.9098156 38:-0.79483932 39:-0.9440224 40:-0.99564855 41:-0.84143695 42:-0.81177685 43:-0.89297708 44:-0.75203536 45:-0.87016622 46:-0.82028953 47:-0.73045282 48:-1.0620291 49:-0.95419679 50:-1.0744083 51:-0.86478005 52:-0.81605312 53:-0.9475061 54:-0.74834171 55:-0.67845899 56:-0.46629048 57:-0.79109472 58:-0.70765843 59:-0.4131492 60:-0.78449491 61:-0.89879513 62:-0.75538409 63:-0.98479576 64:-0.82305995 65:-0.88456724 66:-1.00444 67:-0.64328137 68:-0.7195249 69:-0.85845645 70:-0.78486017 71:-0.80578018 72:-0.8425988 73:-0.644288 74:-0.61435634 75:-0.75773516 76:-0.89917479 77:-0.80641162 78:-0.98658615 79:-0.86367191 80:-0.63114432 81:-0.84932945 82:-0.71769752 83:-0.65110925 84:-0.63698625 85:-0.77609759 86:-0.78752637 87:-0.80060771 88:-0.69388251 89:-0.81450829 90:-0.75386029 91:-0.77668507 92:-0.66378204 93:0.027556567 94:-0.25899138 95:-0.32922239 96:-0.11953426 97:-0.21371958 98:-0.12473805 99:-0.13187237 100:-0.07809094 101:-0.16011297 102:-0.19091455 103:-0.078820844 104:-0.17334782 105:0.14043348 106:-0.064735097 107:0.0045869422 108:-0.075946476 109:0.02092148 110:-0.38660944 111:-0.62019077 112:-0.19673057 113:-0.092527297 114:-0.37027269 115:-0.60028902 116:-0.21348756 117:-0.072569203 118:-0.17941555 119:-0.19494801 120:-0.074672328 121:0.25004422 122:-0.0042212411 123:0.080192167 124:0.089720573 125:0.52302585 126:-0.49228563 127:-0.71329386 128:0.24404563 129:0.50900628 130:-0.16598745 131:-0.69784158 132:0.087390522 133:-0.25638831 134:-0.20294421 135:-0.14440838 136:0.15998516 137:0.036423659 138:-0.22014544 139:0.10075605 140:0.13089333 141:-0.02909634 142:-0.60544507 143:-0.56826312 144:-0.47021212 145:-0.54835213 146:-0.74834171 147:-0.58081875 148:-0.35435865 149:-0.25658612 150:-0.17679172 151:-0.4131492 152:-0.074932597 153:0.33043275 154:-0.21095909 155:-0.15517063 156:-0.49925602 157:-0.18890206 158:-0.26904102 159:-0.50511655 160:-0.40728258 161:-0.73059368 162:-0.41691134 163:-0.60315105 164:-0.60478757 165:0.25035191 166:-0.43149427 167:-0.26283783 168:-0.32053004 169:-0.19068567 170:0.14645135 171:-0.06866891 172:0.0032352988 173:-0.17317524 174:-0.011813154 175:-0.65110925 176:-0.014501865 177:-0.1099104 178:-0.10700949 179:-0.46503604 180:0.037840837 181:0.053336691 182:-0.039967829 183:-0.11295965 184:-0.14642805 
33.923222643322489 1:0.027556567 2:-0.25899138 3:-0.32922239 4:-0.11953426 5:-0.21371958 6:-0.12473805 7:-0.13187237 8:-0.07809094 9:-0.16011297 10:-0.19091455 11:-0.078820844 12:-0.17334782 13:0.14043348 14:-0.064735097 15:0.0045869422 16:-0.075946476 17:0.02092148 18:-0.38660944 19:-0.62019077 20:-0.19673057 21:-0.092527297 22:-0.37027269 23:-0.60028902 24:-0.21348756 25:-0.072569203 26:-0.17941555 27:-0.19494801 28:-0.074672328 29:0.25004422 30:-0.0042212411 31:0.080192167 32:0.089720573 33:0.52302585 34:-0.49228563 35:-0.71329386 36:0.24404563 37:0.50900628 38:-0.16598745 39:-0.69784158 40:0.087390522 41:-0.25638831 42:-0.20294421 43:-0.14440838 44:0.15998516 45:0.036423659 46:-0.22014544 47:0.10075605 48:0.13089333 49:-0.02909634 50:-0.60544507 51:-0.56826312 52:-0.47021212 53:-0.54835213 54:-0.74834171 55:-0.58081875 56:-0.35435865 57:-0.25658612 58:-0.17679172 59:-0.4131492 60:-0.074932597 61:0.33043275 62:-0.21095909 63:-0.15517063 64:-0.49925602 65:-0.18890206 66:-0.26904102 67:-0.50511655 68:-0.40728258 69:-0.73059368 70:-0.41691134 71:-0.60315105 72:-0.60478757 73:0.25035191 74:-0.43149427 75:-0.26283783 76:-0.32053004 77:-0.19068567 78:0.14645135 79:-0.06866891 80:0.0032352988 81:-0.17317524 82:-0.011813154 83:-0.65110925 84:-0.014501865 85:-0.1099104 86:-0.10700949 87:-0.46503604 88:0.037840837 89:0.053336691 90:-0.039967829 91:-0.11295965 92:-0.14642805 93:-0.93595156 94:-0.87365144 95:-0.86761759 96:-0.80544029 97:-0.86580284 98:-0.90277921 99:-0.86675451 100:-0.8931544 101:-0.82051494 102:-0.87400686 103:-0.85983826 104:-0.93362716 105:-0.96232222 106:-0.8837069 107:-0.93459551 108:-0.84292408 109:-0.92250081 110:-0.98445148 111:-0.76819292 112:-0.75618671 113:-0.91230876 114:-0.81040239 115:-0.844007 116:-0.80681637 117:-0.82415119 118:-0.77922264 119:-0.80347485 120:-0.76142613 121:-1.0033361 122:-0.83431732 123:-0.91480262 124:-0.79654363 125:-0.88326875 126:-0.88183073 127:-0.86020583 128:-0.75516393 129:-0.9098156 130:-0.79483932 131:-0.9440224 132:-0.99564855 133:-0.84143695 134:-0.81177685 135:-0.89297708 136:-0.75203536 137:-0.87016622 138:-0.82028953 139:-0.73045282 140:-1.0620291 141:-0.95419679 142:-1.0744083 143:-0.86478005 144:-0.81605312 145:-0.9475061 146:-0.74834171 147:-0.67845899 148:-0.46629048 149:-0.79109472 150:-0.70765843 151:-0.4131492 152:-0.78449491 153:-0.89879513 154:-0.75538409 155:-0.98479576 156:-0.82305995 157:-0.88456724 158:-1.00444 159:-0.64328137 160:-0.7195249 161:-0.85845645 162:-0.78486017 163:-0.80578018 164:-0.8425988 165:-0.644288 166:-0.61435634 167:-0.75773516 168:-0.89917479 169:-0.80641162 170:-0.98658615 171:-0.86367191 172:-0.63114432 173:-0.84932945 174:-0.71769752 175:-0.65110925 176:-0.63698625 177:-0.77609759 178:-0.78752637 179:-0.80060771 180:-0.69388251 181:-0.81450829 182:-0.75386029 183:-0.77668507 184:-0.66378204 
25.122581787953479 1:-0.93595156 2:-0.87365144 3:-0.86761759 4:-0.80544029 5:-0.86580284 6:-0.90277921 7:-0.86675451 8:-0.8931544 9:-0.82051494 10:-0.87400686 11:-0.85983826 12:-0.93362716 13:-0.96232222 14:-0.8837069 15:-0.93459551 16:-0.84292408 17:-0.92250081 18:-0.98445148 19:-0.76819292 20:-0.75618671 21:-0.91230876 22:-0.81040239 23:-0.844007 24:-0.80681637 25:-0.82415119 26:-0.77922264 27:-0.80347485 28:-0.76142613 29:-1.0033361 30:-0.83431732 31:-0.91480262 32:-0.79654363 33:-0.88326875 34:-0.88183073 35:-0.86020583 36:-0.75516393 37:-0.9098156 38:-0.79483932 39:-0.9440224 40:-0.99564855 41:-0.84143695 42:-0.81177685 43:-0.89297708 44:-0.75203536 45:-0.87016622 46:-0.82028953 47:-0.73045282 48:-1.0620291 49:-0.95419679 50:-1.0744083 51:-0.86478005 52:-0.81605312 53:-0.9475061 54:-0.74834171 55:-0.67845899 56:-0.46629048 57:-0.79109472 58:-0.70765843 59:-0.4131492 60:-0.78449491 61:-0.89879513 62:-0.75538409 63:-0.98479576 64:-0.82305995 65:-0.88456724 66:-1.00444 67:-0.64328137 68:-0.7195249 69:-0.85845645 70:-0.78486017 71:-0.80578018 72:-0.8425988 73:-0.644288 74:-0.61435634 75:-0.75773516 76:-0.89917479 77:-0.80641162 78:-0.98658615 79:-0.86367191 80:-0.63114432 81:-0.84932945 82:-0.71769752 83:-0.65110925 84:-0.63698625 85:-0.77609759 86:-0.78752637 87:-0.80060771 88:-0.69388251 89:-0.81450829 90:-0.75386029 91:-0.77668507 92:-0.66378204 93:-0.5478342 94:-0.086700297 95:-0.19657429 96:-0.02247209 97:-0.2526788 98:-0.27599453 99:-0.21786575 100:-0.23835702 101:-0.19596452 102:-0.30909256 103:-0.25398495 104:-0.21849446 105:-0.75761906 106:-0.41052319 107:-0.50413688 108:-0.281194 109:-0.31702083 110:0.091664192 111:-0.049325348 112:0.040614465 113:-0.53494904 114:0.028594846 115:-0.098516697 116:-0.099385863 117:-0.30581879 118:-0.03946056 119:-0.03557193 120:0.17657907 121:-0.98766886 122:-0.43903347 123:-0.66605393 124:-0.50112223 125:-0.54575805 126:-0.49228563 127:-0.41946993 128:-0.063403468 129:-0.76429541 130:-0.12668421 131:-0.51320596 132:-0.49578436 133:-0.57550575 134:-0.10147211 135:-0.35234413 136:-0.14402168 137:-0.54847303 138:-0.37018147 139:-0.17631358 140:0.19367872 141:-0.35948936 142:0.33248144 143:0.32128769 144:0.30793014 145:-0.22902896 146:0.036460305 147:0.29794335 148:-0.35435865 149:-0.25658612 150:-0.088313937 151:0.41026893 152:0.21724012 153:-0.59979376 154:-0.10207409 155:-0.60189185 156:-0.49925602 157:-0.081876643 158:0.38464695 159:-0.044567156 160:-0.0058281563 161:-0.41093674 162:0.26642221 163:-0.11684113 164:-0.20843551 165:-0.644288 166:-0.065770142 167:0.10833516 168:0.00093927247 169:-0.48234533 170:-0.57457252 171:-0.18224077 172:0.0032352988 173:-0.26332914 174:0.22348163 175:0.29413 176:-0.014501865 177:-0.42341026 178:-0.031396503 179:0.06229086 180:0.60695899 181:-0.066366065 182:0.089830801 183:0.052971708 184:0.41072241 
25.116439751339172 1:-0.5478342 2:-0.086700297 3:-0.19657429 4:-0.02247209 5:-0.2526788 6:-0.27599453 7:-0.21786575 8:-0.23835702 9:-0.19596452 10:-0.30909256 11:-0.25398495 12:-0.21849446 13:-0.75761906 14:-0.41052319 15:-0.50413688 16:-0.281194 17:-0.31702083 18:0.091664192 19:-0.049325348 20:0.040614465 21:-0.53494904 22:0.028594846 23:-0.098516697 24:-0.099385863 25:-0.30581879 26:-0.03946056 27:-0.03557193 28:0.17657907 29:-0.98766886 30:-0.43903347 31:-0.66605393 32:-0.50112223 33:-0.54575805 34:-0.49228563 35:-0.41946993 36:-0.063403468 37:-0.76429541 38:-0.12668421 39:-0.51320596 40:-0.49578436 41:-0.57550575 42:-0.10147211 43:-0.35234413 44:-0.14402168 45:-0.54847303 46:-0.37018147 47:-0.17631358 48:0.19367872 49:-0.35948936 50:0.33248144 51:0.32128769 52:0.30793014 53:-0.22902896 54:0.036460305 55:0.29794335 56:-0.35435865 57:-0.25658612 58:-0.088313937 59:0.41026893 60:0.21724012 61:-0.59979376 62:-0.10207409 63:-0.60189185 64:-0.49925602 65:-0.081876643 66:0.38464695 67:-0.044567156 68:-0.0058281563 69:-0.41093674 70:0.26642221 71:-0.11684113 72:-0.20843551 73:-0.644288 74:-0.065770142 75:0.10833516 76:0.00093927247 77:-0.48234533 78:-0.57457252 79:-0.18224077 80:0.0032352988 81:-0.26332914 82:0.22348163 83:0.29413 84:-0.014501865 85:-0.42341026 86:-0.031396503 87:0.06229086 88:0.60695899 89:-0.066366065 90:0.089830801 91:0.052971708 92:0.41072241 93:-0.93595156 94:-0.87365144 95:-0.86761759 96:-0.80544029 97:-0.86580284 98:-0.90277921 99:-0.86675451 100:-0.8931544 101:-0.82051494 102:-0.87400686 103:-0.85983826 104:-0.93362716 105:-0.96232222 106:-0.8837069 107:-0.93459551 108:-0.84292408 109:-0.92250081 110:-0.98445148 111:-0.76819292 112:-0.75618671 113:-0.91230876 114:-0.81040239 115:-0.844007 116:-0.80681637 117:-0.82415119 118:-0.77922264 119:-0.80347485 120:-0.76142613 121:-1.0033361 122:-0.83431732 123:-0.91480262 124:-0.79654363 125:-0.88326875 126:-0.88183073 127:-0.86020583 128:-0.75516393 129:-0.9098156 130:-0.79483932 131:-0.9440224 132:-0.99564855 133:-0.84143695 134:-0.81177685 135:-0.89297708 136:-0.75203536 137:-0.87016622 138:-0.82028953 139:-0.73045282 140:-1.0620291 141:-0.95419679 142:-1.0744083 143:-0.86478005 144:-0.81605312 145:-0.9475061 146:-0.74834171 147:-0.67845899 148:-0.46629048 149:-0.79109472 150:-0.70765843 151:-0.4131492 152:-0.78449491 153:-0.89879513 154:-0.75538409 155:-0.98479576 156:-0.82305995 157:-0.88456724 158:-1.00444 159:-0.64328137 160:-0.7195249 161:-0.85845645 162:-0.78486017 163:-0.80578018 164:-0.8425988 165:-0.644288 166:-0.61435634 167:-0.75773516 168:-0.89917479 169:-0.80641162 170:-0.98658615 171:-0.86367191 172:-0.63114432 173:-0.84932945 174:-0.71769752 175:-0.65110925 176:-0.63698625 177:-0.77609759 178:-0.78752637 179:-0.80060771 180:-0.69388251 181:-0.81450829 182:-0.75386029 183:-0.77668507 184:-0.66378204 
57.674909120061436 1:-0.93595156 2:-0.87365144 3:-0.86761759 4:-0.80544029 5:-0.86580284 6:-0.90277921 7:-0.86675451 8:-0.8931544 9:-0.82051494 10:-0.87400686 11:-0.85983826 12:-0.93362716 13:-0.96232222 14:-0.8837069 15:-0.93459551 16:-0.84292408 17:-0.92250081 18:-0.98445148 19:-0.76819292 20:-0.75618671 21:-0.91230876 22:-0.81040239 23:-0.844007 24:-0.80681637 25:-0.82415119 26:-0.77922264 27:-0.80347485 28:-0.76142613 29:-1.0033361 30:-0.83431732 31:-0.91480262 32:-0.79654363 33:-0.88326875 34:-0.88183073 35:-0.86020583 36:-0.75516393 37:-0.9098156 38:-0.79483932 39:-0.9440224 40:-0.99564855 41:-0.84143695 42:-0.81177685 43:-0.89297708 44:-0.75203536 45:-0.87016622 46:-0.82028953 47:-0.73045282 48:-1.0620291 49:-0.95419679 50:-1.0744083 51:-0.86478005 52:-0.81605312 53:-0.9475061 54:-0.74834171 55:-0.67845899 56:-0.46629048 57:-0.79109472 58:-0.70765843 59:-0.4131492 60:-0.78449491 61:-0.89879513 62:-0.75538409 63:-0.98479576 64:-0.82305995 65:-0.88456724 66:-1.00444 67:-0.64328137 68:-0.7195249 69:-0.85845645 70:-0.78486017 71:-0.80578018 72:-0.8425988 73:-0.644288 74:-0.61435634 75:-0.75773516 76:-0.89917479 77:-0.80641162 78:-0.98658615 79:-0.86367191 80:-0.63114432 81:-0.84932945 82:-0.71769752 83:-0.65110925 84:-0.63698625 85:-0.77609759 86:-0.78752637 87:-0.80060771 88:-0.69388251 89:-0.81450829 90:-0.75386029 91:-0.77668507 92:-0.66378204 93:-0.089150051 94:0.039025625 95:0.23648271 96:0.14576901 97:0.16589763 98:0.041822865 99:0.092237835 100:-0.01892631 101:0.019589974 102:-0.0040326248 103:0.17041277 104:0.053452888 105:-0.24255951 106:-0.21033008 107:0.069807946 108:0.10769605 109:-0.0072403793 110:-0.12355894 111:0.31010844 112:-0.010245185 113:0.24579521 114:0.19364348 115:0.2025467 116:0.2885599 117:-0.189194 118:0.22045585 119:0.37011263 120:0.19332916 121:-0.21997341 122:-0.43903347 123:-0.16855653 124:-0.14661655 125:-0.20824734 126:-0.4143766 127:0.16817792 128:-0.37085256 129:0.25434594 130:-0.0087744891 131:0.10224609 132:-0.32916297 133:-0.36276079 134:0.55809658 135:0.27146311 136:-0.022418941 137:-0.46073853 138:0.079926596 139:-0.17631358 140:1.0098888 141:-0.49164657 142:0.14489614 143:0.46954616 144:-0.21083137 145:0.090294212 146:0.59703317 147:0.0050226457 148:0.31723229 149:-0.042782684 150:-0.44222508 151:0.27303258 152:0.1337622 153:-0.035013376 154:0.22458092 155:0.9935411 156:0.067400854 157:0.34622501 158:-0.26904102 159:0.1396526 160:0.35102022 161:0.16444573 162:0.056165735 163:0.16683966 164:0.50499819 165:-0.30879804 166:0.29995399 167:0.417646 168:0.45099631 169:-0.19068567 170:-0.3685657 171:-0.12545484 172:-0.13270319 173:0.18744033 174:0.22348163 175:0.83426672 176:-0.083666797 177:0.32115189 178:0.19544246 179:0.34992372 180:0.60695899 181:-0.12621744 182:0.21962943 183:0.42631726 184:0.27143479 
57.707516209305396 1:-0.089150051 2:0.039025625 3:0.23648271 4:0.14576901 5:0.16589763 6:0.041822865 7:0.092237835 8:-0.01892631 9:0.019589974 10:-0.0040326248 11:0.17041277 12:0.053452888 13:-0.24255951 14:-0.21033008 15:0.069807946 16:0.10769605 17:-0.0072403793 18:-0.12355894 19:0.31010844 20:-0.010245185 21:0.24579521 22:0.19364348 23:0.2025467 24:0.2885599 25:-0.189194 26:0.22045585 27:0.37011263 28:0.19332916 29:-0.21997341 30:-0.43903347 31:-0.16855653 32:-0.14661655 33:-0.20824734 34:-0.4143766 35:0.16817792 36:-0.37085256 37:0.25434594 38:-0.0087744891 39:0.10224609 40:-0.32916297 41:-0.36276079 42:0.55809658 43:0.27146311 44:-0.022418941 45:-0.46073853 46:0.079926596 47:-0.17631358 48:1.0098888 49:-0.49164657 50:0.14489614 51:0.46954616 52:-0.21083137 53:0.090294212 54:0.59703317 55:0.0050226457 56:0.31723229 57:-0.042782684 58:-0.44222508 59:0.27303258 60:0.1337622 61:-0.035013376 62:0.22458092 63:0.9935411 64:0.067400854 65:0.34622501 66:-0.26904102 67:0.1396526 68:0.35102022 69:0.16444573 70:0.056165735 71:0.16683966 72:0.50499819 73:-0.30879804 74:0.29995399 75:0.417646 76:0.45099631 77:-0.19068567 78:-0.3685657 79:-0.12545484 80:-0.13270319 81:0.18744033 82:0.22348163 83:0.83426672 84:-0.083666797 85:0.32115189 86:0.19544246 87:0.34992372 88:0.60695899 89:-0.12621744 90:0.21962943 91:0.42631726 92:0.27143479 93:-0.93595156 94:-0.87365144 95:-0.86761759 96:-0.80544029 97:-0.86580284 98:-0.90277921 99:-0.86675451 100:-0.8931544 101:-0.82051494 102:-0.87400686 103:-0.85983826 104:-0.93362716 105:-0.96232222 106:-0.8837069 107:-0.93459551 108:-0.84292408 109:-0.92250081 110:-0.98445148 111:-0.76819292 112:-0.75618671 113:-0.91230876 114:-0.81040239 115:-0.844007 116:-0.80681637 117:-0.82415119 118:-0.77922264 119:-0.80347485 120:-0.76142613 121:-1.0033361 122:-0.83431732 123:-0.91480262 124:-0.79654363 125:-0.88326875 126:-0.88183073 127:-0.86020583 128:-0.75516393 129:-0.9098156 130:-0.79483932 131:-0.9440224 132:-0.99564855 133:-0.84143695 134:-0.81177685 135:-0.89297708 136:-0.75203536 137:-0.87016622 138:-0.82028953 139:-0.73045282 140:-1.0620291 141:-0.95419679 142:-1.0744083 143:-0.86478005 144:-0.81605312 145:-0.9475061 146:-0.74834171 147:-0.67845899 148:-0.46629048 149:-0.79109472 150:-0.70765843 151:-0.4131492 152:-0.78449491 153:-0.89879513 154:-0.75538409 155:-0.98479576 156:-0.82305995 157:-0.88456724 158:-1.00444 159:-0.64328137 160:-0.7195249 161:-0.85845645 162:-0.78486017 163:-0.80578018 164:-0.8425988 165:-0.644288 166:-0.61435634 167:-0.75773516 168:-0.89917479 169:-0.80641162 170:-0.98658615 171:-0.86367191 172:-0.63114432 173:-0.84932945 174:-0.71769752 175:-0.65110925 176:-0.63698625 177:-0.77609759 178:-0.78752637 179:-0.80060771 180:-0.69388251 181:-0.81450829 182:-0.75386029 183:-0.77668507 184:-0.66378204 
24.333220356488798 1:-0.70796654 2:-0.60823005 3:-0.67254686 4:-0.54984323 5:-0.65918586 6:-0.62956996 7:-0.66106902 8:-0.63141809 9:-0.70017587 10:-0.68901252 11:-0.60722257 12:-0.5929338 13:-0.72460243 14:-0.64711505 15:-0.7389325 16:-0.63767655 17:-0.62680129 18:-0.62574625 19:-0.53561812 20:-0.58665455 21:-0.80820952 22:-0.57658348 23:-0.70064348 24:-0.44169095 25:-0.5779433 26:-0.5392998 27:-0.60063257 28:-0.47667456 29:-0.83099631 30:-0.63667539 31:-0.61077644 32:-0.56020651 33:-0.7145134 34:-0.72601269 35:-0.49292591 36:-0.52457711 37:-0.83705551 38:-0.51971663 39:-0.9440224 40:-0.41247366 41:-0.62869199 42:-0.60883264 43:-0.56027988 44:-0.66083331 45:-0.63620754 46:-0.52021749 47:-0.63809628 48:-0.55974597 49:-0.82203958 50:-0.23027447 51:-0.71652158 52:-0.55667237 53:-0.78784451 54:-0.52411256 55:-0.28789805 56:-0.35435865 57:-0.684193 58:-0.61918065 59:-0.13867649 60:-0.57580011 61:-0.79912801 62:-0.64649909 63:-0.85716113 64:-0.74210897 65:-0.67051642 66:-0.677596 67:-0.45906161 68:-0.49649467 69:-0.66666229 70:-0.62716781 71:-0.72472853 72:-0.68405798 73:-0.42062803 74:-0.43149427 75:-0.5102865 76:-0.32053004 77:-0.35271882 78:-0.67757592 79:-0.80688598 80:-0.58583149 81:-0.30840608 82:-0.71769752 83:-0.51607507 84:-0.70615119 85:-0.73691011 86:-0.56068741 87:-0.60885247 88:-0.20606694 89:-0.48532571 90:-0.3644644 91:-0.77668507 92:-0.32551212 93:2.5028225 94:1.785219 95:1.6995132 96:1.7861197 97:2.0482403 98:1.9740797 99:2.0516439 100:1.9722647 101:1.9506122 102:2.2043379 103:1.8862374 104:2.083497 105:2.8742111 106:1.791601 107:2.3786315 108:2.2249863 109:2.5836507 110:1.4308304 111:0.69068539 112:1.8207022 113:2.1976558 114:1.2114434 115:1.435473 116:1.7947023 117:1.7415942 118:2.7396456 119:1.7465424 120:1.3407105 121:2.9291447 122:1.6559709 123:2.7058729 124:3.1916453 125:2.6605936 126:1.5333489 127:0.6823698 128:1.7044288 129:2.2552486 130:1.9170843 131:2.5025091 132:2.5867115 133:2.6156686 134:2.9426911 135:1.9349491 136:1.5888173 137:3.3118451 138:1.2802148 139:3.333235 140:1.0726742 141:1.4907115 142:1.0828226 143:1.5073554 144:1.3454532 145:1.2079253 146:0.20463217 147:0.78614451 148:0.65302777 149:1.7210957 150:2.5660196 151:2.743287 152:1.0937583 153:2.3237753 154:1.9667409 155:1.4402623 156:2.3745039 157:2.2191697 158:0.54806894 159:0.1396526 160:1.6445956 161:2.3381129 162:1.4753969 163:0.61262375 164:1.6147839 165:2.8224417 166:2.1285746 167:0.72695683 168:1.9297551 169:2.110185 170:2.2065195 171:1.4645512 172:1.0001176 173:3.2526727 174:2.5764295 175:1.3744034 176:2.2679409 177:2.1629635 178:0.57350739 179:1.7401492 180:1.7451953 181:0.83140461 182:2.4911054 183:1.7537681 184:1.0275676 
24.331417843462173 1:2.5028225 2:1.785219 3:1.6995132 4:1.7861197 5:2.0482403 6:1.9740797 7:2.0516439 8:1.9722647 9:1.9506122 10:2.2043379 11:1.8862374 12:2.083497 13:2.8742111 14:1.791601 15:2.3786315 16:2.2249863 17:2.5836507 18:1.4308304 19:0.69068539 20:1.8207022 21:2.1976558 22:1.2114434 23:1.435473 24:1.7947023 25:1.7415942 26:2.7396456 27:1.7465424 28:1.3407105 29:2.9291447 30:1.6559709 31:2.7058729 32:3.1916453 33:2.6605936 34:1.5333489 35:0.6823698 36:1.7044288 37:2.2552486 38:1.9170843 39:2.5025091 40:2.5867115 41:2.6156686 42:2.9426911 43:1.9349491 44:1.5888173 45:3.3118451 46:1.2802148 47:3.333235 48:1.0726742 49:1.4907115 50:1.0828226 51:1.5073554 52:1.3454532 53:1.2079253 54:0.20463217 55:0.78614451 56:0.65302777 57:1.7210957 58:2.5660196 59:2.743287 60:1.0937583 61:2.3237753 62:1.9667409 63:1.4402623 64:2.3745039 65:2.2191697 66:0.54806894 67:0.1396526 68:1.6445956 69:2.3381129 70:1.4753969 71:0.61262375 72:1.6147839 73:2.8224417 74:2.1285746 75:0.72695683 76:1.9297551 77:2.110185 78:2.2065195 79:1.4645512 80:1.0001176 81:3.2526727 82:2.5764295 83:1.3744034 84:2.2679409 85:2.1629635 86:0.57350739 87:1.7401492 88:1.7451953 89:0.83140461 90:2.4911054 91:1.7537681 92:1.0275676 93:-0.70796654 94:-0.60823005 95:-0.67254686 96:-0.54984323 97:-0.65918586 98:-0.62956996 99:-0.66106902 100:-0.63141809 101:-0.70017587 102:-0.68901252 103:-0.60722257 104:-0.5929338 105:-0.72460243 106:-0.64711505 107:-0.7389325 108:-0.63767655 109:-0.62680129 110:-0.62574625 111:-0.53561812 112:-0.58665455 113:-0.80820952 114:-0.57658348 115:-0.70064348 116:-0.44169095 117:-0.5779433 118:-0.5392998 119:-0.60063257 120:-0.47667456 121:-0.83099631 122:-0.63667539 123:-0.61077644 124:-0.56020651 125:-0.7145134 126:-0.72601269 127:-0.49292591 128:-0.52457711 129:-0.83705551 130:-0.51971663 131:-0.9440224 132:-0.41247366 133:-0.62869199 134:-0.60883264 135:-0.56027988 136:-0.66083331 137:-0.63620754 138:-0.52021749 139:-0.63809628 140:-0.55974597 141:-0.82203958 142:-0.23027447 143:-0.71652158 144:-0.55667237 145:-0.78784451 146:-0.52411256 147:-0.28789805 148:-0.35435865 149:-0.684193 150:-0.61918065 151:-0.13867649 152:-0.57580011 153:-0.79912801 154:-0.64649909 155:-0.85716113 156:-0.74210897 157:-0.67051642 158:-0.677596 159:-0.45906161 160:-0.49649467 161:-0.66666229 162:-0.62716781 163:-0.72472853 164:-0.68405798 165:-0.42062803 166:-0.43149427 167:-0.5102865 168:-0.32053004 169:-0.35271882 170:-0.67757592 171:-0.80688598 172:-0.58583149 173:-0.30840608 174:-0.71769752 175:-0.51607507 176:-0.70615119 177:-0.73691011 178:-0.56068741 179:-0.60885247 180:-0.20606694 181:-0.48532571 182:-0.3644644 183:-0.77668507 184:-0.32551212 
14.065544553351144 1:-0.70796654 2:-0.60823005 3:-0.67254686 4:-0.54984323 5:-0.65918586 6:-0.62956996 7:-0.66106902 8:-0.63141809 9:-0.70017587 10:-0.68901252 11:-0.60722257 12:-0.5929338 13:-0.72460243 14:-0.64711505 15:-0.7389325 16:-0.63767655 17:-0.62680129 18:-0.62574625 19:-0.53561812 20:-0.58665455 21:-0.80820952 22:-0.57658348 23:-0.70064348 24:-0.44169095 25:-0.5779433 26:-0.5392998 27:-0.60063257 28:-0.47667456 29:-0.83099631 30:-0.63667539 31:-0.61077644 32:-0.56020651 33:-0.7145134 34:-0.72601269 35:-0.49292591 36:-0.52457711 37:-0.83705551 38:-0.51971663 39:-0.9440224 40:-0.41247366 41:-0.62869199 42:-0.60883264 43:-0.56027988 44:-0.66083331 45:-0.63620754 46:-0.52021749 47:-0.63809628 48:-0.55974597 49:-0.82203958 50:-0.23027447 51:-0.71652158 52:-0.55667237 53:-0.78784451 54:-0.52411256 55:-0.28789805 56:-0.35435865 57:-0.684193 58:-0.61918065 59:-0.13867649 60:-0.57580011 61:-0.79912801 62:-0.64649909 63:-0.85716113 64:-0.74210897 65:-0.67051642 66:-0.677596 67:-0.45906161 68:-0.49649467 69:-0.66666229 70:-0.62716781 71:-0.72472853 72:-0.68405798 73:-0.42062803 74:-0.43149427 75:-0.5102865 76:-0.32053004 77:-0.35271882 78:-0.67757592 79:-0.80688598 80:-0.58583149 81:-0.30840608 82:-0.71769752 83:-0.51607507 84:-0.70615119 85:-0.73691011 86:-0.56068741 87:-0.60885247 88:-0.20606694 89:-0.48532571 90:-0.3644644 91:-0.77668507 92:-0.32551212 93:0.76036556 94:0.64902917 95:0.97385006 96:0.97403289 97:0.86774929 98:0.79817678 99:0.8891407 100:0.83287577 101:0.85566662 102:0.80956065 103:0.84346642 104:0.87616643 105:0.72152631 106:0.37204987 107:1.1002998 108:0.71263614 109:0.55599681 110:0.37862837 111:0.98668969 112:0.63397704 113:0.70122935 114:1.0326407 115:0.80467348 116:1.4752175 117:1.0029705 118:0.56034653 119:0.9061958 120:1.1145843 121:0.78273086 122:0.3910626 123:0.88171575 124:0.53285267 125:0.52302585 126:0.20889557 127:0.97619373 128:-0.37085256 129:0.58176638 130:1.4454454 131:0.84078855 132:1.5036724 133:0.91370895 134:0.30441632 135:0.43781171 136:0.98080363 137:0.41660651 138:0.37999864 139:0.65489529 140:0.82153262 141:0.036982264 142:0.33248144 143:0.024770756 144:0.99961215 145:0.96843294 146:0.76520503 147:1.1767054 148:0.98882324 149:0.75898021 150:0.70798613 151:-0.0014401346 152:0.63462971 153:0.46332225 154:0.66012092 155:0.92972378 156:0.7554842 157:0.82783937 158:0.87491293 159:1.2910261 160:0.93089882 161:0.54803405 162:0.94975576 163:0.65314958 164:1.0598911 165:0.3621819 166:1.3971264 167:1.6548893 168:1.7368735 169:1.0083596 170:-0.059555469 171:1.7484808 172:0.72824058 173:0.6382098 174:-0.12946055 175:0.69923254 176:0.67714745 177:0.67383923 178:0.4978944 179:0.68549538 180:1.9891031 181:1.2802899 182:0.41432737 183:1.0485598 184:1.1668552 
14.048176315613894 1:0.76036556 2:0.64902917 3:0.97385006 4:0.97403289 5:0.86774929 6:0.79817678 7:0.8891407 8:0.83287577 9:0.85566662 10:0.80956065 11:0.84346642 12:0.87616643 13:0.72152631 14:0.37204987 15:1.1002998 16:0.71263614 17:0.55599681 18:0.37862837 19:0.98668969 20:0.63397704 21:0.70122935 22:1.0326407 23:0.80467348 24:1.4752175 25:1.0029705 26:0.56034653 27:0.9061958 28:1.1145843 29:0.78273086 30:0.3910626 31:0.88171575 32:0.53285267 33:0.52302585 34:0.20889557 35:0.97619373 36:-0.37085256 37:0.58176638 38:1.4454454 39:0.84078855 40:1.5036724 41:0.91370895 42:0.30441632 43:0.43781171 44:0.98080363 45:0.41660651 46:0.37999864 47:0.65489529 48:0.82153262 49:0.036982264 50:0.33248144 51:0.024770756 52:0.99961215 53:0.96843294 54:0.76520503 55:1.1767054 56:0.98882324 57:0.75898021 58:0.70798613 59:-0.0014401346 60:0.63462971 61:0.46332225 62:0.66012092 63:0.92972378 64:0.7554842 65:0.82783937 66:0.87491293 67:1.2910261 68:0.93089882 69:0.54803405 70:0.94975576 71:0.65314958 72:1.0598911 73:0.3621819 74:1.3971264 75:1.6548893 76:1.7368735 77:1.0083596 78:-0.059555469 79:1.7484808 80:0.72824058 81:0.6382098 82:-0.12946055 83:0.69923254 84:0.67714745 85:0.67383923 86:0.4978944 87:0.68549538 88:1.9891031 89:1.2802899 90:0.41432737 91:1.0485598 92:1.1668552 93:-0.70796654 94:-0.60823005 95:-0.67254686 96:-0.54984323 97:-0.65918586 98:-0.62956996 99:-0.66106902 100:-0.63141809 101:-0.70017587 102:-0.68901252 103:-0.60722257 104:-0.5929338 105:-0.72460243 106:-0.64711505 107:-0.7389325 108:-0.63767655 109:-0.62680129 110:-0.62574625 111:-0.53561812 112:-0.58665455 113:-0.80820952 114:-0.57658348 115:-0.70064348 116:-0.44169095 117:-0.5779433 118:-0.5392998 119:-0.60063257 120:-0.47667456 121:-0.83099631 122:-0.63667539 123:-0.61077644 124:-0.56020651 125:-0.7145134 126:-0.72601269 127:-0.49292591 128:-0.52457711 129:-0.83705551 130:-0.51971663 131:-0.9440224 132:-0.41247366 133:-0.62869199 134:-0.60883264 135:-0.56027988 136:-0.66083331 137:-0.63620754 138:-0.52021749 139:-0.63809628 140:-0.55974597 141:-0.82203958 142:-0.23027447 143:-0.71652158 144:-0.55667237 145:-0.78784451 146:-0.52411256 147:-0.28789805 148:-0.35435865 149:-0.684193 150:-0.61918065 151:-0.13867649 152:-0.57580011 153:-0.79912801 154:-0.64649909 155:-0.85716113 156:-0.74210897 157:-0.67051642 158:-0.677596 159:-0.45906161 160:-0.49649467 161:-0.66666229 162:-0.62716781 163:-0.72472853 164:-0.68405798 165:-0.42062803 166:-0.43149427 167:-0.5102865 168:-0.32053004 169:-0.35271882 170:-0.67757592 171:-0.80688598 172:-0.58583149 173:-0.30840608 174:-0.71769752 175:-0.51607507 176:-0.70615119 177:-0.73691011 178:-0.56068741 179:-0.60885247 180:-0.20606694 181:-0.48532571 182:-0.3644644 183:-0.77668507 184:-0.32551212 
10.607590956147737 1:-0.70796654 2:-0.60823005 3:-0.67254686 4:-0.54984323 5:-0.65918586 6:-0.62956996 7:-0.66106902 8:-0.63141809 9:-0.70017587 10:-0.68901252 11:-0.60722257 12:-0.5929338 13:-0.72460243 14:-0.64711505 15:-0.7389325 16:-0.63767655 17:-0.62680129 18:-0.62574625 19:-0.53561812 20:-0.58665455 21:-0.80820952 22:-0.57658348 23:-0.70064348 24:-0.44169095 25:-0.5779433 26:-0.5392998 27:-0.60063257 28:-0.47667456 29:-0.83099631 30:-0.63667539 31:-0.61077644 32:-0.56020651 33:-0.7145134 34:-0.72601269 35:-0.49292591 36:-0.52457711 37:-0.83705551 38:-0.51971663 39:-0.9440224 40:-0.41247366 41:-0.62869199 42:-0.60883264 43:-0.56027988 44:-0.66083331 45:-0.63620754 46:-0.52021749 47:-0.63809628 48:-0.55974597 49:-0.82203958 50:-0.23027447 51:-0.71652158 52:-0.55667237 53:-0.78784451 54:-0.52411256 55:-0.28789805 56:-0.35435865 57:-0.684193 58:-0.61918065 59:-0.13867649 60:-0.57580011 61:-0.79912801 62:-0.64649909 63:-0.85716113 64:-0.74210897 65:-0.67051642 66:-0.677596 67:-0.45906161 68:-0.49649467 69:-0.66666229 70:-0.62716781 71:-0.72472853 72:-0.68405798 73:-0.42062803 74:-0.43149427 75:-0.5102865 76:-0.32053004 77:-0.35271882 78:-0.67757592 79:-0.80688598 80:-0.58583149 81:-0.30840608 82:-0.71769752 83:-0.51607507 84:-0.70615119 85:-0.73691011 86:-0.56068741 87:-0.60885247 88:-0.20606694 89:-0.48532571 90:-0.3644644 91:-0.77668507 92:-0.32551212 93:0.060125856 94:0.19269064 95:0.54079305 96:0.34959957 97:0.20721748 98:0.3487877 99:0.28035479 100:0.28081305 101:0.26711615 102:0.34903211 103:0.097519631 104:0.38780334 105:-0.11049296 106:-0.064735097 107:0.31764776 108:0.20491856 109:0.03500241 110:-0.09964526 111:0.56382641 112:0.2779595 113:0.25880761 114:0.48247859 115:0.948037 116:0.37984125 117:0.21251362 118:0.28043655 119:0.3121577 120:0.46970569 121:-0.23564066 122:-0.12280639 123:0.10783091 124:-0.057990127 125:-0.15199556 126:-0.25855856 127:-0.052190022 128:0.24404563 129:0.21796589 130:0.22704496 131:0.71769814 132:0.0040798243 133:-0.25638831 134:0.40588843 135:0.18828882 136:0.34238927 137:-0.051310845 138:-0.070109424 139:0.56253875 140:-0.057462843 141:-0.35948936 142:-0.13648182 143:0.7660631 144:-0.21083137 145:0.56927897 146:0.42886131 147:0.68850428 148:0.54109594 149:0.010668176 150:0.2655972 151:-0.13867649 152:0.59289075 153:-0.0017910005 154:0.0068109136 155:0.10009865 156:0.7554842 157:0.078661477 158:0.13951396 159:0.87653163 160:0.57405045 161:0.54803405 162:0.89719164 163:1.1799853 164:0.90135025 165:0.25035191 166:0.29995399 167:0.60323249 168:0.19382086 169:0.0037541013 170:0.04344794 171:0.72633409 172:0.13917379 173:0.41282507 174:-0.12946055 175:0.42916418 176:0.19299293 177:-0.070722922 178:0.34666843 179:0.87725062 180:0.037840837 181:0.5620734 182:0.089830801 183:0.34335158 184:0.55001002 
10.61204160262375 1:0.060125856 2:0.19269064 3:0.54079305 4:0.34959957 5:0.20721748 6:0.3487877 7:0.28035479 8:0.28081305 9:0.26711615 10:0.34903211 11:0.097519631 12:0.38780334 13:-0.11049296 14:-0.064735097 15:0.31764776 16:0.20491856 17:0.03500241 18:-0.09964526 19:0.56382641 20:0.2779595 21:0.25880761 22:0.48247859 23:0.948037 24:0.37984125 25:0.21251362 26:0.28043655 27:0.3121577 28:0.46970569 29:-0.23564066 30:-0.12280639 31:0.10783091 32:-0.057990127 33:-0.15199556 34:-0.25855856 35:-0.052190022 36:0.24404563 37:0.21796589 38:0.22704496 39:0.71769814 40:0.0040798243 41:-0.25638831 42:0.40588843 43:0.18828882 44:0.34238927 45:-0.051310845 46:-0.070109424 47:0.56253875 48:-0.057462843 49:-0.35948936 50:-0.13648182 51:0.7660631 52:-0.21083137 53:0.56927897 54:0.42886131 55:0.68850428 56:0.54109594 57:0.010668176 58:0.2655972 59:-0.13867649 60:0.59289075 61:-0.0017910005 62:0.0068109136 63:0.10009865 64:0.7554842 65:0.078661477 66:0.13951396 67:0.87653163 68:0.57405045 69:0.54803405 70:0.89719164 71:1.1799853 72:0.90135025 73:0.25035191 74:0.29995399 75:0.60323249 76:0.19382086 77:0.0037541013 78:0.04344794 79:0.72633409 80:0.13917379 81:0.41282507 82:-0.12946055 83:0.42916418 84:0.19299293 85:-0.070722922 86:0.34666843 87:0.87725062 88:0.037840837 89:0.5620734 90:0.089830801 91:0.34335158 92:0.55001002 93:-0.70796654 94:-0.60823005 95:-0.67254686 96:-0.54984323 97:-0.65918586 98:-0.62956996 99:-0.66106902 100:-0.63141809 101:-0.70017587 102:-0.68901252 103:-0.60722257 104:-0.5929338 105:-0.72460243 106:-0.64711505 107:-0.7389325 108:-0.63767655 109:-0.62680129 110:-0.62574625 111:-0.53561812 112:-0.58665455 113:-0.80820952 114:-0.57658348 115:-0.70064348 116:-0.44169095 117:-0.5779433 118:-0.5392998 119:-0.60063257 120:-0.47667456 121:-0.83099631 122:-0.63667539 123:-0.61077644 124:-0.56020651 125:-0.7145134 126:-0.72601269 127:-0.49292591 128:-0.52457711 129:-0.83705551 130:-0.51971663 131:-0.9440224 132:-0.41247366 133:-0.62869199 134:-0.60883264 135:-0.56027988 136:-0.66083331 137:-0.63620754 138:-0.52021749 139:-0.63809628 140:-0.55974597 141:-0.82203958 142:-0.23027447 143:-0.71652158 144:-0.55667237 145:-0.78784451 146:-0.52411256 147:-0.28789805 148:-0.35435865 149:-0.684193 150:-0.61918065 151:-0.13867649 152:-0.57580011 153:-0.79912801 154:-0.64649909 155:-0.85716113 156:-0.74210897 157:-0.67051642 158:-0.677596 159:-0.45906161 160:-0.49649467 161:-0.66666229 162:-0.62716781 163:-0.72472853 164:-0.68405798 165:-0.42062803 166:-0.43149427 167:-0.5102865 168:-0.32053004 169:-0.35271882 170:-0.67757592 171:-0.80688598 172:-0.58583149 173:-0.30840608 174:-0.71769752 175:-0.51607507 176:-0.70615119 177:-0.73691011 178:-0.56068741 179:-0.60885247 180:-0.20606694 181:-0.48532571 182:-0.3644644 183:-0.77668507 184:-0.32551212 
20.006202278578126 1:-0.78667565 2:-0.75723855 3:-0.69205394 4:-0.72455514 5:-0.77317042 6:-0.75937162 7:-0.72392878 8:-0.74335497 9:-0.78980473 10:-0.67172393 11:-0.77571706 12:-0.71725288 13:-0.83685899 14:-0.81090941 15:-0.7389325 16:-0.65928156 17:-0.75352965 18:-0.84096939 19:-0.59904761 20:-0.77313993 21:-0.70411029 22:-0.68661591 23:-0.68630713 24:-0.60143332 25:-0.72048471 26:-0.65926122 27:-0.64409877 28:-0.76142613 29:-0.90933258 30:-0.83431732 31:-0.66605393 32:-0.67837507 33:-0.77076518 34:-0.80392171 35:-0.71329386 36:-0.8320262 37:-0.72791536 38:-0.59832311 39:-0.82093199 40:-0.74571646 41:-0.62869199 42:-0.71030474 43:-0.64345418 44:-0.60003194 45:-0.72394204 46:-0.5952355 47:-0.63809628 48:-0.87367292 49:-0.68988238 50:-0.98061567 51:-0.71652158 52:-0.81605312 53:-0.46852134 54:-0.58016985 55:-0.58081875 56:-0.69015412 57:-0.684193 58:-0.884614 59:-0.68762191 60:-0.74275595 61:-0.69946088 62:-0.64649909 63:-0.79334381 64:-0.58020701 65:-0.72402912 66:-0.759307 67:-0.55117149 68:-0.67491885 69:-0.6027309 70:-0.62716781 71:-0.6842027 72:-0.76332839 73:-0.53245802 74:-0.43149427 75:-0.695873 76:-0.51341162 77:-0.74159837 78:-0.98658615 79:-0.75010006 80:-0.449893 81:-0.71409861 82:-0.60005012 83:-0.24600671 84:-0.70615119 85:-0.73691011 86:-0.93875234 87:-0.56091366 88:-0.12476435 89:-0.7845826 90:-0.42936372 91:-0.52778804 92:-0.90256081 93:-0.61297278 94:-0.42196942 95:-0.66084262 96:-0.50131214 97:-0.54857363 98:-0.52531742 99:-0.62522988 100:-0.56942606 101:-0.58679086 102:-0.44859174 103:-0.69681601 104:-0.55431663 105:-0.54631258 106:-0.35592507 107:-0.7780651 108:-0.69168906 109:-0.54231571 110:-0.21921367 111:-0.51447496 112:-0.31540308 113:-0.75615991 114:-0.57658348 115:-0.55727996 116:-0.69271467 117:-0.60385992 118:-0.39934481 119:-0.67307624 120:-0.35104886 121:-0.56465299 122:-0.24139155 123:-0.66605393 124:-0.50112223 125:-0.7145134 126:-0.024831497 127:-0.19910199 128:-0.29399029 129:-0.9098156 130:-0.63762635 131:-0.57475117 132:-0.74571646 133:-0.62869199 134:-0.65956869 135:-0.72662848 136:-0.66083331 137:-0.46073853 138:-0.29516346 139:-0.73045282 140:-0.68531675 141:-0.42556796 142:-0.23027447 143:-0.12348771 144:0.048549388 145:-0.62818293 146:-0.24382613 147:-0.67845899 148:-0.5782223 149:-0.47038956 150:-0.088313937 151:-0.55038556 152:-0.20014948 153:-0.63301613 154:-0.64649909 155:-0.92097845 156:-0.74210897 157:-0.61700371 158:-0.10561903 159:-0.78144619 160:-0.54110072 161:-0.53879952 162:-0.62716781 163:-0.44104774 164:-0.60478757 165:-0.75611799 166:-0.7972184 167:-0.75773516 168:-0.44911776 169:-0.38512545 170:-0.3685657 171:-0.75010006 172:-0.81239564 173:-0.35348303 174:-0.60005012 175:-0.51607507 176:-0.22199666 177:-0.65853515 178:-0.71191338 179:-0.56091366 180:-0.69388251 181:-0.57510278 182:-0.10486714 183:-0.52778804 184:-0.16632628 
