svm_type c_svc
kernel_type rbf
gamma 0.0078125
nr_class 2
total_sv 132
rho -7.5449823981438495
label 1 0
probA -6.0180786864886731
probB -0.7324268410273217
nr_sv 82 50
SV
26.326628284717248 1:-0.36989639 2:-0.16572816 3:-0.16518621 4:-0.40829001 5:-0.3174732 6:-0.26350669 7:-0.27112451 8:-0.34858979 9:-0.2719236 10:-0.30052411 11:-0.33920434 12:-0.29530091 13:-0.42924845 14:-0.29117156 15:-0.2202024 16:-0.47633769 17:-0.22778439 18:-0.028087198 19:0.18972402 20:-0.265964 21:-0.24088954 22:-0.025225863 23:0.0049407425 24:-0.35856845 25:-0.52616278 26:-0.29130478 27:-0.28960142 28:-0.46760545 29:-0.44446182 30:-0.43113377 31:-0.38409193 32:-0.4325608 33:-0.34938887 34:-0.21730191 35:0.098661738 36:-0.33876417 37:-0.29829966 38:-0.17659985 39:-0.0054420909 40:-0.36618132 41:-0.57479904 42:-0.38116781 43:-0.38059198 44:-0.50126679 45:-0.25992023 46:-0.10722595 47:-0.073596172 48:-0.46866296 49:-0.08670952 50:0.053752024 51:0.14853255 52:-0.069512349 53:0.63000527 54:0.17355436 55:0.27031093 56:-0.23623026 57:-0.47162387 58:-0.010959165 59:-0.11983262 60:-0.48500387 61:-0.43195131 62:-0.10563061 63:-0.020083271 64:-0.34431078 65:-0.12445812 66:0.15805559 67:0.32915263 68:-0.17743642 69:-0.20440495 70:0.24580627 71:0.10685289 72:-0.11014398 73:-0.48707394 74:-0.26353767 75:-0.22831098 76:-0.42574678 77:-0.51376515 78:-0.49287928 79:-0.44662183 80:-0.60129257 81:-0.31671289 82:-0.12441964 83:0.13759729 84:-0.42515202 85:-0.31321702 86:-0.16439696 87:-0.11227753 88:-0.49673066 89:-0.52768076 90:-0.47874824 91:-0.41539495 92:-0.4508506 93:0.6050158 94:0.50476733 95:0.58394204 96:0.65618596 97:0.61964438 98:0.56684477 99:0.52977137 100:0.66118123 101:0.6066555 102:0.58286223 103:0.52507541 104:0.65288965 105:0.57774202 106:0.51365736 107:0.63470058 108:0.64758871 109:0.46918812 110:0.43357426 111:0.25586811 112:0.61378435 113:0.65298478 114:0.42241013 115:0.4676733 116:0.72842551 117:0.70495609 118:0.60481948 119:0.65238301 120:0.63619302 121:0.545065 122:0.39006465 123:0.65778226 124:0.65499625 125:0.45432059 126:0.46624097 127:0.57156642 128:0.58042288 129:0.65449017 130:0.4534061 131:0.50239136 132:0.85053751 133:0.69264258 134:0.54512856 135:0.7429659 136:0.58308756 137:0.52422504 138:0.42906975 139:0.38939805 140:0.52245331 141:0.49178218 142:0.26717363 143:-0.11554116 144:0.58797421 145:0.42674973 146:0.2025267 147:0.067315417 148:0.37235367 149:0.58820462 150:0.68015251 151:0.5295433 152:0.62352599 153:0.538426 154:0.64561225 155:0.66951394 156:0.75045825 157:0.35305446 158:0.39480093 159:0.10738622 160:0.56415458 161:0.58803043 162:0.36477719 163:0.3350618 164:0.54967682 165:0.83091722 166:0.6142904 167:0.60435313 168:0.79694073 169:0.68845419 170:0.615609 171:0.85582736 172:0.65577233 173:0.53402348 174:0.56863777 175:0.62009848 176:0.6674435 177:0.71127017 178:0.46901257 179:0.58456634 180:0.7589949 181:0.69369097 182:0.54772317 183:0.70147101 184:0.6053006 
26.366555964106727 1:0.6050158 2:0.50476733 3:0.58394204 4:0.65618596 5:0.61964438 6:0.56684477 7:0.52977137 8:0.66118123 9:0.6066555 10:0.58286223 11:0.52507541 12:0.65288965 13:0.57774202 14:0.51365736 15:0.63470058 16:0.64758871 17:0.46918812 18:0.43357426 19:0.25586811 20:0.61378435 21:0.65298478 22:0.42241013 23:0.4676733 24:0.72842551 25:0.70495609 26:0.60481948 27:0.65238301 28:0.63619302 29:0.545065 30:0.39006465 31:0.65778226 32:0.65499625 33:0.45432059 34:0.46624097 35:0.57156642 36:0.58042288 37:0.65449017 38:0.4534061 39:0.50239136 40:0.85053751 41:0.69264258 42:0.54512856 43:0.7429659 44:0.58308756 45:0.52422504 46:0.42906975 47:0.38939805 48:0.52245331 49:0.49178218 50:0.26717363 51:-0.11554116 52:0.58797421 53:0.42674973 54:0.2025267 55:0.067315417 56:0.37235367 57:0.58820462 58:0.68015251 59:0.5295433 60:0.62352599 61:0.538426 62:0.64561225 63:0.66951394 64:0.75045825 65:0.35305446 66:0.39480093 67:0.10738622 68:0.56415458 69:0.58803043 70:0.36477719 71:0.3350618 72:0.54967682 73:0.83091722 74:0.6142904 75:0.60435313 76:0.79694073 77:0.68845419 78:0.615609 79:0.85582736 80:0.65577233 81:0.53402348 82:0.56863777 83:0.62009848 84:0.6674435 85:0.71127017 86:0.46901257 87:0.58456634 88:0.7589949 89:0.69369097 90:0.54772317 91:0.70147101 92:0.6053006 93:-0.36989639 94:-0.16572816 95:-0.16518621 96:-0.40829001 97:-0.3174732 98:-0.26350669 99:-0.27112451 100:-0.34858979 101:-0.2719236 102:-0.30052411 103:-0.33920434 104:-0.29530091 105:-0.42924845 106:-0.29117156 107:-0.2202024 108:-0.47633769 109:-0.22778439 110:-0.028087198 111:0.18972402 112:-0.265964 113:-0.24088954 114:-0.025225863 115:0.0049407425 116:-0.35856845 117:-0.52616278 118:-0.29130478 119:-0.28960142 120:-0.46760545 121:-0.44446182 122:-0.43113377 123:-0.38409193 124:-0.4325608 125:-0.34938887 126:-0.21730191 127:0.098661738 128:-0.33876417 129:-0.29829966 130:-0.17659985 131:-0.0054420909 132:-0.36618132 133:-0.57479904 134:-0.38116781 135:-0.38059198 136:-0.50126679 137:-0.25992023 138:-0.10722595 139:-0.073596172 140:-0.46866296 141:-0.08670952 142:0.053752024 143:0.14853255 144:-0.069512349 145:0.63000527 146:0.17355436 147:0.27031093 148:-0.23623026 149:-0.47162387 150:-0.010959165 151:-0.11983262 152:-0.48500387 153:-0.43195131 154:-0.10563061 155:-0.020083271 156:-0.34431078 157:-0.12445812 158:0.15805559 159:0.32915263 160:-0.17743642 161:-0.20440495 162:0.24580627 163:0.10685289 164:-0.11014398 165:-0.48707394 166:-0.26353767 167:-0.22831098 168:-0.42574678 169:-0.51376515 170:-0.49287928 171:-0.44662183 172:-0.60129257 173:-0.31671289 174:-0.12441964 175:0.13759729 176:-0.42515202 177:-0.31321702 178:-0.16439696 179:-0.11227753 180:-0.49673066 181:-0.52768076 182:-0.47874824 183:-0.41539495 184:-0.4508506 
52.422626124390113 1:0.76905456 2:0.46142642 3:0.447357 4:0.63196615 5:0.53300159 6:0.63300223 7:0.58175912 8:0.66156035 9:0.63245084 10:0.67551497 11:0.53666611 12:0.57150952 13:0.86850784 14:0.6457784 15:0.62124813 16:0.84302703 17:0.59846528 18:0.29605808 19:-0.093225692 20:0.53530605 21:0.72659796 22:0.20638162 23:0.26322964 24:0.51365986 25:0.80778092 26:0.6417565 27:0.49488465 28:0.5968456 29:0.82426758 30:0.81366926 31:0.92789779 32:0.9009671 33:0.76657258 34:0.41172528 35:0.033433506 36:0.76426029 37:0.83727959 38:0.35340515 39:0.50239136 40:0.66970881 41:0.95194709 42:0.82072086 43:0.84896192 44:0.74991131 45:0.81215338 46:0.32442668 47:0.38258931 48:0.85910964 49:0.54044036 50:0.12489256 51:-0.33160147 52:0.30835349 53:0.46370528 54:-0.43486479 55:-0.27897105 56:0.040398798 57:0.93626637 58:0.35379422 59:0.32027598 60:0.6387411 61:0.96827483 62:0.536056 63:0.50241923 64:0.77748958 65:0.3663187 66:0.016715088 67:-0.036109694 68:0.27002144 69:0.54886062 70:0.042855863 71:-0.026268973 72:0.46218677 73:0.7055648 74:0.49630276 75:0.2159539 76:0.64881779 77:0.86833171 78:0.90406319 79:0.66467188 80:0.78301451 81:0.65232114 82:0.59338982 83:0.051436367 84:0.71729576 85:0.76296447 86:0.33987082 87:0.35460786 88:0.47214385 89:0.66766173 90:0.82552965 91:0.57690561 92:0.46867921 93:-0.46665893 94:-0.57711532 95:-0.61167193 96:-0.51219602 97:-0.54057371 98:-0.53054909 99:-0.54271305 100:-0.5406965 101:-0.54602047 102:-0.52299687 103:-0.53733353 104:-0.52957462 105:-0.38114381 106:-0.50095153 107:-0.57803748 108:-0.42763421 109:-0.53270986 110:-0.6281578 111:-0.52683695 112:-0.56602809 113:-0.56527289 114:-0.61307267 115:-0.66475946 116:-0.57744838 117:-0.40527414 118:-0.54103117 119:-0.59377763 120:-0.48914298 121:-0.35276293 122:-0.45342874 123:-0.43554251 124:-0.33295277 125:-0.47428966 126:-0.57794416 127:-0.40685706 128:-0.47219455 129:-0.51079235 130:-0.59993718 131:-0.62845427 132:-0.55734308 133:-0.35184564 134:-0.45006589 135:-0.52368662 136:-0.39833299 137:-0.4038844 138:-0.5356085 139:-0.64326063 140:-0.48212921 141:-0.60843334 142:-0.61361395 143:-0.55966512 144:-0.63127289 145:-0.3308391 146:-0.53626798 147:-0.69690299 148:-0.41603915 149:-0.40122936 150:-0.58414305 151:-0.65918138 152:-0.5154341 153:-0.42422948 154:-0.59602526 155:-0.66724373 156:-0.56731929 157:-0.53564951 158:-0.69705443 159:-0.46659744 160:-0.61237798 161:-0.60212917 162:-0.64647567 163:-0.68236958 164:-0.69341099 165:-0.50139993 166:-0.59390307 167:-0.6007486 168:-0.56579029 169:-0.3612108 170:-0.39810147 171:-0.50170053 172:-0.38190952 173:-0.49541787 174:-0.58233258 175:-0.62061886 176:-0.52485655 177:-0.60458493 178:-0.57949544 179:-0.64187888 180:-0.53283779 181:-0.39152784 182:-0.51170833 183:-0.54629418 184:-0.49348422 
52.406831194958052 1:-0.46665893 2:-0.57711532 3:-0.61167193 4:-0.51219602 5:-0.54057371 6:-0.53054909 7:-0.54271305 8:-0.5406965 9:-0.54602047 10:-0.52299687 11:-0.53733353 12:-0.52957462 13:-0.38114381 14:-0.50095153 15:-0.57803748 16:-0.42763421 17:-0.53270986 18:-0.6281578 19:-0.52683695 20:-0.56602809 21:-0.56527289 22:-0.61307267 23:-0.66475946 24:-0.57744838 25:-0.40527414 26:-0.54103117 27:-0.59377763 28:-0.48914298 29:-0.35276293 30:-0.45342874 31:-0.43554251 32:-0.33295277 33:-0.47428966 34:-0.57794416 35:-0.40685706 36:-0.47219455 37:-0.51079235 38:-0.59993718 39:-0.62845427 40:-0.55734308 41:-0.35184564 42:-0.45006589 43:-0.52368662 44:-0.39833299 45:-0.4038844 46:-0.5356085 47:-0.64326063 48:-0.48212921 49:-0.60843334 50:-0.61361395 51:-0.55966512 52:-0.63127289 53:-0.3308391 54:-0.53626798 55:-0.69690299 56:-0.41603915 57:-0.40122936 58:-0.58414305 59:-0.65918138 60:-0.5154341 61:-0.42422948 62:-0.59602526 63:-0.66724373 64:-0.56731929 65:-0.53564951 66:-0.69705443 67:-0.46659744 68:-0.61237798 69:-0.60212917 70:-0.64647567 71:-0.68236958 72:-0.69341099 73:-0.50139993 74:-0.59390307 75:-0.6007486 76:-0.56579029 77:-0.3612108 78:-0.39810147 79:-0.50170053 80:-0.38190952 81:-0.49541787 82:-0.58233258 83:-0.62061886 84:-0.52485655 85:-0.60458493 86:-0.57949544 87:-0.64187888 88:-0.53283779 89:-0.39152784 90:-0.51170833 91:-0.54629418 92:-0.49348422 93:0.76905456 94:0.46142642 95:0.447357 96:0.63196615 97:0.53300159 98:0.63300223 99:0.58175912 100:0.66156035 101:0.63245084 102:0.67551497 103:0.53666611 104:0.57150952 105:0.86850784 106:0.6457784 107:0.62124813 108:0.84302703 109:0.59846528 110:0.29605808 111:-0.093225692 112:0.53530605 113:0.72659796 114:0.20638162 115:0.26322964 116:0.51365986 117:0.80778092 118:0.6417565 119:0.49488465 120:0.5968456 121:0.82426758 122:0.81366926 123:0.92789779 124:0.9009671 125:0.76657258 126:0.41172528 127:0.033433506 128:0.76426029 129:0.83727959 130:0.35340515 131:0.50239136 132:0.66970881 133:0.95194709 134:0.82072086 135:0.84896192 136:0.74991131 137:0.81215338 138:0.32442668 139:0.38258931 140:0.85910964 141:0.54044036 142:0.12489256 143:-0.33160147 144:0.30835349 145:0.46370528 146:-0.43486479 147:-0.27897105 148:0.040398798 149:0.93626637 150:0.35379422 151:0.32027598 152:0.6387411 153:0.96827483 154:0.536056 155:0.50241923 156:0.77748958 157:0.3663187 158:0.016715088 159:-0.036109694 160:0.27002144 161:0.54886062 162:0.042855863 163:-0.026268973 164:0.46218677 165:0.7055648 166:0.49630276 167:0.2159539 168:0.64881779 169:0.86833171 170:0.90406319 171:0.66467188 172:0.78301451 173:0.65232114 174:0.59338982 175:0.051436367 176:0.71729576 177:0.76296447 178:0.33987082 179:0.35460786 180:0.47214385 181:0.66766173 182:0.82552965 183:0.57690561 184:0.46867921 
43.531633908649852 1:0.6006098 2:0.60925404 3:0.45527497 4:0.6808543 5:0.62151572 6:0.57391288 7:0.57341072 8:0.62298546 9:0.59800011 10:0.58526516 11:0.66824814 12:0.57696549 13:0.61569123 14:0.59232485 15:0.53851559 16:0.6276078 17:0.57036155 18:0.61841743 19:0.042737159 20:0.7153445 21:0.498478 22:0.45772248 23:0.35577615 24:0.48568273 25:0.67021797 26:0.70679778 27:0.50149718 28:0.77618697 29:0.56696324 30:0.63530942 31:0.65520973 32:0.63466808 33:0.48961864 34:0.67172319 35:-0.031794727 36:0.73757422 37:0.52653758 38:0.50007321 39:0.43956661 40:0.65162594 41:0.51573391 42:0.644648 43:0.49917504 44:0.77298268 45:0.66512615 46:0.4617707 47:0.45521585 48:0.6813551 49:0.55665976 50:0.66352804 51:-0.09153446 52:0.75171607 53:0.075671982 54:-0.00027968349 55:-0.040152797 56:0.15105042 57:0.86978266 58:0.76517021 59:0.47992321 60:0.7843715 61:0.63108802 62:0.41606582 63:0.39897965 64:0.47676599 65:0.47906473 66:0.39480093 67:0.042160805 68:0.56728366 69:0.38012913 70:0.43476009 71:0.30019655 72:0.28356125 73:0.51574542 74:0.6142904 75:0.17604987 76:0.67305609 77:0.62697707 78:0.80516461 79:0.63227265 80:0.65577233 81:0.70769452 82:0.69549203 83:0.30991915 84:0.74014472 85:0.60083233 86:0.50898502 87:0.38015881 88:0.50022717 89:0.77177867 90:0.71252363 91:0.75425295 92:0.80199665 93:-0.61273477 94:-0.47052013 95:-0.51401693 96:-0.63508917 97:-0.58419452 98:-0.5524131 99:-0.56855513 100:-0.59307114 101:-0.54022364 102:-0.58385821 103:-0.60088919 104:-0.56970761 105:-0.65694374 106:-0.56146498 107:-0.53633489 108:-0.64492665 109:-0.53270986 110:-0.28704624 111:-0.31370599 112:-0.55613587 113:-0.5499031 114:-0.45105129 115:-0.38459593 116:-0.63011122 117:-0.65886239 118:-0.5586967 119:-0.59918788 120:-0.66558506 121:-0.69081704 122:-0.63922024 123:-0.58217665 124:-0.66226911 125:-0.58832952 126:-0.40601006 127:-0.4720853 128:-0.63527613 129:-0.5496351 130:-0.47326932 131:-0.41642071 132:-0.66067377 133:-0.65961827 134:-0.54192999 135:-0.62703274 136:-0.67873886 137:-0.60604685 138:-0.48328696 139:-0.44580721 140:-0.58177949 141:-0.43002002 142:-0.017388511 143:0.004492343 144:-0.39699607 145:-0.21997244 146:-0.31897543 147:-0.12373919 148:-0.56818513 149:-0.58112644 150:-0.49089783 151:-0.48443238 152:-0.63280785 153:-0.57866619 154:-0.4447333 155:-0.46036457 156:-0.66192896 157:-0.47596044 158:-0.32603562 159:-0.40137202 160:-0.52476385 161:-0.47558056 162:-0.2895629 163:-0.21644306 164:-0.5403034 165:-0.67331182 166:-0.537269 167:-0.54222269 168:-0.7004475 169:-0.68681187 170:-0.62474406 171:-0.650737 172:-0.64736301 173:-0.60113068 174:-0.39359819 175:-0.44829701 176:-0.63079262 177:-0.63278183 178:-0.57642064 179:-0.50947854 180:-0.64316511 181:-0.68185391 182:-0.61529718 183:-0.70041746 184:-0.65239138 
43.530796909052476 1:-0.61273477 2:-0.47052013 3:-0.51401693 4:-0.63508917 5:-0.58419452 6:-0.5524131 7:-0.56855513 8:-0.59307114 9:-0.54022364 10:-0.58385821 11:-0.60088919 12:-0.56970761 13:-0.65694374 14:-0.56146498 15:-0.53633489 16:-0.64492665 17:-0.53270986 18:-0.28704624 19:-0.31370599 20:-0.55613587 21:-0.5499031 22:-0.45105129 23:-0.38459593 24:-0.63011122 25:-0.65886239 26:-0.5586967 27:-0.59918788 28:-0.66558506 29:-0.69081704 30:-0.63922024 31:-0.58217665 32:-0.66226911 33:-0.58832952 34:-0.40601006 35:-0.4720853 36:-0.63527613 37:-0.5496351 38:-0.47326932 39:-0.41642071 40:-0.66067377 41:-0.65961827 42:-0.54192999 43:-0.62703274 44:-0.67873886 45:-0.60604685 46:-0.48328696 47:-0.44580721 48:-0.58177949 49:-0.43002002 50:-0.017388511 51:0.004492343 52:-0.39699607 53:-0.21997244 54:-0.31897543 55:-0.12373919 56:-0.56818513 57:-0.58112644 58:-0.49089783 59:-0.48443238 60:-0.63280785 61:-0.57866619 62:-0.4447333 63:-0.46036457 64:-0.66192896 65:-0.47596044 66:-0.32603562 67:-0.40137202 68:-0.52476385 69:-0.47558056 70:-0.2895629 71:-0.21644306 72:-0.5403034 73:-0.67331182 74:-0.537269 75:-0.54222269 76:-0.7004475 77:-0.68681187 78:-0.62474406 79:-0.650737 80:-0.64736301 81:-0.60113068 82:-0.39359819 83:-0.44829701 84:-0.63079262 85:-0.63278183 86:-0.57642064 87:-0.50947854 88:-0.64316511 89:-0.68185391 90:-0.61529718 91:-0.70041746 92:-0.65239138 93:0.6006098 94:0.60925404 95:0.45527497 96:0.6808543 97:0.62151572 98:0.57391288 99:0.57341072 100:0.62298546 101:0.59800011 102:0.58526516 103:0.66824814 104:0.57696549 105:0.61569123 106:0.59232485 107:0.53851559 108:0.6276078 109:0.57036155 110:0.61841743 111:0.042737159 112:0.7153445 113:0.498478 114:0.45772248 115:0.35577615 116:0.48568273 117:0.67021797 118:0.70679778 119:0.50149718 120:0.77618697 121:0.56696324 122:0.63530942 123:0.65520973 124:0.63466808 125:0.48961864 126:0.67172319 127:-0.031794727 128:0.73757422 129:0.52653758 130:0.50007321 131:0.43956661 132:0.65162594 133:0.51573391 134:0.644648 135:0.49917504 136:0.77298268 137:0.66512615 138:0.4617707 139:0.45521585 140:0.6813551 141:0.55665976 142:0.66352804 143:-0.09153446 144:0.75171607 145:0.075671982 146:-0.00027968349 147:-0.040152797 148:0.15105042 149:0.86978266 150:0.76517021 151:0.47992321 152:0.7843715 153:0.63108802 154:0.41606582 155:0.39897965 156:0.47676599 157:0.47906473 158:0.39480093 159:0.042160805 160:0.56728366 161:0.38012913 162:0.43476009 163:0.30019655 164:0.28356125 165:0.51574542 166:0.6142904 167:0.17604987 168:0.67305609 169:0.62697707 170:0.80516461 171:0.63227265 172:0.65577233 173:0.70769452 174:0.69549203 175:0.30991915 176:0.74014472 177:0.60083233 178:0.50898502 179:0.38015881 180:0.50022717 181:0.77177867 182:0.71252363 183:0.75425295 184:0.80199665 
12.243599432385473 1:-0.57155562 2:-0.50683278 3:-0.57450145 4:-0.53402376 5:-0.56295487 6:-0.53387582 7:-0.53847244 8:-0.56824863 9:-0.53853242 10:-0.56492531 11:-0.56451648 12:-0.53404852 13:-0.60456313 14:-0.51103711 15:-0.56525765 16:-0.55875896 17:-0.49617501 18:-0.47188941 19:-0.65912513 20:-0.49414461 21:-0.58226054 22:-0.54140937 23:-0.58903959 24:-0.55193982 25:-0.56715376 26:-0.48723159 27:-0.53606831 28:-0.52062091 29:-0.63880871 30:-0.56118781 31:-0.613047 32:-0.55859544 33:-0.53674006 34:-0.39342952 35:-0.60254176 36:-0.52853182 37:-0.56105944 38:-0.53660325 39:-0.56824721 40:-0.55992635 41:-0.60387992 42:-0.55724067 43:-0.55283552 44:-0.51723927 45:-0.5172179 46:-0.38845419 47:-0.50027712 48:-0.53330097 49:-0.41109739 50:-0.47133288 51:-0.66769528 52:-0.45745461 53:-0.68191684 54:-0.68112969 55:-0.67302117 56:-0.54052222 57:-0.54983999 58:-0.35925751 59:-0.48443238 60:-0.55021151 61:-0.62242325 62:-0.56994044 63:-0.57176104 64:-0.51663554 65:-0.51243709 66:-0.54157989 67:-0.6492286 68:-0.51224755 69:-0.62623367 70:-0.55199876 71:-0.5904521 72:-0.5403034 73:-0.57302988 74:-0.47119592 75:-0.55552403 76:-0.54424513 77:-0.5775192 78:-0.52996625 79:-0.53733968 80:-0.59032342 81:-0.50800273 82:-0.44000829 83:-0.63785104 84:-0.46877275 85:-0.53879218 86:-0.47802692 87:-0.55825761 88:-0.53484374 89:-0.5336875 90:-0.54231413 91:-0.52729268 92:-0.49445317 93:-0.72915484 94:-0.74157648 95:-0.72252356 96:-0.76037441 97:-0.74620532 98:-0.73744664 99:-0.73538077 100:-0.76167276 101:-0.76997871 102:-0.736752 103:-0.74249441 104:-0.7414731 105:-0.688479 106:-0.75006524 107:-0.73879421 108:-0.73234315 109:-0.73505672 110:-0.71120328 111:-0.50478892 112:-0.78167855 113:-0.73757626 114:-0.69408336 115:-0.67653811 116:-0.7411969 117:-0.73389672 118:-0.76827414 119:-0.74887143 120:-0.75670539 121:-0.65249511 122:-0.73954765 123:-0.70308551 124:-0.68869573 125:-0.73495219 126:-0.74987826 127:-0.65146294 128:-0.75388091 129:-0.72328505 130:-0.71327159 131:-0.67295514 132:-0.80275346 133:-0.68869915 134:-0.77541791 135:-0.73567867 136:-0.72488159 137:-0.69487581 138:-0.72200395 139:-0.73404381 140:-0.74337453 141:-0.74359496 142:-0.6170016 143:-0.41562492 144:-0.7673046 145:-0.66343907 146:-0.53626798 147:-0.37449835 148:-0.4575335 149:-0.76493434 150:-0.77337601 151:-0.74547718 152:-0.7871326 153:-0.7047895 154:-0.75253419 155:-0.69907129 156:-0.77681213 157:-0.66829189 158:-0.70765497 159:-0.29701136 160:-0.76257362 161:-0.70457329 162:-0.61498337 163:-0.64433476 164:-0.69705641 165:-0.75568627 166:-0.72604924 167:-0.70981962 168:-0.7246858 169:-0.70730425 170:-0.74012574 171:-0.77061416 172:-0.71975942 173:-0.75214897 174:-0.72775087 175:-0.6895476 176:-0.79488967 177:-0.76436734 178:-0.74246003 179:-0.72550014 180:-0.73543887 181:-0.73191013 182:-0.74949184 183:-0.75108812 184:-0.76285123 
12.207630030171156 1:-0.72915484 2:-0.74157648 3:-0.72252356 4:-0.76037441 5:-0.74620532 6:-0.73744664 7:-0.73538077 8:-0.76167276 9:-0.76997871 10:-0.736752 11:-0.74249441 12:-0.7414731 13:-0.688479 14:-0.75006524 15:-0.73879421 16:-0.73234315 17:-0.73505672 18:-0.71120328 19:-0.50478892 20:-0.78167855 21:-0.73757626 22:-0.69408336 23:-0.67653811 24:-0.7411969 25:-0.73389672 26:-0.76827414 27:-0.74887143 28:-0.75670539 29:-0.65249511 30:-0.73954765 31:-0.70308551 32:-0.68869573 33:-0.73495219 34:-0.74987826 35:-0.65146294 36:-0.75388091 37:-0.72328505 38:-0.71327159 39:-0.67295514 40:-0.80275346 41:-0.68869915 42:-0.77541791 43:-0.73567867 44:-0.72488159 45:-0.69487581 46:-0.72200395 47:-0.73404381 48:-0.74337453 49:-0.74359496 50:-0.6170016 51:-0.41562492 52:-0.7673046 53:-0.66343907 54:-0.53626798 55:-0.37449835 56:-0.4575335 57:-0.76493434 58:-0.77337601 59:-0.74547718 60:-0.7871326 61:-0.7047895 62:-0.75253419 63:-0.69907129 64:-0.77681213 65:-0.66829189 66:-0.70765497 67:-0.29701136 68:-0.76257362 69:-0.70457329 70:-0.61498337 71:-0.64433476 72:-0.69705641 73:-0.75568627 74:-0.72604924 75:-0.70981962 76:-0.7246858 77:-0.70730425 78:-0.74012574 79:-0.77061416 80:-0.71975942 81:-0.75214897 82:-0.72775087 83:-0.6895476 84:-0.79488967 85:-0.76436734 86:-0.74246003 87:-0.72550014 88:-0.73543887 89:-0.73191013 90:-0.74949184 91:-0.75108812 92:-0.76285123 93:-0.57155562 94:-0.50683278 95:-0.57450145 96:-0.53402376 97:-0.56295487 98:-0.53387582 99:-0.53847244 100:-0.56824863 101:-0.53853242 102:-0.56492531 103:-0.56451648 104:-0.53404852 105:-0.60456313 106:-0.51103711 107:-0.56525765 108:-0.55875896 109:-0.49617501 110:-0.47188941 111:-0.65912513 112:-0.49414461 113:-0.58226054 114:-0.54140937 115:-0.58903959 116:-0.55193982 117:-0.56715376 118:-0.48723159 119:-0.53606831 120:-0.52062091 121:-0.63880871 122:-0.56118781 123:-0.613047 124:-0.55859544 125:-0.53674006 126:-0.39342952 127:-0.60254176 128:-0.52853182 129:-0.56105944 130:-0.53660325 131:-0.56824721 132:-0.55992635 133:-0.60387992 134:-0.55724067 135:-0.55283552 136:-0.51723927 137:-0.5172179 138:-0.38845419 139:-0.50027712 140:-0.53330097 141:-0.41109739 142:-0.47133288 143:-0.66769528 144:-0.45745461 145:-0.68191684 146:-0.68112969 147:-0.67302117 148:-0.54052222 149:-0.54983999 150:-0.35925751 151:-0.48443238 152:-0.55021151 153:-0.62242325 154:-0.56994044 155:-0.57176104 156:-0.51663554 157:-0.51243709 158:-0.54157989 159:-0.6492286 160:-0.51224755 161:-0.62623367 162:-0.55199876 163:-0.5904521 164:-0.5403034 165:-0.57302988 166:-0.47119592 167:-0.55552403 168:-0.54424513 169:-0.5775192 170:-0.52996625 171:-0.53733968 172:-0.59032342 173:-0.50800273 174:-0.44000829 175:-0.63785104 176:-0.46877275 177:-0.53879218 178:-0.47802692 179:-0.55825761 180:-0.53484374 181:-0.5336875 182:-0.54231413 183:-0.52729268 184:-0.49445317 
5.7508066544966381 1:-0.40243301 2:-0.47122295 3:-0.48058549 4:-0.38048207 5:-0.43068895 6:-0.43075689 7:-0.43700147 8:-0.42338905 9:-0.42268685 10:-0.42396797 11:-0.44140118 12:-0.42080551 13:-0.39236822 14:-0.41522414 15:-0.44149515 16:-0.35770102 17:-0.44067014 18:-0.54600527 19:-0.67749848 20:-0.38796808 21:-0.42937163 22:-0.50609701 23:-0.55454498 24:-0.41781414 25:-0.33510314 26:-0.40211585 27:-0.41223373 28:-0.36281708 29:-0.43761862 30:-0.35681717 31:-0.40209963 32:-0.33091995 33:-0.42813067 34:-0.41020358 35:-0.43947118 36:-0.38324097 37:-0.37370029 38:-0.47326932 39:-0.51327555 40:-0.39976379 41:-0.3736563 42:-0.34671877 43:-0.37794208 44:-0.32911888 45:-0.34874919 46:-0.49963744 47:-0.51162502 48:-0.36362618 49:-0.51922668 50:-0.62038924 51:-0.79973213 52:-0.42722534 53:-0.68191684 54:-0.82599139 55:-0.58943478 56:-0.56818513 57:-0.27608356 58:-0.44976023 59:-0.43912708 60:-0.32633195 61:-0.33928929 62:-0.48646901 63:-0.49484443 64:-0.40175237 65:-0.48259255 66:-0.61225014 67:-0.67531877 68:-0.36518098 69:-0.46352831 70:-0.57649278 71:-0.63482606 72:-0.51114005 73:-0.32590654 74:-0.40512284 75:-0.47039543 76:-0.41497421 77:-0.38398011 78:-0.28684057 79:-0.28462566 80:-0.34242057 81:-0.33181472 82:-0.48641838 83:-0.67231541 84:-0.35868233 85:-0.41660563 86:-0.37963321 87:-0.49554166 88:-0.34427836 89:-0.33346263 90:-0.37751367 91:-0.34361151 92:-0.37430386 93:1.0495134 94:0.80206249 95:0.70821023 96:1.1525427 97:0.95405188 98:0.93495164 99:1.0003174 100:0.98143807 101:0.94751846 102:0.98812018 103:0.96712258 104:0.99207884 105:1.0774958 106:1.0421415 107:0.77191554 108:1.2463917 109:0.94414116 110:0.56930451 111:-0.15569511 112:0.97913711 113:0.8196256 114:0.5231542 115:0.43822668 116:0.97281401 117:1.2642398 118:1.0030969 119:0.95836263 120:1.2616098 121:1.0459873 122:1.1220831 123:0.90989008 124:1.2119881 125:1.2390234 126:0.72623888 127:0.14758291 128:1.1704817 129:0.81671578 130:0.69674173 131:0.53380374 132:0.97453433 133:1.2839538 134:1.1039685 135:1.1563504 136:1.3160472 137:1.0510726 138:0.88034296 139:0.61181684 140:1.2442445 141:0.71344723 142:0.36880297 143:-0.28358807 144:0.72652502 145:0.03871643 146:-0.20308607 147:-0.55361204 148:0.22020768 149:1.4446712 150:0.68838003 151:0.71292188 152:1.1604022 153:0.97857061 154:0.76038547 155:0.51568071 156:0.99036134 157:0.67471224 158:0.36299931 159:-0.41441711 160:0.7174793 161:0.61816105 162:0.22131225 163:0.25582259 164:0.62623062 165:1.160415 166:0.81722915 167:0.76662953 168:1.0689483 169:1.2030405 170:1.3037783 171:1.0696623 172:1.4126439 173:1.0575536 174:0.7821242 175:0.068668552 176:1.1888151 177:1.0543324 178:0.7549693 179:0.65657354 180:1.2384173 181:1.1942531 182:1.263428 183:1.1385055 184:1.3310412 
5.7519249927559715 1:1.0495134 2:0.80206249 3:0.70821023 4:1.1525427 5:0.95405188 6:0.93495164 7:1.0003174 8:0.98143807 9:0.94751846 10:0.98812018 11:0.96712258 12:0.99207884 13:1.0774958 14:1.0421415 15:0.77191554 16:1.2463917 17:0.94414116 18:0.56930451 19:-0.15569511 20:0.97913711 21:0.8196256 22:0.5231542 23:0.43822668 24:0.97281401 25:1.2642398 26:1.0030969 27:0.95836263 28:1.2616098 29:1.0459873 30:1.1220831 31:0.90989008 32:1.2119881 33:1.2390234 34:0.72623888 35:0.14758291 36:1.1704817 37:0.81671578 38:0.69674173 39:0.53380374 40:0.97453433 41:1.2839538 42:1.1039685 43:1.1563504 44:1.3160472 45:1.0510726 46:0.88034296 47:0.61181684 48:1.2442445 49:0.71344723 50:0.36880297 51:-0.28358807 52:0.72652502 53:0.03871643 54:-0.20308607 55:-0.55361204 56:0.22020768 57:1.4446712 58:0.68838003 59:0.71292188 60:1.1604022 61:0.97857061 62:0.76038547 63:0.51568071 64:0.99036134 65:0.67471224 66:0.36299931 67:-0.41441711 68:0.7174793 69:0.61816105 70:0.22131225 71:0.25582259 72:0.62623062 73:1.160415 74:0.81722915 75:0.76662953 76:1.0689483 77:1.2030405 78:1.3037783 79:1.0696623 80:1.4126439 81:1.0575536 82:0.7821242 83:0.068668552 84:1.1888151 85:1.0543324 86:0.7549693 87:0.65657354 88:1.2384173 89:1.1942531 90:1.263428 91:1.1385055 92:1.3310412 93:-0.40243301 94:-0.47122295 95:-0.48058549 96:-0.38048207 97:-0.43068895 98:-0.43075689 99:-0.43700147 100:-0.42338905 101:-0.42268685 102:-0.42396797 103:-0.44140118 104:-0.42080551 105:-0.39236822 106:-0.41522414 107:-0.44149515 108:-0.35770102 109:-0.44067014 110:-0.54600527 111:-0.67749848 112:-0.38796808 113:-0.42937163 114:-0.50609701 115:-0.55454498 116:-0.41781414 117:-0.33510314 118:-0.40211585 119:-0.41223373 120:-0.36281708 121:-0.43761862 122:-0.35681717 123:-0.40209963 124:-0.33091995 125:-0.42813067 126:-0.41020358 127:-0.43947118 128:-0.38324097 129:-0.37370029 130:-0.47326932 131:-0.51327555 132:-0.39976379 133:-0.3736563 134:-0.34671877 135:-0.37794208 136:-0.32911888 137:-0.34874919 138:-0.49963744 139:-0.51162502 140:-0.36362618 141:-0.51922668 142:-0.62038924 143:-0.79973213 144:-0.42722534 145:-0.68191684 146:-0.82599139 147:-0.58943478 148:-0.56818513 149:-0.27608356 150:-0.44976023 151:-0.43912708 152:-0.32633195 153:-0.33928929 154:-0.48646901 155:-0.49484443 156:-0.40175237 157:-0.48259255 158:-0.61225014 159:-0.67531877 160:-0.36518098 161:-0.46352831 162:-0.57649278 163:-0.63482606 164:-0.51114005 165:-0.32590654 166:-0.40512284 167:-0.47039543 168:-0.41497421 169:-0.38398011 170:-0.28684057 171:-0.28462566 172:-0.34242057 173:-0.33181472 174:-0.48641838 175:-0.67231541 176:-0.35868233 177:-0.41660563 178:-0.37963321 179:-0.49554166 180:-0.34427836 181:-0.33346263 182:-0.37751367 183:-0.34361151 184:-0.37430386 
65.580495200882211 1:-0.497162 2:-0.51479813 3:-0.54019023 4:-0.44611479 5:-0.49616694 6:-0.50897724 7:-0.48130489 8:-0.50383711 9:-0.49333078 10:-0.49884457 11:-0.48659939 12:-0.50070392 13:-0.48376704 14:-0.49792586 15:-0.52960867 16:-0.46697164 17:-0.52919689 18:-0.5147516 19:-0.73629323 20:-0.44006712 21:-0.50864736 22:-0.59957089 23:-0.58651559 24:-0.4548427 25:-0.44973893 26:-0.4414618 27:-0.46333052 28:-0.42080274 29:-0.51152518 30:-0.4608604 31:-0.47413044 32:-0.45288896 33:-0.48243537 34:-0.5905247 35:-0.68407705 36:-0.39510144 37:-0.50165288 38:-0.55327008 39:-0.61798347 40:-0.42817973 41:-0.49240322 42:-0.48834259 43:-0.4362399 44:-0.44802517 45:-0.48352415 46:-0.55195897 47:-0.58652114 48:-0.45250345 49:-0.55977516 50:-0.36292826 51:-0.71570868 52:-0.51035583 53:-0.75582795 54:-0.8694499 55:-0.72078482 56:-0.54052222 57:-0.40905097 58:-0.50186785 59:-0.49737675 60:-0.32415836 61:-0.42680342 62:-0.46560115 63:-0.59828401 64:-0.49974095 65:-0.6019707 66:-0.66171931 67:-0.68836385 68:-0.48721494 69:-0.52077649 70:-0.65347396 71:-0.60946951 72:-0.52936715 73:-0.49423693 74:-0.39568383 75:-0.45177355 76:-0.43382622 77:-0.47505733 78:-0.45991309 79:-0.38506329 80:-0.45869359 81:-0.47024816 82:-0.43691428 83:-0.79294071 84:-0.36491386 85:-0.45890098 86:-0.50570016 87:-0.4839276 88:-0.40646285 89:-0.40354134 90:-0.36574221 91:-0.43439645 92:-0.43922325 93:-0.5073297 94:-0.50870698 95:-0.48432453 96:-0.49216234 97:-0.50787214 98:-0.48861168 99:-0.49494693 100:-0.51190276 101:-0.49884859 102:-0.49367547 103:-0.49102593 104:-0.51432087 105:-0.5291992 106:-0.52919114 107:-0.46907266 108:-0.48757696 109:-0.46666609 110:-0.50314309 111:-0.68484783 112:-0.50007994 113:-0.50298481 114:-0.5144058 115:-0.45106116 116:-0.45155128 117:-0.49837229 118:-0.47197499 119:-0.47054419 120:-0.4986692 121:-0.56490215 122:-0.56118781 123:-0.47155791 124:-0.4935453 125:-0.50958771 126:-0.52342847 127:-0.60254176 128:-0.51963646 129:-0.50393775 130:-0.49660288 131:-0.42165611 132:-0.43076299 133:-0.46574575 134:-0.58786204 135:-0.4415397 136:-0.4764207 137:-0.48352415 138:-0.50617763 139:-0.44580721 140:-0.41749119 141:-0.50841375 142:-0.40696763 143:-0.82373883 144:-0.47005014 145:-0.57105019 146:-0.76804671 147:-0.75660756 148:-0.54052222 149:-0.47553468 150:-0.46621527 151:-0.50600633 152:-0.50456616 153:-0.51431756 154:-0.54385562 155:-0.47627835 156:-0.46595178 157:-0.35658229 158:-0.61931716 159:-0.68836385 160:-0.49973124 161:-0.47558056 162:-0.51350817 163:-0.40344758 164:-0.37990498 165:-0.56228539 166:-0.42400087 167:-0.38526683 168:-0.42305364 169:-0.50010356 170:-0.47227541 171:-0.44662183 172:-0.53767149 173:-0.45514633 174:-0.44310229 175:-0.48276138 176:-0.49162171 177:-0.49884658 178:-0.45342849 179:-0.42818009 180:-0.4786771 181:-0.49364253 182:-0.41047376 183:-0.49984607 184:-0.52933523 
65.560527330473548 1:-0.5073297 2:-0.50870698 3:-0.48432453 4:-0.49216234 5:-0.50787214 6:-0.48861168 7:-0.49494693 8:-0.51190276 9:-0.49884859 10:-0.49367547 11:-0.49102593 12:-0.51432087 13:-0.5291992 14:-0.52919114 15:-0.46907266 16:-0.48757696 17:-0.46666609 18:-0.50314309 19:-0.68484783 20:-0.50007994 21:-0.50298481 22:-0.5144058 23:-0.45106116 24:-0.45155128 25:-0.49837229 26:-0.47197499 27:-0.47054419 28:-0.4986692 29:-0.56490215 30:-0.56118781 31:-0.47155791 32:-0.4935453 33:-0.50958771 34:-0.52342847 35:-0.60254176 36:-0.51963646 37:-0.50393775 38:-0.49660288 39:-0.42165611 40:-0.43076299 41:-0.46574575 42:-0.58786204 43:-0.4415397 44:-0.4764207 45:-0.48352415 46:-0.50617763 47:-0.44580721 48:-0.41749119 49:-0.50841375 50:-0.40696763 51:-0.82373883 52:-0.47005014 53:-0.57105019 54:-0.76804671 55:-0.75660756 56:-0.54052222 57:-0.47553468 58:-0.46621527 59:-0.50600633 60:-0.50456616 61:-0.51431756 62:-0.54385562 63:-0.47627835 64:-0.46595178 65:-0.35658229 66:-0.61931716 67:-0.68836385 68:-0.49973124 69:-0.47558056 70:-0.51350817 71:-0.40344758 72:-0.37990498 73:-0.56228539 74:-0.42400087 75:-0.38526683 76:-0.42305364 77:-0.50010356 78:-0.47227541 79:-0.44662183 80:-0.53767149 81:-0.45514633 82:-0.44310229 83:-0.48276138 84:-0.49162171 85:-0.49884658 86:-0.45342849 87:-0.42818009 88:-0.4786771 89:-0.49364253 90:-0.41047376 91:-0.49984607 92:-0.52933523 93:-0.497162 94:-0.51479813 95:-0.54019023 96:-0.44611479 97:-0.49616694 98:-0.50897724 99:-0.48130489 100:-0.50383711 101:-0.49333078 102:-0.49884457 103:-0.48659939 104:-0.50070392 105:-0.48376704 106:-0.49792586 107:-0.52960867 108:-0.46697164 109:-0.52919689 110:-0.5147516 111:-0.73629323 112:-0.44006712 113:-0.50864736 114:-0.59957089 115:-0.58651559 116:-0.4548427 117:-0.44973893 118:-0.4414618 119:-0.46333052 120:-0.42080274 121:-0.51152518 122:-0.4608604 123:-0.47413044 124:-0.45288896 125:-0.48243537 126:-0.5905247 127:-0.68407705 128:-0.39510144 129:-0.50165288 130:-0.55327008 131:-0.61798347 132:-0.42817973 133:-0.49240322 134:-0.48834259 135:-0.4362399 136:-0.44802517 137:-0.48352415 138:-0.55195897 139:-0.58652114 140:-0.45250345 141:-0.55977516 142:-0.36292826 143:-0.71570868 144:-0.51035583 145:-0.75582795 146:-0.8694499 147:-0.72078482 148:-0.54052222 149:-0.40905097 150:-0.50186785 151:-0.49737675 152:-0.32415836 153:-0.42680342 154:-0.46560115 155:-0.59828401 156:-0.49974095 157:-0.6019707 158:-0.66171931 159:-0.68836385 160:-0.48721494 161:-0.52077649 162:-0.65347396 163:-0.60946951 164:-0.52936715 165:-0.49423693 166:-0.39568383 167:-0.45177355 168:-0.43382622 169:-0.47505733 170:-0.45991309 171:-0.38506329 172:-0.45869359 173:-0.47024816 174:-0.43691428 175:-0.79294071 176:-0.36491386 177:-0.45890098 178:-0.50570016 179:-0.4839276 180:-0.40646285 181:-0.40354134 182:-0.36574221 183:-0.43439645 184:-0.43922325 
25.634919946821331 1:0.58349418 2:0.52186941 3:0.60373697 4:0.65080378 5:0.52607765 6:0.73355779 7:0.65575627 8:0.54725738 9:0.60876241 10:0.67395027 11:0.63794674 12:0.5028217 13:0.51734397 14:0.48440919 15:0.64815303 16:0.6444667 17:0.5134515 18:0.4657209 19:0.097857234 20:0.62565502 21:0.65460265 22:0.42760312 23:0.57115712 24:0.69551124 25:0.65006986 26:0.65380118 27:0.64637162 28:0.63246537 29:0.40409506 30:0.50153954 31:0.6886526 32:0.54928977 33:0.4000159 34:0.39914474 35:-0.015487669 36:0.70792302 37:0.66591451 38:0.48673975 39:0.5992462 40:0.76787296 41:0.65386808 42:0.64082033 43:0.61577066 44:0.64165334 45:0.53341424 46:0.37020802 47:0.4279809 48:0.6867416 49:0.54314359 50:0.46026937 51:0.48462636 52:0.36377381 53:-0.18301689 54:0.072151168 55:0.055374505 56:0.37235367 57:0.64686671 58:0.4689795 59:0.59426515 60:0.73220538 61:0.62594013 62:0.4630185 63:0.65094786 64:0.78424742 65:0.43263989 66:0.4442701 67:-0.21874086 68:0.53912197 69:0.69047454 70:0.20731567 71:0.60130552 72:0.73194776 73:0.74854277 74:0.77947311 75:0.55114776 76:0.71076011 77:0.58143845 78:0.59088435 79:0.84934751 80:0.6031204 81:0.63470234 82:0.50985165 83:0.068668552 84:0.8170003 85:0.7018712 86:0.61660314 87:0.5938576 88:0.64264972 89:0.58356729 90:0.73135796 91:0.76058678 92:0.54716384 93:-0.66137023 94:-0.64107244 95:-0.65676039 96:-0.65168423 97:-0.68068989 98:-0.6336963 99:-0.65436337 100:-0.6642309 101:-0.66131939 102:-0.66184187 103:-0.67020157 104:-0.64111767 105:-0.68206505 106:-0.63307257 107:-0.63386513 108:-0.65991234 109:-0.64442219 110:-0.61833521 111:-0.89797878 112:-0.58185565 113:-0.63403245 114:-0.67954298 115:-0.60165957 116:-0.68524263 117:-0.64357762 118:-0.61169329 119:-0.65148695 120:-0.6573014 121:-0.72092712 122:-0.69124186 123:-0.5950393 124:-0.67446601 125:-0.59375999 126:-0.61987931 127:-0.76561234 128:-0.63527613 129:-0.63189034 130:-0.59993718 131:-0.56562951 132:-0.69683951 133:-0.62811399 134:-0.68355381 135:-0.65088185 136:-0.66276637 137:-0.67037127 138:-0.60101041 139:-0.63872147 140:-0.630258 141:-0.66790445 142:-0.52553519 143:-0.91976563 144:-0.53806599 145:-0.92212794 146:-1.0143116 147:-0.84019394 148:-0.74799401 149:-0.57721564 150:-0.52929292 151:-0.57935776 152:-0.59368327 153:-0.58896197 154:-0.62211008 155:-0.64602535 156:-0.64841329 157:-0.66497583 158:-0.66878633 159:-0.97535568 160:-0.59360352 161:-0.55693324 162:-0.6639714 163:-0.49853463 164:-0.66789306 165:-0.69480081 166:-0.56558604 167:-0.73908257 168:-0.64927776 169:-0.68681187 170:-0.57117399 171:-0.60213815 172:-0.65833217 173:-0.63133433 174:-0.61946065 175:-0.79294071 176:-0.54978269 177:-0.63983105 178:-0.65944033 179:-0.63026481 180:-0.65319487 181:-0.65182018 182:-0.63648581 183:-0.61596634 184:-0.67758397 
25.611209148772843 1:-0.66137023 2:-0.64107244 3:-0.65676039 4:-0.65168423 5:-0.68068989 6:-0.6336963 7:-0.65436337 8:-0.6642309 9:-0.66131939 10:-0.66184187 11:-0.67020157 12:-0.64111767 13:-0.68206505 14:-0.63307257 15:-0.63386513 16:-0.65991234 17:-0.64442219 18:-0.61833521 19:-0.89797878 20:-0.58185565 21:-0.63403245 22:-0.67954298 23:-0.60165957 24:-0.68524263 25:-0.64357762 26:-0.61169329 27:-0.65148695 28:-0.6573014 29:-0.72092712 30:-0.69124186 31:-0.5950393 32:-0.67446601 33:-0.59375999 34:-0.61987931 35:-0.76561234 36:-0.63527613 37:-0.63189034 38:-0.59993718 39:-0.56562951 40:-0.69683951 41:-0.62811399 42:-0.68355381 43:-0.65088185 44:-0.66276637 45:-0.67037127 46:-0.60101041 47:-0.63872147 48:-0.630258 49:-0.66790445 50:-0.52553519 51:-0.91976563 52:-0.53806599 53:-0.92212794 54:-1.0143116 55:-0.84019394 56:-0.74799401 57:-0.57721564 58:-0.52929292 59:-0.57935776 60:-0.59368327 61:-0.58896197 62:-0.62211008 63:-0.64602535 64:-0.64841329 65:-0.66497583 66:-0.66878633 67:-0.97535568 68:-0.59360352 69:-0.55693324 70:-0.6639714 71:-0.49853463 72:-0.66789306 73:-0.69480081 74:-0.56558604 75:-0.73908257 76:-0.64927776 77:-0.68681187 78:-0.57117399 79:-0.60213815 80:-0.65833217 81:-0.63133433 82:-0.61946065 83:-0.79294071 84:-0.54978269 85:-0.63983105 86:-0.65944033 87:-0.63026481 88:-0.65319487 89:-0.65182018 90:-0.63648581 91:-0.61596634 92:-0.67758397 93:0.58349418 94:0.52186941 95:0.60373697 96:0.65080378 97:0.52607765 98:0.73355779 99:0.65575627 100:0.54725738 101:0.60876241 102:0.67395027 103:0.63794674 104:0.5028217 105:0.51734397 106:0.48440919 107:0.64815303 108:0.6444667 109:0.5134515 110:0.4657209 111:0.097857234 112:0.62565502 113:0.65460265 114:0.42760312 115:0.57115712 116:0.69551124 117:0.65006986 118:0.65380118 119:0.64637162 120:0.63246537 121:0.40409506 122:0.50153954 123:0.6886526 124:0.54928977 125:0.4000159 126:0.39914474 127:-0.015487669 128:0.70792302 129:0.66591451 130:0.48673975 131:0.5992462 132:0.76787296 133:0.65386808 134:0.64082033 135:0.61577066 136:0.64165334 137:0.53341424 138:0.37020802 139:0.4279809 140:0.6867416 141:0.54314359 142:0.46026937 143:0.48462636 144:0.36377381 145:-0.18301689 146:0.072151168 147:0.055374505 148:0.37235367 149:0.64686671 150:0.4689795 151:0.59426515 152:0.73220538 153:0.62594013 154:0.4630185 155:0.65094786 156:0.78424742 157:0.43263989 158:0.4442701 159:-0.21874086 160:0.53912197 161:0.69047454 162:0.20731567 163:0.60130552 164:0.73194776 165:0.74854277 166:0.77947311 167:0.55114776 168:0.71076011 169:0.58143845 170:0.59088435 171:0.84934751 172:0.6031204 173:0.63470234 174:0.50985165 175:0.068668552 176:0.8170003 177:0.7018712 178:0.61660314 179:0.5938576 180:0.64264972 181:0.58356729 182:0.73135796 183:0.76058678 184:0.54716384 
12.866669149435953 1:0.58129118 2:0.55490221 3:0.56700638 4:0.65663448 5:0.6454688 6:0.58107522 7:0.57274664 8:0.60099683 9:0.57436862 10:0.6162798 11:0.64462519 12:0.58431669 13:0.54406877 14:0.61148744 15:0.5600395 16:0.60825129 17:0.61321974 18:0.45500535 19:0.61231126 20:0.5405819 21:0.53245331 22:0.51380681 23:0.50300924 24:0.67987696 25:0.6125527 26:0.60883437 27:0.58926344 28:0.73394027 29:0.44515427 30:0.6576044 31:0.5548811 32:0.61027428 33:0.59551279 34:0.56269181 35:0.37588173 36:0.68123695 37:0.44885208 38:0.57007387 39:0.50500906 40:0.70329128 41:0.57147226 42:0.56809458 43:0.58397186 44:0.65585111 45:0.64674774 46:0.58603434 47:0.55280777 48:0.64364959 49:0.58639531 50:0.28072421 51:0.48462636 52:0.42675145 53:0.72239415 54:0.72402883 55:0.50912919 56:0.48300529 57:0.5764722 58:0.3894468 59:0.48855279 60:0.66047698 61:0.5615915 62:0.37954707 63:0.47854856 64:0.63219616 65:0.5387538 66:0.40186795 67:0.90313629 68:0.46715323 69:0.53078224 70:0.3577789 71:0.47135323 72:0.61893978 73:0.71989079 74:0.73699755 75:0.53518615 76:0.72153269 77:0.5996539 78:0.73099067 79:0.6257928 80:0.54388698 81:0.69007572 82:0.55316774 83:0.58563411 84:0.56358461 85:0.57968466 86:0.52743384 87:0.49397664 88:0.70082231 89:0.59558078 90:0.73371226 91:0.70147101 92:0.80490349 93:-0.52122554 94:-0.65676887 95:-0.57494133 96:-0.55061882 97:-0.55800519 98:-0.59363428 99:-0.56019725 100:-0.58806683 101:-0.58467932 102:-0.56029826 103:-0.55551437 104:-0.58480629 105:-0.46505968 106:-0.56953344 107:-0.55584094 108:-0.50880668 109:-0.601564 110:-0.741564 111:-0.6370771 112:-0.62208402 113:-0.51430992 114:-0.65150082 115:-0.59324625 116:-0.53136839 117:-0.49559324 118:-0.62775287 119:-0.54628767 120:-0.52973294 121:-0.47730918 122:-0.45342874 123:-0.44840515 124:-0.45898742 125:-0.52859436 126:-0.67020148 127:-0.65146294 128:-0.50481087 129:-0.48337394 130:-0.64993766 131:-0.5734826 132:-0.51859408 133:-0.49967344 134:-0.54575766 135:-0.48128821 136:-0.50481623 137:-0.52028096 138:-0.66641232 139:-0.63418231 140:-0.54676723 141:-0.7300788 142:-0.75928267 143:-0.64368858 144:-0.71188427 145:-0.7927835 146:-0.59421266 147:-0.60137569 148:-0.54052222 149:-0.46771306 150:-0.74320844 151:-0.6052465 152:-0.59150968 153:-0.41135975 154:-0.60124223 155:-0.58237022 156:-0.47608853 157:-0.54559769 158:-0.78539225 159:-0.5709581 160:-0.61550705 161:-0.52680261 162:-0.67796798 163:-0.61263908 164:-0.52207631 165:-0.48349244 166:-0.55142752 167:-0.54754323 168:-0.50654111 169:-0.43634951 170:-0.50936238 171:-0.49522068 172:-0.53767149 173:-0.57092702 174:-0.6937168 175:-0.62061886 176:-0.61209802 177:-0.48474813 178:-0.60716867 179:-0.56290324 180:-0.52681993 181:-0.50565602 182:-0.59175426 183:-0.50829118 184:-0.51770788 
12.82486989905985 1:-0.52122554 2:-0.65676887 3:-0.57494133 4:-0.55061882 5:-0.55800519 6:-0.59363428 7:-0.56019725 8:-0.58806683 9:-0.58467932 10:-0.56029826 11:-0.55551437 12:-0.58480629 13:-0.46505968 14:-0.56953344 15:-0.55584094 16:-0.50880668 17:-0.601564 18:-0.741564 19:-0.6370771 20:-0.62208402 21:-0.51430992 22:-0.65150082 23:-0.59324625 24:-0.53136839 25:-0.49559324 26:-0.62775287 27:-0.54628767 28:-0.52973294 29:-0.47730918 30:-0.45342874 31:-0.44840515 32:-0.45898742 33:-0.52859436 34:-0.67020148 35:-0.65146294 36:-0.50481087 37:-0.48337394 38:-0.64993766 39:-0.5734826 40:-0.51859408 41:-0.49967344 42:-0.54575766 43:-0.48128821 44:-0.50481623 45:-0.52028096 46:-0.66641232 47:-0.63418231 48:-0.54676723 49:-0.7300788 50:-0.75928267 51:-0.64368858 52:-0.71188427 53:-0.7927835 54:-0.59421266 55:-0.60137569 56:-0.54052222 57:-0.46771306 58:-0.74320844 59:-0.6052465 60:-0.59150968 61:-0.41135975 62:-0.60124223 63:-0.58237022 64:-0.47608853 65:-0.54559769 66:-0.78539225 67:-0.5709581 68:-0.61550705 69:-0.52680261 70:-0.67796798 71:-0.61263908 72:-0.52207631 73:-0.48349244 74:-0.55142752 75:-0.54754323 76:-0.50654111 77:-0.43634951 78:-0.50936238 79:-0.49522068 80:-0.53767149 81:-0.57092702 82:-0.6937168 83:-0.62061886 84:-0.61209802 85:-0.48474813 86:-0.60716867 87:-0.56290324 88:-0.52681993 89:-0.50565602 90:-0.59175426 91:-0.50829118 92:-0.51770788 93:0.58129118 94:0.55490221 95:0.56700638 96:0.65663448 97:0.6454688 98:0.58107522 99:0.57274664 100:0.60099683 101:0.57436862 102:0.6162798 103:0.64462519 104:0.58431669 105:0.54406877 106:0.61148744 107:0.5600395 108:0.60825129 109:0.61321974 110:0.45500535 111:0.61231126 112:0.5405819 113:0.53245331 114:0.51380681 115:0.50300924 116:0.67987696 117:0.6125527 118:0.60883437 119:0.58926344 120:0.73394027 121:0.44515427 122:0.6576044 123:0.5548811 124:0.61027428 125:0.59551279 126:0.56269181 127:0.37588173 128:0.68123695 129:0.44885208 130:0.57007387 131:0.50500906 132:0.70329128 133:0.57147226 134:0.56809458 135:0.58397186 136:0.65585111 137:0.64674774 138:0.58603434 139:0.55280777 140:0.64364959 141:0.58639531 142:0.28072421 143:0.48462636 144:0.42675145 145:0.72239415 146:0.72402883 147:0.50912919 148:0.48300529 149:0.5764722 150:0.3894468 151:0.48855279 152:0.66047698 153:0.5615915 154:0.37954707 155:0.47854856 156:0.63219616 157:0.5387538 158:0.40186795 159:0.90313629 160:0.46715323 161:0.53078224 162:0.3577789 163:0.47135323 164:0.61893978 165:0.71989079 166:0.73699755 167:0.53518615 168:0.72153269 169:0.5996539 170:0.73099067 171:0.6257928 172:0.54388698 173:0.69007572 174:0.55316774 175:0.58563411 176:0.56358461 177:0.57968466 178:0.52743384 179:0.49397664 180:0.70082231 181:0.59558078 182:0.73371226 183:0.70147101 184:0.80490349 
22.903012266554246 1:-0.59053531 2:-0.59820008 3:-0.54942786 4:-0.55764556 5:-0.56240283 6:-0.58054415 7:-0.58826873 8:-0.57501582 9:-0.61552554 10:-0.54479653 11:-0.58068826 12:-0.57557709 13:-0.59814918 14:-0.6038244 15:-0.57803748 16:-0.5662518 17:-0.62123661 18:-0.6210141 19:-0.4423195 20:-0.56273068 21:-0.53372438 22:-0.59645509 23:-0.50406507 24:-0.54700268 25:-0.57132234 26:-0.54986393 27:-0.55229906 28:-0.54050171 29:-0.64838919 30:-0.60577777 31:-0.46898538 32:-0.60941587 33:-0.61276663 34:-0.63665337 35:-0.43947118 36:-0.57597373 37:-0.53364103 38:-0.65327102 39:-0.53945253 40:-0.57800922 41:-0.60387992 42:-0.56489601 43:-0.53428622 44:-0.54740952 45:-0.56316391 46:-0.62717118 47:-0.68638264 48:-0.55484698 49:-0.68953031 50:-0.53569813 51:-0.45163497 52:-0.61615826 53:-0.53409463 54:-0.20308607 55:-0.41032109 56:-0.59584803 57:-0.53810758 58:-0.55671798 59:-0.58151516 60:-0.53064922 61:-0.54263095 62:-0.57515741 63:-0.53462888 64:-0.46257287 65:-0.53896557 66:-0.68998741 67:-0.51877777 68:-0.55292553 69:-0.49667199 70:-0.57649278 71:-0.47000851 72:-0.4418771 73:-0.56228539 74:-0.50895197 75:-0.53956242 76:-0.53077941 77:-0.57296534 78:-0.55057012 79:-0.56001915 80:-0.57935427 81:-0.60616462 82:-0.58852059 83:-0.27597515 84:-0.49369889 85:-0.5458414 86:-0.61331828 87:-0.48857322 88:-0.55490325 89:-0.55771449 90:-0.53289696 91:-0.51673629 92:-0.53805574 93:0.64433087 94:0.50757863 95:0.52103814 96:0.66246518 97:0.62675545 98:0.5118078 99:0.59010751 100:0.64516365 101:0.5848462 102:0.66651793 103:0.63816751 104:0.54227699 105:0.64936448 106:0.55702533 107:0.6293196 108:0.68692614 109:0.5759823 110:0.36392321 111:0.11623059 112:0.59861627 113:0.61739159 114:0.38709778 115:0.41887604 116:0.60499698 117:0.6973137 118:0.66986075 119:0.54357689 120:0.69914888 121:0.54095908 122:0.6947627 123:0.74524824 124:0.69768541 125:0.58736709 126:0.40333825 127:0.18019703 128:0.67827183 129:0.7230362 130:0.64007453 131:0.47883208 132:0.6309598 133:0.61267017 134:0.57192225 135:0.67406848 136:0.78540572 137:0.86116246 138:0.3113463 139:0.51195534 140:0.58709132 141:0.40257552 142:0.38235355 143:0.10051915 144:0.34614007 145:0.18653864 146:-0.15962756 147:0.13896089 148:0.28936495 149:0.74072606 150:0.40864435 151:0.3957848 152:0.83871119 153:0.66712325 154:0.62996136 155:0.54220368 156:0.60516483 157:0.7277692 158:0.016715088 159:0.10738622 160:0.43899154 161:0.53379531 162:0.17582337 163:0.40162273 164:0.52415889 165:0.72347229 166:0.59541238 167:0.45803835 168:0.63265893 169:0.63608479 170:0.615609 171:0.69707111 172:0.789596 173:0.59191383 174:0.59957783 175:0.068668552 176:0.83361772 177:0.61023129 178:0.43518973 179:0.41035537 180:0.65468543 181:0.7197202 182:0.96443289 183:0.62124245 184:0.6053006 
22.844665297890998 1:0.64433087 2:0.50757863 3:0.52103814 4:0.66246518 5:0.62675545 6:0.5118078 7:0.59010751 8:0.64516365 9:0.5848462 10:0.66651793 11:0.63816751 12:0.54227699 13:0.64936448 14:0.55702533 15:0.6293196 16:0.68692614 17:0.5759823 18:0.36392321 19:0.11623059 20:0.59861627 21:0.61739159 22:0.38709778 23:0.41887604 24:0.60499698 25:0.6973137 26:0.66986075 27:0.54357689 28:0.69914888 29:0.54095908 30:0.6947627 31:0.74524824 32:0.69768541 33:0.58736709 34:0.40333825 35:0.18019703 36:0.67827183 37:0.7230362 38:0.64007453 39:0.47883208 40:0.6309598 41:0.61267017 42:0.57192225 43:0.67406848 44:0.78540572 45:0.86116246 46:0.3113463 47:0.51195534 48:0.58709132 49:0.40257552 50:0.38235355 51:0.10051915 52:0.34614007 53:0.18653864 54:-0.15962756 55:0.13896089 56:0.28936495 57:0.74072606 58:0.40864435 59:0.3957848 60:0.83871119 61:0.66712325 62:0.62996136 63:0.54220368 64:0.60516483 65:0.7277692 66:0.016715088 67:0.10738622 68:0.43899154 69:0.53379531 70:0.17582337 71:0.40162273 72:0.52415889 73:0.72347229 74:0.59541238 75:0.45803835 76:0.63265893 77:0.63608479 78:0.615609 79:0.69707111 80:0.789596 81:0.59191383 82:0.59957783 83:0.068668552 84:0.83361772 85:0.61023129 86:0.43518973 87:0.41035537 88:0.65468543 89:0.7197202 90:0.96443289 91:0.62124245 92:0.6053006 93:-0.59053531 94:-0.59820008 95:-0.54942786 96:-0.55764556 97:-0.56240283 98:-0.58054415 99:-0.58826873 100:-0.57501582 101:-0.61552554 102:-0.54479653 103:-0.58068826 104:-0.57557709 105:-0.59814918 106:-0.6038244 107:-0.57803748 108:-0.5662518 109:-0.62123661 110:-0.6210141 111:-0.4423195 112:-0.56273068 113:-0.53372438 114:-0.59645509 115:-0.50406507 116:-0.54700268 117:-0.57132234 118:-0.54986393 119:-0.55229906 120:-0.54050171 121:-0.64838919 122:-0.60577777 123:-0.46898538 124:-0.60941587 125:-0.61276663 126:-0.63665337 127:-0.43947118 128:-0.57597373 129:-0.53364103 130:-0.65327102 131:-0.53945253 132:-0.57800922 133:-0.60387992 134:-0.56489601 135:-0.53428622 136:-0.54740952 137:-0.56316391 138:-0.62717118 139:-0.68638264 140:-0.55484698 141:-0.68953031 142:-0.53569813 143:-0.45163497 144:-0.61615826 145:-0.53409463 146:-0.20308607 147:-0.41032109 148:-0.59584803 149:-0.53810758 150:-0.55671798 151:-0.58151516 152:-0.53064922 153:-0.54263095 154:-0.57515741 155:-0.53462888 156:-0.46257287 157:-0.53896557 158:-0.68998741 159:-0.51877777 160:-0.55292553 161:-0.49667199 162:-0.57649278 163:-0.47000851 164:-0.4418771 165:-0.56228539 166:-0.50895197 167:-0.53956242 168:-0.53077941 169:-0.57296534 170:-0.55057012 171:-0.56001915 172:-0.57935427 173:-0.60616462 174:-0.58852059 175:-0.27597515 176:-0.49369889 177:-0.5458414 178:-0.61331828 179:-0.48857322 180:-0.55490325 181:-0.55771449 182:-0.53289696 183:-0.51673629 184:-0.53805574 
95.031267909828998 1:-0.56884423 2:-0.69261297 3:-0.66269887 4:-0.57154953 5:-0.6270013 6:-0.59174945 7:-0.61727941 8:-0.63425244 9:-0.61161922 10:-0.63354869 11:-0.60744622 12:-0.61388375 13:-0.51209532 14:-0.59878161 15:-0.63319251 16:-0.53940245 17:-0.62966773 18:-0.76835286 19:-0.77303995 20:-0.65242017 21:-0.61623586 22:-0.72316412 23:-0.73206602 24:-0.56345981 25:-0.51504659 26:-0.64702436 27:-0.59558105 28:-0.53221804 29:-0.51699974 30:-0.535177 31:-0.48699308 32:-0.50370939 33:-0.58561429 34:-0.62826634 35:-0.66776999 36:-0.5552179 37:-0.56105944 38:-0.63993756 39:-0.74625069 40:-0.56509289 41:-0.48028619 42:-0.62613875 43:-0.55283552 44:-0.52078871 45:-0.5447855 46:-0.62717118 47:-0.68411306 48:-0.60601874 49:-0.68953031 50:-0.80332205 51:-0.85974888 52:-0.74715175 53:-0.88517238 54:-0.92739458 55:-0.76854847 56:-0.47136496 57:-0.58894806 58:-0.7267534 59:-0.65702398 60:-0.58498892 61:-0.50659572 62:-0.74210026 63:-0.70172359 64:-0.53353012 65:-0.61191888 66:-0.81012683 67:-0.81881468 68:-0.6874758 69:-0.69854716 70:-0.77944318 71:-0.79330446 72:-0.60227552 73:-0.51214442 74:-0.63637863 75:-0.62203075 76:-0.46614395 77:-0.47050347 78:-0.47639618 79:-0.60213815 80:-0.51134552 81:-0.60616462 82:-0.75559693 83:-0.60338667 84:-0.59340342 85:-0.55524037 86:-0.66866474 87:-0.627942 88:-0.53484374 89:-0.49964928 90:-0.57056563 91:-0.51462501 92:-0.53224207 93:-0.66357323 94:-0.81607597 95:-0.77465022 96:-0.67979118 97:-0.72141949 98:-0.73713565 99:-0.72935664 100:-0.7342628 101:-0.73141666 102:-0.73829994 103:-0.71969937 104:-0.71914956 105:-0.60402864 106:-0.71577429 107:-0.74350257 108:-0.60621363 109:-0.74067746 110:-0.89693942 111:-0.89062944 112:-0.77970011 113:-0.71169031 114:-0.84260296 115:-0.81367521 116:-0.7107512 117:-0.59147044 118:-0.7698801 119:-0.72542702 120:-0.63369295 121:-0.60596135 122:-0.63178858 123:-0.6310547 124:-0.55452981 125:-0.63720374 126:-0.8463291 127:-0.66776999 128:-0.68864828 129:-0.66387849 130:-0.82660599 131:-0.77766307 132:-0.69683951 133:-0.51906069 134:-0.71417518 135:-0.63233254 136:-0.5882281 137:-0.6489298 138:-0.78086568 139:-0.80667035 140:-0.66796351 141:-0.83009839 142:-0.89478845 143:-1.0518025 144:-0.87058792 145:-0.95908349 146:-0.99982543 147:-0.91183942 148:-0.62351094 149:-0.71409386 150:-0.86113622 151:-0.80156945 152:-0.68280038 153:-0.59925775 154:-0.75775116 155:-0.82107695 156:-0.64841329 157:-0.75119338 158:-0.94793382 159:-0.77967944 160:-0.80325161 161:-0.74675616 162:-0.87392009 163:-0.84401755 164:-0.74080144 165:-0.64465984 166:-0.79212232 167:-0.76834553 168:-0.61157374 169:-0.55247297 170:-0.64122716 171:-0.63129746 172:-0.56619128 173:-0.71942834 174:-0.83604109 175:-0.93079819 176:-0.72426562 177:-0.67977665 178:-0.75168444 179:-0.76034234 180:-0.6933139 181:-0.54970549 182:-0.68357166 183:-0.64974679 184:-0.63688824 
94.871979254772882 1:-0.66357323 2:-0.81607597 3:-0.77465022 4:-0.67979118 5:-0.72141949 6:-0.73713565 7:-0.72935664 8:-0.7342628 9:-0.73141666 10:-0.73829994 11:-0.71969937 12:-0.71914956 13:-0.60402864 14:-0.71577429 15:-0.74350257 16:-0.60621363 17:-0.74067746 18:-0.89693942 19:-0.89062944 20:-0.77970011 21:-0.71169031 22:-0.84260296 23:-0.81367521 24:-0.7107512 25:-0.59147044 26:-0.7698801 27:-0.72542702 28:-0.63369295 29:-0.60596135 30:-0.63178858 31:-0.6310547 32:-0.55452981 33:-0.63720374 34:-0.8463291 35:-0.66776999 36:-0.68864828 37:-0.66387849 38:-0.82660599 39:-0.77766307 40:-0.69683951 41:-0.51906069 42:-0.71417518 43:-0.63233254 44:-0.5882281 45:-0.6489298 46:-0.78086568 47:-0.80667035 48:-0.66796351 49:-0.83009839 50:-0.89478845 51:-1.0518025 52:-0.87058792 53:-0.95908349 54:-0.99982543 55:-0.91183942 56:-0.62351094 57:-0.71409386 58:-0.86113622 59:-0.80156945 60:-0.68280038 61:-0.59925775 62:-0.75775116 63:-0.82107695 64:-0.64841329 65:-0.75119338 66:-0.94793382 67:-0.77967944 68:-0.80325161 69:-0.74675616 70:-0.87392009 71:-0.84401755 72:-0.74080144 73:-0.64465984 74:-0.79212232 75:-0.76834553 76:-0.61157374 77:-0.55247297 78:-0.64122716 79:-0.63129746 80:-0.56619128 81:-0.71942834 82:-0.83604109 83:-0.93079819 84:-0.72426562 85:-0.67977665 86:-0.75168444 87:-0.76034234 88:-0.6933139 89:-0.54970549 90:-0.68357166 91:-0.64974679 92:-0.63688824 93:-0.56884423 94:-0.69261297 95:-0.66269887 96:-0.57154953 97:-0.6270013 98:-0.59174945 99:-0.61727941 100:-0.63425244 101:-0.61161922 102:-0.63354869 103:-0.60744622 104:-0.61388375 105:-0.51209532 106:-0.59878161 107:-0.63319251 108:-0.53940245 109:-0.62966773 110:-0.76835286 111:-0.77303995 112:-0.65242017 113:-0.61623586 114:-0.72316412 115:-0.73206602 116:-0.56345981 117:-0.51504659 118:-0.64702436 119:-0.59558105 120:-0.53221804 121:-0.51699974 122:-0.535177 123:-0.48699308 124:-0.50370939 125:-0.58561429 126:-0.62826634 127:-0.66776999 128:-0.5552179 129:-0.56105944 130:-0.63993756 131:-0.74625069 132:-0.56509289 133:-0.48028619 134:-0.62613875 135:-0.55283552 136:-0.52078871 137:-0.5447855 138:-0.62717118 139:-0.68411306 140:-0.60601874 141:-0.68953031 142:-0.80332205 143:-0.85974888 144:-0.74715175 145:-0.88517238 146:-0.92739458 147:-0.76854847 148:-0.47136496 149:-0.58894806 150:-0.7267534 151:-0.65702398 152:-0.58498892 153:-0.50659572 154:-0.74210026 155:-0.70172359 156:-0.53353012 157:-0.61191888 158:-0.81012683 159:-0.81881468 160:-0.6874758 161:-0.69854716 162:-0.77944318 163:-0.79330446 164:-0.60227552 165:-0.51214442 166:-0.63637863 167:-0.62203075 168:-0.46614395 169:-0.47050347 170:-0.47639618 171:-0.60213815 172:-0.51134552 173:-0.60616462 174:-0.75559693 175:-0.60338667 176:-0.59340342 177:-0.55524037 178:-0.66866474 179:-0.627942 180:-0.53484374 181:-0.49964928 182:-0.57056563 183:-0.51462501 184:-0.53224207 
29.365326795029372 1:0.63602726 2:0.41363429 3:0.50564208 4:0.7402078 5:0.58156272 6:0.59850988 7:0.59039212 8:0.62838784 9:0.54196785 10:0.59644161 11:0.61504131 12:0.6590348 13:0.64882999 14:0.50659746 15:0.54255132 16:0.7680986 17:0.43124809 18:0.21122667 19:0.31466286 20:0.54717672 21:0.53811586 22:0.34763103 23:0.41635205 24:0.6617741 25:0.87586762 26:0.5550348 27:0.548386 28:0.86440801 29:0.66550533 30:0.53126618 31:0.54716352 32:0.7566371 33:0.54392334 34:0.23979118 35:0.45741702 36:0.64269039 37:0.55852573 38:0.37340534 39:0.42647812 40:0.74204029 41:0.74353412 42:0.57192225 43:0.63696987 44:0.9469053 45:0.39251314 46:0.24267429 47:0.35989352 48:0.67866185 49:0.2674139 50:0.043589091 51:0.14853255 52:0.28316243 53:0.3713164 54:0.28944372 55:0.37777915 56:0.19254478 57:0.7641909 58:0.39493182 59:0.34832211 60:0.71481668 61:0.5899049 62:0.47866939 63:0.41224113 64:0.63895399 65:0.36300264 66:0.15452208 67:0.2769723 68:0.50157306 69:0.5578998 70:0.1233362 71:0.38577489 72:0.55696766 73:0.92403616 74:0.41607116 75:0.4287754 76:0.79963388 77:0.84328547 78:0.79692306 79:0.90766613 80:0.91464434 81:0.51640468 82:0.37680938 83:0.41331226 84:0.70690988 85:0.50684268 86:0.51513463 87:0.415001 88:0.70282826 89:1.0020373 90:0.72900367 91:0.73736273 92:0.89889125 93:-0.71136138 94:-0.67785364 95:-0.69041178 96:-0.71970903 97:-0.72250486 98:-0.70330299 99:-0.69569742 100:-0.70902326 101:-0.71678791 102:-0.72361409 103:-0.72078669 104:-0.66886847 105:-0.69649644 106:-0.70165448 107:-0.72534177 108:-0.69987417 109:-0.70976336 110:-0.59958301 111:-0.39822344 112:-0.72760106 113:-0.70117414 114:-0.68369737 115:-0.59577024 116:-0.74531119 117:-0.70749575 118:-0.69680904 119:-0.74766915 120:-0.69747718 121:-0.68807976 122:-0.75441097 123:-0.67993275 124:-0.67649882 125:-0.6887932 126:-0.674395 127:-0.50469941 128:-0.74202043 129:-0.70729098 130:-0.68660467 131:-0.68604363 132:-0.77692079 133:-0.67415871 134:-0.73331353 135:-0.67738086 136:-0.70181023 137:-0.69487581 138:-0.65006185 139:-0.72496549 140:-0.71374877 141:-0.67601415 142:-0.40357999 143:-0.41562492 144:-0.67409769 145:-0.55257241 146:-0.39140628 147:-0.12373919 148:-0.56818513 149:-0.7414695 150:-0.6444782 151:-0.79509727 152:-0.67410602 153:-0.67132821 154:-0.64297794 155:-0.69641899 156:-0.74640187 157:-0.67160795 158:-0.69352092 159:-0.21874086 160:-0.75944455 161:-0.57802467 162:-0.65697311 163:-0.37492147 164:-0.76631937 165:-0.73777878 166:-0.75436627 167:-0.70183881 168:-0.74353781 169:-0.71185811 170:-0.70303877 171:-0.75441455 172:-0.66271983 173:-0.76473383 174:-0.60399062 175:-0.44829701 176:-0.71180255 177:-0.78786475 178:-0.73016081 179:-0.73711421 180:-0.70936151 181:-0.6898629 182:-0.66238303 183:-0.75108812 184:-0.68049081 
29.335067990985845 1:-0.71136138 2:-0.67785364 3:-0.69041178 4:-0.71970903 5:-0.72250486 6:-0.70330299 7:-0.69569742 8:-0.70902326 9:-0.71678791 10:-0.72361409 11:-0.72078669 12:-0.66886847 13:-0.69649644 14:-0.70165448 15:-0.72534177 16:-0.69987417 17:-0.70976336 18:-0.59958301 19:-0.39822344 20:-0.72760106 21:-0.70117414 22:-0.68369737 23:-0.59577024 24:-0.74531119 25:-0.70749575 26:-0.69680904 27:-0.74766915 28:-0.69747718 29:-0.68807976 30:-0.75441097 31:-0.67993275 32:-0.67649882 33:-0.6887932 34:-0.674395 35:-0.50469941 36:-0.74202043 37:-0.70729098 38:-0.68660467 39:-0.68604363 40:-0.77692079 41:-0.67415871 42:-0.73331353 43:-0.67738086 44:-0.70181023 45:-0.69487581 46:-0.65006185 47:-0.72496549 48:-0.71374877 49:-0.67601415 50:-0.40357999 51:-0.41562492 52:-0.67409769 53:-0.55257241 54:-0.39140628 55:-0.12373919 56:-0.56818513 57:-0.7414695 58:-0.6444782 59:-0.79509727 60:-0.67410602 61:-0.67132821 62:-0.64297794 63:-0.69641899 64:-0.74640187 65:-0.67160795 66:-0.69352092 67:-0.21874086 68:-0.75944455 69:-0.57802467 70:-0.65697311 71:-0.37492147 72:-0.76631937 73:-0.73777878 74:-0.75436627 75:-0.70183881 76:-0.74353781 77:-0.71185811 78:-0.70303877 79:-0.75441455 80:-0.66271983 81:-0.76473383 82:-0.60399062 83:-0.44829701 84:-0.71180255 85:-0.78786475 86:-0.73016081 87:-0.73711421 88:-0.70936151 89:-0.6898629 90:-0.66238303 91:-0.75108812 92:-0.68049081 93:0.63602726 94:0.41363429 95:0.50564208 96:0.7402078 97:0.58156272 98:0.59850988 99:0.59039212 100:0.62838784 101:0.54196785 102:0.59644161 103:0.61504131 104:0.6590348 105:0.64882999 106:0.50659746 107:0.54255132 108:0.7680986 109:0.43124809 110:0.21122667 111:0.31466286 112:0.54717672 113:0.53811586 114:0.34763103 115:0.41635205 116:0.6617741 117:0.87586762 118:0.5550348 119:0.548386 120:0.86440801 121:0.66550533 122:0.53126618 123:0.54716352 124:0.7566371 125:0.54392334 126:0.23979118 127:0.45741702 128:0.64269039 129:0.55852573 130:0.37340534 131:0.42647812 132:0.74204029 133:0.74353412 134:0.57192225 135:0.63696987 136:0.9469053 137:0.39251314 138:0.24267429 139:0.35989352 140:0.67866185 141:0.2674139 142:0.043589091 143:0.14853255 144:0.28316243 145:0.3713164 146:0.28944372 147:0.37777915 148:0.19254478 149:0.7641909 150:0.39493182 151:0.34832211 152:0.71481668 153:0.5899049 154:0.47866939 155:0.41224113 156:0.63895399 157:0.36300264 158:0.15452208 159:0.2769723 160:0.50157306 161:0.5578998 162:0.1233362 163:0.38577489 164:0.55696766 165:0.92403616 166:0.41607116 167:0.4287754 168:0.79963388 169:0.84328547 170:0.79692306 171:0.90766613 172:0.91464434 173:0.51640468 174:0.37680938 175:0.41331226 176:0.70690988 177:0.50684268 178:0.51513463 179:0.415001 180:0.70282826 181:1.0020373 182:0.72900367 183:0.73736273 184:0.89889125 
1.5873796819352348 1:-0.63239231 2:-0.72728569 3:-0.7157053 4:-0.63120204 5:-0.67827587 6:-0.6639949 7:-0.67629689 8:-0.67777476 9:-0.6588879 10:-0.69190651 11:-0.67586997 12:-0.66282096 13:-0.58639027 14:-0.66736353 15:-0.67758558 16:-0.60246721 17:-0.67112073 18:-0.78174729 19:-0.78406396 20:-0.69924336 21:-0.66396308 22:-0.76263087 23:-0.75646464 24:-0.65891121 25:-0.59633378 26:-0.66950776 27:-0.68154389 28:-0.57819239 29:-0.57311399 30:-0.62807275 31:-0.58732171 32:-0.57079235 33:-0.63991898 34:-0.71213663 35:-0.71669117 36:-0.62934589 37:-0.620466 38:-0.71993832 39:-0.72007371 40:-0.63225783 41:-0.5966097 42:-0.63379409 43:-0.62438284 44:-0.56338201 45:-0.60298379 46:-0.65987213 47:-0.71361759 48:-0.651804 49:-0.74089172 50:-0.78977147 51:-0.78772878 52:-0.76226638 53:-0.62648352 54:-0.94188075 55:-0.78048938 56:-0.67883675 57:-0.62805612 58:-0.69932833 59:-0.76057895 60:-0.63498144 61:-0.59153591 62:-0.74731723 63:-0.73885574 64:-0.5706982 65:-0.63844736 66:-0.82072737 67:-0.87099502 68:-0.75944455 69:-0.71361248 70:-0.82493206 71:-0.75526965 72:-0.68612016 73:-0.62317085 74:-0.70245171 75:-0.74440311 76:-0.53347256 77:-0.57296534 78:-0.60826096 79:-0.60213815 80:-0.59909874 81:-0.63636828 82:-0.7432209 83:-0.63785104 84:-0.63079262 85:-0.6539295 86:-0.66866474 87:-0.74408265 88:-0.63915321 89:-0.55571224 90:-0.62236006 91:-0.56107312 92:-0.57003096 93:0.47469988 94:0.61511092 95:0.7040313 96:0.61910871 97:0.59859187 98:0.59888684 99:0.60784786 100:0.60744178 101:0.6512991 102:0.60571806 103:0.51486456 104:0.63319072 105:0.33080487 106:0.5388713 107:0.55533115 108:0.51334195 109:0.6174353 110:0.58984264 111:0.41387899 112:0.64214205 113:0.62224521 114:0.61974387 115:0.7629808 116:0.76380836 117:0.37147016 118:0.66986075 119:0.81529161 120:0.58649102 121:0.25491329 122:0.31203222 123:0.4211096 124:0.37650033 125:0.55478427 126:0.53333721 127:0.52264525 128:0.50629489 129:0.42143367 130:0.54007358 131:0.68301254 132:0.56379486 133:0.30005072 134:0.48771349 135:0.80126371 136:0.47660432 137:0.3680086 138:0.73972884 139:0.65266927 140:0.65980909 141:0.59180177 142:0.57544929 143:0.3765962 144:0.60560795 145:0.2974053 146:0.50673628 147:0.23448819 148:0.57982546 149:0.36528866 150:0.62530237 151:0.72802364 152:0.68438645 153:0.46378159 154:0.70299886 155:0.64033867 156:0.71666908 157:0.81067069 158:0.5008063 159:0.31610755 160:0.58292904 161:0.69650067 162:0.50474298 163:0.88022752 164:0.92515496 165:0.44769697 166:0.62844892 167:1.0007332 168:0.79155444 169:0.301376 170:0.36836254 171:0.4313974 172:0.3947065 173:0.53150651 174:0.68621001 175:0.43054444 176:0.78168828 177:0.79351111 178:0.78571734 179:0.8098792 180:0.83120915 181:0.38534466 182:0.81375819 183:0.71624995 184:0.52197124 
1.5925791874317339 1:0.47469988 2:0.61511092 3:0.7040313 4:0.61910871 5:0.59859187 6:0.59888684 7:0.60784786 8:0.60744178 9:0.6512991 10:0.60571806 11:0.51486456 12:0.63319072 13:0.33080487 14:0.5388713 15:0.55533115 16:0.51334195 17:0.6174353 18:0.58984264 19:0.41387899 20:0.64214205 21:0.62224521 22:0.61974387 23:0.7629808 24:0.76380836 25:0.37147016 26:0.66986075 27:0.81529161 28:0.58649102 29:0.25491329 30:0.31203222 31:0.4211096 32:0.37650033 33:0.55478427 34:0.53333721 35:0.52264525 36:0.50629489 37:0.42143367 38:0.54007358 39:0.68301254 40:0.56379486 41:0.30005072 42:0.48771349 43:0.80126371 44:0.47660432 45:0.3680086 46:0.73972884 47:0.65266927 48:0.65980909 49:0.59180177 50:0.57544929 51:0.3765962 52:0.60560795 53:0.2974053 54:0.50673628 55:0.23448819 56:0.57982546 57:0.36528866 58:0.62530237 59:0.72802364 60:0.68438645 61:0.46378159 62:0.70299886 63:0.64033867 64:0.71666908 65:0.81067069 66:0.5008063 67:0.31610755 68:0.58292904 69:0.69650067 70:0.50474298 71:0.88022752 72:0.92515496 73:0.44769697 74:0.62844892 75:1.0007332 76:0.79155444 77:0.301376 78:0.36836254 79:0.4313974 80:0.3947065 81:0.53150651 82:0.68621001 83:0.43054444 84:0.78168828 85:0.79351111 86:0.78571734 87:0.8098792 88:0.83120915 89:0.38534466 90:0.81375819 91:0.71624995 92:0.52197124 93:-0.63239231 94:-0.72728569 95:-0.7157053 96:-0.63120204 97:-0.67827587 98:-0.6639949 99:-0.67629689 100:-0.67777476 101:-0.6588879 102:-0.69190651 103:-0.67586997 104:-0.66282096 105:-0.58639027 106:-0.66736353 107:-0.67758558 108:-0.60246721 109:-0.67112073 110:-0.78174729 111:-0.78406396 112:-0.69924336 113:-0.66396308 114:-0.76263087 115:-0.75646464 116:-0.65891121 117:-0.59633378 118:-0.66950776 119:-0.68154389 120:-0.57819239 121:-0.57311399 122:-0.62807275 123:-0.58732171 124:-0.57079235 125:-0.63991898 126:-0.71213663 127:-0.71669117 128:-0.62934589 129:-0.620466 130:-0.71993832 131:-0.72007371 132:-0.63225783 133:-0.5966097 134:-0.63379409 135:-0.62438284 136:-0.56338201 137:-0.60298379 138:-0.65987213 139:-0.71361759 140:-0.651804 141:-0.74089172 142:-0.78977147 143:-0.78772878 144:-0.76226638 145:-0.62648352 146:-0.94188075 147:-0.78048938 148:-0.67883675 149:-0.62805612 150:-0.69932833 151:-0.76057895 152:-0.63498144 153:-0.59153591 154:-0.74731723 155:-0.73885574 156:-0.5706982 157:-0.63844736 158:-0.82072737 159:-0.87099502 160:-0.75944455 161:-0.71361248 162:-0.82493206 163:-0.75526965 164:-0.68612016 165:-0.62317085 166:-0.70245171 167:-0.74440311 168:-0.53347256 169:-0.57296534 170:-0.60826096 171:-0.60213815 172:-0.59909874 173:-0.63636828 174:-0.7432209 175:-0.63785104 176:-0.63079262 177:-0.6539295 178:-0.66866474 179:-0.74408265 180:-0.63915321 181:-0.55571224 182:-0.62236006 183:-0.56107312 184:-0.57003096 
20.810480977009036 1:-0.616124 2:-0.42061952 3:-0.48432453 4:-0.61296243 5:-0.56623907 6:-0.54575965 7:-0.53739094 8:-0.55659087 9:-0.54444883 10:-0.57826999 11:-0.53625725 12:-0.55463764 13:-0.67672009 14:-0.52919114 15:-0.53162654 16:-0.65803913 17:-0.51163206 18:-0.23436147 19:-0.4165968 20:-0.45589468 21:-0.54100481 22:-0.42404772 23:-0.32654403 24:-0.60707123 25:-0.67553669 26:-0.48161074 27:-0.54748995 28:-0.6697269 29:-0.73461352 30:-0.60577777 31:-0.58732171 32:-0.68666291 33:-0.59375999 34:-0.36826843 35:-0.4720853 36:-0.56114814 37:-0.59990219 38:-0.36993501 39:-0.42165611 40:-0.66067377 41:-0.68627574 42:-0.60317272 43:-0.61643314 44:-0.67518942 45:-0.57235311 46:-0.48328696 47:-0.41176352 48:-0.57100648 49:-0.41650385 50:0.16554429 51:-0.22357131 52:-0.34913307 53:-0.47866131 54:-0.43486479 55:-0.24314831 56:-0.51285932 57:-0.58894806 58:-0.31811991 59:-0.35714607 60:-0.56325304 61:-0.60955353 62:-0.37691276 63:-0.45240767 64:-0.63827654 65:-0.46601226 66:-0.32603562 67:-0.45355236 68:-0.4402788 69:-0.39121481 70:-0.36304494 71:-0.061134222 72:-0.49291296 73:-0.68047481 74:-0.48535444 75:-0.53424188 76:-0.65735719 77:-0.69591959 78:-0.58353632 79:-0.67989631 80:-0.69123962 81:-0.54072336 82:-0.40597422 83:-0.53445793 84:-0.46254122 85:-0.58813674 86:-0.50570016 87:-0.43514853 88:-0.62109965 89:-0.6978719 90:-0.52583408 91:-0.6581919 92:-0.71052814 93:0.71686041 94:0.51694963 95:0.59823838 96:0.54002054 97:0.60532867 98:0.63752581 99:0.566011 100:0.60298718 101:0.5089407 102:0.61952097 103:0.72151016 104:0.59086386 105:0.7669536 106:0.6790608 107:0.7107069 108:0.66569642 109:0.67856091 110:0.40142762 111:0.45430038 112:0.44034071 113:0.75329285 114:0.43071892 115:0.53497985 116:0.60664269 117:0.62366889 118:0.53736926 119:0.54357689 120:0.47259062 121:0.72572549 122:0.75793181 123:0.81727905 124:0.77899808 125:0.75571164 126:0.57946587 127:0.52264525 128:0.66641135 129:0.78472763 130:0.62007434 131:0.58092231 132:0.7885391 133:0.67567874 134:0.63316499 135:0.68996788 136:0.64165334 137:0.68656762 138:0.66124654 139:0.69125212 140:0.63287658 141:0.56476945 142:0.25362305 143:0.064509095 144:0.4040795 145:0.44522751 146:0.014206487 147:0.62853831 148:0.63515127 149:0.42003995 150:0.36750675 151:0.43461791 152:0.48876353 153:0.91679593 154:0.69778189 155:0.63768637 156:0.679501 157:0.63823559 158:0.22165881 159:0.87704613 160:0.2887959 161:0.75676191 162:0.41026607 163:0.46184452 164:0.44395968 165:0.76645026 166:0.60485139 167:0.54582722 168:0.51146743 169:0.73854666 170:0.54967661 171:0.62903272 172:0.53949932 173:0.72027937 174:0.53769771 175:0.32715133 176:0.39533321 177:0.73476758 178:0.33987082 179:0.50094508 180:0.53031644 181:0.59558078 182:0.5689118 183:0.50089961 184:0.35337463 
20.769250432438039 1:0.71686041 2:0.51694963 3:0.59823838 4:0.54002054 5:0.60532867 6:0.63752581 7:0.566011 8:0.60298718 9:0.5089407 10:0.61952097 11:0.72151016 12:0.59086386 13:0.7669536 14:0.6790608 15:0.7107069 16:0.66569642 17:0.67856091 18:0.40142762 19:0.45430038 20:0.44034071 21:0.75329285 22:0.43071892 23:0.53497985 24:0.60664269 25:0.62366889 26:0.53736926 27:0.54357689 28:0.47259062 29:0.72572549 30:0.75793181 31:0.81727905 32:0.77899808 33:0.75571164 34:0.57946587 35:0.52264525 36:0.66641135 37:0.78472763 38:0.62007434 39:0.58092231 40:0.7885391 41:0.67567874 42:0.63316499 43:0.68996788 44:0.64165334 45:0.68656762 46:0.66124654 47:0.69125212 48:0.63287658 49:0.56476945 50:0.25362305 51:0.064509095 52:0.4040795 53:0.44522751 54:0.014206487 55:0.62853831 56:0.63515127 57:0.42003995 58:0.36750675 59:0.43461791 60:0.48876353 61:0.91679593 62:0.69778189 63:0.63768637 64:0.679501 65:0.63823559 66:0.22165881 67:0.87704613 68:0.2887959 69:0.75676191 70:0.41026607 71:0.46184452 72:0.44395968 73:0.76645026 74:0.60485139 75:0.54582722 76:0.51146743 77:0.73854666 78:0.54967661 79:0.62903272 80:0.53949932 81:0.72027937 82:0.53769771 83:0.32715133 84:0.39533321 85:0.73476758 86:0.33987082 87:0.50094508 88:0.53031644 89:0.59558078 90:0.5689118 91:0.50089961 92:0.35337463 93:-0.616124 94:-0.42061952 95:-0.48432453 96:-0.61296243 97:-0.56623907 98:-0.54575965 99:-0.53739094 100:-0.55659087 101:-0.54444883 102:-0.57826999 103:-0.53625725 104:-0.55463764 105:-0.67672009 106:-0.52919114 107:-0.53162654 108:-0.65803913 109:-0.51163206 110:-0.23436147 111:-0.4165968 112:-0.45589468 113:-0.54100481 114:-0.42404772 115:-0.32654403 116:-0.60707123 117:-0.67553669 118:-0.48161074 119:-0.54748995 120:-0.6697269 121:-0.73461352 122:-0.60577777 123:-0.58732171 124:-0.68666291 125:-0.59375999 126:-0.36826843 127:-0.4720853 128:-0.56114814 129:-0.59990219 130:-0.36993501 131:-0.42165611 132:-0.66067377 133:-0.68627574 134:-0.60317272 135:-0.61643314 136:-0.67518942 137:-0.57235311 138:-0.48328696 139:-0.41176352 140:-0.57100648 141:-0.41650385 142:0.16554429 143:-0.22357131 144:-0.34913307 145:-0.47866131 146:-0.43486479 147:-0.24314831 148:-0.51285932 149:-0.58894806 150:-0.31811991 151:-0.35714607 152:-0.56325304 153:-0.60955353 154:-0.37691276 155:-0.45240767 156:-0.63827654 157:-0.46601226 158:-0.32603562 159:-0.45355236 160:-0.4402788 161:-0.39121481 162:-0.36304494 163:-0.061134222 164:-0.49291296 165:-0.68047481 166:-0.48535444 167:-0.53424188 168:-0.65735719 169:-0.69591959 170:-0.58353632 171:-0.67989631 172:-0.69123962 173:-0.54072336 174:-0.40597422 175:-0.53445793 176:-0.46254122 177:-0.58813674 178:-0.50570016 179:-0.43514853 180:-0.62109965 181:-0.6978719 182:-0.52583408 183:-0.6581919 184:-0.71052814 
56.511941003623065 1:0.22982797 2:0.28806281 3:0.24104981 4:0.30873622 5:0.26493291 6:0.28393212 7:0.28567563 8:0.25875137 9:0.33486484 10:0.21213949 11:0.23298981 12:0.29704539 13:0.21749171 14:0.26656076 15:0.17933526 16:0.26108291 17:0.33358763 18:0.2246211 19:0.17502534 20:0.30053063 21:0.13850146 22:0.29050811 23:0.19255776 24:0.34250563 25:0.21098006 26:0.34866926 27:0.33197605 28:0.32099953 29:0.22069729 30:0.27858975 31:0.15613913 32:0.22403907 33:0.32670456 34:0.23979118 35:0.60418054 36:0.14751543 37:0.078703512 38:0.16006999 39:0.17779678 40:0.30030161 41:0.22977193 42:0.43029843 43:0.21563567 44:0.22991814 45:0.43845915 46:0.38328841 47:0.22598832 48:0.3096865 49:0.33769794 50:0.053752024 51:-0.055524409 52:0.29071975 53:0.24197197 54:0.21701287 55:-0.040152797 56:0.31702785 57:0.31053737 58:0.40864435 59:0.34184993 60:0.14968381 61:0.064820093 62:0.19173635 63:0.12579306 64:0.20645265 65:0.29999751 66:0.23932638 67:0.042160805 68:0.37015187 69:0.15414946 70:0.18981995 71:0.11002246 72:0.32366086 73:0.18982913 74:0.32168105 75:0.35428787 76:0.43605939 77:0.17614481 78:0.14584073 79:0.19164307 80:0.28940263 81:0.35028456 82:0.34277531 83:0.20652603 84:0.35794401 85:0.16847994 86:0.49976061 87:0.30118317 88:0.37786414 89:0.15308381 90:0.24637377 91:0.3784455 92:0.40182193 93:-0.76575853 94:-0.57875525 95:-0.76387298 96:-0.6920506 97:-0.699843 98:-0.70513127 99:-0.71389313 100:-0.7127291 101:-0.66726427 102:-0.75495285 103:-0.69184306 104:-0.70034656 105:-0.77453286 106:-0.69963737 107:-0.80874694 108:-0.73234315 109:-0.74981117 110:-0.29418993 111:-0.54888498 112:-0.61021335 113:-0.7675069 114:-0.76470806 115:-0.76908462 116:-0.71897977 117:-0.7325072 118:-0.57074138 119:-0.72542702 120:-0.68629423 121:-0.78662185 122:-0.74697931 123:-0.80341413 124:-0.7334177 125:-0.7430979 126:-0.52342847 127:-0.68407705 128:-0.75091579 129:-0.73013965 130:-0.82993936 131:-0.82478163 132:-0.8234196 133:-0.69112256 134:-0.70651984 135:-0.77012738 136:-0.73198048 137:-0.75307409 138:-0.67622261 139:-0.79532246 140:-0.71105552 141:-0.66520122 142:0.33153888 143:-0.29559142 144:-0.39699607 145:-0.53409463 146:-0.36243394 147:-0.7088439 148:-0.49902786 149:-0.71018305 150:-0.42782017 151:-0.71095886 152:-0.56107945 153:-0.78200785 154:-0.58037437 155:-0.78394479 156:-0.80384346 157:-0.7909861 158:-0.75712415 159:-0.77967944 160:-0.6999921 161:-0.78291291 162:-0.80743634 163:-0.62531735 164:-0.82464607 165:-0.79866424 166:-0.74020775 167:-0.61671021 168:-0.70583379 169:-0.73918127 170:-0.71952187 171:-0.79329363 172:-0.68027047 173:-0.77731868 174:-0.27293195 175:-0.39660045 176:-0.60378931 177:-0.79961346 178:-0.71171199 179:-0.79518453 180:-0.58699847 181:-0.72990788 182:-0.50229116 183:-0.74897685 184:-0.70180763 
56.489052481172614 1:-0.76575853 2:-0.57875525 3:-0.76387298 4:-0.6920506 5:-0.699843 6:-0.70513127 7:-0.71389313 8:-0.7127291 9:-0.66726427 10:-0.75495285 11:-0.69184306 12:-0.70034656 13:-0.77453286 14:-0.69963737 15:-0.80874694 16:-0.73234315 17:-0.74981117 18:-0.29418993 19:-0.54888498 20:-0.61021335 21:-0.7675069 22:-0.76470806 23:-0.76908462 24:-0.71897977 25:-0.7325072 26:-0.57074138 27:-0.72542702 28:-0.68629423 29:-0.78662185 30:-0.74697931 31:-0.80341413 32:-0.7334177 33:-0.7430979 34:-0.52342847 35:-0.68407705 36:-0.75091579 37:-0.73013965 38:-0.82993936 39:-0.82478163 40:-0.8234196 41:-0.69112256 42:-0.70651984 43:-0.77012738 44:-0.73198048 45:-0.75307409 46:-0.67622261 47:-0.79532246 48:-0.71105552 49:-0.66520122 50:0.33153888 51:-0.29559142 52:-0.39699607 53:-0.53409463 54:-0.36243394 55:-0.7088439 56:-0.49902786 57:-0.71018305 58:-0.42782017 59:-0.71095886 60:-0.56107945 61:-0.78200785 62:-0.58037437 63:-0.78394479 64:-0.80384346 65:-0.7909861 66:-0.75712415 67:-0.77967944 68:-0.6999921 69:-0.78291291 70:-0.80743634 71:-0.62531735 72:-0.82464607 73:-0.79866424 74:-0.74020775 75:-0.61671021 76:-0.70583379 77:-0.73918127 78:-0.71952187 79:-0.79329363 80:-0.68027047 81:-0.77731868 82:-0.27293195 83:-0.39660045 84:-0.60378931 85:-0.79961346 86:-0.71171199 87:-0.79518453 88:-0.58699847 89:-0.72990788 90:-0.50229116 91:-0.74897685 92:-0.70180763 93:0.22982797 94:0.28806281 95:0.24104981 96:0.30873622 97:0.26493291 98:0.28393212 99:0.28567563 100:0.25875137 101:0.33486484 102:0.21213949 103:0.23298981 104:0.29704539 105:0.21749171 106:0.26656076 107:0.17933526 108:0.26108291 109:0.33358763 110:0.2246211 111:0.17502534 112:0.30053063 113:0.13850146 114:0.29050811 115:0.19255776 116:0.34250563 117:0.21098006 118:0.34866926 119:0.33197605 120:0.32099953 121:0.22069729 122:0.27858975 123:0.15613913 124:0.22403907 125:0.32670456 126:0.23979118 127:0.60418054 128:0.14751543 129:0.078703512 130:0.16006999 131:0.17779678 132:0.30030161 133:0.22977193 134:0.43029843 135:0.21563567 136:0.22991814 137:0.43845915 138:0.38328841 139:0.22598832 140:0.3096865 141:0.33769794 142:0.053752024 143:-0.055524409 144:0.29071975 145:0.24197197 146:0.21701287 147:-0.040152797 148:0.31702785 149:0.31053737 150:0.40864435 151:0.34184993 152:0.14968381 153:0.064820093 154:0.19173635 155:0.12579306 156:0.20645265 157:0.29999751 158:0.23932638 159:0.042160805 160:0.37015187 161:0.15414946 162:0.18981995 163:0.11002246 164:0.32366086 165:0.18982913 166:0.32168105 167:0.35428787 168:0.43605939 169:0.17614481 170:0.14584073 171:0.19164307 172:0.28940263 173:0.35028456 174:0.34277531 175:0.20652603 176:0.35794401 177:0.16847994 178:0.49976061 179:0.30118317 180:0.37786414 181:0.15308381 182:0.24637377 183:0.3784455 184:0.40182193 
84.295086725451498 1:0.69889748 2:0.33890052 3:0.49046597 4:0.74274939 5:0.61786662 6:0.57636315 7:0.56952113 8:0.62099511 9:0.65084355 10:0.59800631 11:0.59760007 12:0.57484053 13:0.73328035 14:0.54290553 15:0.59837898 16:0.82741694 17:0.47832184 18:0.056744211 19:-0.093225692 20:0.47925012 21:0.64165968 22:0.26350455 23:0.31370956 24:0.66671125 25:0.88837335 26:0.47393394 27:0.59707824 28:0.87227749 29:0.68192901 30:0.57214031 31:0.80184387 32:0.8298185 33:0.59551279 34:0.35720959 35:0.18019703 36:0.66048111 37:0.69104805 38:0.40340563 39:0.47097899 40:0.73945702 41:0.93498324 42:0.57574992 43:0.7509156 44:0.89721312 45:0.40782848 46:0.38001831 47:0.43478964 48:0.64634284 49:0.21064603 50:-0.17322016 51:-0.30759477 52:0.15468805 53:0.0017608772 54:-0.34794777 55:-0.39838018 56:0.44151093 57:0.59602623 58:0.19472883 59:0.309489 60:0.78219791 61:0.75978528 62:0.50475421 63:0.40693654 64:0.83831008 65:0.51554138 66:-0.082223261 67:-0.41441711 68:0.47966953 69:0.46750794 70:0.16882508 71:0.11002246 72:0.49135012 73:0.89180268 74:0.33112006 75:0.47399997 76:0.84272418 77:1.0140553 78:0.70626603 79:0.75538973 80:0.94097031 81:0.57429503 82:0.16332294 83:0.3616157 84:0.59889663 85:0.78881163 86:0.33372122 87:0.44519757 88:0.71686992 89:0.98401703 90:0.70310646 91:0.81970256 92:0.89889125 93:-0.71627576 94:-0.7319712 95:-0.77333055 96:-0.73256647 97:-0.73817729 98:-0.7430917 99:-0.74074082 100:-0.74402499 101:-0.73048849 102:-0.75955754 103:-0.73405528 104:-0.74714157 105:-0.69435846 106:-0.70669727 107:-0.76973484 108:-0.67614683 109:-0.68728037 110:-0.71834698 111:-0.90165345 112:-0.72298469 113:-0.76022647 114:-0.76782386 115:-0.77329128 116:-0.75518547 117:-0.70124289 118:-0.70724776 119:-0.72542702 120:-0.74676499 121:-0.69355432 122:-0.66894688 123:-0.73652838 124:-0.66430192 125:-0.67521703 126:-0.68278203 127:-0.86345469 128:-0.70050875 129:-0.75070346 130:-0.75660533 131:-0.76719227 132:-0.76400446 133:-0.67415871 134:-0.65293245 135:-0.63233254 136:-0.70181023 137:-0.6673082 138:-0.64679175 139:-0.72496549 140:-0.65449725 141:-0.65709152 142:-0.71524329 143:-0.87175223 144:-0.69928874 145:-0.94060571 146:-0.92739458 147:-0.85213486 148:-0.81715128 149:-0.66716418 150:-0.6856158 151:-0.70448667 152:-0.75887595 153:-0.70221555 154:-0.76818509 155:-0.79985857 156:-0.73626512 157:-0.67824007 158:-0.80659332 159:-0.87099502 160:-0.75005732 161:-0.77086066 162:-0.71645857 163:-0.79330446 164:-0.75902853 165:-0.73061578 166:-0.73548825 167:-0.73110177 168:-0.76238982 169:-0.68681187 170:-0.72364264 171:-0.76737424 172:-0.64736301 173:-0.70936045 174:-0.62564866 175:-0.93079819 176:-0.71180255 177:-0.71502277 178:-0.74860964 179:-0.70691764 180:-0.71136746 181:-0.71388989 182:-0.71653175 183:-0.77431218 184:-0.75122387 
84.32462838947049 1:-0.71627576 2:-0.7319712 3:-0.77333055 4:-0.73256647 5:-0.73817729 6:-0.7430917 7:-0.74074082 8:-0.74402499 9:-0.73048849 10:-0.75955754 11:-0.73405528 12:-0.74714157 13:-0.69435846 14:-0.70669727 15:-0.76973484 16:-0.67614683 17:-0.68728037 18:-0.71834698 19:-0.90165345 20:-0.72298469 21:-0.76022647 22:-0.76782386 23:-0.77329128 24:-0.75518547 25:-0.70124289 26:-0.70724776 27:-0.72542702 28:-0.74676499 29:-0.69355432 30:-0.66894688 31:-0.73652838 32:-0.66430192 33:-0.67521703 34:-0.68278203 35:-0.86345469 36:-0.70050875 37:-0.75070346 38:-0.75660533 39:-0.76719227 40:-0.76400446 41:-0.67415871 42:-0.65293245 43:-0.63233254 44:-0.70181023 45:-0.6673082 46:-0.64679175 47:-0.72496549 48:-0.65449725 49:-0.65709152 50:-0.71524329 51:-0.87175223 52:-0.69928874 53:-0.94060571 54:-0.92739458 55:-0.85213486 56:-0.81715128 57:-0.66716418 58:-0.6856158 59:-0.70448667 60:-0.75887595 61:-0.70221555 62:-0.76818509 63:-0.79985857 64:-0.73626512 65:-0.67824007 66:-0.80659332 67:-0.87099502 68:-0.75005732 69:-0.77086066 70:-0.71645857 71:-0.79330446 72:-0.75902853 73:-0.73061578 74:-0.73548825 75:-0.73110177 76:-0.76238982 77:-0.68681187 78:-0.72364264 79:-0.76737424 80:-0.64736301 81:-0.70936045 82:-0.62564866 83:-0.93079819 84:-0.71180255 85:-0.71502277 86:-0.74860964 87:-0.70691764 88:-0.71136746 89:-0.71388989 90:-0.71653175 91:-0.77431218 92:-0.75122387 93:0.69889748 94:0.33890052 95:0.49046597 96:0.74274939 97:0.61786662 98:0.57636315 99:0.56952113 100:0.62099511 101:0.65084355 102:0.59800631 103:0.59760007 104:0.57484053 105:0.73328035 106:0.54290553 107:0.59837898 108:0.82741694 109:0.47832184 110:0.056744211 111:-0.093225692 112:0.47925012 113:0.64165968 114:0.26350455 115:0.31370956 116:0.66671125 117:0.88837335 118:0.47393394 119:0.59707824 120:0.87227749 121:0.68192901 122:0.57214031 123:0.80184387 124:0.8298185 125:0.59551279 126:0.35720959 127:0.18019703 128:0.66048111 129:0.69104805 130:0.40340563 131:0.47097899 132:0.73945702 133:0.93498324 134:0.57574992 135:0.7509156 136:0.89721312 137:0.40782848 138:0.38001831 139:0.43478964 140:0.64634284 141:0.21064603 142:-0.17322016 143:-0.30759477 144:0.15468805 145:0.0017608772 146:-0.34794777 147:-0.39838018 148:0.44151093 149:0.59602623 150:0.19472883 151:0.309489 152:0.78219791 153:0.75978528 154:0.50475421 155:0.40693654 156:0.83831008 157:0.51554138 158:-0.082223261 159:-0.41441711 160:0.47966953 161:0.46750794 162:0.16882508 163:0.11002246 164:0.49135012 165:0.89180268 166:0.33112006 167:0.47399997 168:0.84272418 169:1.0140553 170:0.70626603 171:0.75538973 172:0.94097031 173:0.57429503 174:0.16332294 175:0.3616157 176:0.59889663 177:0.78881163 178:0.33372122 179:0.44519757 180:0.71686992 181:0.98401703 182:0.70310646 183:0.81970256 184:0.89889125 
81.144439556350363 1:-0.76779207 2:-0.90510053 3:-0.8852819 4:-0.79730215 5:-0.84257905 6:-0.83866755 7:-0.83750823 8:-0.82945841 9:-0.82602236 10:-0.84794647 11:-0.8492889 12:-0.82759706 13:-0.70397939 14:-0.81965571 15:-0.83296134 16:-0.72609912 17:-0.82850162 18:-0.95498196 19:-0.97514689 20:-0.88983352 21:-0.80633582 22:-0.95269441 23:-0.92809635 24:-0.82924259 25:-0.721391 26:-0.85419287 27:-0.85226729 28:-0.75090682 29:-0.68534248 30:-0.75441097 31:-0.7288108 32:-0.67040037 33:-0.7593893 34:-0.88407073 35:-0.7819194 36:-0.8131833 37:-0.76669754 38:-0.86660637 39:-0.85619401 40:-0.8156698 41:-0.65477146 42:-0.82134997 43:-0.74892817 44:-0.70181023 45:-0.76226329 46:-0.84299749 47:-0.87475774 48:-0.77300029 49:-0.88416303 50:-0.96592899 51:-1.0037891 52:-0.94112288 53:-0.7927835 54:-1.0722563 55:-1.0073667 56:-0.88630854 57:-0.81186401 58:-0.89953131 59:-0.92238358 60:-0.83929871 61:-0.7047895 62:-0.86730741 63:-0.8635137 64:-0.78019104 65:-0.84072699 66:-1.0080035 67:-0.9623106 68:-0.95344726 69:-0.82810884 70:-1.0243833 71:-0.9486133 72:-0.86110026 73:-0.75210477 74:-0.89123194 75:-0.89603843 76:-0.73276524 77:-0.66859643 78:-0.76485038 79:-0.79329363 80:-0.69123962 81:-0.8024884 82:-0.89173321 83:-1.0341913 84:-0.82397016 85:-0.80666268 86:-0.8931254 87:-0.91132518 88:-0.78558766 89:-0.7018764 90:-0.78245193 91:-0.78275729 92:-0.73572074 93:0.55129649 94:0.53967432 95:0.62947039 96:0.65035527 97:0.60224097 98:0.5944575 99:0.6044326 100:0.60782089 101:0.58359344 102:0.60448865 103:0.60400255 104:0.62141731 105:0.51039552 106:0.55803389 107:0.5990516 108:0.53394727 109:0.47902443 110:0.42732352 111:0.54984185 112:0.65533168 113:0.68291541 114:0.53042439 115:0.54928249 116:0.70291695 117:0.5368236 118:0.61124331 119:0.70227752 120:0.68216736 121:0.51906083 122:0.51640286 123:0.45455248 124:0.5289616 125:0.42445301 126:0.6172075 127:0.70202289 128:0.6130392 129:0.59965335 130:0.60007415 131:0.49715597 132:0.66712554 133:0.41879764 134:0.59871595 135:0.49917504 136:0.59906005 137:0.42314382 138:0.43888003 139:0.52557282 140:0.47936129 141:0.51611127 142:0.18587016 143:0.3045761 144:0.52247746 145:0.81478303 146:0.41981925 147:0.37777915 148:0.62131982 149:0.64686671 150:0.68289501 151:0.67193137 152:0.58222782 153:0.56673939 154:0.61952743 155:0.7013415 156:0.81465767 157:0.41274354 158:0.5008063 159:0.52482888 160:0.6392524 161:0.60309574 162:0.41376522 163:0.35724877 164:0.80850156 165:0.62677185 166:0.63316843 167:0.66553931 168:0.79424759 169:0.49491509 170:0.66505829 171:0.70679088 172:0.38593118 173:0.52898954 174:0.41703146 175:0.70625941 176:0.7796111 177:0.79351111 178:0.56433148 179:0.74019481 180:0.65869733 181:0.51949533 182:0.52182596 183:0.8830409 184:0.72351202 
81.128557895269665 1:0.55129649 2:0.53967432 3:0.62947039 4:0.65035527 5:0.60224097 6:0.5944575 7:0.6044326 8:0.60782089 9:0.58359344 10:0.60448865 11:0.60400255 12:0.62141731 13:0.51039552 14:0.55803389 15:0.5990516 16:0.53394727 17:0.47902443 18:0.42732352 19:0.54984185 20:0.65533168 21:0.68291541 22:0.53042439 23:0.54928249 24:0.70291695 25:0.5368236 26:0.61124331 27:0.70227752 28:0.68216736 29:0.51906083 30:0.51640286 31:0.45455248 32:0.5289616 33:0.42445301 34:0.6172075 35:0.70202289 36:0.6130392 37:0.59965335 38:0.60007415 39:0.49715597 40:0.66712554 41:0.41879764 42:0.59871595 43:0.49917504 44:0.59906005 45:0.42314382 46:0.43888003 47:0.52557282 48:0.47936129 49:0.51611127 50:0.18587016 51:0.3045761 52:0.52247746 53:0.81478303 54:0.41981925 55:0.37777915 56:0.62131982 57:0.64686671 58:0.68289501 59:0.67193137 60:0.58222782 61:0.56673939 62:0.61952743 63:0.7013415 64:0.81465767 65:0.41274354 66:0.5008063 67:0.52482888 68:0.6392524 69:0.60309574 70:0.41376522 71:0.35724877 72:0.80850156 73:0.62677185 74:0.63316843 75:0.66553931 76:0.79424759 77:0.49491509 78:0.66505829 79:0.70679088 80:0.38593118 81:0.52898954 82:0.41703146 83:0.70625941 84:0.7796111 85:0.79351111 86:0.56433148 87:0.74019481 88:0.65869733 89:0.51949533 90:0.52182596 91:0.8830409 92:0.72351202 93:-0.76779207 94:-0.90510053 95:-0.8852819 96:-0.79730215 97:-0.84257905 98:-0.83866755 99:-0.83750823 100:-0.82945841 101:-0.82602236 102:-0.84794647 103:-0.8492889 104:-0.82759706 105:-0.70397939 106:-0.81965571 107:-0.83296134 108:-0.72609912 109:-0.82850162 110:-0.95498196 111:-0.97514689 112:-0.88983352 113:-0.80633582 114:-0.95269441 115:-0.92809635 116:-0.82924259 117:-0.721391 118:-0.85419287 119:-0.85226729 120:-0.75090682 121:-0.68534248 122:-0.75441097 123:-0.7288108 124:-0.67040037 125:-0.7593893 126:-0.88407073 127:-0.7819194 128:-0.8131833 129:-0.76669754 130:-0.86660637 131:-0.85619401 132:-0.8156698 133:-0.65477146 134:-0.82134997 135:-0.74892817 136:-0.70181023 137:-0.76226329 138:-0.84299749 139:-0.87475774 140:-0.77300029 141:-0.88416303 142:-0.96592899 143:-1.0037891 144:-0.94112288 145:-0.7927835 146:-1.0722563 147:-1.0073667 148:-0.88630854 149:-0.81186401 150:-0.89953131 151:-0.92238358 152:-0.83929871 153:-0.7047895 154:-0.86730741 155:-0.8635137 156:-0.78019104 157:-0.84072699 158:-1.0080035 159:-0.9623106 160:-0.95344726 161:-0.82810884 162:-1.0243833 163:-0.9486133 164:-0.86110026 165:-0.75210477 166:-0.89123194 167:-0.89603843 168:-0.73276524 169:-0.66859643 170:-0.76485038 171:-0.79329363 172:-0.69123962 173:-0.8024884 174:-0.89173321 175:-1.0341913 176:-0.82397016 177:-0.80666268 178:-0.8931254 179:-0.91132518 180:-0.78558766 181:-0.7018764 182:-0.78245193 183:-0.78275729 184:-0.73572074 
6.7894480399192023 1:-0.26957517 2:-0.34565147 3:-0.34575999 4:-0.24114336 5:-0.27837167 6:-0.28894244 7:-0.29567639 8:-0.31184413 9:-0.3032994 10:-0.29420942 11:-0.27120557 12:-0.29455431 13:-0.21545005 14:-0.28108599 15:-0.36145309 16:-0.2321959 17:-0.330363 18:-0.43259907 19:-0.21448986 20:-0.30487341 21:-0.33472612 22:-0.35861601 23:-0.43844118 24:-0.24007705 25:-0.21074068 26:-0.2945167 27:-0.27397181 28:-0.20169978 29:-0.20631843 30:-0.20446814 31:-0.29919848 32:-0.16626178 33:-0.24349472 34:-0.38084898 35:-0.21117237 36:-0.25277571 37:-0.34399701 38:-0.3232679 39:-0.48709856 40:-0.26801716 41:-0.27187322 42:-0.26633768 43:-0.20834844 44:-0.19778955 45:-0.20784808 46:-0.36883361 47:-0.41630268 48:-0.28552191 49:-0.42461355 50:-0.51875991 51:-0.15155121 52:-0.4070725 53:-0.20149466 54:-0.24654458 55:-0.38643926 56:0.026567345 57:-0.24479711 58:-0.37845505 59:-0.35067389 60:-0.21547897 61:-0.28523644 62:-0.36647883 63:-0.428537 64:-0.23956436 65:-0.30020928 66:-0.43557451 67:-0.31005644 68:-0.33701929 69:-0.40326706 70:-0.49951159 71:-0.44782154 72:-0.37625956 73:-0.15041315 74:-0.38624482 75:-0.30811904 76:-0.14027349 77:-0.1676717 78:-0.16733811 79:-0.24574658 80:-0.24808585 81:-0.3343317 82:-0.36265813 83:-0.15534986 84:-0.22366577 85:-0.2779709 86:-0.27508989 87:-0.37475539 88:-0.17377249 89:-0.17328273 90:-0.18210742 91:-0.20848973 92:-0.2173346 93:-0.55613462 94:-0.3501027 95:-0.27603784 96:-0.58874261 97:-0.49468859 98:-0.4357988 99:-0.4535275 100:-0.50005544 101:-0.45292377 102:-0.50066074 103:-0.47797811 104:-0.45095119 105:-0.65747824 106:-0.41320702 107:-0.4462035 108:-0.61120886 109:-0.40554048 110:-0.21025149 111:0.23382008 112:-0.49150668 113:-0.42613589 114:-0.2194438 115:0.017560721 116:-0.44249985 117:-0.65886239 118:-0.51212393 119:-0.40622234 120:-0.69416371 121:-0.69218568 122:-0.6094936 123:-0.57703159 124:-0.68259728 125:-0.42270021 126:-0.3011722 127:0.19650409 128:-0.57597373 129:-0.58162325 130:-0.34993482 131:-0.19129866 132:-0.59609209 133:-0.66446508 134:-0.5266193 135:-0.4680387 136:-0.69293662 137:-0.53253323 138:-0.3034317 139:-0.32324992 140:-0.4551967 141:-0.33811012 142:0.091016115 143:0.2805694 144:-0.40455339 145:0.26044974 146:0.15906819 147:0.4255428 148:0.040398798 149:-0.56939403 150:-0.50186785 151:-0.24711892 152:-0.65671732 153:-0.6249972 154:-0.074328829 155:-0.24818081 156:-0.59435062 157:-0.29357716 158:-0.15996054 159:0.40742313 160:-0.34014837 161:-0.22549639 162:0.084845602 163:0.42064014 164:-0.22315197 165:-0.63749684 166:-0.27297668 167:-0.19372749 168:-0.61696003 169:-0.70047345 170:-0.57529477 171:-0.65721685 172:-0.6539445 173:-0.52310456 174:-0.44929031 175:-0.051956745 176:-0.58509471 177:-0.49649684 178:-0.43497967 179:-0.17267067 180:-0.49873661 181:-0.7018764 182:-0.6105886 183:-0.6581919 184:-0.73087601 
6.8182489449099393 1:-0.55613462 2:-0.3501027 3:-0.27603784 4:-0.58874261 5:-0.49468859 6:-0.4357988 7:-0.4535275 8:-0.50005544 9:-0.45292377 10:-0.50066074 11:-0.47797811 12:-0.45095119 13:-0.65747824 14:-0.41320702 15:-0.4462035 16:-0.61120886 17:-0.40554048 18:-0.21025149 19:0.23382008 20:-0.49150668 21:-0.42613589 22:-0.2194438 23:0.017560721 24:-0.44249985 25:-0.65886239 26:-0.51212393 27:-0.40622234 28:-0.69416371 29:-0.69218568 30:-0.6094936 31:-0.57703159 32:-0.68259728 33:-0.42270021 34:-0.3011722 35:0.19650409 36:-0.57597373 37:-0.58162325 38:-0.34993482 39:-0.19129866 40:-0.59609209 41:-0.66446508 42:-0.5266193 43:-0.4680387 44:-0.69293662 45:-0.53253323 46:-0.3034317 47:-0.32324992 48:-0.4551967 49:-0.33811012 50:0.091016115 51:0.2805694 52:-0.40455339 53:0.26044974 54:0.15906819 55:0.4255428 56:0.040398798 57:-0.56939403 58:-0.50186785 59:-0.24711892 60:-0.65671732 61:-0.6249972 62:-0.074328829 63:-0.24818081 64:-0.59435062 65:-0.29357716 66:-0.15996054 67:0.40742313 68:-0.34014837 69:-0.22549639 70:0.084845602 71:0.42064014 72:-0.22315197 73:-0.63749684 74:-0.27297668 75:-0.19372749 76:-0.61696003 77:-0.70047345 78:-0.57529477 79:-0.65721685 80:-0.6539445 81:-0.52310456 82:-0.44929031 83:-0.051956745 84:-0.58509471 85:-0.49649684 86:-0.43497967 87:-0.17267067 88:-0.49873661 89:-0.7018764 90:-0.6105886 91:-0.6581919 92:-0.73087601 93:-0.26957517 94:-0.34565147 95:-0.34575999 96:-0.24114336 97:-0.27837167 98:-0.28894244 99:-0.29567639 100:-0.31184413 101:-0.3032994 102:-0.29420942 103:-0.27120557 104:-0.29455431 105:-0.21545005 106:-0.28108599 107:-0.36145309 108:-0.2321959 109:-0.330363 110:-0.43259907 111:-0.21448986 112:-0.30487341 113:-0.33472612 114:-0.35861601 115:-0.43844118 116:-0.24007705 117:-0.21074068 118:-0.2945167 119:-0.27397181 120:-0.20169978 121:-0.20631843 122:-0.20446814 123:-0.29919848 124:-0.16626178 125:-0.24349472 126:-0.38084898 127:-0.21117237 128:-0.25277571 129:-0.34399701 130:-0.3232679 131:-0.48709856 132:-0.26801716 133:-0.27187322 134:-0.26633768 135:-0.20834844 136:-0.19778955 137:-0.20784808 138:-0.36883361 139:-0.41630268 140:-0.28552191 141:-0.42461355 142:-0.51875991 143:-0.15155121 144:-0.4070725 145:-0.20149466 146:-0.24654458 147:-0.38643926 148:0.026567345 149:-0.24479711 150:-0.37845505 151:-0.35067389 152:-0.21547897 153:-0.28523644 154:-0.36647883 155:-0.428537 156:-0.23956436 157:-0.30020928 158:-0.43557451 159:-0.31005644 160:-0.33701929 161:-0.40326706 162:-0.49951159 163:-0.44782154 164:-0.37625956 165:-0.15041315 166:-0.38624482 167:-0.30811904 168:-0.14027349 169:-0.1676717 170:-0.16733811 171:-0.24574658 172:-0.24808585 173:-0.3343317 174:-0.36265813 175:-0.15534986 176:-0.22366577 177:-0.2779709 178:-0.27508989 179:-0.37475539 180:-0.17377249 181:-0.17328273 182:-0.18210742 183:-0.20848973 184:-0.2173346 
118.40543301451297 1:0.63806079 2:0.43753036 3:0.58064288 4:0.672183 5:0.61103624 6:0.53762994 7:0.65689469 8:0.59531012 9:0.60010702 10:0.59090927 11:0.57817185 12:0.63118063 13:0.66433037 14:0.46928083 15:0.60645044 16:0.72189274 17:0.45232589 18:0.30409474 19:0.30363885 20:0.52805175 21:0.68129754 22:0.47434006 23:0.4626253 24:0.65107696 25:0.72024086 26:0.48597863 27:0.66440578 28:0.72399987 29:0.75583557 30:0.49782371 31:0.61404927 32:0.64686498 33:0.48961864 34:0.28172633 35:0.4248029 36:0.5685624 37:0.78472763 38:0.47673965 39:0.43694891 40:0.64129287 41:0.75080434 42:0.52981787 43:0.72176669 44:0.77120796 45:0.54260345 46:0.34404726 47:0.39393721 48:0.5062938 49:0.38635612 50:0.094403759 51:0.076512445 52:0.41163682 53:0.33436085 54:0.26047138 55:0.18672454 56:0.42767948 57:0.49434527 58:0.48269203 59:0.53385809 60:0.54527682 61:0.57188728 62:0.49432028 63:0.63768637 64:0.96333 65:0.3994793 66:0.52554089 67:0.23783705 68:0.52973474 69:0.53680837 70:0.43476009 71:0.27800957 72:0.58248559 73:0.79868374 74:0.49630276 75:0.60967367 76:0.62996578 77:0.66340795 78:0.54143506 79:0.80722851 80:0.80056515 81:0.50381982 82:0.29945922 83:0.55116974 84:0.5739705 85:0.71127017 86:0.52743384 87:0.64960511 88:0.70483421 89:0.75576068 90:0.43707144 91:0.75214167 92:0.80296559 93:-0.5073297 94:-0.50870698 95:-0.48432453 96:-0.49216234 97:-0.50787214 98:-0.48861168 99:-0.49494693 100:-0.51190276 101:-0.49884859 102:-0.49367547 103:-0.49102593 104:-0.51432087 105:-0.5291992 106:-0.52919114 107:-0.46907266 108:-0.48757696 109:-0.46666609 110:-0.50314309 111:-0.68484783 112:-0.50007994 113:-0.50298481 114:-0.5144058 115:-0.45106116 116:-0.45155128 117:-0.49837229 118:-0.47197499 119:-0.47054419 120:-0.4986692 121:-0.56490215 122:-0.56118781 123:-0.47155791 124:-0.4935453 125:-0.50958771 126:-0.52342847 127:-0.60254176 128:-0.51963646 129:-0.50393775 130:-0.49660288 131:-0.42165611 132:-0.43076299 133:-0.46574575 134:-0.58786204 135:-0.4415397 136:-0.4764207 137:-0.48352415 138:-0.50617763 139:-0.44580721 140:-0.41749119 141:-0.50841375 142:-0.40696763 143:-0.82373883 144:-0.47005014 145:-0.57105019 146:-0.76804671 147:-0.75660756 148:-0.54052222 149:-0.47553468 150:-0.46621527 151:-0.50600633 152:-0.50456616 153:-0.51431756 154:-0.54385562 155:-0.47627835 156:-0.46595178 157:-0.35658229 158:-0.61931716 159:-0.68836385 160:-0.49973124 161:-0.47558056 162:-0.51350817 163:-0.40344758 164:-0.37990498 165:-0.56228539 166:-0.42400087 167:-0.38526683 168:-0.42305364 169:-0.50010356 170:-0.47227541 171:-0.44662183 172:-0.53767149 173:-0.45514633 174:-0.44310229 175:-0.48276138 176:-0.49162171 177:-0.49884658 178:-0.45342849 179:-0.42818009 180:-0.4786771 181:-0.49364253 182:-0.41047376 183:-0.49984607 184:-0.52933523 
118.23187761430263 1:-0.5073297 2:-0.50870698 3:-0.48432453 4:-0.49216234 5:-0.50787214 6:-0.48861168 7:-0.49494693 8:-0.51190276 9:-0.49884859 10:-0.49367547 11:-0.49102593 12:-0.51432087 13:-0.5291992 14:-0.52919114 15:-0.46907266 16:-0.48757696 17:-0.46666609 18:-0.50314309 19:-0.68484783 20:-0.50007994 21:-0.50298481 22:-0.5144058 23:-0.45106116 24:-0.45155128 25:-0.49837229 26:-0.47197499 27:-0.47054419 28:-0.4986692 29:-0.56490215 30:-0.56118781 31:-0.47155791 32:-0.4935453 33:-0.50958771 34:-0.52342847 35:-0.60254176 36:-0.51963646 37:-0.50393775 38:-0.49660288 39:-0.42165611 40:-0.43076299 41:-0.46574575 42:-0.58786204 43:-0.4415397 44:-0.4764207 45:-0.48352415 46:-0.50617763 47:-0.44580721 48:-0.41749119 49:-0.50841375 50:-0.40696763 51:-0.82373883 52:-0.47005014 53:-0.57105019 54:-0.76804671 55:-0.75660756 56:-0.54052222 57:-0.47553468 58:-0.46621527 59:-0.50600633 60:-0.50456616 61:-0.51431756 62:-0.54385562 63:-0.47627835 64:-0.46595178 65:-0.35658229 66:-0.61931716 67:-0.68836385 68:-0.49973124 69:-0.47558056 70:-0.51350817 71:-0.40344758 72:-0.37990498 73:-0.56228539 74:-0.42400087 75:-0.38526683 76:-0.42305364 77:-0.50010356 78:-0.47227541 79:-0.44662183 80:-0.53767149 81:-0.45514633 82:-0.44310229 83:-0.48276138 84:-0.49162171 85:-0.49884658 86:-0.45342849 87:-0.42818009 88:-0.4786771 89:-0.49364253 90:-0.41047376 91:-0.49984607 92:-0.52933523 93:0.63806079 94:0.43753036 95:0.58064288 96:0.672183 97:0.61103624 98:0.53762994 99:0.65689469 100:0.59531012 101:0.60010702 102:0.59090927 103:0.57817185 104:0.63118063 105:0.66433037 106:0.46928083 107:0.60645044 108:0.72189274 109:0.45232589 110:0.30409474 111:0.30363885 112:0.52805175 113:0.68129754 114:0.47434006 115:0.4626253 116:0.65107696 117:0.72024086 118:0.48597863 119:0.66440578 120:0.72399987 121:0.75583557 122:0.49782371 123:0.61404927 124:0.64686498 125:0.48961864 126:0.28172633 127:0.4248029 128:0.5685624 129:0.78472763 130:0.47673965 131:0.43694891 132:0.64129287 133:0.75080434 134:0.52981787 135:0.72176669 136:0.77120796 137:0.54260345 138:0.34404726 139:0.39393721 140:0.5062938 141:0.38635612 142:0.094403759 143:0.076512445 144:0.41163682 145:0.33436085 146:0.26047138 147:0.18672454 148:0.42767948 149:0.49434527 150:0.48269203 151:0.53385809 152:0.54527682 153:0.57188728 154:0.49432028 155:0.63768637 156:0.96333 157:0.3994793 158:0.52554089 159:0.23783705 160:0.52973474 161:0.53680837 162:0.43476009 163:0.27800957 164:0.58248559 165:0.79868374 166:0.49630276 167:0.60967367 168:0.62996578 169:0.66340795 170:0.54143506 171:0.80722851 172:0.80056515 173:0.50381982 174:0.29945922 175:0.55116974 176:0.5739705 177:0.71127017 178:0.52743384 179:0.64960511 180:0.70483421 181:0.75576068 182:0.43707144 183:0.75214167 184:0.80296559 
