svm_type c_svc
kernel_type rbf
gamma 2
nr_class 2
total_sv 1060
rho -0.14496678577493841
label 1 0
probA -3.2919779813428041
probB 0.025537475044008041
nr_sv 556 504
SV
0.85541938574557241 1:0.026947678 2:0.12649096 3:0.10767403 4:0.06485947 5:0.051834298 6:0.096088456 7:0.092642745 8:0.070194042 9:0.065568146 10:0.073648672 11:0.095710104 12:0.070779616 13:-0.0044970078 14:0.070176246 15:0.079942314 16:-0.021329339 17:0.077740229 18:0.17631527 19:0.10876871 20:0.1384388 21:0.059141382 22:0.15993086 23:0.13819328 24:0.090720153 25:-0.021821335 26:0.1057862 27:0.11139996 28:0.054778542 29:0.017903219 30:0.046157952 31:6.6864082e-06 32:-0.075334681 33:0.056696107 34:0.13014083 35:0.11177772 36:0.037768914 37:0.038442374 38:0.15357113 39:0.097644397 40:0.052739468 41:-0.062442677 42:0.020010055 43:0.0096019389 44:-0.038146558 45:-0.022454508 46:0.13153965 47:0.15012435 48:0.03878209 49:0.099905653 50:0.20760865 51:0.13475643 52:0.22681336 53:0.040383162 54:-0.014706555 55:0.26625523 56:0.10796242 57:0.018086473 58:0.18824252 59:0.17905706 60:0.12579153 61:-0.013950744 62:0.10449987 63:0.13272762 64:0.028828718 65:0.11993212 66:0.19223496 67:0.060963226 68:0.18434941 69:0.0639868 70:0.26789197 71:0.12333357 72:0.13100836 73:-0.0092542943 74:0.1058537 75:0.14846031 76:0.086112838 77:-0.013622174 78:-0.020962057 79:0.019494481 80:-0.05919275 81:0.047659226 82:0.16859391 83:0.11765604 84:0.10610642 85:0.080914895 86:0.10907469 87:0.16776691 88:0.093717517 89:-0.017817488 90:0.086135993 91:0.09736615 92:0.050507425 93:3.1110583 94:2.6163862 95:2.4695393 96:2.9044014 97:2.8001568 98:2.7915555 99:2.8365165 100:2.8313957 101:2.8427229 102:2.7763198 103:2.7864639 104:2.8458471 105:3.4920272 106:2.8331892 107:2.6822944 108:3.2577457 109:2.78906 110:2.4677044 111:1.4208766 112:2.6795668 113:2.7693441 114:2.2298442 115:2.2249474 116:2.5261586 117:3.2557255 118:2.804445 119:2.5376989 120:3.0043634 121:3.7686944 122:3.2192019 123:3.1356023 124:3.5979159 125:2.8937654 126:2.5749255 127:1.8175376 128:3.0581587 129:3.0002527 130:2.4538455 131:2.359678 132:2.7393676 133:3.6102945 134:3.1808778 135:2.9053584 136:3.2731595 137:3.3616835 138:2.4915367 139:2.3469276 140:2.9560725 141:2.6540619 142:2.3837729 143:1.2196454 144:2.4937629 145:1.6296875 146:1.4114489 147:0.98568913 148:1.604348 149:3.2527729 150:2.4753537 151:2.2700941 152:2.8606784 153:3.1618807 154:2.5056589 155:2.3909818 156:2.8614006 157:2.5532114 158:1.9840338 159:0.81830419 160:2.2699724 161:2.4620083 162:1.9218532 163:2.0933517 164:2.3015679 165:2.8196777 166:2.4687156 167:2.2065687 168:2.6554839 169:3.4818351 170:3.0757224 171:2.8293412 172:3.4303454 173:2.9503774 174:2.7582214 175:1.727856 176:2.8031697 177:2.8430134 178:2.3118141 179:2.3267124 180:2.5724069 181:3.1586661 182:2.997486 183:2.7189826 184:3.0635215 
0.85516856288753851 1:3.1110583 2:2.6163862 3:2.4695393 4:2.9044014 5:2.8001568 6:2.7915555 7:2.8365165 8:2.8313957 9:2.8427229 10:2.7763198 11:2.7864639 12:2.8458471 13:3.4920272 14:2.8331892 15:2.6822944 16:3.2577457 17:2.78906 18:2.4677044 19:1.4208766 20:2.6795668 21:2.7693441 22:2.2298442 23:2.2249474 24:2.5261586 25:3.2557255 26:2.804445 27:2.5376989 28:3.0043634 29:3.7686944 30:3.2192019 31:3.1356023 32:3.5979159 33:2.8937654 34:2.5749255 35:1.8175376 36:3.0581587 37:3.0002527 38:2.4538455 39:2.359678 40:2.7393676 41:3.6102945 42:3.1808778 43:2.9053584 44:3.2731595 45:3.3616835 46:2.4915367 47:2.3469276 48:2.9560725 49:2.6540619 50:2.3837729 51:1.2196454 52:2.4937629 53:1.6296875 54:1.4114489 55:0.98568913 56:1.604348 57:3.2527729 58:2.4753537 59:2.2700941 60:2.8606784 61:3.1618807 62:2.5056589 63:2.3909818 64:2.8614006 65:2.5532114 66:1.9840338 67:0.81830419 68:2.2699724 69:2.4620083 70:1.9218532 71:2.0933517 72:2.3015679 73:2.8196777 74:2.4687156 75:2.2065687 76:2.6554839 77:3.4818351 78:3.0757224 79:2.8293412 80:3.4303454 81:2.9503774 82:2.7582214 83:1.727856 84:2.8031697 85:2.8430134 86:2.3118141 87:2.3267124 88:2.5724069 89:3.1586661 90:2.997486 91:2.7189826 92:3.0635215 93:0.026947678 94:0.12649096 95:0.10767403 96:0.06485947 97:0.051834298 98:0.096088456 99:0.092642745 100:0.070194042 101:0.065568146 102:0.073648672 103:0.095710104 104:0.070779616 105:-0.0044970078 106:0.070176246 107:0.079942314 108:-0.021329339 109:0.077740229 110:0.17631527 111:0.10876871 112:0.1384388 113:0.059141382 114:0.15993086 115:0.13819328 116:0.090720153 117:-0.021821335 118:0.1057862 119:0.11139996 120:0.054778542 121:0.017903219 122:0.046157952 123:6.6864082e-06 124:-0.075334681 125:0.056696107 126:0.13014083 127:0.11177772 128:0.037768914 129:0.038442374 130:0.15357113 131:0.097644397 132:0.052739468 133:-0.062442677 134:0.020010055 135:0.0096019389 136:-0.038146558 137:-0.022454508 138:0.13153965 139:0.15012435 140:0.03878209 141:0.099905653 142:0.20760865 143:0.13475643 144:0.22681336 145:0.040383162 146:-0.014706555 147:0.26625523 148:0.10796242 149:0.018086473 150:0.18824252 151:0.17905706 152:0.12579153 153:-0.013950744 154:0.10449987 155:0.13272762 156:0.028828718 157:0.11993212 158:0.19223496 159:0.060963226 160:0.18434941 161:0.0639868 162:0.26789197 163:0.12333357 164:0.13100836 165:-0.0092542943 166:0.1058537 167:0.14846031 168:0.086112838 169:-0.013622174 170:-0.020962057 171:0.019494481 172:-0.05919275 173:0.047659226 174:0.16859391 175:0.11765604 176:0.10610642 177:0.080914895 178:0.10907469 179:0.16776691 180:0.093717517 181:-0.017817488 182:0.086135993 183:0.09736615 184:0.050507425 
0.78436275626880236 1:0.67559999 2:0.97084258 3:0.96244376 4:0.67789222 5:0.83194774 6:0.79620011 7:0.79136811 8:0.78857827 9:0.83695354 10:0.77679642 11:0.80447589 12:0.78056075 13:0.53248441 14:0.85071009 15:0.94255647 16:0.43593781 17:0.90765521 18:1.0505292 19:1.2466329 20:0.92831286 21:0.80663039 22:1.2248409 23:1.0065397 24:0.87944513 25:0.45820476 26:0.81766262 27:0.90616675 28:0.53128129 29:0.47084938 30:0.67981388 31:0.71820493 32:0.32827658 33:0.77974914 34:0.98455052 35:1.1461744 36:0.78821152 37:0.81780762 38:1.2281899 39:0.94681038 40:0.84402198 41:0.2728454 42:0.602851 43:0.60939413 44:0.31592204 45:0.563383 46:1.0979675 47:1.2713964 48:0.62855436 49:1.0292261 50:0.97904823 51:1.2826077 52:1.0734399 53:0.84079367 54:1.543384 55:1.1832801 56:1.3685279 57:0.59669644 58:1.059422 59:1.2490253 60:0.68911816 61:0.67883612 62:0.9131933 63:1.0383075 64:0.58050491 65:1.1177195 66:1.4242415 67:1.1853233 68:1.1681802 69:0.81843875 70:1.3188345 71:1.0328612 72:0.92143137 73:0.70223914 74:1.0892413 75:1.0204935 76:0.68913632 77:0.43873113 78:0.62980734 79:0.62856529 80:0.25236154 81:0.7677501 82:0.89282486 83:1.3320829 84:0.75194535 85:0.77127731 86:1.0931708 87:1.0057875 88:0.81761307 89:0.38385994 90:0.58765847 91:0.69014413 92:0.48224815 93:-0.25081935 94:-0.27512094 95:-0.23184935 96:-0.25120636 97:-0.25047939 98:-0.25890351 99:-0.25613743 100:-0.24709319 101:-0.2635069 102:-0.22284282 103:-0.23922593 104:-0.27508487 105:-0.23816586 106:-0.28228157 107:-0.23679191 108:-0.2536232 109:-0.28272425 110:-0.28963883 111:-0.079995297 112:-0.27967013 113:-0.23752823 114:-0.23318876 115:-0.24006736 116:-0.21469914 117:-0.23917617 118:-0.28331899 119:-0.23773318 120:-0.2455825 121:-0.23789407 122:-0.27876937 123:-0.22028372 124:-0.22668891 125:-0.30575979 126:-0.29763898 127:-0.1667137 128:-0.25528419 129:-0.22894328 130:-0.26395036 131:-0.25213972 132:-0.2040541 133:-0.23569823 134:-0.26245893 135:-0.24036732 136:-0.27164363 137:-0.26767048 138:-0.32363798 139:-0.26030822 140:-0.27961433 141:-0.29247411 142:-0.28844926 143:-0.092876522 144:-0.31089975 145:-0.16115905 146:0.060684921 147:0.10919572 148:-0.27363734 149:-0.28504196 150:-0.29503955 151:-0.29713121 152:-0.24290102 153:-0.23572294 154:-0.23193653 155:-0.24459731 156:-0.22988839 157:-0.25702964 158:-0.25049928 159:0.18330292 160:-0.25390995 161:-0.26213114 162:-0.20086541 163:-0.25923062 164:-0.22178515 165:-0.18499743 166:-0.28112754 167:-0.20887402 168:-0.19314994 169:-0.21130129 170:-0.26776548 171:-0.20879428 172:-0.26797966 173:-0.26530595 174:-0.30856464 175:-0.21305841 176:-0.28438924 177:-0.23377098 178:-0.26236109 179:-0.25796907 180:-0.20934291 181:-0.24273046 182:-0.28340688 183:-0.19220217 184:-0.25319254 
0.78438846981998878 1:-0.25081935 2:-0.27512094 3:-0.23184935 4:-0.25120636 5:-0.25047939 6:-0.25890351 7:-0.25613743 8:-0.24709319 9:-0.2635069 10:-0.22284282 11:-0.23922593 12:-0.27508487 13:-0.23816586 14:-0.28228157 15:-0.23679191 16:-0.2536232 17:-0.28272425 18:-0.28963883 19:-0.079995297 20:-0.27967013 21:-0.23752823 22:-0.23318876 23:-0.24006736 24:-0.21469914 25:-0.23917617 26:-0.28331899 27:-0.23773318 28:-0.2455825 29:-0.23789407 30:-0.27876937 31:-0.22028372 32:-0.22668891 33:-0.30575979 34:-0.29763898 35:-0.1667137 36:-0.25528419 37:-0.22894328 38:-0.26395036 39:-0.25213972 40:-0.2040541 41:-0.23569823 42:-0.26245893 43:-0.24036732 44:-0.27164363 45:-0.26767048 46:-0.32363798 47:-0.26030822 48:-0.27961433 49:-0.29247411 50:-0.28844926 51:-0.092876522 52:-0.31089975 53:-0.16115905 54:0.060684921 55:0.10919572 56:-0.27363734 57:-0.28504196 58:-0.29503955 59:-0.29713121 60:-0.24290102 61:-0.23572294 62:-0.23193653 63:-0.24459731 64:-0.22988839 65:-0.25702964 66:-0.25049928 67:0.18330292 68:-0.25390995 69:-0.26213114 70:-0.20086541 71:-0.25923062 72:-0.22178515 73:-0.18499743 74:-0.28112754 75:-0.20887402 76:-0.19314994 77:-0.21130129 78:-0.26776548 79:-0.20879428 80:-0.26797966 81:-0.26530595 82:-0.30856464 83:-0.21305841 84:-0.28438924 85:-0.23377098 86:-0.26236109 87:-0.25796907 88:-0.20934291 89:-0.24273046 90:-0.28340688 91:-0.19220217 92:-0.25319254 93:0.67559999 94:0.97084258 95:0.96244376 96:0.67789222 97:0.83194774 98:0.79620011 99:0.79136811 100:0.78857827 101:0.83695354 102:0.77679642 103:0.80447589 104:0.78056075 105:0.53248441 106:0.85071009 107:0.94255647 108:0.43593781 109:0.90765521 110:1.0505292 111:1.2466329 112:0.92831286 113:0.80663039 114:1.2248409 115:1.0065397 116:0.87944513 117:0.45820476 118:0.81766262 119:0.90616675 120:0.53128129 121:0.47084938 122:0.67981388 123:0.71820493 124:0.32827658 125:0.77974914 126:0.98455052 127:1.1461744 128:0.78821152 129:0.81780762 130:1.2281899 131:0.94681038 132:0.84402198 133:0.2728454 134:0.602851 135:0.60939413 136:0.31592204 137:0.563383 138:1.0979675 139:1.2713964 140:0.62855436 141:1.0292261 142:0.97904823 143:1.2826077 144:1.0734399 145:0.84079367 146:1.543384 147:1.1832801 148:1.3685279 149:0.59669644 150:1.059422 151:1.2490253 152:0.68911816 153:0.67883612 154:0.9131933 155:1.0383075 156:0.58050491 157:1.1177195 158:1.4242415 159:1.1853233 160:1.1681802 161:0.81843875 162:1.3188345 163:1.0328612 164:0.92143137 165:0.70223914 166:1.0892413 167:1.0204935 168:0.68913632 169:0.43873113 170:0.62980734 171:0.62856529 172:0.25236154 173:0.7677501 174:0.89282486 175:1.3320829 176:0.75194535 177:0.77127731 178:1.0931708 179:1.0057875 180:0.81761307 181:0.38385994 182:0.58765847 183:0.69014413 184:0.48224815 
0.64576607235997263 1:-0.10735931 2:0.079575696 3:0.020441623 4:-0.11849012 5:-0.046246418 6:-0.043046651 7:-0.044777473 8:-0.043258291 9:-0.048503972 10:-0.056241383 11:-0.044956294 12:-0.030756002 13:-0.18963585 14:0.0073746725 15:-0.00039139462 16:-0.20041523 17:0.040811084 18:0.20956278 19:0.15100961 20:0.015982948 21:-0.060964348 22:0.14175019 23:0.065506947 24:-0.025378757 25:-0.21190429 26:-0.013938476 27:-0.0065807538 28:-0.21666371 29:-0.22977352 30:-0.10725348 31:-0.092103044 32:-0.28360844 33:-0.041197963 34:0.14624007 35:0.17145445 36:-0.053708988 37:-0.10609041 38:0.13273846 39:0.083913203 40:-0.059980966 41:-0.2707702 42:-0.08541851 43:-0.11906856 44:-0.27811332 45:-0.08001324 46:0.16204975 47:0.16557738 48:-0.091532055 49:0.16997347 50:0.33649098 51:0.18318897 52:0.15348884 53:0.103725 54:0.066967544 55:0.30678672 56:0.10796242 57:-0.091513708 58:0.063182683 59:0.16333935 60:-0.10165229 61:-0.14326202 62:0.0845629 63:0.020954011 64:-0.16330678 65:0.099386813 66:0.32204186 67:0.10174312 68:0.056557892 69:0.02748106 70:0.21117812 71:0.056759903 72:-0.0076260377 73:-0.13706749 74:0.11268279 75:0.09760889 76:-0.17473701 77:-0.27334656 78:-0.1431996 79:-0.14111975 80:-0.2445643 81:-0.032953017 82:0.068992855 83:0.13392069 84:-0.066948486 85:-0.096866404 86:0.10740532 87:0.021819501 88:-0.02602831 89:-0.28098546 90:-0.1028348 91:-0.17732072 92:-0.26977082 93:-0.4359818 94:-0.36304088 95:-0.38864002 96:-0.43523503 97:-0.41703074 98:-0.40588516 99:-0.4088582 100:-0.41511539 101:-0.39149517 102:-0.43425082 103:-0.41293898 104:-0.40355819 105:-0.45497526 106:-0.42736602 107:-0.41002253 108:-0.44002964 109:-0.40990463 110:-0.27863782 111:-0.24763886 112:-0.38791839 113:-0.41303484 114:-0.35955928 115:-0.33293084 116:-0.43040563 117:-0.45509564 118:-0.38079752 119:-0.41887204 120:-0.46523384 121:-0.4801571 122:-0.44742666 123:-0.42833577 124:-0.44595849 125:-0.45817714 126:-0.35628622 127:-0.32087858 128:-0.44795446 129:-0.44296298 130:-0.36377359 131:-0.35114886 132:-0.45935469 133:-0.4482344 134:-0.41264491 135:-0.42667149 136:-0.45514762 137:-0.41196154 138:-0.41681745 139:-0.38146 140:-0.42336292 141:-0.34189036 142:-0.16420298 143:-0.15583883 144:-0.31701012 145:-0.25905098 146:-0.22203311 147:-0.23025549 148:-0.26506206 149:-0.41833947 150:-0.33531306 151:-0.3687341 152:-0.42363266 153:-0.43471491 154:-0.38644806 155:-0.38413634 156:-0.43248672 157:-0.39548716 158:-0.28295101 159:-0.31770725 160:-0.38088229 161:-0.36678093 162:-0.31197828 163:-0.2686072 164:-0.37386916 165:-0.45020981 166:-0.37787285 167:-0.41227972 168:-0.46243906 169:-0.47030421 170:-0.44471887 171:-0.44700864 172:-0.44879822 173:-0.42653044 174:-0.31551355 175:-0.19679377 176:-0.40308396 177:-0.42842204 178:-0.40258853 179:-0.37096061 180:-0.45277681 181:-0.48413266 182:-0.39678936 183:-0.46068843 184:-0.49410669 
0.64521640064368402 1:-0.4359818 2:-0.36304088 3:-0.38864002 4:-0.43523503 5:-0.41703074 6:-0.40588516 7:-0.4088582 8:-0.41511539 9:-0.39149517 10:-0.43425082 11:-0.41293898 12:-0.40355819 13:-0.45497526 14:-0.42736602 15:-0.41002253 16:-0.44002964 17:-0.40990463 18:-0.27863782 19:-0.24763886 20:-0.38791839 21:-0.41303484 22:-0.35955928 23:-0.33293084 24:-0.43040563 25:-0.45509564 26:-0.38079752 27:-0.41887204 28:-0.46523384 29:-0.4801571 30:-0.44742666 31:-0.42833577 32:-0.44595849 33:-0.45817714 34:-0.35628622 35:-0.32087858 36:-0.44795446 37:-0.44296298 38:-0.36377359 39:-0.35114886 40:-0.45935469 41:-0.4482344 42:-0.41264491 43:-0.42667149 44:-0.45514762 45:-0.41196154 46:-0.41681745 47:-0.38146 48:-0.42336292 49:-0.34189036 50:-0.16420298 51:-0.15583883 52:-0.31701012 53:-0.25905098 54:-0.22203311 55:-0.23025549 56:-0.26506206 57:-0.41833947 58:-0.33531306 59:-0.3687341 60:-0.42363266 61:-0.43471491 62:-0.38644806 63:-0.38413634 64:-0.43248672 65:-0.39548716 66:-0.28295101 67:-0.31770725 68:-0.38088229 69:-0.36678093 70:-0.31197828 71:-0.2686072 72:-0.37386916 73:-0.45020981 74:-0.37787285 75:-0.41227972 76:-0.46243906 77:-0.47030421 78:-0.44471887 79:-0.44700864 80:-0.44879822 81:-0.42653044 82:-0.31551355 83:-0.19679377 84:-0.40308396 85:-0.42842204 86:-0.40258853 87:-0.37096061 88:-0.45277681 89:-0.48413266 90:-0.39678936 91:-0.46068843 92:-0.49410669 93:-0.10735931 94:0.079575696 95:0.020441623 96:-0.11849012 97:-0.046246418 98:-0.043046651 99:-0.044777473 100:-0.043258291 101:-0.048503972 102:-0.056241383 103:-0.044956294 104:-0.030756002 105:-0.18963585 106:0.0073746725 107:-0.00039139462 108:-0.20041523 109:0.040811084 110:0.20956278 111:0.15100961 112:0.015982948 113:-0.060964348 114:0.14175019 115:0.065506947 116:-0.025378757 117:-0.21190429 118:-0.013938476 119:-0.0065807538 120:-0.21666371 121:-0.22977352 122:-0.10725348 123:-0.092103044 124:-0.28360844 125:-0.041197963 126:0.14624007 127:0.17145445 128:-0.053708988 129:-0.10609041 130:0.13273846 131:0.083913203 132:-0.059980966 133:-0.2707702 134:-0.08541851 135:-0.11906856 136:-0.27811332 137:-0.08001324 138:0.16204975 139:0.16557738 140:-0.091532055 141:0.16997347 142:0.33649098 143:0.18318897 144:0.15348884 145:0.103725 146:0.066967544 147:0.30678672 148:0.10796242 149:-0.091513708 150:0.063182683 151:0.16333935 152:-0.10165229 153:-0.14326202 154:0.0845629 155:0.020954011 156:-0.16330678 157:0.099386813 158:0.32204186 159:0.10174312 160:0.056557892 161:0.02748106 162:0.21117812 163:0.056759903 164:-0.0076260377 165:-0.13706749 166:0.11268279 167:0.09760889 168:-0.17473701 169:-0.27334656 170:-0.1431996 171:-0.14111975 172:-0.2445643 173:-0.032953017 174:0.068992855 175:0.13392069 176:-0.066948486 177:-0.096866404 178:0.10740532 179:0.021819501 180:-0.02602831 181:-0.28098546 182:-0.1028348 183:-0.17732072 184:-0.26977082 
0.85273771605218818 1:-0.10735931 2:0.079575696 3:0.020441623 4:-0.11849012 5:-0.046246418 6:-0.043046651 7:-0.044777473 8:-0.043258291 9:-0.048503972 10:-0.056241383 11:-0.044956294 12:-0.030756002 13:-0.18963585 14:0.0073746725 15:-0.00039139462 16:-0.20041523 17:0.040811084 18:0.20956278 19:0.15100961 20:0.015982948 21:-0.060964348 22:0.14175019 23:0.065506947 24:-0.025378757 25:-0.21190429 26:-0.013938476 27:-0.0065807538 28:-0.21666371 29:-0.22977352 30:-0.10725348 31:-0.092103044 32:-0.28360844 33:-0.041197963 34:0.14624007 35:0.17145445 36:-0.053708988 37:-0.10609041 38:0.13273846 39:0.083913203 40:-0.059980966 41:-0.2707702 42:-0.08541851 43:-0.11906856 44:-0.27811332 45:-0.08001324 46:0.16204975 47:0.16557738 48:-0.091532055 49:0.16997347 50:0.33649098 51:0.18318897 52:0.15348884 53:0.103725 54:0.066967544 55:0.30678672 56:0.10796242 57:-0.091513708 58:0.063182683 59:0.16333935 60:-0.10165229 61:-0.14326202 62:0.0845629 63:0.020954011 64:-0.16330678 65:0.099386813 66:0.32204186 67:0.10174312 68:0.056557892 69:0.02748106 70:0.21117812 71:0.056759903 72:-0.0076260377 73:-0.13706749 74:0.11268279 75:0.09760889 76:-0.17473701 77:-0.27334656 78:-0.1431996 79:-0.14111975 80:-0.2445643 81:-0.032953017 82:0.068992855 83:0.13392069 84:-0.066948486 85:-0.096866404 86:0.10740532 87:0.021819501 88:-0.02602831 89:-0.28098546 90:-0.1028348 91:-0.17732072 92:-0.26977082 93:-0.53661864 94:-0.5599988 95:-0.57976046 96:-0.54371687 97:-0.55500576 98:-0.55152059 99:-0.55686972 100:-0.55471087 101:-0.5479666 102:-0.5602555 103:-0.55456969 104:-0.55503709 105:-0.52209793 106:-0.54553551 107:-0.56538155 108:-0.50966423 109:-0.54248926 110:-0.57053141 111:-0.61856673 112:-0.55502665 113:-0.54730797 114:-0.59650401 115:-0.60325593 116:-0.57289066 117:-0.52850416 118:-0.5322735 119:-0.56618763 120:-0.53490183 121:-0.52256441 122:-0.52365595 123:-0.53783684 124:-0.49899715 125:-0.5275704 126:-0.55982661 127:-0.54466633 128:-0.5507659 129:-0.53135034 130:-0.57904455 131:-0.58819264 132:-0.56610318 133:-0.49733516 134:-0.50812738 135:-0.51915341 136:-0.50572885 137:-0.51525187 138:-0.5479284 139:-0.58111319 140:-0.50598477 141:-0.56241958 142:-0.5693942 143:-0.635321 144:-0.56074624 145:-0.54696843 146:-0.70579509 147:-0.63050392 148:-0.5866349 149:-0.53386399 150:-0.54445266 151:-0.58063206 152:-0.54096921 153:-0.52315579 154:-0.55342021 155:-0.57635848 156:-0.52665213 157:-0.55806308 158:-0.62485311 159:-0.69637773 160:-0.58813391 161:-0.57364679 162:-0.62564063 163:-0.61647807 164:-0.59630495 165:-0.55459058 166:-0.56567257 167:-0.58544944 168:-0.56447738 169:-0.52008472 170:-0.54716558 171:-0.55077626 172:-0.5047349 173:-0.52340061 174:-0.5355624 175:-0.58714526 176:-0.52726457 177:-0.5387243 178:-0.56869127 179:-0.59627112 180:-0.55872477 181:-0.53228119 182:-0.51197155 183:-0.56299844 184:-0.52937963 
0.85224006617859827 1:-0.53661864 2:-0.5599988 3:-0.57976046 4:-0.54371687 5:-0.55500576 6:-0.55152059 7:-0.55686972 8:-0.55471087 9:-0.5479666 10:-0.5602555 11:-0.55456969 12:-0.55503709 13:-0.52209793 14:-0.54553551 15:-0.56538155 16:-0.50966423 17:-0.54248926 18:-0.57053141 19:-0.61856673 20:-0.55502665 21:-0.54730797 22:-0.59650401 23:-0.60325593 24:-0.57289066 25:-0.52850416 26:-0.5322735 27:-0.56618763 28:-0.53490183 29:-0.52256441 30:-0.52365595 31:-0.53783684 32:-0.49899715 33:-0.5275704 34:-0.55982661 35:-0.54466633 36:-0.5507659 37:-0.53135034 38:-0.57904455 39:-0.58819264 40:-0.56610318 41:-0.49733516 42:-0.50812738 43:-0.51915341 44:-0.50572885 45:-0.51525187 46:-0.5479284 47:-0.58111319 48:-0.50598477 49:-0.56241958 50:-0.5693942 51:-0.635321 52:-0.56074624 53:-0.54696843 54:-0.70579509 55:-0.63050392 56:-0.5866349 57:-0.53386399 58:-0.54445266 59:-0.58063206 60:-0.54096921 61:-0.52315579 62:-0.55342021 63:-0.57635848 64:-0.52665213 65:-0.55806308 66:-0.62485311 67:-0.69637773 68:-0.58813391 69:-0.57364679 70:-0.62564063 71:-0.61647807 72:-0.59630495 73:-0.55459058 74:-0.56567257 75:-0.58544944 76:-0.56447738 77:-0.52008472 78:-0.54716558 79:-0.55077626 80:-0.5047349 81:-0.52340061 82:-0.5355624 83:-0.58714526 84:-0.52726457 85:-0.5387243 86:-0.56869127 87:-0.59627112 88:-0.55872477 89:-0.53228119 90:-0.51197155 91:-0.56299844 92:-0.52937963 93:-0.10735931 94:0.079575696 95:0.020441623 96:-0.11849012 97:-0.046246418 98:-0.043046651 99:-0.044777473 100:-0.043258291 101:-0.048503972 102:-0.056241383 103:-0.044956294 104:-0.030756002 105:-0.18963585 106:0.0073746725 107:-0.00039139462 108:-0.20041523 109:0.040811084 110:0.20956278 111:0.15100961 112:0.015982948 113:-0.060964348 114:0.14175019 115:0.065506947 116:-0.025378757 117:-0.21190429 118:-0.013938476 119:-0.0065807538 120:-0.21666371 121:-0.22977352 122:-0.10725348 123:-0.092103044 124:-0.28360844 125:-0.041197963 126:0.14624007 127:0.17145445 128:-0.053708988 129:-0.10609041 130:0.13273846 131:0.083913203 132:-0.059980966 133:-0.2707702 134:-0.08541851 135:-0.11906856 136:-0.27811332 137:-0.08001324 138:0.16204975 139:0.16557738 140:-0.091532055 141:0.16997347 142:0.33649098 143:0.18318897 144:0.15348884 145:0.103725 146:0.066967544 147:0.30678672 148:0.10796242 149:-0.091513708 150:0.063182683 151:0.16333935 152:-0.10165229 153:-0.14326202 154:0.0845629 155:0.020954011 156:-0.16330678 157:0.099386813 158:0.32204186 159:0.10174312 160:0.056557892 161:0.02748106 162:0.21117812 163:0.056759903 164:-0.0076260377 165:-0.13706749 166:0.11268279 167:0.09760889 168:-0.17473701 169:-0.27334656 170:-0.1431996 171:-0.14111975 172:-0.2445643 173:-0.032953017 174:0.068992855 175:0.13392069 176:-0.066948486 177:-0.096866404 178:0.10740532 179:0.021819501 180:-0.02602831 181:-0.28098546 182:-0.1028348 183:-0.17732072 184:-0.26977082 
0.85463113451371653 1:3.9768153 2:3.8162965 3:3.7829981 4:3.86461 5:3.8372356 6:4.0480281 7:3.9891066 8:3.7222317 9:3.657081 10:4.0256393 11:3.9583268 12:3.8904053 13:4.0545342 14:3.7818774 15:4.1263547 16:3.8125013 17:3.8219952 18:3.9032146 19:1.8023647 20:3.9640002 21:4.0103662 22:3.61992 23:3.7528189 24:3.648668 25:3.9459296 26:3.866597 27:3.6899344 28:3.9007144 29:4.1453977 30:3.9205113 31:4.2434955 32:3.7783767 33:3.6682438 34:3.9537104 35:1.9667295 36:4.0474153 37:4.2665822 38:3.8973761 39:4.1310021 40:4.0599136 41:3.8733343 42:3.8761096 43:3.6827427 44:3.7866178 45:3.9080973 46:3.4744565 47:3.9769135 48:3.7702 49:4.0775448 50:3.904399 51:1.650695 52:3.9962365 53:2.2861393 54:1.6124928 55:1.5733957 56:1.7201142 57:4.1483347 58:3.8340546 59:3.8145042 60:4.0345999 61:4.2506415 62:3.8289755 63:3.9785942 64:3.7669105 65:3.6242473 66:3.73295 67:1.3309658 68:3.8001939 69:4.0966542 70:3.5109986 71:3.5739126 72:3.665151 73:4.0104706 74:3.6205539 75:3.2242844 76:3.8016888 77:3.7826826 78:3.9034452 79:4.2496041 80:3.8622286 81:3.8682731 82:3.9349037 83:2.1724229 84:3.945731 85:3.7916129 86:3.64314 87:3.7660094 88:3.5535342 89:3.7958096 90:3.9681359 91:3.8933774 92:3.8892609 93:-0.40142437 94:-0.4010287 95:-0.37893421 96:-0.40450699 97:-0.3944024 98:-0.40313631 99:-0.40416707 100:-0.39256002 101:-0.40266838 102:-0.39391268 103:-0.39882642 104:-0.40110647 105:-0.39478544 106:-0.41070438 107:-0.40276772 108:-0.39485643 109:-0.41314718 110:-0.37349101 111:-0.35588115 112:-0.40973718 113:-0.38237405 114:-0.40843844 115:-0.31445538 116:-0.40753767 117:-0.40793374 118:-0.40708841 119:-0.39835366 120:-0.40003512 121:-0.40256075 122:-0.3873961 123:-0.39033245 124:-0.38839214 125:-0.43277424 126:-0.360886 127:-0.41039368 128:-0.41071567 129:-0.39182061 130:-0.44189611 131:-0.3453673 132:-0.43621341 133:-0.3808962 134:-0.37783359 135:-0.41594895 136:-0.39280331 137:-0.38673032 138:-0.41104527 139:-0.42905534 140:-0.40992847 141:-0.39056905 142:-0.33480981 143:-0.26723367 144:-0.39508715 145:-0.31663447 146:-0.46077279 147:-0.31131846 148:-0.34223955 149:-0.41340253 150:-0.42716491 151:-0.40366233 152:-0.39249121 153:-0.37173429 154:-0.41012322 155:-0.37132153 156:-0.38302609 157:-0.41781902 158:-0.39189609 159:-0.32353295 160:-0.41692605 161:-0.32784147 162:-0.35480302 163:-0.22078667 164:-0.35938497 165:-0.42145184 166:-0.40291281 167:-0.38547965 168:-0.41640673 169:-0.40970186 170:-0.4295847 171:-0.41001323 172:-0.38895898 173:-0.4048532 174:-0.39735628 175:-0.41365571 176:-0.41106343 177:-0.41804065 178:-0.40175384 179:-0.34876585 180:-0.41483266 181:-0.41685664 182:-0.40458815 183:-0.37822037 184:-0.39745885 
0.85498945519582648 1:-0.40142437 2:-0.4010287 3:-0.37893421 4:-0.40450699 5:-0.3944024 6:-0.40313631 7:-0.40416707 8:-0.39256002 9:-0.40266838 10:-0.39391268 11:-0.39882642 12:-0.40110647 13:-0.39478544 14:-0.41070438 15:-0.40276772 16:-0.39485643 17:-0.41314718 18:-0.37349101 19:-0.35588115 20:-0.40973718 21:-0.38237405 22:-0.40843844 23:-0.31445538 24:-0.40753767 25:-0.40793374 26:-0.40708841 27:-0.39835366 28:-0.40003512 29:-0.40256075 30:-0.3873961 31:-0.39033245 32:-0.38839214 33:-0.43277424 34:-0.360886 35:-0.41039368 36:-0.41071567 37:-0.39182061 38:-0.44189611 39:-0.3453673 40:-0.43621341 41:-0.3808962 42:-0.37783359 43:-0.41594895 44:-0.39280331 45:-0.38673032 46:-0.41104527 47:-0.42905534 48:-0.40992847 49:-0.39056905 50:-0.33480981 51:-0.26723367 52:-0.39508715 53:-0.31663447 54:-0.46077279 55:-0.31131846 56:-0.34223955 57:-0.41340253 58:-0.42716491 59:-0.40366233 60:-0.39249121 61:-0.37173429 62:-0.41012322 63:-0.37132153 64:-0.38302609 65:-0.41781902 66:-0.39189609 67:-0.32353295 68:-0.41692605 69:-0.32784147 70:-0.35480302 71:-0.22078667 72:-0.35938497 73:-0.42145184 74:-0.40291281 75:-0.38547965 76:-0.41640673 77:-0.40970186 78:-0.4295847 79:-0.41001323 80:-0.38895898 81:-0.4048532 82:-0.39735628 83:-0.41365571 84:-0.41106343 85:-0.41804065 86:-0.40175384 87:-0.34876585 88:-0.41483266 89:-0.41685664 90:-0.40458815 91:-0.37822037 92:-0.39745885 93:3.9768153 94:3.8162965 95:3.7829981 96:3.86461 97:3.8372356 98:4.0480281 99:3.9891066 100:3.7222317 101:3.657081 102:4.0256393 103:3.9583268 104:3.8904053 105:4.0545342 106:3.7818774 107:4.1263547 108:3.8125013 109:3.8219952 110:3.9032146 111:1.8023647 112:3.9640002 113:4.0103662 114:3.61992 115:3.7528189 116:3.648668 117:3.9459296 118:3.866597 119:3.6899344 120:3.9007144 121:4.1453977 122:3.9205113 123:4.2434955 124:3.7783767 125:3.6682438 126:3.9537104 127:1.9667295 128:4.0474153 129:4.2665822 130:3.8973761 131:4.1310021 132:4.0599136 133:3.8733343 134:3.8761096 135:3.6827427 136:3.7866178 137:3.9080973 138:3.4744565 139:3.9769135 140:3.7702 141:4.0775448 142:3.904399 143:1.650695 144:3.9962365 145:2.2861393 146:1.6124928 147:1.5733957 148:1.7201142 149:4.1483347 150:3.8340546 151:3.8145042 152:4.0345999 153:4.2506415 154:3.8289755 155:3.9785942 156:3.7669105 157:3.6242473 158:3.73295 159:1.3309658 160:3.8001939 161:4.0966542 162:3.5109986 163:3.5739126 164:3.665151 165:4.0104706 166:3.6205539 167:3.2242844 168:3.8016888 169:3.7826826 170:3.9034452 171:4.2496041 172:3.8622286 173:3.8682731 174:3.9349037 175:2.1724229 176:3.945731 177:3.7916129 178:3.64314 179:3.7660094 180:3.5535342 181:3.7958096 182:3.9681359 183:3.8933774 184:3.8892609 
0.53817315417465006 1:-0.49337515 2:-0.48968747 3:-0.49402587 4:-0.49847366 5:-0.49238127 6:-0.49510497 7:-0.4973969 8:-0.49632981 9:-0.49413063 10:-0.49797469 11:-0.49903324 12:-0.49322404 13:-0.49546945 14:-0.49657592 15:-0.49566463 16:-0.47877504 17:-0.48142107 18:-0.4898573 19:-0.47468368 20:-0.49362959 21:-0.49592471 22:-0.4743061 23:-0.49386178 24:-0.50076861 25:-0.4926201 26:-0.4898036 27:-0.48940399 28:-0.50834912 29:-0.49684934 30:-0.49602283 31:-0.49403641 32:-0.48864814 33:-0.48358003 34:-0.49772954 35:-0.47504347 36:-0.50866988 37:-0.49521714 38:-0.46967301 39:-0.50436008 40:-0.50115829 41:-0.46857614 42:-0.47629989 43:-0.47358261 44:-0.48690793 45:-0.47977046 46:-0.4918558 47:-0.47726881 48:-0.46702488 49:-0.48645132 50:-0.47945473 51:-0.43190432 52:-0.50100034 53:-0.47786824 54:-0.50475115 55:-0.42278005 56:-0.48373159 57:-0.49535582 58:-0.48651534 59:-0.48457941 60:-0.49814971 61:-0.50104557 62:-0.4836408 63:-0.50374123 64:-0.47719151 65:-0.46784238 66:-0.49504621 67:-0.50412964 68:-0.45378898 69:-0.50388026 70:-0.47517529 71:-0.48051776 72:-0.50422688 73:-0.50666063 74:-0.4837236 75:-0.48786968 76:-0.5115402 77:-0.4955552 78:-0.50292723 79:-0.50024595 80:-0.47416486 81:-0.48072354 82:-0.48383162 83:-0.47871429 84:-0.49784025 85:-0.48681736 86:-0.46685944 87:-0.49605839 88:-0.49564877 89:-0.49930274 90:-0.49757378 91:-0.49851213 92:-0.52091412 93:-0.12160258 94:0.13652664 95:0.1700428 96:-0.057331149 97:0.0024629303 98:0.030521101 99:0.0098488761 100:0.014182311 101:-0.0072049373 102:0.043945963 103:0.029463731 104:-0.021589375 105:-0.25534044 106:-0.035945597 107:0.032343707 108:-0.1832744 109:0.013609616 110:0.31223892 111:0.3767344 112:0.098014836 113:-0.005774919 114:0.23891243 115:0.38931362 116:0.10171437 117:-0.21149418 118:0.056440216 119:0.12326215 120:-0.17972654 121:-0.34120549 122:-0.20730442 123:-0.13203873 124:-0.28554888 125:-0.096960408 126:0.13359067 127:0.086912414 128:-0.094995474 129:-0.10831399 130:0.10148945 131:0.25952795 132:-0.073417839 133:-0.27497884 134:-0.053591019 135:-0.075508238 136:-0.27517255 137:-0.17384186 138:0.093608183 139:0.17979417 140:-0.07339555 141:0.14710923 142:0.46630053 143:0.74500646 144:0.28588033 145:0.092208302 146:0.59470788 147:0.65637079 148:0.19371518 149:-0.10237499 150:0.19460149 151:0.29140955 152:-0.051603526 153:-0.15465214 154:0.0845629 155:0.18398686 156:-0.11669966 157:0.10831956 158:0.42287401 159:0.41050521 160:0.20073293 161:0.15809048 162:0.49127512 163:0.67561375 164:0.27067735 165:-0.11043974 166:0.16959179 167:0.36904555 168:-0.091878825 169:-0.29787608 170:-0.12108043 171:-0.14563138 172:-0.22960449 173:-0.060049569 174:0.2265015 175:0.23693011 176:0.015339872 177:-0.028089697 178:0.13828874 179:0.26394423 180:0.12525551 181:-0.28494287 182:-0.055442122 183:-0.096712833 184:-0.24225794 
0.53790837235742728 1:-0.12160258 2:0.13652664 3:0.1700428 4:-0.057331149 5:0.0024629303 6:0.030521101 7:0.0098488761 8:0.014182311 9:-0.0072049373 10:0.043945963 11:0.029463731 12:-0.021589375 13:-0.25534044 14:-0.035945597 15:0.032343707 16:-0.1832744 17:0.013609616 18:0.31223892 19:0.3767344 20:0.098014836 21:-0.005774919 22:0.23891243 23:0.38931362 24:0.10171437 25:-0.21149418 26:0.056440216 27:0.12326215 28:-0.17972654 29:-0.34120549 30:-0.20730442 31:-0.13203873 32:-0.28554888 33:-0.096960408 34:0.13359067 35:0.086912414 36:-0.094995474 37:-0.10831399 38:0.10148945 39:0.25952795 40:-0.073417839 41:-0.27497884 42:-0.053591019 43:-0.075508238 44:-0.27517255 45:-0.17384186 46:0.093608183 47:0.17979417 48:-0.07339555 49:0.14710923 50:0.46630053 51:0.74500646 52:0.28588033 53:0.092208302 54:0.59470788 55:0.65637079 56:0.19371518 57:-0.10237499 58:0.19460149 59:0.29140955 60:-0.051603526 61:-0.15465214 62:0.0845629 63:0.18398686 64:-0.11669966 65:0.10831956 66:0.42287401 67:0.41050521 68:0.20073293 69:0.15809048 70:0.49127512 71:0.67561375 72:0.27067735 73:-0.11043974 74:0.16959179 75:0.36904555 76:-0.091878825 77:-0.29787608 78:-0.12108043 79:-0.14563138 80:-0.22960449 81:-0.060049569 82:0.2265015 83:0.23693011 84:0.015339872 85:-0.028089697 86:0.13828874 87:0.26394423 88:0.12525551 89:-0.28494287 90:-0.055442122 91:-0.096712833 92:-0.24225794 93:-0.49337515 94:-0.48968747 95:-0.49402587 96:-0.49847366 97:-0.49238127 98:-0.49510497 99:-0.4973969 100:-0.49632981 101:-0.49413063 102:-0.49797469 103:-0.49903324 104:-0.49322404 105:-0.49546945 106:-0.49657592 107:-0.49566463 108:-0.47877504 109:-0.48142107 110:-0.4898573 111:-0.47468368 112:-0.49362959 113:-0.49592471 114:-0.4743061 115:-0.49386178 116:-0.50076861 117:-0.4926201 118:-0.4898036 119:-0.48940399 120:-0.50834912 121:-0.49684934 122:-0.49602283 123:-0.49403641 124:-0.48864814 125:-0.48358003 126:-0.49772954 127:-0.47504347 128:-0.50866988 129:-0.49521714 130:-0.46967301 131:-0.50436008 132:-0.50115829 133:-0.46857614 134:-0.47629989 135:-0.47358261 136:-0.48690793 137:-0.47977046 138:-0.4918558 139:-0.47726881 140:-0.46702488 141:-0.48645132 142:-0.47945473 143:-0.43190432 144:-0.50100034 145:-0.47786824 146:-0.50475115 147:-0.42278005 148:-0.48373159 149:-0.49535582 150:-0.48651534 151:-0.48457941 152:-0.49814971 153:-0.50104557 154:-0.4836408 155:-0.50374123 156:-0.47719151 157:-0.46784238 158:-0.49504621 159:-0.50412964 160:-0.45378898 161:-0.50388026 162:-0.47517529 163:-0.48051776 164:-0.50422688 165:-0.50666063 166:-0.4837236 167:-0.48786968 168:-0.5115402 169:-0.4955552 170:-0.50292723 171:-0.50024595 172:-0.47416486 173:-0.48072354 174:-0.48383162 175:-0.47871429 176:-0.49784025 177:-0.48681736 178:-0.46685944 179:-0.49605839 180:-0.49564877 181:-0.49930274 182:-0.49757378 183:-0.49851213 184:-0.52091412 
1.2416676507511846 1:0.22845486 2:0.27283949 3:0.29436096 4:0.20470597 5:0.22673472 6:0.27348187 7:0.26169964 8:0.22729188 9:0.2277734 10:0.27065675 11:0.2408613 12:0.24213464 13:0.21861499 14:0.25165998 15:0.33049855 16:0.11686854 17:0.26094482 18:0.26407892 19:0.26189196 20:0.28829499 21:0.27144095 22:0.38763623 23:0.29426226 24:0.24595847 25:0.15841913 26:0.21620794 27:0.26224214 28:0.1768947 29:0.24392516 30:0.25007129 31:0.28148887 32:0.094777117 33:0.22150511 34:0.26123465 35:0.15653527 36:0.29601184 37:0.27247431 38:0.43134011 39:0.34552859 40:0.30057512 41:0.051891959 42:0.15129846 43:0.17714166 44:0.096540668 45:0.21093432 46:0.22059614 47:0.42457022 48:0.15230318 49:0.27249374 50:0.1955549 51:0.28489731 52:0.29945894 53:0.351334 54:0.39366394 55:0.24092305 56:0.1165377 57:0.240249 58:0.27444195 59:0.38513365 60:0.22866955 61:0.24467182 62:0.34249748 63:0.31640655 64:0.18957574 65:0.35932964 66:0.41939704 67:0.31146831 68:0.39569691 69:0.26679647 70:0.43456127 71:0.23397714 72:0.26550443 73:0.34010176 74:0.272028 75:0.20480919 76:0.20119366 77:0.15447722 78:0.20605052 79:0.27034142 80:0.053331034 81:0.21633526 82:0.21646419 83:0.29656715 84:0.20684732 85:0.26194038 86:0.30522617 87:0.29219211 88:0.21297056 89:0.089692234 90:0.17372245 91:0.25548162 92:0.17925364 93:-0.55964136 94:-0.57028075 95:-0.58557196 96:-0.57219547 97:-0.56831998 98:-0.57324218 99:-0.57282786 100:-0.57164948 101:-0.56592897 102:-0.58102903 103:-0.57703192 104:-0.56978489 105:-0.54478729 106:-0.57245047 107:-0.58661513 108:-0.53180446 109:-0.56788931 110:-0.56197507 111:-0.45092317 112:-0.58682458 113:-0.56358991 114:-0.5801116 115:-0.59596298 116:-0.59597851 117:-0.55536593 118:-0.56301361 119:-0.58766781 120:-0.56828988 121:-0.54331692 122:-0.55986486 123:-0.55909294 124:-0.51646109 125:-0.55669079 126:-0.58167558 127:-0.52974715 128:-0.58476654 129:-0.56081279 130:-0.59032891 131:-0.60336922 132:-0.59073745 133:-0.51346827 134:-0.53498183 135:-0.53925818 136:-0.53160762 137:-0.52944444 138:-0.5767893 139:-0.60645617 140:-0.53755573 141:-0.58602137 142:-0.53694182 143:-0.27692018 144:-0.58926133 145:-0.49514329 146:-0.30998984 147:-0.40758074 148:-0.53947088 149:-0.56546044 150:-0.57624754 151:-0.6173067 152:-0.56766188 153:-0.54727603 154:-0.56463475 155:-0.58276588 156:-0.54852895 157:-0.57235547 158:-0.57269855 159:-0.44587265 160:-0.60205991 161:-0.57121307 162:-0.59670498 163:-0.59209898 164:-0.62113499 165:-0.59080432 166:-0.58729799 167:-0.59988025 168:-0.58826075 169:-0.55182881 170:-0.57394142 171:-0.58416237 172:-0.52229642 173:-0.55456165 174:-0.55563704 175:-0.54919442 176:-0.57065298 177:-0.56208243 178:-0.58538501 179:-0.60904993 180:-0.58779886 181:-0.55998308 182:-0.5485659 183:-0.57539965 184:-0.57558717 
1.2420261670025099 1:-0.55964136 2:-0.57028075 3:-0.58557196 4:-0.57219547 5:-0.56831998 6:-0.57324218 7:-0.57282786 8:-0.57164948 9:-0.56592897 10:-0.58102903 11:-0.57703192 12:-0.56978489 13:-0.54478729 14:-0.57245047 15:-0.58661513 16:-0.53180446 17:-0.56788931 18:-0.56197507 19:-0.45092317 20:-0.58682458 21:-0.56358991 22:-0.5801116 23:-0.59596298 24:-0.59597851 25:-0.55536593 26:-0.56301361 27:-0.58766781 28:-0.56828988 29:-0.54331692 30:-0.55986486 31:-0.55909294 32:-0.51646109 33:-0.55669079 34:-0.58167558 35:-0.52974715 36:-0.58476654 37:-0.56081279 38:-0.59032891 39:-0.60336922 40:-0.59073745 41:-0.51346827 42:-0.53498183 43:-0.53925818 44:-0.53160762 45:-0.52944444 46:-0.5767893 47:-0.60645617 48:-0.53755573 49:-0.58602137 50:-0.53694182 51:-0.27692018 52:-0.58926133 53:-0.49514329 54:-0.30998984 55:-0.40758074 56:-0.53947088 57:-0.56546044 58:-0.57624754 59:-0.6173067 60:-0.56766188 61:-0.54727603 62:-0.56463475 63:-0.58276588 64:-0.54852895 65:-0.57235547 66:-0.57269855 67:-0.44587265 68:-0.60205991 69:-0.57121307 70:-0.59670498 71:-0.59209898 72:-0.62113499 73:-0.59080432 74:-0.58729799 75:-0.59988025 76:-0.58826075 77:-0.55182881 78:-0.57394142 79:-0.58416237 80:-0.52229642 81:-0.55456165 82:-0.55563704 83:-0.54919442 84:-0.57065298 85:-0.56208243 86:-0.58538501 87:-0.60904993 88:-0.58779886 89:-0.55998308 90:-0.5485659 91:-0.57539965 92:-0.57558717 93:0.22845486 94:0.27283949 95:0.29436096 96:0.20470597 97:0.22673472 98:0.27348187 99:0.26169964 100:0.22729188 101:0.2277734 102:0.27065675 103:0.2408613 104:0.24213464 105:0.21861499 106:0.25165998 107:0.33049855 108:0.11686854 109:0.26094482 110:0.26407892 111:0.26189196 112:0.28829499 113:0.27144095 114:0.38763623 115:0.29426226 116:0.24595847 117:0.15841913 118:0.21620794 119:0.26224214 120:0.1768947 121:0.24392516 122:0.25007129 123:0.28148887 124:0.094777117 125:0.22150511 126:0.26123465 127:0.15653527 128:0.29601184 129:0.27247431 130:0.43134011 131:0.34552859 132:0.30057512 133:0.051891959 134:0.15129846 135:0.17714166 136:0.096540668 137:0.21093432 138:0.22059614 139:0.42457022 140:0.15230318 141:0.27249374 142:0.1955549 143:0.28489731 144:0.29945894 145:0.351334 146:0.39366394 147:0.24092305 148:0.1165377 149:0.240249 150:0.27444195 151:0.38513365 152:0.22866955 153:0.24467182 154:0.34249748 155:0.31640655 156:0.18957574 157:0.35932964 158:0.41939704 159:0.31146831 160:0.39569691 161:0.26679647 162:0.43456127 163:0.23397714 164:0.26550443 165:0.34010176 166:0.272028 167:0.20480919 168:0.20119366 169:0.15447722 170:0.20605052 171:0.27034142 172:0.053331034 173:0.21633526 174:0.21646419 175:0.29656715 176:0.20684732 177:0.26194038 178:0.30522617 179:0.29219211 180:0.21297056 181:0.089692234 182:0.17372245 183:0.25548162 184:0.17925364 
0.85217436367530319 1:-0.018584072 2:0.081792165 3:0.035000328 4:-0.040821197 5:0.0047545358 6:0.0048788031 7:0.016735421 8:0.0031670168 9:0.013173386 10:-0.0070735287 11:0.0060754548 12:0.015014668 13:-0.069256211 14:0.09914187 15:0.024558061 16:-0.086500175 17:0.078280655 18:0.10737557 19:0.31733314 20:0.036279498 21:0.013044465 22:0.096447554 23:0.040710941 24:0.0069442353 25:-0.093179337 26:0.036216454 27:0.0059226368 28:-0.095073357 29:-0.083152499 30:0.017571971 31:-0.047014365 32:-0.12966697 33:0.13476353 34:0.063443979 35:0.37534995 36:0.031292602 37:0.010647608 38:0.088469029 39:0.026097647 40:-0.013698404 41:-0.11224488 42:0.021004665 43:-0.048031724 44:-0.16107071 45:-0.028762314 46:0.2337897 47:0.11798204 48:-0.0021929761 49:0.069665859 50:0.16217531 51:0.43019493 52:0.055043894 53:0.28223382 54:0.2742941 55:0.30172028 56:0.3780836 57:-0.042144257 58:0.087205476 59:0.076600903 60:0.0012257233 61:-0.052811129 62:0.13689745 63:0.033056886 64:-0.015876077 65:0.065442389 66:0.12501353 67:0.23573422 68:0.083590712 69:0.019368674 70:0.14636228 71:-0.0013748522 72:0.019273175 73:-0.07955155 74:0.11040643 75:0.037136925 76:-0.034338417 77:-0.10091843 78:-0.029111226 79:-0.022914894 80:-0.17171653 81:0.033433536 82:0.078258069 83:0.19355772 84:-0.0036113864 85:-0.019654818 86:0.043134408 87:0.049394818 88:-0.028492216 89:-0.11675281 90:-0.037444904 91:-0.047728042 92:-0.14349372 93:0.22640009 94:0.18885994 95:0.23426886 96:0.2080589 97:0.19989748 98:0.20901713 99:0.22066516 100:0.22996777 101:0.21680165 102:0.19151074 103:0.16918113 104:0.26958767 105:0.21845742 106:0.20910871 107:0.25547324 108:0.21453552 109:0.20942416 110:0.16433638 111:-0.13543647 112:0.2258831 113:0.22492112 114:0.21536698 115:0.30909124 116:0.18746924 117:0.25315303 118:0.17333356 119:0.20806078 120:0.19884668 121:0.25249685 122:0.22053244 123:0.22609421 124:0.15751797 125:0.19734138 126:0.23018611 127:-0.062279415 128:0.25067766 129:0.19742844 130:0.20131268 131:0.40406684 132:0.22219336 133:0.20691009 134:0.2000343 135:0.26895342 136:0.1788822 137:0.25035811 138:0.13648724 139:0.23171636 140:0.20469752 141:0.23782861 142:0.072235836 143:-0.22364439 144:0.21595047 145:-0.017200328 146:-0.15292426 147:-0.13905964 148:-0.20503514 149:0.32417707 150:0.1451428 151:0.20583537 152:0.24924515 153:0.2024614 154:0.2116611 155:0.22670289 156:0.25996202 157:0.19586044 158:0.21309679 159:-0.13711056 160:0.28101222 161:0.27409761 162:0.33270781 163:0.2855483 164:0.35344416 165:0.29749737 166:0.11951187 167:0.14639877 168:0.19582322 169:0.14942702 170:0.28987055 171:0.35967181 172:0.24715813 173:0.20481923 174:0.1624171 175:-0.11004899 176:0.18191146 177:0.24247527 178:0.19003934 179:0.29286468 180:0.12870498 181:0.21896773 182:0.20731726 183:0.20463664 184:0.17819545 
0.85195718181053903 1:0.22640009 2:0.18885994 3:0.23426886 4:0.2080589 5:0.19989748 6:0.20901713 7:0.22066516 8:0.22996777 9:0.21680165 10:0.19151074 11:0.16918113 12:0.26958767 13:0.21845742 14:0.20910871 15:0.25547324 16:0.21453552 17:0.20942416 18:0.16433638 19:-0.13543647 20:0.2258831 21:0.22492112 22:0.21536698 23:0.30909124 24:0.18746924 25:0.25315303 26:0.17333356 27:0.20806078 28:0.19884668 29:0.25249685 30:0.22053244 31:0.22609421 32:0.15751797 33:0.19734138 34:0.23018611 35:-0.062279415 36:0.25067766 37:0.19742844 38:0.20131268 39:0.40406684 40:0.22219336 41:0.20691009 42:0.2000343 43:0.26895342 44:0.1788822 45:0.25035811 46:0.13648724 47:0.23171636 48:0.20469752 49:0.23782861 50:0.072235836 51:-0.22364439 52:0.21595047 53:-0.017200328 54:-0.15292426 55:-0.13905964 56:-0.20503514 57:0.32417707 58:0.1451428 59:0.20583537 60:0.24924515 61:0.2024614 62:0.2116611 63:0.22670289 64:0.25996202 65:0.19586044 66:0.21309679 67:-0.13711056 68:0.28101222 69:0.27409761 70:0.33270781 71:0.2855483 72:0.35344416 73:0.29749737 74:0.11951187 75:0.14639877 76:0.19582322 77:0.14942702 78:0.28987055 79:0.35967181 80:0.24715813 81:0.20481923 82:0.1624171 83:-0.11004899 84:0.18191146 85:0.24247527 86:0.19003934 87:0.29286468 88:0.12870498 89:0.21896773 90:0.20731726 91:0.20463664 92:0.17819545 93:-0.018584072 94:0.081792165 95:0.035000328 96:-0.040821197 97:0.0047545358 98:0.0048788031 99:0.016735421 100:0.0031670168 101:0.013173386 102:-0.0070735287 103:0.0060754548 104:0.015014668 105:-0.069256211 106:0.09914187 107:0.024558061 108:-0.086500175 109:0.078280655 110:0.10737557 111:0.31733314 112:0.036279498 113:0.013044465 114:0.096447554 115:0.040710941 116:0.0069442353 117:-0.093179337 118:0.036216454 119:0.0059226368 120:-0.095073357 121:-0.083152499 122:0.017571971 123:-0.047014365 124:-0.12966697 125:0.13476353 126:0.063443979 127:0.37534995 128:0.031292602 129:0.010647608 130:0.088469029 131:0.026097647 132:-0.013698404 133:-0.11224488 134:0.021004665 135:-0.048031724 136:-0.16107071 137:-0.028762314 138:0.2337897 139:0.11798204 140:-0.0021929761 141:0.069665859 142:0.16217531 143:0.43019493 144:0.055043894 145:0.28223382 146:0.2742941 147:0.30172028 148:0.3780836 149:-0.042144257 150:0.087205476 151:0.076600903 152:0.0012257233 153:-0.052811129 154:0.13689745 155:0.033056886 156:-0.015876077 157:0.065442389 158:0.12501353 159:0.23573422 160:0.083590712 161:0.019368674 162:0.14636228 163:-0.0013748522 164:0.019273175 165:-0.07955155 166:0.11040643 167:0.037136925 168:-0.034338417 169:-0.10091843 170:-0.029111226 171:-0.022914894 172:-0.17171653 173:0.033433536 174:0.078258069 175:0.19355772 176:-0.0036113864 177:-0.019654818 178:0.043134408 179:0.049394818 180:-0.028492216 181:-0.11675281 182:-0.037444904 183:-0.047728042 184:-0.14349372 
0.30727656068920595 1:-0.40226495 2:-0.46087337 3:-0.44339992 4:-0.4151175 5:-0.42553514 6:-0.44136385 7:-0.43355915 8:-0.41936044 9:-0.43457634 10:-0.42441113 11:-0.42500047 12:-0.4301211 13:-0.37193852 14:-0.43685034 15:-0.43231779 16:-0.37610866 17:-0.44557278 18:-0.47861182 19:-0.43640286 20:-0.4606477 21:-0.42064718 22:-0.47072957 23:-0.45545228 24:-0.43062552 25:-0.36712845 26:-0.4538053 27:-0.44147432 28:-0.39333122 29:-0.35338631 30:-0.40740629 31:-0.39548544 32:-0.3463493 33:-0.42967633 34:-0.45058177 35:-0.45017817 36:-0.42771598 37:-0.41572411 38:-0.45925667 39:-0.450158 40:-0.4056072 41:-0.34161559 42:-0.40767186 43:-0.4052264 44:-0.35574962 45:-0.40328831 46:-0.47783764 47:-0.48901311 48:-0.39716575 49:-0.45989931 50:-0.48316357 51:-0.43674757 52:-0.49081638 53:-0.4490765 54:-0.37281607 55:-0.4582451 56:-0.44085521 57:-0.38476825 58:-0.48510223 59:-0.49098292 60:-0.44698875 61:-0.39585453 62:-0.45498141 63:-0.43681945 64:-0.39919591 65:-0.45354999 66:-0.50895409 67:-0.37596425 68:-0.46525745 69:-0.43735869 70:-0.4844347 71:-0.46926587 72:-0.42973675 73:-0.40014964 74:-0.46892726 75:-0.44732598 76:-0.398761 77:-0.34260639 78:-0.38651052 79:-0.38294342 80:-0.36424278 81:-0.4394013 82:-0.4676175 83:-0.46244965 84:-0.45096082 85:-0.40506391 86:-0.47771037 87:-0.4442706 88:-0.44193563 89:-0.35485717 90:-0.44118249 91:-0.4061231 92:-0.3752369 93:-0.10735931 94:0.079575696 95:0.020441623 96:-0.11849012 97:-0.046246418 98:-0.043046651 99:-0.044777473 100:-0.043258291 101:-0.048503972 102:-0.056241383 103:-0.044956294 104:-0.030756002 105:-0.18963585 106:0.0073746725 107:-0.00039139462 108:-0.20041523 109:0.040811084 110:0.20956278 111:0.15100961 112:0.015982948 113:-0.060964348 114:0.14175019 115:0.065506947 116:-0.025378757 117:-0.21190429 118:-0.013938476 119:-0.0065807538 120:-0.21666371 121:-0.22977352 122:-0.10725348 123:-0.092103044 124:-0.28360844 125:-0.041197963 126:0.14624007 127:0.17145445 128:-0.053708988 129:-0.10609041 130:0.13273846 131:0.083913203 132:-0.059980966 133:-0.2707702 134:-0.08541851 135:-0.11906856 136:-0.27811332 137:-0.08001324 138:0.16204975 139:0.16557738 140:-0.091532055 141:0.16997347 142:0.33649098 143:0.18318897 144:0.15348884 145:0.103725 146:0.066967544 147:0.30678672 148:0.10796242 149:-0.091513708 150:0.063182683 151:0.16333935 152:-0.10165229 153:-0.14326202 154:0.0845629 155:0.020954011 156:-0.16330678 157:0.099386813 158:0.32204186 159:0.10174312 160:0.056557892 161:0.02748106 162:0.21117812 163:0.056759903 164:-0.0076260377 165:-0.13706749 166:0.11268279 167:0.09760889 168:-0.17473701 169:-0.27334656 170:-0.1431996 171:-0.14111975 172:-0.2445643 173:-0.032953017 174:0.068992855 175:0.13392069 176:-0.066948486 177:-0.096866404 178:0.10740532 179:0.021819501 180:-0.02602831 181:-0.28098546 182:-0.1028348 183:-0.17732072 184:-0.26977082 
0.30904057582086392 1:-0.10735931 2:0.079575696 3:0.020441623 4:-0.11849012 5:-0.046246418 6:-0.043046651 7:-0.044777473 8:-0.043258291 9:-0.048503972 10:-0.056241383 11:-0.044956294 12:-0.030756002 13:-0.18963585 14:0.0073746725 15:-0.00039139462 16:-0.20041523 17:0.040811084 18:0.20956278 19:0.15100961 20:0.015982948 21:-0.060964348 22:0.14175019 23:0.065506947 24:-0.025378757 25:-0.21190429 26:-0.013938476 27:-0.0065807538 28:-0.21666371 29:-0.22977352 30:-0.10725348 31:-0.092103044 32:-0.28360844 33:-0.041197963 34:0.14624007 35:0.17145445 36:-0.053708988 37:-0.10609041 38:0.13273846 39:0.083913203 40:-0.059980966 41:-0.2707702 42:-0.08541851 43:-0.11906856 44:-0.27811332 45:-0.08001324 46:0.16204975 47:0.16557738 48:-0.091532055 49:0.16997347 50:0.33649098 51:0.18318897 52:0.15348884 53:0.103725 54:0.066967544 55:0.30678672 56:0.10796242 57:-0.091513708 58:0.063182683 59:0.16333935 60:-0.10165229 61:-0.14326202 62:0.0845629 63:0.020954011 64:-0.16330678 65:0.099386813 66:0.32204186 67:0.10174312 68:0.056557892 69:0.02748106 70:0.21117812 71:0.056759903 72:-0.0076260377 73:-0.13706749 74:0.11268279 75:0.09760889 76:-0.17473701 77:-0.27334656 78:-0.1431996 79:-0.14111975 80:-0.2445643 81:-0.032953017 82:0.068992855 83:0.13392069 84:-0.066948486 85:-0.096866404 86:0.10740532 87:0.021819501 88:-0.02602831 89:-0.28098546 90:-0.1028348 91:-0.17732072 92:-0.26977082 93:-0.40226495 94:-0.46087337 95:-0.44339992 96:-0.4151175 97:-0.42553514 98:-0.44136385 99:-0.43355915 100:-0.41936044 101:-0.43457634 102:-0.42441113 103:-0.42500047 104:-0.4301211 105:-0.37193852 106:-0.43685034 107:-0.43231779 108:-0.37610866 109:-0.44557278 110:-0.47861182 111:-0.43640286 112:-0.4606477 113:-0.42064718 114:-0.47072957 115:-0.45545228 116:-0.43062552 117:-0.36712845 118:-0.4538053 119:-0.44147432 120:-0.39333122 121:-0.35338631 122:-0.40740629 123:-0.39548544 124:-0.3463493 125:-0.42967633 126:-0.45058177 127:-0.45017817 128:-0.42771598 129:-0.41572411 130:-0.45925667 131:-0.450158 132:-0.4056072 133:-0.34161559 134:-0.40767186 135:-0.4052264 136:-0.35574962 137:-0.40328831 138:-0.47783764 139:-0.48901311 140:-0.39716575 141:-0.45989931 142:-0.48316357 143:-0.43674757 144:-0.49081638 145:-0.4490765 146:-0.37281607 147:-0.4582451 148:-0.44085521 149:-0.38476825 150:-0.48510223 151:-0.49098292 152:-0.44698875 153:-0.39585453 154:-0.45498141 155:-0.43681945 156:-0.39919591 157:-0.45354999 158:-0.50895409 159:-0.37596425 160:-0.46525745 161:-0.43735869 162:-0.4844347 163:-0.46926587 164:-0.42973675 165:-0.40014964 166:-0.46892726 167:-0.44732598 168:-0.398761 169:-0.34260639 170:-0.38651052 171:-0.38294342 172:-0.36424278 173:-0.4394013 174:-0.4676175 175:-0.46244965 176:-0.45096082 177:-0.40506391 178:-0.47771037 179:-0.4442706 180:-0.44193563 181:-0.35485717 182:-0.44118249 183:-0.4061231 184:-0.3752369 
2.4397907694110708 1:-0.50617074 2:-0.52872196 3:-0.51541458 4:-0.51018766 5:-0.513021 6:-0.51620346 7:-0.5197471 8:-0.51212272 9:-0.51747815 10:-0.5120808 11:-0.51572953 12:-0.51967608 13:-0.49546945 14:-0.52477254 15:-0.51884462 16:-0.4846672 17:-0.52195306 18:-0.54828491 19:-0.43508284 20:-0.52728804 21:-0.51009211 22:-0.51633026 23:-0.51209414 24:-0.51725993 25:-0.48892917 26:-0.51872358 27:-0.51857857 28:-0.5042742 29:-0.49233792 30:-0.51126869 31:-0.50627477 32:-0.47247782 33:-0.52261374 34:-0.54372737 35:-0.4203398 36:-0.52324158 37:-0.51078221 38:-0.53217103 39:-0.52315014 40:-0.50489076 41:-0.47418766 42:-0.48127294 43:-0.49703817 44:-0.47808562 45:-0.48923217 46:-0.53226106 47:-0.54835276 48:-0.49993927 49:-0.53881779 50:-0.55826767 51:-0.51423964 52:-0.54580976 53:-0.44331815 54:-0.38538131 55:-0.35691638 56:-0.51803269 57:-0.49436843 58:-0.5529313 59:-0.5375539 60:-0.50649117 61:-0.50104557 62:-0.5471899 63:-0.50658896 64:-0.4886055 65:-0.52322538 66:-0.53329289 67:-0.28275306 68:-0.5225998 69:-0.51037017 70:-0.48674955 71:-0.51521108 72:-0.52491858 73:-0.48748866 74:-0.51673082 75:-0.52497748 76:-0.51921226 77:-0.49411228 78:-0.49594222 79:-0.49392966 80:-0.47221358 81:-0.49969113 82:-0.54637182 83:-0.48955739 84:-0.51330048 85:-0.51082432 86:-0.53196503 87:-0.51354517 88:-0.51634558 89:-0.49468576 90:-0.50657239 91:-0.49975226 92:-0.50645222 93:-0.51130766 94:-0.5172702 95:-0.51253879 96:-0.51124871 97:-0.51006737 98:-0.51438285 99:-0.5167077 100:-0.51385556 101:-0.51895189 102:-0.50674471 103:-0.51351469 104:-0.52136262 105:-0.50838978 106:-0.52477254 107:-0.52114493 108:-0.487524 109:-0.51222538 110:-0.52946095 111:-0.43904292 112:-0.51747804 113:-0.51072648 114:-0.49725546 115:-0.51622681 116:-0.51616051 117:-0.50512826 118:-0.50962288 119:-0.50559428 120:-0.51373853 121:-0.52527126 122:-0.50745722 123:-0.5043424 124:-0.48282682 125:-0.52137457 126:-0.5218784 127:-0.52477408 128:-0.52324158 129:-0.51578527 130:-0.51741455 131:-0.51736858 132:-0.52653905 133:-0.48050061 134:-0.50017051 135:-0.48698579 136:-0.47985008 137:-0.48765522 138:-0.52319049 139:-0.53042724 140:-0.49255033 141:-0.51890378 142:-0.53508739 143:-0.54814242 144:-0.52408398 145:-0.47210989 146:-0.40422918 147:-0.41771361 148:-0.44514285 149:-0.51016665 150:-0.50488571 151:-0.52067192 152:-0.51928141 153:-0.49635552 154:-0.53472929 155:-0.52153957 156:-0.48765433 157:-0.50803972 158:-0.51359005 159:-0.16623906 160:-0.51440804 161:-0.51361513 162:-0.49948123 163:-0.54052783 164:-0.49905395 165:-0.50666063 166:-0.5121781 167:-0.50367485 168:-0.52841872 169:-0.5070985 170:-0.5250464 171:-0.51558551 172:-0.48001869 173:-0.49427182 174:-0.5340182 175:-0.46244965 176:-0.50532101 177:-0.50109177 178:-0.48104912 179:-0.50412921 180:-0.52028783 181:-0.51843024 182:-0.51137164 183:-0.49603189 184:-0.51844502 
2.4421557550760471 1:-0.51130766 2:-0.5172702 3:-0.51253879 4:-0.51124871 5:-0.51006737 6:-0.51438285 7:-0.5167077 8:-0.51385556 9:-0.51895189 10:-0.50674471 11:-0.51351469 12:-0.52136262 13:-0.50838978 14:-0.52477254 15:-0.52114493 16:-0.487524 17:-0.51222538 18:-0.52946095 19:-0.43904292 20:-0.51747804 21:-0.51072648 22:-0.49725546 23:-0.51622681 24:-0.51616051 25:-0.50512826 26:-0.50962288 27:-0.50559428 28:-0.51373853 29:-0.52527126 30:-0.50745722 31:-0.5043424 32:-0.48282682 33:-0.52137457 34:-0.5218784 35:-0.52477408 36:-0.52324158 37:-0.51578527 38:-0.51741455 39:-0.51736858 40:-0.52653905 41:-0.48050061 42:-0.50017051 43:-0.48698579 44:-0.47985008 45:-0.48765522 46:-0.52319049 47:-0.53042724 48:-0.49255033 49:-0.51890378 50:-0.53508739 51:-0.54814242 52:-0.52408398 53:-0.47210989 54:-0.40422918 55:-0.41771361 56:-0.44514285 57:-0.51016665 58:-0.50488571 59:-0.52067192 60:-0.51928141 61:-0.49635552 62:-0.53472929 63:-0.52153957 64:-0.48765433 65:-0.50803972 66:-0.51359005 67:-0.16623906 68:-0.51440804 69:-0.51361513 70:-0.49948123 71:-0.54052783 72:-0.49905395 73:-0.50666063 74:-0.5121781 75:-0.50367485 76:-0.52841872 77:-0.5070985 78:-0.5250464 79:-0.51558551 80:-0.48001869 81:-0.49427182 82:-0.5340182 83:-0.46244965 84:-0.50532101 85:-0.50109177 86:-0.48104912 87:-0.50412921 88:-0.52028783 89:-0.51843024 90:-0.51137164 91:-0.49603189 92:-0.51844502 93:-0.50617074 94:-0.52872196 95:-0.51541458 96:-0.51018766 97:-0.513021 98:-0.51620346 99:-0.5197471 100:-0.51212272 101:-0.51747815 102:-0.5120808 103:-0.51572953 104:-0.51967608 105:-0.49546945 106:-0.52477254 107:-0.51884462 108:-0.4846672 109:-0.52195306 110:-0.54828491 111:-0.43508284 112:-0.52728804 113:-0.51009211 114:-0.51633026 115:-0.51209414 116:-0.51725993 117:-0.48892917 118:-0.51872358 119:-0.51857857 120:-0.5042742 121:-0.49233792 122:-0.51126869 123:-0.50627477 124:-0.47247782 125:-0.52261374 126:-0.54372737 127:-0.4203398 128:-0.52324158 129:-0.51078221 130:-0.53217103 131:-0.52315014 132:-0.50489076 133:-0.47418766 134:-0.48127294 135:-0.49703817 136:-0.47808562 137:-0.48923217 138:-0.53226106 139:-0.54835276 140:-0.49993927 141:-0.53881779 142:-0.55826767 143:-0.51423964 144:-0.54580976 145:-0.44331815 146:-0.38538131 147:-0.35691638 148:-0.51803269 149:-0.49436843 150:-0.5529313 151:-0.5375539 152:-0.50649117 153:-0.50104557 154:-0.5471899 155:-0.50658896 156:-0.4886055 157:-0.52322538 158:-0.53329289 159:-0.28275306 160:-0.5225998 161:-0.51037017 162:-0.48674955 163:-0.51521108 164:-0.52491858 165:-0.48748866 166:-0.51673082 167:-0.52497748 168:-0.51921226 169:-0.49411228 170:-0.49594222 171:-0.49392966 172:-0.47221358 173:-0.49969113 174:-0.54637182 175:-0.48955739 176:-0.51330048 177:-0.51082432 178:-0.53196503 179:-0.51354517 180:-0.51634558 181:-0.49468576 182:-0.50657239 183:-0.49975226 184:-0.50645222 
1.3376899397965851 1:-0.15779448 2:-0.23744096 3:-0.22807487 4:-0.19255147 5:-0.20627687 6:-0.19369515 7:-0.19452098 8:-0.20464274 9:-0.20037284 10:-0.20437236 11:-0.18984728 12:-0.20236088 13:-0.10281755 14:-0.18000472 15:-0.19910231 16:-0.16059852 17:-0.200039 18:-0.29526157 19:-0.2212383 20:-0.2318041 21:-0.19185422 22:-0.24213007 23:-0.27823377 24:-0.20722307 25:-0.14546753 26:-0.22932154 27:-0.21945899 28:-0.17407423 29:-0.046158888 30:-0.14060379 31:-0.14685358 32:-0.11349664 33:-0.19919156 34:-0.20219349 35:-0.12195615 36:-0.14599643 37:-0.1672389 38:-0.20145234 39:-0.24997163 40:-0.18389879 41:-0.1374967 42:-0.19681473 43:-0.16664984 44:-0.15107209 45:-0.16122625 46:-0.21726494 47:-0.19787796 48:-0.21647242 49:-0.20322984 50:-0.37931594 51:-0.36409876 52:-0.30411044 53:-0.063267119 54:-0.33512033 55:-0.29611915 56:-0.19217222 57:-0.16754266 58:-0.26465778 59:-0.23833535 60:-0.23177907 61:-0.14460204 62:-0.19206259 63:-0.25670019 64:-0.16806261 65:-0.19450044 66:-0.29685889 67:-0.30605585 68:-0.23424972 69:-0.25807495 70:-0.27146838 71:-0.35768464 72:-0.21764681 73:-0.16156502 74:-0.22763307 75:-0.24873055 76:-0.17550422 77:-0.093703859 78:-0.15949794 79:-0.1961617 80:-0.1463499 81:-0.20027423 82:-0.2830853 83:-0.08294125 84:-0.22753546 85:-0.17991752 86:-0.24399797 87:-0.24115486 88:-0.21722741 89:-0.12664635 90:-0.21681718 91:-0.21638454 92:-0.14878466 93:-0.29261516 94:-0.26059075 95:-0.26522054 96:-0.29967517 97:-0.27874253 98:-0.28657155 99:-0.27658995 100:-0.28923189 101:-0.29191258 102:-0.28385503 103:-0.2867525 104:-0.2712277 105:-0.2996162 106:-0.28048723 107:-0.26085663 108:-0.32057953 109:-0.26597103 110:-0.25174645 111:-0.24235874 112:-0.26106496 113:-0.27601281 114:-0.23169854 115:-0.25781353 116:-0.28220362 117:-0.32447769 118:-0.26916235 119:-0.27396095 120:-0.32050845 121:-0.29157992 122:-0.28162797 123:-0.29371385 124:-0.32565128 125:-0.27601982 126:-0.27119023 127:-0.27612104 128:-0.28928482 129:-0.2734149 130:-0.23183332 131:-0.24419008 132:-0.28168937 133:-0.33530264 134:-0.28831877 135:-0.27856638 136:-0.3598667 137:-0.3157675 138:-0.26838997 139:-0.21085851 140:-0.27491227 141:-0.24822075 142:-0.27454109 143:-0.22848764 144:-0.23757523 145:-0.22450089 146:-0.27857672 147:-0.27078697 148:-0.2007475 149:-0.28701673 150:-0.26607089 151:-0.22261764 152:-0.27459857 153:-0.2719033 154:-0.21573774 155:-0.2823298 156:-0.31359099 157:-0.25613636 158:-0.20298069 159:-0.25362456 160:-0.22278125 161:-0.27105477 162:-0.22517135 163:-0.26298125 164:-0.2600648 165:-0.28511777 166:-0.21738945 167:-0.27209471 168:-0.32894531 169:-0.32384852 170:-0.34925717 171:-0.25300831 172:-0.35968979 173:-0.27614457 174:-0.24911285 175:-0.20221532 176:-0.28139693 177:-0.28567793 178:-0.22646954 179:-0.26133192 180:-0.30001465 181:-0.36013372 182:-0.28400679 183:-0.31931461 184:-0.3188002 
1.3374068059962674 1:-0.29261516 2:-0.26059075 3:-0.26522054 4:-0.29967517 5:-0.27874253 6:-0.28657155 7:-0.27658995 8:-0.28923189 9:-0.29191258 10:-0.28385503 11:-0.2867525 12:-0.2712277 13:-0.2996162 14:-0.28048723 15:-0.26085663 16:-0.32057953 17:-0.26597103 18:-0.25174645 19:-0.24235874 20:-0.26106496 21:-0.27601281 22:-0.23169854 23:-0.25781353 24:-0.28220362 25:-0.32447769 26:-0.26916235 27:-0.27396095 28:-0.32050845 29:-0.29157992 30:-0.28162797 31:-0.29371385 32:-0.32565128 33:-0.27601982 34:-0.27119023 35:-0.27612104 36:-0.28928482 37:-0.2734149 38:-0.23183332 39:-0.24419008 40:-0.28168937 41:-0.33530264 42:-0.28831877 43:-0.27856638 44:-0.3598667 45:-0.3157675 46:-0.26838997 47:-0.21085851 48:-0.27491227 49:-0.24822075 50:-0.27454109 51:-0.22848764 52:-0.23757523 53:-0.22450089 54:-0.27857672 55:-0.27078697 56:-0.2007475 57:-0.28701673 58:-0.26607089 59:-0.22261764 60:-0.27459857 61:-0.2719033 62:-0.21573774 63:-0.2823298 64:-0.31359099 65:-0.25613636 66:-0.20298069 67:-0.25362456 68:-0.22278125 69:-0.27105477 70:-0.22517135 71:-0.26298125 72:-0.2600648 73:-0.28511777 74:-0.21738945 75:-0.27209471 76:-0.32894531 77:-0.32384852 78:-0.34925717 79:-0.25300831 80:-0.35968979 81:-0.27614457 82:-0.24911285 83:-0.20221532 84:-0.28139693 85:-0.28567793 86:-0.22646954 87:-0.26133192 88:-0.30001465 89:-0.36013372 90:-0.28400679 91:-0.31931461 92:-0.3188002 93:-0.15779448 94:-0.23744096 95:-0.22807487 96:-0.19255147 97:-0.20627687 98:-0.19369515 99:-0.19452098 100:-0.20464274 101:-0.20037284 102:-0.20437236 103:-0.18984728 104:-0.20236088 105:-0.10281755 106:-0.18000472 107:-0.19910231 108:-0.16059852 109:-0.200039 110:-0.29526157 111:-0.2212383 112:-0.2318041 113:-0.19185422 114:-0.24213007 115:-0.27823377 116:-0.20722307 117:-0.14546753 118:-0.22932154 119:-0.21945899 120:-0.17407423 121:-0.046158888 122:-0.14060379 123:-0.14685358 124:-0.11349664 125:-0.19919156 126:-0.20219349 127:-0.12195615 128:-0.14599643 129:-0.1672389 130:-0.20145234 131:-0.24997163 132:-0.18389879 133:-0.1374967 134:-0.19681473 135:-0.16664984 136:-0.15107209 137:-0.16122625 138:-0.21726494 139:-0.19787796 140:-0.21647242 141:-0.20322984 142:-0.37931594 143:-0.36409876 144:-0.30411044 145:-0.063267119 146:-0.33512033 147:-0.29611915 148:-0.19217222 149:-0.16754266 150:-0.26465778 151:-0.23833535 152:-0.23177907 153:-0.14460204 154:-0.19206259 155:-0.25670019 156:-0.16806261 157:-0.19450044 158:-0.29685889 159:-0.30605585 160:-0.23424972 161:-0.25807495 162:-0.27146838 163:-0.35768464 164:-0.21764681 165:-0.16156502 166:-0.22763307 167:-0.24873055 168:-0.17550422 169:-0.093703859 170:-0.15949794 171:-0.1961617 172:-0.1463499 173:-0.20027423 174:-0.2830853 175:-0.08294125 176:-0.22753546 177:-0.17991752 178:-0.24399797 179:-0.24115486 180:-0.21722741 181:-0.12664635 182:-0.21681718 183:-0.21638454 184:-0.14878466 
0.34282289527793186 1:-0.12160258 2:0.13652664 3:0.1700428 4:-0.057331149 5:0.0024629303 6:0.030521101 7:0.0098488761 8:0.014182311 9:-0.0072049373 10:0.043945963 11:0.029463731 12:-0.021589375 13:-0.25534044 14:-0.035945597 15:0.032343707 16:-0.1832744 17:0.013609616 18:0.31223892 19:0.3767344 20:0.098014836 21:-0.005774919 22:0.23891243 23:0.38931362 24:0.10171437 25:-0.21149418 26:0.056440216 27:0.12326215 28:-0.17972654 29:-0.34120549 30:-0.20730442 31:-0.13203873 32:-0.28554888 33:-0.096960408 34:0.13359067 35:0.086912414 36:-0.094995474 37:-0.10831399 38:0.10148945 39:0.25952795 40:-0.073417839 41:-0.27497884 42:-0.053591019 43:-0.075508238 44:-0.27517255 45:-0.17384186 46:0.093608183 47:0.17979417 48:-0.07339555 49:0.14710923 50:0.46630053 51:0.74500646 52:0.28588033 53:0.092208302 54:0.59470788 55:0.65637079 56:0.19371518 57:-0.10237499 58:0.19460149 59:0.29140955 60:-0.051603526 61:-0.15465214 62:0.0845629 63:0.18398686 64:-0.11669966 65:0.10831956 66:0.42287401 67:0.41050521 68:0.20073293 69:0.15809048 70:0.49127512 71:0.67561375 72:0.27067735 73:-0.11043974 74:0.16959179 75:0.36904555 76:-0.091878825 77:-0.29787608 78:-0.12108043 79:-0.14563138 80:-0.22960449 81:-0.060049569 82:0.2265015 83:0.23693011 84:0.015339872 85:-0.028089697 86:0.13828874 87:0.26394423 88:0.12525551 89:-0.28494287 90:-0.055442122 91:-0.096712833 92:-0.24225794 93:-0.40875615 94:-0.45225377 95:-0.448133 96:-0.43009954 97:-0.43371617 98:-0.43233006 99:-0.43586589 100:-0.43414276 101:-0.4342664 102:-0.4390559 103:-0.44079674 104:-0.42192267 105:-0.36941748 106:-0.42147036 107:-0.43674145 108:-0.40985465 109:-0.43746638 110:-0.48203436 111:-0.39284194 112:-0.44779322 113:-0.419167 114:-0.46208631 115:-0.46760719 116:-0.44513788 117:-0.40957415 118:-0.44065985 119:-0.44724512 120:-0.4163348 121:-0.34255892 122:-0.38644323 123:-0.38517946 124:-0.37610269 125:-0.43153508 126:-0.4689809 127:-0.30098634 128:-0.38804857 129:-0.40015904 130:-0.44710428 131:-0.46750266 132:-0.43845289 133:-0.40684947 134:-0.40170421 135:-0.42667149 136:-0.39692039 137:-0.37726861 138:-0.44485376 139:-0.47788693 140:-0.42806498 141:-0.46874998 142:-0.49614453 143:-0.48033686 144:-0.47655883 145:-0.39725136 146:-0.4356423 147:-0.40251431 148:-0.34223955 149:-0.39266736 150:-0.47238428 151:-0.48050445 152:-0.42029608 153:-0.38111438 154:-0.44002868 155:-0.43753138 156:-0.42392622 157:-0.42585848 158:-0.50663611 159:-0.42839555 160:-0.46116157 161:-0.45033851 162:-0.50758321 163:-0.47020352 164:-0.44318636 165:-0.42571228 166:-0.45640727 167:-0.43701826 168:-0.45093097 169:-0.38805816 170:-0.40280886 171:-0.43527839 172:-0.41042306 173:-0.4197563 174:-0.45680808 175:-0.34859713 176:-0.4504621 177:-0.41414763 178:-0.44014945 179:-0.4678105 180:-0.45770462 181:-0.40894181 182:-0.42318528 183:-0.42906534 184:-0.40557162 
0.34334960539200976 1:-0.40875615 2:-0.45225377 3:-0.448133 4:-0.43009954 5:-0.43371617 6:-0.43233006 7:-0.43586589 8:-0.43414276 9:-0.4342664 10:-0.4390559 11:-0.44079674 12:-0.42192267 13:-0.36941748 14:-0.42147036 15:-0.43674145 16:-0.40985465 17:-0.43746638 18:-0.48203436 19:-0.39284194 20:-0.44779322 21:-0.419167 22:-0.46208631 23:-0.46760719 24:-0.44513788 25:-0.40957415 26:-0.44065985 27:-0.44724512 28:-0.4163348 29:-0.34255892 30:-0.38644323 31:-0.38517946 32:-0.37610269 33:-0.43153508 34:-0.4689809 35:-0.30098634 36:-0.38804857 37:-0.40015904 38:-0.44710428 39:-0.46750266 40:-0.43845289 41:-0.40684947 42:-0.40170421 43:-0.42667149 44:-0.39692039 45:-0.37726861 46:-0.44485376 47:-0.47788693 48:-0.42806498 49:-0.46874998 50:-0.49614453 51:-0.48033686 52:-0.47655883 53:-0.39725136 54:-0.4356423 55:-0.40251431 56:-0.34223955 57:-0.39266736 58:-0.47238428 59:-0.48050445 60:-0.42029608 61:-0.38111438 62:-0.44002868 63:-0.43753138 64:-0.42392622 65:-0.42585848 66:-0.50663611 67:-0.42839555 68:-0.46116157 69:-0.45033851 70:-0.50758321 71:-0.47020352 72:-0.44318636 73:-0.42571228 74:-0.45640727 75:-0.43701826 76:-0.45093097 77:-0.38805816 78:-0.40280886 79:-0.43527839 80:-0.41042306 81:-0.4197563 82:-0.45680808 83:-0.34859713 84:-0.4504621 85:-0.41414763 86:-0.44014945 87:-0.4678105 88:-0.45770462 89:-0.40894181 90:-0.42318528 91:-0.42906534 92:-0.40557162 93:-0.12160258 94:0.13652664 95:0.1700428 96:-0.057331149 97:0.0024629303 98:0.030521101 99:0.0098488761 100:0.014182311 101:-0.0072049373 102:0.043945963 103:0.029463731 104:-0.021589375 105:-0.25534044 106:-0.035945597 107:0.032343707 108:-0.1832744 109:0.013609616 110:0.31223892 111:0.3767344 112:0.098014836 113:-0.005774919 114:0.23891243 115:0.38931362 116:0.10171437 117:-0.21149418 118:0.056440216 119:0.12326215 120:-0.17972654 121:-0.34120549 122:-0.20730442 123:-0.13203873 124:-0.28554888 125:-0.096960408 126:0.13359067 127:0.086912414 128:-0.094995474 129:-0.10831399 130:0.10148945 131:0.25952795 132:-0.073417839 133:-0.27497884 134:-0.053591019 135:-0.075508238 136:-0.27517255 137:-0.17384186 138:0.093608183 139:0.17979417 140:-0.07339555 141:0.14710923 142:0.46630053 143:0.74500646 144:0.28588033 145:0.092208302 146:0.59470788 147:0.65637079 148:0.19371518 149:-0.10237499 150:0.19460149 151:0.29140955 152:-0.051603526 153:-0.15465214 154:0.0845629 155:0.18398686 156:-0.11669966 157:0.10831956 158:0.42287401 159:0.41050521 160:0.20073293 161:0.15809048 162:0.49127512 163:0.67561375 164:0.27067735 165:-0.11043974 166:0.16959179 167:0.36904555 168:-0.091878825 169:-0.29787608 170:-0.12108043 171:-0.14563138 172:-0.22960449 173:-0.060049569 174:0.2265015 175:0.23693011 176:0.015339872 177:-0.028089697 178:0.13828874 179:0.26394423 180:0.12525551 181:-0.28494287 182:-0.055442122 183:-0.096712833 184:-0.24225794 
0.85492897395341982 1:-0.037450561 2:-0.025645021 3:-0.018022117 4:-0.055378815 5:-0.033260653 6:-0.049457226 7:-0.039806734 8:-0.026267719 9:-0.055477543 10:-0.014357655 11:-0.029374314 12:-0.041593547 13:-0.024350194 14:-0.027742942 15:-0.031180085 16:-0.064895597 17:-0.029084078 18:-0.023414271 19:0.24341157 20:-0.058099459 21:-0.027131748 22:0.018062066 23:-0.0074224832 24:-0.044508691 25:-0.073289319 26:-0.05519495 27:-0.044732125 28:-0.051958074 29:-0.030368932 30:-0.022448403 31:0.0006508104 32:-0.04170041 33:-0.026327978 34:-0.05040065 35:0.20129282 36:-0.050470832 37:-0.026041484 38:-0.0087501133 39:-0.06279377 40:-0.024149305 41:-0.089798817 42:-0.053591019 43:-0.069476808 44:-0.045792558 45:-0.021666032 46:-0.0061680723 47:-0.035312053 48:-0.046526654 49:-0.066044434 50:0.023093651 51:0.29458382 52:-0.062411114 53:0.10948335 54:0.54444689 55:0.27132167 56:0.10796242 57:-0.080652429 58:-0.082367179 59:-0.025855253 60:-0.056052305 61:-0.013280737 62:-0.020106203 63:-0.041696167 64:-0.032997062 65:0.01184593 66:-0.005952357 67:0.34059681 68:-0.0048803353 69:-0.0017235313 70:-0.00063077695 71:-0.006063139 72:-0.022110229 73:-0.068900451 74:-0.012517028 75:-0.046012027 76:-0.045846498 77:-0.028772763 78:-0.071021241 79:-0.055398671 80:-0.12683711 81:-0.028888534 82:-0.055315442 83:0.13392069 84:-0.091385634 85:-0.063775724 86:-0.013624318 87:0.0063504215 88:-0.085654833 89:-0.054753343 90:-0.054842215 91:-0.039667254 92:-0.05531138 93:6.1655616 94:6.4981626 95:6.5329159 96:6.5868421 97:6.4876047 98:6.4876363 99:6.4172607 100:6.4500757 101:6.3852968 102:6.4903061 103:6.5844567 104:6.409588 105:5.7850703 106:6.4731171 107:6.2534286 108:6.1991823 109:6.4490085 110:6.4896755 111:6.1307366 112:6.5210272 113:6.1056614 114:6.5559483 115:6.2414142 116:7.1446084 117:6.282289 118:6.4210604 119:6.95364 120:6.4970957 121:5.5764188 122:6.1788038 123:5.929168 124:5.6049764 125:6.5214222 126:6.5709869 127:6.2783733 128:6.274457 129:5.7875119 130:6.521425 131:6.1523785 132:6.6465116 133:5.899793 134:6.1388453 135:6.5624154 136:6.0839466 137:5.6853217 138:6.8338653 139:6.5099748 140:6.56255 141:6.3337285 142:6.5061532 143:5.8255801 144:6.6121564 145:6.0002743 146:5.5893932 147:5.6670759 148:6.8352661 149:6.0302982 150:6.3882427 151:6.8765462 152:6.4469503 153:5.8707175 154:6.0669006 155:6.1143957 156:6.3303024 157:6.5666928 158:6.3337239 159:5.6303321 160:6.7287494 161:6.0379483 162:6.0469182 163:5.9593129 164:6.8816761 165:6.7925378 166:6.705022 167:7.5727684 168:7.0615448 169:6.0473349 170:6.5332986 171:6.3294681 172:6.2629528 173:6.3238981 174:6.4473211 175:6.5747203 176:6.4088959 177:6.4745533 178:6.986062 179:6.5154702 180:7.5608307 181:6.4255105 182:6.3863621 183:6.6681489 184:6.4497233 
0.85476098096130793 1:6.1655616 2:6.4981626 3:6.5329159 4:6.5868421 5:6.4876047 6:6.4876363 7:6.4172607 8:6.4500757 9:6.3852968 10:6.4903061 11:6.5844567 12:6.409588 13:5.7850703 14:6.4731171 15:6.2534286 16:6.1991823 17:6.4490085 18:6.4896755 19:6.1307366 20:6.5210272 21:6.1056614 22:6.5559483 23:6.2414142 24:7.1446084 25:6.282289 26:6.4210604 27:6.95364 28:6.4970957 29:5.5764188 30:6.1788038 31:5.929168 32:5.6049764 33:6.5214222 34:6.5709869 35:6.2783733 36:6.274457 37:5.7875119 38:6.521425 39:6.1523785 40:6.6465116 41:5.899793 42:6.1388453 43:6.5624154 44:6.0839466 45:5.6853217 46:6.8338653 47:6.5099748 48:6.56255 49:6.3337285 50:6.5061532 51:5.8255801 52:6.6121564 53:6.0002743 54:5.5893932 55:5.6670759 56:6.8352661 57:6.0302982 58:6.3882427 59:6.8765462 60:6.4469503 61:5.8707175 62:6.0669006 63:6.1143957 64:6.3303024 65:6.5666928 66:6.3337239 67:5.6303321 68:6.7287494 69:6.0379483 70:6.0469182 71:5.9593129 72:6.8816761 73:6.7925378 74:6.705022 75:7.5727684 76:7.0615448 77:6.0473349 78:6.5332986 79:6.3294681 80:6.2629528 81:6.3238981 82:6.4473211 83:6.5747203 84:6.4088959 85:6.4745533 86:6.986062 87:6.5154702 88:7.5608307 89:6.4255105 90:6.3863621 91:6.6681489 92:6.4497233 93:-0.037450561 94:-0.025645021 95:-0.018022117 96:-0.055378815 97:-0.033260653 98:-0.049457226 99:-0.039806734 100:-0.026267719 101:-0.055477543 102:-0.014357655 103:-0.029374314 104:-0.041593547 105:-0.024350194 106:-0.027742942 107:-0.031180085 108:-0.064895597 109:-0.029084078 110:-0.023414271 111:0.24341157 112:-0.058099459 113:-0.027131748 114:0.018062066 115:-0.0074224832 116:-0.044508691 117:-0.073289319 118:-0.05519495 119:-0.044732125 120:-0.051958074 121:-0.030368932 122:-0.022448403 123:0.0006508104 124:-0.04170041 125:-0.026327978 126:-0.05040065 127:0.20129282 128:-0.050470832 129:-0.026041484 130:-0.0087501133 131:-0.06279377 132:-0.024149305 133:-0.089798817 134:-0.053591019 135:-0.069476808 136:-0.045792558 137:-0.021666032 138:-0.0061680723 139:-0.035312053 140:-0.046526654 141:-0.066044434 142:0.023093651 143:0.29458382 144:-0.062411114 145:0.10948335 146:0.54444689 147:0.27132167 148:0.10796242 149:-0.080652429 150:-0.082367179 151:-0.025855253 152:-0.056052305 153:-0.013280737 154:-0.020106203 155:-0.041696167 156:-0.032997062 157:0.01184593 158:-0.005952357 159:0.34059681 160:-0.0048803353 161:-0.0017235313 162:-0.00063077695 163:-0.006063139 164:-0.022110229 165:-0.068900451 166:-0.012517028 167:-0.046012027 168:-0.045846498 169:-0.028772763 170:-0.071021241 171:-0.055398671 172:-0.12683711 173:-0.028888534 174:-0.055315442 175:0.13392069 176:-0.091385634 177:-0.063775724 178:-0.013624318 179:0.0063504215 180:-0.085654833 181:-0.054753343 182:-0.054842215 183:-0.039667254 184:-0.05531138 
0.7022784573861669 1:-0.32166208 2:-0.35245109 3:-0.36329708 4:-0.33991022 5:-0.35339794 6:-0.33877927 7:-0.33191531 8:-0.34688552 9:-0.34044863 10:-0.34644343 11:-0.32602888 12:-0.35616345 13:-0.28638074 14:-0.33201016 15:-0.34915293 16:-0.32165084 17:-0.34739529 18:-0.35417812 19:-0.28591967 20:-0.36051805 21:-0.33141369 22:-0.39681474 23:-0.35335108 24:-0.3763141 25:-0.32283727 26:-0.33347392 27:-0.38793416 28:-0.31091267 29:-0.25007489 30:-0.29973242 31:-0.3136817 32:-0.29848514 33:-0.31009686 34:-0.35743616 35:-0.26617491 36:-0.34838117 37:-0.32011011 38:-0.37071781 39:-0.35548502 40:-0.35708516 41:-0.28199324 42:-0.31616782 43:-0.38378132 44:-0.29928686 45:-0.29920951 46:-0.3162166 47:-0.39073182 48:-0.35820585 49:-0.38171838 50:-0.35149961 51:-0.27692018 52:-0.33602018 53:-0.29360108 54:-0.28485934 55:-0.29105272 56:-0.2693497 57:-0.35415919 58:-0.36357516 59:-0.39260172 60:-0.32464733 61:-0.30808366 62:-0.37149534 63:-0.33430097 64:-0.32310264 65:-0.36243601 66:-0.43361973 67:-0.29440446 68:-0.41037264 69:-0.30431555 70:-0.44623965 71:-0.30236286 72:-0.38318042 73:-0.35754524 74:-0.40291281 75:-0.39441301 76:-0.34352221 77:-0.30581211 78:-0.34809301 79:-0.34685033 80:-0.30375311 81:-0.34185371 82:-0.29698313 83:-0.29980319 84:-0.35171607 85:-0.36678254 86:-0.39507634 87:-0.39113767 88:-0.39413585 89:-0.31528304 90:-0.27800772 91:-0.3713997 92:-0.29093459 93:-0.1989365 94:-0.0068050333 95:0.017206355 96:-0.16084727 97:-0.099207967 98:-0.095921069 99:-0.09805758 100:-0.11012944 101:-0.11810021 102:-0.079593435 103:-0.10508008 104:-0.11002312 105:-0.30607636 106:-0.11592148 107:-0.067454116 108:-0.26505041 109:-0.091413269 110:0.11593192 111:0.1932505 112:-0.037802909 113:-0.12270884 114:0.14502867 115:0.13989497 116:-0.042749616 117:-0.25209443 118:-0.1253714 119:-0.0085043523 120:-0.24808003 121:-0.36286029 122:-0.24827766 123:-0.22608083 124:-0.34052798 125:-0.16077743 126:-0.022801952 127:-0.017521866 128:-0.1370915 129:-0.18669523 130:0.051143823 131:0.073795481 132:-0.15403908 133:-0.32969112 134:-0.24057753 135:-0.16933048 136:-0.30575655 137:-0.24638163 138:-0.03008139 139:0.060496754 140:-0.17281047 141:-0.013677962 142:0.2122447 143:0.40597866 144:0.12225803 145:-0.051750421 146:0.38738132 147:0.31185315 148:0.13797589 149:-0.15865616 150:-0.03856091 151:0.16392149 152:-0.16115471 153:-0.24242301 154:0.0097992546 155:-0.0011159378 156:-0.21371857 157:-0.00065991026 158:0.37535541 159:0.42798231 160:0.073760596 161:0.0031439007 162:0.33155038 163:0.20584742 164:0.067898674 165:-0.17328122 166:0.044391978 167:0.085239624 168:-0.14941923 169:-0.33467037 170:-0.18976628 171:-0.11404993 172:-0.30960695 173:-0.1548875 174:-0.046050228 175:-0.039568862 176:-0.16170478 177:-0.15526172 178:0.066505648 179:0.12943049 180:-0.042290089 181:-0.28758114 182:-0.21741708 183:-0.12771587 184:-0.31139289 
0.70211312839469964 1:-0.1989365 2:-0.0068050333 3:0.017206355 4:-0.16084727 5:-0.099207967 6:-0.095921069 7:-0.09805758 8:-0.11012944 9:-0.11810021 10:-0.079593435 11:-0.10508008 12:-0.11002312 13:-0.30607636 14:-0.11592148 15:-0.067454116 16:-0.26505041 17:-0.091413269 18:0.11593192 19:0.1932505 20:-0.037802909 21:-0.12270884 22:0.14502867 23:0.13989497 24:-0.042749616 25:-0.25209443 26:-0.1253714 27:-0.0085043523 28:-0.24808003 29:-0.36286029 30:-0.24827766 31:-0.22608083 32:-0.34052798 33:-0.16077743 34:-0.022801952 35:-0.017521866 36:-0.1370915 37:-0.18669523 38:0.051143823 39:0.073795481 40:-0.15403908 41:-0.32969112 42:-0.24057753 43:-0.16933048 44:-0.30575655 45:-0.24638163 46:-0.03008139 47:0.060496754 48:-0.17281047 49:-0.013677962 50:0.2122447 51:0.40597866 52:0.12225803 53:-0.051750421 54:0.38738132 55:0.31185315 56:0.13797589 57:-0.15865616 58:-0.03856091 59:0.16392149 60:-0.16115471 61:-0.24242301 62:0.0097992546 63:-0.0011159378 64:-0.21371857 65:-0.00065991026 66:0.37535541 67:0.42798231 68:0.073760596 69:0.0031439007 70:0.33155038 71:0.20584742 72:0.067898674 73:-0.17328122 74:0.044391978 75:0.085239624 76:-0.14941923 77:-0.33467037 78:-0.18976628 79:-0.11404993 80:-0.30960695 81:-0.1548875 82:-0.046050228 83:-0.039568862 84:-0.16170478 85:-0.15526172 86:0.066505648 87:0.12943049 88:-0.042290089 89:-0.28758114 90:-0.21741708 91:-0.12771587 92:-0.31139289 93:-0.32166208 94:-0.35245109 95:-0.36329708 96:-0.33991022 97:-0.35339794 98:-0.33877927 99:-0.33191531 100:-0.34688552 101:-0.34044863 102:-0.34644343 103:-0.32602888 104:-0.35616345 105:-0.28638074 106:-0.33201016 107:-0.34915293 108:-0.32165084 109:-0.34739529 110:-0.35417812 111:-0.28591967 112:-0.36051805 113:-0.33141369 114:-0.39681474 115:-0.35335108 116:-0.3763141 117:-0.32283727 118:-0.33347392 119:-0.38793416 120:-0.31091267 121:-0.25007489 122:-0.29973242 123:-0.3136817 124:-0.29848514 125:-0.31009686 126:-0.35743616 127:-0.26617491 128:-0.34838117 129:-0.32011011 130:-0.37071781 131:-0.35548502 132:-0.35708516 133:-0.28199324 134:-0.31616782 135:-0.38378132 136:-0.29928686 137:-0.29920951 138:-0.3162166 139:-0.39073182 140:-0.35820585 141:-0.38171838 142:-0.35149961 143:-0.27692018 144:-0.33602018 145:-0.29360108 146:-0.28485934 147:-0.29105272 148:-0.2693497 149:-0.35415919 150:-0.36357516 151:-0.39260172 152:-0.32464733 153:-0.30808366 154:-0.37149534 155:-0.33430097 156:-0.32310264 157:-0.36243601 158:-0.43361973 159:-0.29440446 160:-0.41037264 161:-0.30431555 162:-0.44623965 163:-0.30236286 164:-0.38318042 165:-0.35754524 166:-0.40291281 167:-0.39441301 168:-0.34352221 169:-0.30581211 170:-0.34809301 171:-0.34685033 172:-0.30375311 173:-0.34185371 174:-0.29698313 175:-0.29980319 176:-0.35171607 177:-0.36678254 178:-0.39507634 179:-0.39113767 180:-0.39413585 181:-0.31528304 182:-0.27800772 183:-0.3713997 184:-0.29093459 
0.85493313730344755 1:-0.35276377 2:-0.37332284 3:-0.40056258 4:-0.38315865 5:-0.37908684 6:-0.37471182 7:-0.38169001 8:-0.37548891 9:-0.3718297 10:-0.37860989 11:-0.37666266 12:-0.38155516 13:-0.34720082 14:-0.34995347 15:-0.37481018 16:-0.3332566 17:-0.33496548 18:-0.38375862 19:-0.4852439 20:-0.38352081 21:-0.37539608 22:-0.39621865 23:-0.41388251 24:-0.41303477 25:-0.35174957 26:-0.3640118 27:-0.40027726 28:-0.39635454 29:-0.35383746 30:-0.35023432 31:-0.35104089 32:-0.32759172 33:-0.32868435 34:-0.360886 35:-0.41536674 36:-0.35404794 37:-0.35179615 38:-0.38373823 39:-0.39378783 40:-0.37201501 41:-0.32478105 42:-0.30920556 43:-0.31542511 44:-0.36574824 45:-0.30709427 46:-0.31044442 47:-0.39505867 48:-0.30513978 49:-0.34705325 50:-0.39044247 51:-0.47065035 52:-0.39440822 53:-0.39725136 54:-0.52988164 55:-0.5291752 56:-0.47086868 57:-0.31071407 58:-0.37699967 59:-0.42287286 60:-0.38526194 61:-0.37106428 62:-0.3789717 63:-0.38698408 64:-0.35544228 65:-0.33295796 66:-0.42087084 67:-0.58568944 68:-0.40381923 69:-0.38706189 70:-0.4034149 71:-0.43457255 72:-0.42766758 73:-0.39801942 74:-0.37901103 75:-0.44114134 76:-0.40643306 77:-0.34332785 78:-0.36904801 79:-0.3522643 80:-0.34603084 81:-0.32898285 82:-0.36492803 83:-0.46787119 84:-0.37715066 85:-0.38689648 86:-0.37921729 87:-0.39651822 88:-0.42222438 89:-0.37200596 90:-0.37339297 91:-0.40798328 92:-0.41297894 93:3.8344761 94:3.2376133 95:2.9905373 96:3.3703725 97:3.3213697 98:3.4451777 99:3.4596711 100:3.4008657 101:3.5035075 102:3.3362487 103:3.4016307 104:3.339783 105:4.282058 106:3.6362803 107:3.3580531 108:3.8871353 109:3.5303451 110:3.08205 111:1.7508836 112:3.2228378 113:3.4548772 114:2.6822745 115:2.8105707 116:2.861922 117:3.8954869 118:3.39599 119:2.8934043 120:3.3612476 121:4.5469137 122:4.1835023 123:3.8995333 124:4.3035888 125:3.755605 126:3.5730784 127:2.1407866 128:3.7130758 129:3.8863498 130:2.9902868 131:2.9602371 132:3.3186461 133:4.3159426 134:4.0153549 135:3.4166896 136:3.8124965 137:4.4907809 138:3.1347225 139:2.8921106 140:3.641901 141:3.5007761 142:2.9057928 143:1.3940025 144:3.0138238 145:2.1306638 146:1.3800358 147:1.4771334 148:1.9087703 149:4.1957294 150:3.1091315 151:2.7125184 152:3.1943368 153:3.8747678 154:3.1461342 155:3.0438251 156:3.5719215 157:3.0034216 158:2.5044204 159:1.0222037 160:2.7041359 161:3.1434488 162:2.4531116 163:2.6606344 164:2.8240333 165:3.3639489 166:2.8295187 167:2.2876561 168:3.1012302 169:4.0539502 170:4.0384885 171:3.581882 172:3.8635295 173:3.676565 174:3.2469615 175:2.3404909 176:3.3552497 177:3.3108248 178:2.6840845 179:2.9165551 180:2.6586436 181:3.5860667 182:3.5206051 183:3.0773776 184:3.2811555 
0.85493984627797781 1:3.8344761 2:3.2376133 3:2.9905373 4:3.3703725 5:3.3213697 6:3.4451777 7:3.4596711 8:3.4008657 9:3.5035075 10:3.3362487 11:3.4016307 12:3.339783 13:4.282058 14:3.6362803 15:3.3580531 16:3.8871353 17:3.5303451 18:3.08205 19:1.7508836 20:3.2228378 21:3.4548772 22:2.6822745 23:2.8105707 24:2.861922 25:3.8954869 26:3.39599 27:2.8934043 28:3.3612476 29:4.5469137 30:4.1835023 31:3.8995333 32:4.3035888 33:3.755605 34:3.5730784 35:2.1407866 36:3.7130758 37:3.8863498 38:2.9902868 39:2.9602371 40:3.3186461 41:4.3159426 42:4.0153549 43:3.4166896 44:3.8124965 45:4.4907809 46:3.1347225 47:2.8921106 48:3.641901 49:3.5007761 50:2.9057928 51:1.3940025 52:3.0138238 53:2.1306638 54:1.3800358 55:1.4771334 56:1.9087703 57:4.1957294 58:3.1091315 59:2.7125184 60:3.1943368 61:3.8747678 62:3.1461342 63:3.0438251 64:3.5719215 65:3.0034216 66:2.5044204 67:1.0222037 68:2.7041359 69:3.1434488 70:2.4531116 71:2.6606344 72:2.8240333 73:3.3639489 74:2.8295187 75:2.2876561 76:3.1012302 77:4.0539502 78:4.0384885 79:3.581882 80:3.8635295 81:3.676565 82:3.2469615 83:2.3404909 84:3.3552497 85:3.3108248 86:2.6840845 87:2.9165551 88:2.6586436 89:3.5860667 90:3.5206051 91:3.0773776 92:3.2811555 93:-0.35276377 94:-0.37332284 95:-0.40056258 96:-0.38315865 97:-0.37908684 98:-0.37471182 99:-0.38169001 100:-0.37548891 101:-0.3718297 102:-0.37860989 103:-0.37666266 104:-0.38155516 105:-0.34720082 106:-0.34995347 107:-0.37481018 108:-0.3332566 109:-0.33496548 110:-0.38375862 111:-0.4852439 112:-0.38352081 113:-0.37539608 114:-0.39621865 115:-0.41388251 116:-0.41303477 117:-0.35174957 118:-0.3640118 119:-0.40027726 120:-0.39635454 121:-0.35383746 122:-0.35023432 123:-0.35104089 124:-0.32759172 125:-0.32868435 126:-0.360886 127:-0.41536674 128:-0.35404794 129:-0.35179615 130:-0.38373823 131:-0.39378783 132:-0.37201501 133:-0.32478105 134:-0.30920556 135:-0.31542511 136:-0.36574824 137:-0.30709427 138:-0.31044442 139:-0.39505867 140:-0.30513978 141:-0.34705325 142:-0.39044247 143:-0.47065035 144:-0.39440822 145:-0.39725136 146:-0.52988164 147:-0.5291752 148:-0.47086868 149:-0.31071407 150:-0.37699967 151:-0.42287286 152:-0.38526194 153:-0.37106428 154:-0.3789717 155:-0.38698408 156:-0.35544228 157:-0.33295796 158:-0.42087084 159:-0.58568944 160:-0.40381923 161:-0.38706189 162:-0.4034149 163:-0.43457255 164:-0.42766758 165:-0.39801942 166:-0.37901103 167:-0.44114134 168:-0.40643306 169:-0.34332785 170:-0.36904801 171:-0.3522643 172:-0.34603084 173:-0.32898285 174:-0.36492803 175:-0.46787119 176:-0.37715066 177:-0.38689648 178:-0.37921729 179:-0.39651822 180:-0.42222438 181:-0.37200596 182:-0.37339297 183:-0.40798328 184:-0.41297894 
5.7514607716908381 1:-0.5149035 2:-0.52453529 3:-0.53374777 4:-0.52449063 5:-0.52699979 6:-0.52307816 7:-0.51960471 8:-0.53140988 9:-0.52596886 10:-0.52732237 11:-0.52374553 12:-0.52589752 13:-0.50854735 14:-0.51221223 15:-0.52963836 16:-0.50109382 17:-0.51420694 18:-0.53923963 19:-0.4760037 20:-0.52407441 21:-0.51326392 22:-0.53331875 23:-0.54005042 24:-0.54320628 25:-0.515996 26:-0.51083631 27:-0.53444825 28:-0.52346576 29:-0.50542103 30:-0.50364576 31:-0.52559849 32:-0.49317583 33:-0.5096025 34:-0.51842857 35:-0.46509735 36:-0.5110985 37:-0.50800273 38:-0.53824723 39:-0.53688133 40:-0.53475047 41:-0.48260493 42:-0.49818129 43:-0.50709055 44:-0.506317 45:-0.49002065 46:-0.50340016 47:-0.53660846 48:-0.5066565 49:-0.52332912 50:-0.55455882 51:-0.48518011 52:-0.54173618 53:-0.42028475 54:-0.48590328 55:-0.49877659 56:-0.47944395 57:-0.5239901 58:-0.515484 59:-0.53522535 60:-0.51093995 61:-0.50640562 62:-0.51977656 63:-0.52082764 64:-0.49716599 65:-0.5053599 66:-0.56342663 67:-0.42256985 68:-0.54471756 69:-0.51118141 70:-0.54693568 71:-0.5433408 72:-0.5580253 73:-0.53435349 74:-0.53835624 75:-0.54215701 76:-0.54222842 77:-0.52657783 78:-0.5145689 79:-0.52099947 80:-0.49888106 81:-0.51256199 82:-0.51780408 83:-0.51124358 84:-0.50083255 85:-0.52574757 86:-0.51777535 87:-0.53843022 88:-0.54344855 89:-0.52502593 90:-0.49337443 91:-0.53881608 92:-0.52761598 93:-0.49412234 94:-0.52324235 95:-0.53039267 96:-0.49202247 97:-0.50566494 98:-0.51072883 99:-0.51111044 100:-0.50855574 101:-0.50605234 102:-0.51269597 103:-0.50811304 104:-0.50798278 105:-0.47876757 106:-0.51195589 107:-0.52202966 108:-0.46341972 109:-0.50429912 110:-0.5409509 111:-0.55652541 112:-0.51832373 113:-0.51178374 114:-0.54285614 115:-0.55463631 116:-0.51220259 117:-0.47621596 118:-0.49890429 119:-0.51296807 120:-0.47364658 121:-0.48737537 122:-0.49792856 123:-0.48952754 124:-0.43754992 125:-0.49968918 126:-0.54142748 127:-0.51482796 128:-0.49895541 129:-0.5124499 130:-0.52696286 131:-0.53977211 132:-0.50339777 133:-0.44963727 134:-0.47232146 135:-0.48430515 136:-0.44514901 137:-0.46794332 138:-0.50340016 139:-0.55267961 140:-0.47105521 141:-0.5270169 142:-0.55363161 143:-0.54329917 144:-0.5356258 145:-0.55848513 146:-0.56757738 147:-0.60517174 148:-0.49230687 149:-0.49041887 150:-0.52537574 151:-0.54453955 152:-0.49425703 153:-0.48630542 154:-0.54220566 155:-0.53221858 156:-0.48670317 157:-0.52233211 158:-0.55067774 159:-0.62064364 160:-0.5365258 161:-0.52334999 162:-0.57587132 163:-0.57803412 164:-0.54043736 165:-0.50772574 166:-0.51673082 167:-0.51741848 168:-0.49542889 169:-0.46092528 170:-0.49943473 171:-0.49483198 172:-0.45920505 173:-0.46988492 174:-0.51703197 175:-0.53835133 176:-0.50083255 177:-0.49071038 178:-0.52278347 179:-0.53775765 180:-0.50156215 181:-0.46698387 182:-0.47657702 183:-0.48921122 184:-0.46271378 
5.7516570457645253 1:-0.49412234 2:-0.52324235 3:-0.53039267 4:-0.49202247 5:-0.50566494 6:-0.51072883 7:-0.51111044 8:-0.50855574 9:-0.50605234 10:-0.51269597 11:-0.50811304 12:-0.50798278 13:-0.47876757 14:-0.51195589 15:-0.52202966 16:-0.46341972 17:-0.50429912 18:-0.5409509 19:-0.55652541 20:-0.51832373 21:-0.51178374 22:-0.54285614 23:-0.55463631 24:-0.51220259 25:-0.47621596 26:-0.49890429 27:-0.51296807 28:-0.47364658 29:-0.48737537 30:-0.49792856 31:-0.48952754 32:-0.43754992 33:-0.49968918 34:-0.54142748 35:-0.51482796 36:-0.49895541 37:-0.5124499 38:-0.52696286 39:-0.53977211 40:-0.50339777 41:-0.44963727 42:-0.47232146 43:-0.48430515 44:-0.44514901 45:-0.46794332 46:-0.50340016 47:-0.55267961 48:-0.47105521 49:-0.5270169 50:-0.55363161 51:-0.54329917 52:-0.5356258 53:-0.55848513 54:-0.56757738 55:-0.60517174 56:-0.49230687 57:-0.49041887 58:-0.52537574 59:-0.54453955 60:-0.49425703 61:-0.48630542 62:-0.54220566 63:-0.53221858 64:-0.48670317 65:-0.52233211 66:-0.55067774 67:-0.62064364 68:-0.5365258 69:-0.52334999 70:-0.57587132 71:-0.57803412 72:-0.54043736 73:-0.50772574 74:-0.51673082 75:-0.51741848 76:-0.49542889 77:-0.46092528 78:-0.49943473 79:-0.49483198 80:-0.45920505 81:-0.46988492 82:-0.51703197 83:-0.53835133 84:-0.50083255 85:-0.49071038 86:-0.52278347 87:-0.53775765 88:-0.50156215 89:-0.46698387 90:-0.47657702 91:-0.48921122 92:-0.46271378 93:-0.5149035 94:-0.52453529 95:-0.53374777 96:-0.52449063 97:-0.52699979 98:-0.52307816 99:-0.51960471 100:-0.53140988 101:-0.52596886 102:-0.52732237 103:-0.52374553 104:-0.52589752 105:-0.50854735 106:-0.51221223 107:-0.52963836 108:-0.50109382 109:-0.51420694 110:-0.53923963 111:-0.4760037 112:-0.52407441 113:-0.51326392 114:-0.53331875 115:-0.54005042 116:-0.54320628 117:-0.515996 118:-0.51083631 119:-0.53444825 120:-0.52346576 121:-0.50542103 122:-0.50364576 123:-0.52559849 124:-0.49317583 125:-0.5096025 126:-0.51842857 127:-0.46509735 128:-0.5110985 129:-0.50800273 130:-0.53824723 131:-0.53688133 132:-0.53475047 133:-0.48260493 134:-0.49818129 135:-0.50709055 136:-0.506317 137:-0.49002065 138:-0.50340016 139:-0.53660846 140:-0.5066565 141:-0.52332912 142:-0.55455882 143:-0.48518011 144:-0.54173618 145:-0.42028475 146:-0.48590328 147:-0.49877659 148:-0.47944395 149:-0.5239901 150:-0.515484 151:-0.53522535 152:-0.51093995 153:-0.50640562 154:-0.51977656 155:-0.52082764 156:-0.49716599 157:-0.5053599 158:-0.56342663 159:-0.42256985 160:-0.54471756 161:-0.51118141 162:-0.54693568 163:-0.5433408 164:-0.5580253 165:-0.53435349 166:-0.53835624 167:-0.54215701 168:-0.54222842 169:-0.52657783 170:-0.5145689 171:-0.52099947 172:-0.49888106 173:-0.51256199 174:-0.51780408 175:-0.51124358 176:-0.50083255 177:-0.52574757 178:-0.51777535 179:-0.53843022 180:-0.54344855 181:-0.52502593 182:-0.49337443 183:-0.53881608 184:-0.52761598 
4.1347951820132023 1:-0.28332201 2:-0.33625855 3:-0.33441932 4:-0.29509143 5:-0.31352401 6:-0.30667511 7:-0.30946932 8:-0.3090802 9:-0.31348416 10:-0.31323638 11:-0.29653333 12:-0.31020538 13:-0.25817661 14:-0.3058642 15:-0.31730257 16:-0.25737275 17:-0.30524202 18:-0.37446888 19:-0.45884334 20:-0.3192484 21:-0.28912294 22:-0.3869793 23:-0.3501908 24:-0.32464129 25:-0.28039156 26:-0.29080178 27:-0.32060822 28:-0.28225678 29:-0.25097717 30:-0.28734516 31:-0.25699879 32:-0.24674011 33:-0.26796524 34:-0.33673714 35:-0.37060919 36:-0.31842823 37:-0.26785595 38:-0.39241851 39:-0.32151838 40:-0.3100561 41:-0.26095005 42:-0.26444815 43:-0.2537705 44:-0.24988194 45:-0.24480468 46:-0.29807546 47:-0.36538885 48:-0.28969016 49:-0.35885414 50:-0.40620506 51:-0.47065035 52:-0.34620414 53:-0.36845961 54:-0.60527312 55:-0.5291752 56:-0.35510246 57:-0.29195368 58:-0.31199682 59:-0.37513761 60:-0.28127174 61:-0.25515313 62:-0.31168442 63:-0.32148617 64:-0.27078852 65:-0.33742433 66:-0.45795853 67:-0.50412964 68:-0.3595837 69:-0.30593803 70:-0.40572975 71:-0.3520587 72:-0.34903912 73:-0.29044332 74:-0.33689836 75:-0.33806413 76:-0.31897164 77:-0.28200404 78:-0.32597383 79:-0.31707354 80:-0.22440108 81:-0.26937044 82:-0.31319725 83:-0.48413584 84:-0.2719213 85:-0.28827328 86:-0.33330949 87:-0.34674814 88:-0.31578364 89:-0.28164503 90:-0.26061041 91:-0.30071279 92:-0.28246908 93:-0.54479101 94:-0.57157369 95:-0.58251643 96:-0.55772274 97:-0.5653078 98:-0.56091849 99:-0.56116216 100:-0.5680799 101:-0.56048183 102:-0.56738813 103:-0.57071494 104:-0.55664242 105:-0.53659391 106:-0.54989317 107:-0.57086689 108:-0.51591349 109:-0.54248926 110:-0.58935537 111:-0.65420749 112:-0.56923424 113:-0.56041811 114:-0.59262944 115:-0.59815087 116:-0.57684858 117:-0.53281024 118:-0.55391292 119:-0.56747003 120:-0.56040294 121:-0.54151236 122:-0.53985467 123:-0.55136345 124:-0.50611209 125:-0.52571165 126:-0.57822575 127:-0.56953163 128:-0.54995637 129:-0.55358615 130:-0.5807806 131:-0.57735222 132:-0.56908915 133:-0.49172364 134:-0.52304652 135:-0.52116389 136:-0.5204327 137:-0.51288644 138:-0.54380542 139:-0.57616822 140:-0.51740406 141:-0.55651913 142:-0.60462822 143:-0.6982833 144:-0.58382988 145:-0.63334367 146:-0.70579509 147:-0.7115669 148:-0.56948435 149:-0.53682615 150:-0.57200822 151:-0.59343908 152:-0.55209115 153:-0.54258598 154:-0.56961899 155:-0.58276588 156:-0.53711496 157:-0.55359671 158:-0.61094523 159:-0.71385483 160:-0.58895308 161:-0.56959059 162:-0.61175152 163:-0.60147555 164:-0.60871997 165:-0.56204635 166:-0.57363983 167:-0.57308018 168:-0.5813559 169:-0.53739968 170:-0.53785224 171:-0.55889721 172:-0.5021332 173:-0.53423923 174:-0.56258595 175:-0.61967455 176:-0.55220043 177:-0.54651035 178:-0.56618721 179:-0.59156314 180:-0.56168145 181:-0.54547256 182:-0.53956729 183:-0.5636185 184:-0.57417625 
4.1357936193905003 1:-0.54479101 2:-0.57157369 3:-0.58251643 4:-0.55772274 5:-0.5653078 6:-0.56091849 7:-0.56116216 8:-0.5680799 9:-0.56048183 10:-0.56738813 11:-0.57071494 12:-0.55664242 13:-0.53659391 14:-0.54989317 15:-0.57086689 16:-0.51591349 17:-0.54248926 18:-0.58935537 19:-0.65420749 20:-0.56923424 21:-0.56041811 22:-0.59262944 23:-0.59815087 24:-0.57684858 25:-0.53281024 26:-0.55391292 27:-0.56747003 28:-0.56040294 29:-0.54151236 30:-0.53985467 31:-0.55136345 32:-0.50611209 33:-0.52571165 34:-0.57822575 35:-0.56953163 36:-0.54995637 37:-0.55358615 38:-0.5807806 39:-0.57735222 40:-0.56908915 41:-0.49172364 42:-0.52304652 43:-0.52116389 44:-0.5204327 45:-0.51288644 46:-0.54380542 47:-0.57616822 48:-0.51740406 49:-0.55651913 50:-0.60462822 51:-0.6982833 52:-0.58382988 53:-0.63334367 54:-0.70579509 55:-0.7115669 56:-0.56948435 57:-0.53682615 58:-0.57200822 59:-0.59343908 60:-0.55209115 61:-0.54258598 62:-0.56961899 63:-0.58276588 64:-0.53711496 65:-0.55359671 66:-0.61094523 67:-0.71385483 68:-0.58895308 69:-0.56959059 70:-0.61175152 71:-0.60147555 72:-0.60871997 73:-0.56204635 74:-0.57363983 75:-0.57308018 76:-0.5813559 77:-0.53739968 78:-0.53785224 79:-0.55889721 80:-0.5021332 81:-0.53423923 82:-0.56258595 83:-0.61967455 84:-0.55220043 85:-0.54651035 86:-0.56618721 87:-0.59156314 88:-0.56168145 89:-0.54547256 90:-0.53956729 91:-0.5636185 92:-0.57417625 93:-0.28332201 94:-0.33625855 95:-0.33441932 96:-0.29509143 97:-0.31352401 98:-0.30667511 99:-0.30946932 100:-0.3090802 101:-0.31348416 102:-0.31323638 103:-0.29653333 104:-0.31020538 105:-0.25817661 106:-0.3058642 107:-0.31730257 108:-0.25737275 109:-0.30524202 110:-0.37446888 111:-0.45884334 112:-0.3192484 113:-0.28912294 114:-0.3869793 115:-0.3501908 116:-0.32464129 117:-0.28039156 118:-0.29080178 119:-0.32060822 120:-0.28225678 121:-0.25097717 122:-0.28734516 123:-0.25699879 124:-0.24674011 125:-0.26796524 126:-0.33673714 127:-0.37060919 128:-0.31842823 129:-0.26785595 130:-0.39241851 131:-0.32151838 132:-0.3100561 133:-0.26095005 134:-0.26444815 135:-0.2537705 136:-0.24988194 137:-0.24480468 138:-0.29807546 139:-0.36538885 140:-0.28969016 141:-0.35885414 142:-0.40620506 143:-0.47065035 144:-0.34620414 145:-0.36845961 146:-0.60527312 147:-0.5291752 148:-0.35510246 149:-0.29195368 150:-0.31199682 151:-0.37513761 152:-0.28127174 153:-0.25515313 154:-0.31168442 155:-0.32148617 156:-0.27078852 157:-0.33742433 158:-0.45795853 159:-0.50412964 160:-0.3595837 161:-0.30593803 162:-0.40572975 163:-0.3520587 164:-0.34903912 165:-0.29044332 166:-0.33689836 167:-0.33806413 168:-0.31897164 169:-0.28200404 170:-0.32597383 171:-0.31707354 172:-0.22440108 173:-0.26937044 174:-0.31319725 175:-0.48413584 176:-0.2719213 177:-0.28827328 178:-0.33330949 179:-0.34674814 180:-0.31578364 181:-0.28164503 182:-0.26061041 183:-0.30071279 184:-0.28246908 
0.81832777358890807 1:0.061785304 2:0.018930637 3:0.050158156 4:0.12542425 5:0.070192604 6:0.065753618 7:0.063853883 8:0.07614334 9:0.062592756 10:0.088966761 11:0.079592398 12:0.060238776 13:0.073497652 14:0.010194335 15:0.067202166 16:0.077944592 17:0.00081952221 18:-0.016569195 19:-0.035114344 20:0.067231736 21:0.02573169 22:0.039819255 23:0.0066772066 24:0.12194372 25:0.14980696 26:0.040867919 27:0.073088286 28:0.20594493 29:0.077453909 30:0.068073872 31:0.050248358 32:0.093483491 33:-0.0052621654 34:-0.022801952 35:-0.14184839 36:0.078245861 37:0.032883421 38:0.049407767 39:0.02826573 40:0.16769938 41:0.085561055 42:0.049848329 43:0.0055809857 44:0.15065082 45:-0.031916217 46:-0.074609636 47:0.062351118 48:0.023332475 49:-0.023266189 50:-0.035320645 51:0.033048088 52:-0.0033441447 53:-0.022958677 54:-0.083815408 55:0.0078670004 56:-0.046392538 57:0.09115326 58:-0.00040706238 59:0.052151138 60:0.12023056 61:0.057739966 62:-0.017614082 63:-0.0039636732 64:0.052607864 65:-0.014952299 66:0.024181388 67:0.10756882 68:0.0909633 69:-0.033361839 70:0.059555357 71:-0.061384922 72:0.08548662 73:0.1835306 74:0.068293761 75:0.026829203 76:0.21730497 77:0.1797282 78:0.084977147 79:0.186425 80:0.13138221 81:0.041562501 82:-0.023659292 83:-0.12631364 84:0.097129512 85:0.069884669 86:0.031448788 87:0.035270875 88:0.12722664 89:0.22688255 90:0.055540723 91:0.19781598 92:0.28613063 93:-0.19370619 94:-0.14607318 95:-0.084285194 96:-0.18219562 97:-0.13154507 98:-0.17400187 99:-0.17052163 100:-0.15270979 101:-0.17353235 102:-0.14649722 103:-0.13838695 104:-0.17988937 105:-0.21374329 106:-0.19846069 107:-0.11823776 108:-0.24094613 109:-0.20976667 110:-0.1165562 111:0.11932893 112:-0.13894738 113:-0.1005062 114:-0.086551266 115:-0.017389505 116:-0.12520623 117:-0.23610039 118:-0.16824578 119:-0.12135547 120:-0.20404461 121:-0.20766758 122:-0.20635155 123:-0.15136245 124:-0.28748932 125:-0.25433442 126:-0.15504571 127:-0.022494927 128:-0.18161614 129:-0.12888212 130:-0.11464954 131:-0.044003715 132:-0.18165931 133:-0.30023066 134:-0.19482551 135:-0.20015779 136:-0.25105824 137:-0.23376602 138:-0.22716011 139:-0.13112086 140:-0.25543232 141:-0.16045159 142:-0.10486147 143:0.221935 144:-0.13030418 145:0.16706684 146:0.010423937 147:0.25105592 148:0.043647856 149:-0.173467 150:-0.14101106 151:-0.064858449 152:-0.18617909 153:-0.14393203 154:-0.118545 155:0.0017317975 156:-0.15950212 157:-0.16770221 158:-0.02681418 159:0.27651411 160:-0.10400068 161:-0.033361839 162:-0.0017882026 163:0.016440637 164:-0.047974856 165:-0.20203919 166:-0.12747322 167:-0.050822297 168:-0.14865203 169:-0.2776753 170:-0.21770629 171:-0.20157567 172:-0.2322062 173:-0.23617716 174:-0.15877701 175:0.0038035258 176:-0.13876378 177:-0.15007103 178:-0.13214989 179:-0.052163054 180:-0.14281745 181:-0.23613478 182:-0.19462061 183:-0.16925993 184:-0.21051229 
