svm_type c_svc
kernel_type rbf
gamma 0.125
nr_class 2
total_sv 345
rho -3.8863285189119461
label 1 0
probA -3.0620166476288375
probB -0.45347887197952752
nr_sv 138 207
SV
36.90627550124087 1:0.0075468709 2:-0.086167682 3:-0.075091105 4:-0.030385018 5:-0.047612177 6:-0.03446166 7:-0.035465443 8:-0.046124344 9:-0.040963904 10:-0.045557993 11:-0.029414758 12:-0.044758572 13:0.072911786 14:-0.019220921 15:-0.041628068 16:0.0033957146 17:-0.045423572 18:-0.15245657 19:-0.082573195 20:-0.077700219 21:-0.034697888 22:-0.094669782 23:-0.13109396 24:-0.050227942 25:0.026434637 26:-0.076862808 27:-0.066371952 28:-0.0046551513 29:0.13870906 30:0.02820701 31:0.020505794 32:0.061730716 33:-0.04343741 34:-0.044237437 35:0.024604445 36:0.023370724 37:-0.0078500869 38:-0.047721102 39:-0.099826487 40:-0.019990081 41:0.033251705 42:-0.042753319 43:-0.0099539284 44:0.018891826 45:0.0023403742 46:-0.067195981 47:-0.044862227 48:-0.067180707 49:-0.04849229 50:-0.24816889 51:-0.24471188 52:-0.16149561 53:0.094519248 54:-0.21004141 55:-0.16207204 56:-0.057769174 57:-0.0016182008 58:-0.11880573 59:-0.086775351 60:-0.077067188 61:0.021111033 62:-0.037723554 63:-0.11005475 64:-0.0072168379 65:-0.04516124 66:-0.15548202 67:-0.17895072 68:-0.083519737 69:-0.10844512 70:-0.12868923 71:-0.2212738 72:-0.05931025 73:0.0061714891 74:-0.077097645 75:-0.10705196 76:-0.0051481215 77:0.088755535 78:0.011040223 79:-0.034781692 80:0.02326916 81:-0.044598904 82:-0.14067366 83:0.075536846 84:-0.073091846 85:-0.020997939 86:-0.098289553 87:-0.088905109 88:-0.064329837 89:0.051783527 90:-0.05998855 91:-0.057043904 92:0.028973899 93:-0.14870602 94:-0.11248448 95:-0.11717491 96:-0.15518857 97:-0.13118312 98:-0.1410764 99:-0.12964521 100:-0.14332072 101:-0.14689069 102:-0.13686948 103:-0.14048219 104:-0.12368528 105:-0.15744946 106:-0.13397414 107:-0.11191304 108:-0.186129 109:-0.12061051 110:-0.10331526 111:-0.10584275 112:-0.11123833 113:-0.13067799 114:-0.082977124 115:-0.10811989 116:-0.13603917 117:-0.18653232 118:-0.1227973 119:-0.12851956 120:-0.17768108 121:-0.14991505 122:-0.1351496 123:-0.14863861 124:-0.19143092 125:-0.1314481 126:-0.12245874 127:-0.14476261 128:-0.14210545 129:-0.1292699 130:-0.081835307 131:-0.093291979 132:-0.13311059 133:-0.20677907 134:-0.14955577 135:-0.13910413 136:-0.23222003 137:-0.17839331 138:-0.12475835 139:-0.059429459 140:-0.13473961 141:-0.099686744 142:-0.13094582 143:-0.09533264 144:-0.085883999 145:-0.083798582 146:-0.1475569 147:-0.13427535 148:-0.067230942 149:-0.14185826 150:-0.12041594 151:-0.06903015 152:-0.12660756 153:-0.12594045 154:-0.064367929 155:-0.13883884 156:-0.17634731 157:-0.1142597 158:-0.050429422 159:-0.12123112 160:-0.070593255 161:-0.12312447 162:-0.077002946 163:-0.11540592 164:-0.10754741 165:-0.13802994 166:-0.065474514 167:-0.13321827 168:-0.18456411 169:-0.1832158 170:-0.2108334 171:-0.10138038 172:-0.23841434 173:-0.13222519 174:-0.10177579 175:-0.056657832 176:-0.13574372 177:-0.14276944 178:-0.078531207 179:-0.11175637 180:-0.15932561 181:-0.22709027 182:-0.13857322 183:-0.17687026 184:-0.17379463 
36.919425974696857 1:-0.14870602 2:-0.11248448 3:-0.11717491 4:-0.15518857 5:-0.13118312 6:-0.1410764 7:-0.12964521 8:-0.14332072 9:-0.14689069 10:-0.13686948 11:-0.14048219 12:-0.12368528 13:-0.15744946 14:-0.13397414 15:-0.11191304 16:-0.186129 17:-0.12061051 18:-0.10331526 19:-0.10584275 20:-0.11123833 21:-0.13067799 22:-0.082977124 23:-0.10811989 24:-0.13603917 25:-0.18653232 26:-0.1227973 27:-0.12851956 28:-0.17768108 29:-0.14991505 30:-0.1351496 31:-0.14863861 32:-0.19143092 33:-0.1314481 34:-0.12245874 35:-0.14476261 36:-0.14210545 37:-0.1292699 38:-0.081835307 39:-0.093291979 40:-0.13311059 41:-0.20677907 42:-0.14955577 43:-0.13910413 44:-0.23222003 45:-0.17839331 46:-0.12475835 47:-0.059429459 48:-0.13473961 49:-0.099686744 50:-0.13094582 51:-0.09533264 52:-0.085883999 53:-0.083798582 54:-0.1475569 55:-0.13427535 56:-0.067230942 57:-0.14185826 58:-0.12041594 59:-0.06903015 60:-0.12660756 61:-0.12594045 62:-0.064367929 63:-0.13883884 64:-0.17634731 65:-0.1142597 66:-0.050429422 67:-0.12123112 68:-0.070593255 69:-0.12312447 70:-0.077002946 71:-0.11540592 72:-0.10754741 73:-0.13802994 74:-0.065474514 75:-0.13321827 76:-0.18456411 77:-0.1832158 78:-0.2108334 79:-0.10138038 80:-0.23841434 81:-0.13222519 82:-0.10177579 83:-0.056657832 84:-0.13574372 85:-0.14276944 86:-0.078531207 87:-0.11175637 88:-0.15932561 89:-0.22709027 90:-0.13857322 91:-0.17687026 92:-0.17379463 93:0.0075468709 94:-0.086167682 95:-0.075091105 96:-0.030385018 97:-0.047612177 98:-0.03446166 99:-0.035465443 100:-0.046124344 101:-0.040963904 102:-0.045557993 103:-0.029414758 104:-0.044758572 105:0.072911786 106:-0.019220921 107:-0.041628068 108:0.0033957146 109:-0.045423572 110:-0.15245657 111:-0.082573195 112:-0.077700219 113:-0.034697888 114:-0.094669782 115:-0.13109396 116:-0.050227942 117:0.026434637 118:-0.076862808 119:-0.066371952 120:-0.0046551513 121:0.13870906 122:0.02820701 123:0.020505794 124:0.061730716 125:-0.04343741 126:-0.044237437 127:0.024604445 128:0.023370724 129:-0.0078500869 130:-0.047721102 131:-0.099826487 132:-0.019990081 133:0.033251705 134:-0.042753319 135:-0.0099539284 136:0.018891826 137:0.0023403742 138:-0.067195981 139:-0.044862227 140:-0.067180707 141:-0.04849229 142:-0.24816889 143:-0.24471188 144:-0.16149561 145:0.094519248 146:-0.21004141 147:-0.16207204 148:-0.057769174 149:-0.0016182008 150:-0.11880573 151:-0.086775351 152:-0.077067188 153:0.021111033 154:-0.037723554 155:-0.11005475 156:-0.0072168379 157:-0.04516124 158:-0.15548202 159:-0.17895072 160:-0.083519737 161:-0.10844512 162:-0.12868923 163:-0.2212738 164:-0.05931025 165:0.0061714891 166:-0.077097645 167:-0.10705196 168:-0.0051481215 169:0.088755535 170:0.011040223 171:-0.034781692 172:0.02326916 173:-0.044598904 174:-0.14067366 175:0.075536846 176:-0.073091846 177:-0.020997939 178:-0.098289553 179:-0.088905109 180:-0.064329837 181:0.051783527 182:-0.05998855 183:-0.057043904 184:0.028973899 
128 1:-0.40633115 2:-0.41253794 3:-0.42140011 4:-0.41710792 5:-0.41748555 6:-0.41256722 7:-0.4085213 8:-0.4215931 9:-0.41773296 10:-0.41657026 11:-0.41211059 12:-0.41555659 13:-0.40201231 14:-0.39860912 15:-0.41782386 16:-0.39997888 17:-0.40369136 18:-0.4279792 19:-0.36326217 20:-0.41269359 21:-0.40125505 22:-0.42106198 23:-0.42565435 24:-0.43474278 25:-0.41438013 26:-0.4014355 27:-0.42554858 28:-0.4174944 29:-0.40140003 30:-0.39232588 31:-0.41570873 32:-0.39133599 33:-0.39902898 34:-0.40275172 35:-0.35237384 36:-0.39826631 37:-0.39753775 38:-0.42590143 39:-0.42410147 40:-0.42584228 41:-0.3855254 42:-0.39450488 43:-0.402818 44:-0.408352 45:-0.38217975 46:-0.38935954 47:-0.42499762 48:-0.40264559 49:-0.41272824 50:-0.44423225 51:-0.3780862 52:-0.43153708 53:-0.30032738 54:-0.37666678 55:-0.3844456 56:-0.37473843 57:-0.42002035 58:-0.40461755 59:-0.42196248 60:-0.40004466 61:-0.39682476 62:-0.4065378 63:-0.40669082 64:-0.3896949 65:-0.39365784 66:-0.45377953 67:-0.30721648 68:-0.43345807 69:-0.39469243 70:-0.4362226 71:-0.42881676 72:-0.44638403 73:-0.42891903 74:-0.42966596 75:-0.43567013 76:-0.43395234 77:-0.42278929 78:-0.40412207 79:-0.41534561 80:-0.40914687 81:-0.40527495 82:-0.40942261 83:-0.39916223 84:-0.3909921 85:-0.41918327 86:-0.40689611 87:-0.42558035 88:-0.43865842 89:-0.42403504 90:-0.38344867 91:-0.43240357 92:-0.42283813 93:-0.38224644 94:-0.41106812 95:-0.41759899 96:-0.37928117 97:-0.39288116 98:-0.39839117 99:-0.39877355 100:-0.39533277 101:-0.39468622 102:-0.39976711 103:-0.39419348 104:-0.39502491 105:-0.36715381 106:-0.39831638 107:-0.4091641 108:-0.3553475 109:-0.39239278 110:-0.42991173 111:-0.45197734 112:-0.40610228 113:-0.39956696 114:-0.43175241 115:-0.44206439 116:-0.39926071 117:-0.36705414 118:-0.38767846 119:-0.40105511 120:-0.3586283 121:-0.38017767 122:-0.38570332 123:-0.37416449 124:-0.32495824 125:-0.38767276 126:-0.42882549 127:-0.40700837 128:-0.3842429 129:-0.40262339 130:-0.41323044 131:-0.42736872 132:-0.38957463 133:-0.34552027 134:-0.36432158 135:-0.37652395 136:-0.33478684 137:-0.35636065 138:-0.38935954 139:-0.44303325 140:-0.36148902 141:-0.41692451 142:-0.44319488 143:-0.44210587 144:-0.42459315 145:-0.45317123 146:-0.46692218 147:-0.50119172 148:-0.38893108 149:-0.38061405 150:-0.415889 151:-0.43247815 152:-0.38074322 153:-0.3736061 154:-0.43177984 155:-0.41948375 156:-0.37753519 157:-0.41268495 158:-0.43951313 159:-0.52526828 160:-0.42422486 161:-0.40845432 162:-0.46852653 163:-0.46760004 164:-0.42638325 165:-0.39784113 166:-0.40512824 167:-0.40796461 168:-0.37923046 169:-0.34520499 170:-0.38642663 171:-0.38468908 172:-0.36048012 173:-0.35598517 174:-0.40853856 175:-0.42920647 176:-0.3909921 177:-0.37884179 178:-0.41254135 179:-0.42481864 180:-0.39059508 181:-0.35471048 182:-0.36380251 183:-0.37465593 184:-0.34543272 
128 1:-0.38224644 2:-0.41106812 3:-0.41759899 4:-0.37928117 5:-0.39288116 6:-0.39839117 7:-0.39877355 8:-0.39533277 9:-0.39468622 10:-0.39976711 11:-0.39419348 12:-0.39502491 13:-0.36715381 14:-0.39831638 15:-0.4091641 16:-0.3553475 17:-0.39239278 18:-0.42991173 19:-0.45197734 20:-0.40610228 21:-0.39956696 22:-0.43175241 23:-0.44206439 24:-0.39926071 25:-0.36705414 26:-0.38767846 27:-0.40105511 28:-0.3586283 29:-0.38017767 30:-0.38570332 31:-0.37416449 32:-0.32495824 33:-0.38767276 34:-0.42882549 35:-0.40700837 36:-0.3842429 37:-0.40262339 38:-0.41323044 39:-0.42736872 40:-0.38957463 41:-0.34552027 42:-0.36432158 43:-0.37652395 44:-0.33478684 45:-0.35636065 46:-0.38935954 47:-0.44303325 48:-0.36148902 49:-0.41692451 50:-0.44319488 51:-0.44210587 52:-0.42459315 53:-0.45317123 54:-0.46692218 55:-0.50119172 56:-0.38893108 57:-0.38061405 58:-0.415889 59:-0.43247815 60:-0.38074322 61:-0.3736061 62:-0.43177984 63:-0.41948375 64:-0.37753519 65:-0.41268495 66:-0.43951313 67:-0.52526828 68:-0.42422486 69:-0.40845432 70:-0.46852653 71:-0.46760004 72:-0.42638325 73:-0.39784113 74:-0.40512824 75:-0.40796461 76:-0.37923046 77:-0.34520499 78:-0.38642663 79:-0.38468908 80:-0.36048012 81:-0.35598517 82:-0.40853856 83:-0.42920647 84:-0.3909921 85:-0.37884179 86:-0.41254135 87:-0.42481864 88:-0.39059508 89:-0.35471048 90:-0.36380251 91:-0.37465593 92:-0.34543272 93:-0.40633115 94:-0.41253794 95:-0.42140011 96:-0.41710792 97:-0.41748555 98:-0.41256722 99:-0.4085213 100:-0.4215931 101:-0.41773296 102:-0.41657026 103:-0.41211059 104:-0.41555659 105:-0.40201231 106:-0.39860912 107:-0.41782386 108:-0.39997888 109:-0.40369136 110:-0.4279792 111:-0.36326217 112:-0.41269359 113:-0.40125505 114:-0.42106198 115:-0.42565435 116:-0.43474278 117:-0.41438013 118:-0.4014355 119:-0.42554858 120:-0.4174944 121:-0.40140003 122:-0.39232588 123:-0.41570873 124:-0.39133599 125:-0.39902898 126:-0.40275172 127:-0.35237384 128:-0.39826631 129:-0.39753775 130:-0.42590143 131:-0.42410147 132:-0.42584228 133:-0.3855254 134:-0.39450488 135:-0.402818 136:-0.408352 137:-0.38217975 138:-0.38935954 139:-0.42499762 140:-0.40264559 141:-0.41272824 142:-0.44423225 143:-0.3780862 144:-0.43153708 145:-0.30032738 146:-0.37666678 147:-0.3844456 148:-0.37473843 149:-0.42002035 150:-0.40461755 151:-0.42196248 152:-0.40004466 153:-0.39682476 154:-0.4065378 155:-0.40669082 156:-0.3896949 157:-0.39365784 158:-0.45377953 159:-0.30721648 160:-0.43345807 161:-0.39469243 162:-0.4362226 163:-0.42881676 164:-0.44638403 165:-0.42891903 166:-0.42966596 167:-0.43567013 168:-0.43395234 169:-0.42278929 170:-0.40412207 171:-0.41534561 172:-0.40914687 173:-0.40527495 174:-0.40942261 175:-0.39916223 176:-0.3909921 177:-0.41918327 178:-0.40689611 179:-0.42558035 180:-0.43865842 181:-0.42403504 182:-0.38344867 183:-0.43240357 184:-0.42283813 
36.449797154997988 1:-0.13793555 2:-0.198504 3:-0.19557297 4:-0.14984833 5:-0.17129483 6:-0.1641537 7:-0.16737653 8:-0.16612724 9:-0.17185262 10:-0.17062344 11:-0.15169244 12:-0.16835672 13:-0.10894265 14:-0.16295518 15:-0.17615633 16:-0.11124982 17:-0.16539398 18:-0.2419048 19:-0.34435566 20:-0.17792682 21:-0.14562966 22:-0.25703069 23:-0.2120502 24:-0.18460682 25:-0.13408341 26:-0.1477465 27:-0.18171061 28:-0.1324831 29:-0.10216474 30:-0.14177216 31:-0.10635251 32:-0.09726714 33:-0.12222117 34:-0.19676897 35:-0.24856822 36:-0.17576162 37:-0.12291284 38:-0.26215325 39:-0.18069103 40:-0.16592417 41:-0.11655474 42:-0.12169426 43:-0.11049001 44:-0.099944207 45:-0.095403351 46:-0.15818165 47:-0.23284889 48:-0.15182347 49:-0.22557475 50:-0.27825268 51:-0.36208128 52:-0.20933153 53:-0.24301093 54:-0.50857852 55:-0.41780164 56:-0.23754278 57:-0.1476533 58:-0.17274768 59:-0.24122432 60:-0.13432813 61:-0.10659157 62:-0.17234777 63:-0.18281454 64:-0.12660305 65:-0.20538956 66:-0.33575747 67:-0.39700252 68:-0.22478772 69:-0.16257522 70:-0.27857944 71:-0.21498461 72:-0.20872779 73:-0.14424552 74:-0.20107771 75:-0.20709964 76:-0.17290207 77:-0.13376646 78:-0.18360964 79:-0.17643604 80:-0.072468706 81:-0.12440141 82:-0.17515132 83:-0.36911798 84:-0.12472163 85:-0.1457577 86:-0.19896303 87:-0.20849337 88:-0.17742004 89:-0.13334456 90:-0.11120892 91:-0.15521489 92:-0.13046443 93:-0.44096982 94:-0.46601143 95:-0.47665207 96:-0.45582471 97:-0.46166422 98:-0.45600493 99:-0.45621132 100:-0.46372845 101:-0.45767025 102:-0.4625987 103:-0.46594435 104:-0.45079262 105:-0.43484202 106:-0.44164157 107:-0.46474764 108:-0.4175353 109:-0.43594368 110:-0.48457454 111:-0.55959903 112:-0.46445471 113:-0.45503285 114:-0.48754309 115:-0.49102104 116:-0.47324459 117:-0.4343839 118:-0.45110071 119:-0.46320272 120:-0.46113918 121:-0.44384475 122:-0.4342688 123:-0.44538319 124:-0.40677267 125:-0.41748284 126:-0.47054351 127:-0.46710636 128:-0.4431412 129:-0.44966562 130:-0.47366132 131:-0.46984303 132:-0.46556398 133:-0.39659065 134:-0.42352729 135:-0.41905845 136:-0.42532858 137:-0.40892096 138:-0.43485237 139:-0.469393 140:-0.41507022 141:-0.45049464 142:-0.50025035 143:-0.612825 144:-0.479373 145:-0.53596165 146:-0.6196621 147:-0.61793784 148:-0.474087 149:-0.43508747 150:-0.46902584 151:-0.48768544 152:-0.44765489 153:-0.43861834 154:-0.46263122 155:-0.47625237 156:-0.43612288 157:-0.4477349 158:-0.5069543 159:-0.6278809 160:-0.48331735 161:-0.4607495 162:-0.50858339 163:-0.49380496 164:-0.50403331 165:-0.46124004 166:-0.46970119 167:-0.47030202 168:-0.47970342 169:-0.43557791 170:-0.43134583 171:-0.45974474 172:-0.41313595 173:-0.43031103 174:-0.46069708 175:-0.51933921 176:-0.45074342 177:-0.44308933 178:-0.46146678 179:-0.48575533 180:-0.45958011 181:-0.4484562 182:-0.43747564 183:-0.46127739 184:-0.47836811 
36.47861491759442 1:-0.44096982 2:-0.46601143 3:-0.47665207 4:-0.45582471 5:-0.46166422 6:-0.45600493 7:-0.45621132 8:-0.46372845 9:-0.45767025 10:-0.4625987 11:-0.46594435 12:-0.45079262 13:-0.43484202 14:-0.44164157 15:-0.46474764 16:-0.4175353 17:-0.43594368 18:-0.48457454 19:-0.55959903 20:-0.46445471 21:-0.45503285 22:-0.48754309 23:-0.49102104 24:-0.47324459 25:-0.4343839 26:-0.45110071 27:-0.46320272 28:-0.46113918 29:-0.44384475 30:-0.4342688 31:-0.44538319 32:-0.40677267 33:-0.41748284 34:-0.47054351 35:-0.46710636 36:-0.4431412 37:-0.44966562 38:-0.47366132 39:-0.46984303 40:-0.46556398 41:-0.39659065 42:-0.42352729 43:-0.41905845 44:-0.42532858 45:-0.40892096 46:-0.43485237 47:-0.469393 48:-0.41507022 49:-0.45049464 50:-0.50025035 51:-0.612825 52:-0.479373 53:-0.53596165 54:-0.6196621 55:-0.61793784 56:-0.474087 57:-0.43508747 58:-0.46902584 59:-0.48768544 60:-0.44765489 61:-0.43861834 62:-0.46263122 63:-0.47625237 64:-0.43612288 65:-0.4477349 66:-0.5069543 67:-0.6278809 68:-0.48331735 69:-0.4607495 70:-0.50858339 71:-0.49380496 72:-0.50403331 73:-0.46124004 74:-0.46970119 75:-0.47030202 76:-0.47970342 77:-0.43557791 78:-0.43134583 79:-0.45974474 80:-0.41313595 81:-0.43031103 82:-0.46069708 83:-0.51933921 84:-0.45074342 85:-0.44308933 86:-0.46146678 87:-0.48575533 88:-0.45958011 89:-0.4484562 90:-0.43747564 91:-0.46127739 92:-0.47836811 93:-0.13793555 94:-0.198504 95:-0.19557297 96:-0.14984833 97:-0.17129483 98:-0.1641537 99:-0.16737653 100:-0.16612724 101:-0.17185262 102:-0.17062344 103:-0.15169244 104:-0.16835672 105:-0.10894265 106:-0.16295518 107:-0.17615633 108:-0.11124982 109:-0.16539398 110:-0.2419048 111:-0.34435566 112:-0.17792682 113:-0.14562966 114:-0.25703069 115:-0.2120502 116:-0.18460682 117:-0.13408341 118:-0.1477465 119:-0.18171061 120:-0.1324831 121:-0.10216474 122:-0.14177216 123:-0.10635251 124:-0.09726714 125:-0.12222117 126:-0.19676897 127:-0.24856822 128:-0.17576162 129:-0.12291284 130:-0.26215325 131:-0.18069103 132:-0.16592417 133:-0.11655474 134:-0.12169426 135:-0.11049001 136:-0.099944207 137:-0.095403351 138:-0.15818165 139:-0.23284889 140:-0.15182347 141:-0.22557475 142:-0.27825268 143:-0.36208128 144:-0.20933153 145:-0.24301093 146:-0.50857852 147:-0.41780164 148:-0.23754278 149:-0.1476533 150:-0.17274768 151:-0.24122432 152:-0.13432813 153:-0.10659157 154:-0.17234777 155:-0.18281454 156:-0.12660305 157:-0.20538956 158:-0.33575747 159:-0.39700252 160:-0.22478772 161:-0.16257522 162:-0.27857944 163:-0.21498461 164:-0.20872779 165:-0.14424552 166:-0.20107771 167:-0.20709964 168:-0.17290207 169:-0.13376646 170:-0.18360964 171:-0.17643604 172:-0.072468706 173:-0.12440141 174:-0.17515132 175:-0.36911798 176:-0.12472163 177:-0.1457577 178:-0.19896303 179:-0.20849337 180:-0.17742004 181:-0.13334456 182:-0.11120892 183:-0.15521489 184:-0.13046443 
78.111673198793198 1:-0.033640676 2:-0.11605404 3:-0.11371318 4:0.02731932 5:-0.051429542 6:-0.049267627 7:-0.053558653 8:-0.048990085 9:-0.049033492 10:-0.053644879 11:-0.032116445 12:-0.05574746 13:0.012785473 14:-0.076890269 15:-0.10607274 16:0.020952134 17:-0.12492451 18:-0.15853021 19:-0.3021796 20:-0.051916586 21:-0.095710364 22:-0.1638235 23:-0.15981155 24:-0.051234526 25:0.076688009 26:-0.077095978 27:-0.06527523 28:0.14367498 29:0.059125204 30:-0.0060095769 31:-0.0700013 32:0.044750362 33:-0.11938212 34:-0.084651775 35:-0.19939714 36:0.006542638 37:-0.079049137 38:-0.15493718 39:-0.1668052 40:-0.033806326 41:0.051977511 42:-0.07641931 43:-0.060995324 44:0.12923957 45:-0.10923501 46:-0.18324913 47:-0.16070641 48:-0.046990691 49:-0.14164941 50:-0.20252451 51:-0.39409111 52:-0.10517268 53:-0.21116846 54:-0.41138039 55:-0.36220825 56:-0.23754278 57:-0.027116393 58:-0.089016891 59:-0.10714947 60:0.018796644 61:-0.051640753 62:-0.11905901 63:-0.19001056 64:-0.0083222658 65:-0.18335817 66:-0.18920261 67:-0.39700252 68:-0.091829618 69:-0.15890538 70:-0.19846571 71:-0.20240625 72:-0.075781474 73:0.070813509 74:-0.14812789 75:-0.1578454 76:0.053162076 77:0.12200595 78:0.034180416 79:0.039216849 80:0.087094404 81:-0.068852608 82:-0.14863004 83:-0.21288791 84:-0.022622281 85:-0.050133451 86:-0.11146178 87:-0.092713652 88:-0.028140972 89:0.17310151 90:-0.027712702 91:0.064947987 92:0.27507263 93:-0.40216368 94:-0.40427894 95:-0.39737161 96:-0.40168054 97:-0.39795826 98:-0.4025857 99:-0.40519679 100:-0.40142247 101:-0.40961316 102:-0.39293018 103:-0.40038456 104:-0.41035924 105:-0.40182788 106:-0.41295327 107:-0.40815716 108:-0.38390312 109:-0.40143164 110:-0.41693621 111:-0.32254046 112:-0.40513297 113:-0.39836118 114:-0.38063879 115:-0.39885126 116:-0.40379034 117:-0.40145086 118:-0.40003648 119:-0.3926469 120:-0.40600075 121:-0.42474463 122:-0.39674093 123:-0.3912273 124:-0.37898664 125:-0.41251449 126:-0.40666279 127:-0.41793528 128:-0.41228971 129:-0.40643763 130:-0.40250884 131:-0.4020475 132:-0.41634361 133:-0.38297188 134:-0.39682668 135:-0.37961737 136:-0.37652092 137:-0.37941342 138:-0.41164174 139:-0.41806085 140:-0.38633827 141:-0.40769272 142:-0.42244743 143:-0.44744084 144:-0.41147685 145:-0.35764382 146:-0.28641137 147:-0.29549618 148:-0.33689136 149:-0.40379423 150:-0.39254099 151:-0.40553174 152:-0.40969538 153:-0.38521543 154:-0.42336583 155:-0.40749037 156:-0.37864062 157:-0.39666212 158:-0.39801086 159:-0.025031796 160:-0.39929522 161:-0.39744481 162:-0.38324416 163:-0.42567217 164:-0.37932261 165:-0.39659802 166:-0.3999624 167:-0.39257266 168:-0.4178049 169:-0.39976977 170:-0.41637276 171:-0.40900288 172:-0.38601022 173:-0.38415076 174:-0.4279875 175:-0.34508258 176:-0.39621309 177:-0.39079483 178:-0.36549767 179:-0.3867332 180:-0.41208222 181:-0.41615725 182:-0.40449814 183:-0.38259623 184:-0.41190041 
78.105813828817816 1:-0.40216368 2:-0.40427894 3:-0.39737161 4:-0.40168054 5:-0.39795826 6:-0.4025857 7:-0.40519679 8:-0.40142247 9:-0.40961316 10:-0.39293018 11:-0.40038456 12:-0.41035924 13:-0.40182788 14:-0.41295327 15:-0.40815716 16:-0.38390312 17:-0.40143164 18:-0.41693621 19:-0.32254046 20:-0.40513297 21:-0.39836118 22:-0.38063879 23:-0.39885126 24:-0.40379034 25:-0.40145086 26:-0.40003648 27:-0.3926469 28:-0.40600075 29:-0.42474463 30:-0.39674093 31:-0.3912273 32:-0.37898664 33:-0.41251449 34:-0.40666279 35:-0.41793528 36:-0.41228971 37:-0.40643763 38:-0.40250884 39:-0.4020475 40:-0.41634361 41:-0.38297188 42:-0.39682668 43:-0.37961737 44:-0.37652092 45:-0.37941342 46:-0.41164174 47:-0.41806085 48:-0.38633827 49:-0.40769272 50:-0.42244743 51:-0.44744084 52:-0.41147685 53:-0.35764382 54:-0.28641137 55:-0.29549618 56:-0.33689136 57:-0.40379423 58:-0.39254099 59:-0.40553174 60:-0.40969538 61:-0.38521543 62:-0.42336583 63:-0.40749037 64:-0.37864062 65:-0.39666212 66:-0.39801086 67:-0.025031796 68:-0.39929522 69:-0.39744481 70:-0.38324416 71:-0.42567217 72:-0.37932261 73:-0.39659802 74:-0.3999624 75:-0.39257266 76:-0.4178049 77:-0.39976977 78:-0.41637276 79:-0.40900288 80:-0.38601022 81:-0.38415076 82:-0.4279875 83:-0.34508258 84:-0.39621309 85:-0.39079483 86:-0.36549767 87:-0.3867332 88:-0.41208222 89:-0.41615725 90:-0.40449814 91:-0.38259623 92:-0.41190041 93:-0.033640676 94:-0.11605404 95:-0.11371318 96:0.02731932 97:-0.051429542 98:-0.049267627 99:-0.053558653 100:-0.048990085 101:-0.049033492 102:-0.053644879 103:-0.032116445 104:-0.05574746 105:0.012785473 106:-0.076890269 107:-0.10607274 108:0.020952134 109:-0.12492451 110:-0.15853021 111:-0.3021796 112:-0.051916586 113:-0.095710364 114:-0.1638235 115:-0.15981155 116:-0.051234526 117:0.076688009 118:-0.077095978 119:-0.06527523 120:0.14367498 121:0.059125204 122:-0.0060095769 123:-0.0700013 124:0.044750362 125:-0.11938212 126:-0.084651775 127:-0.19939714 128:0.006542638 129:-0.079049137 130:-0.15493718 131:-0.1668052 132:-0.033806326 133:0.051977511 134:-0.07641931 135:-0.060995324 136:0.12923957 137:-0.10923501 138:-0.18324913 139:-0.16070641 140:-0.046990691 141:-0.14164941 142:-0.20252451 143:-0.39409111 144:-0.10517268 145:-0.21116846 146:-0.41138039 147:-0.36220825 148:-0.23754278 149:-0.027116393 150:-0.089016891 151:-0.10714947 152:0.018796644 153:-0.051640753 154:-0.11905901 155:-0.19001056 156:-0.0083222658 157:-0.18335817 158:-0.18920261 159:-0.39700252 160:-0.091829618 161:-0.15890538 162:-0.19846571 163:-0.20240625 164:-0.075781474 165:0.070813509 166:-0.14812789 167:-0.1578454 168:0.053162076 169:0.12200595 170:0.034180416 171:0.039216849 172:0.087094404 173:-0.068852608 174:-0.14863004 175:-0.21288791 176:-0.022622281 177:-0.050133451 178:-0.11146178 179:-0.092713652 180:-0.028140972 181:0.17310151 182:-0.027712702 183:0.064947987 184:0.27507263 
69.825248747244729 1:-0.18578022 2:-0.21432208 3:-0.18267632 4:-0.1925703 5:-0.19399347 6:-0.20088898 7:-0.20059199 8:-0.18215748 9:-0.19783669 10:-0.18435357 11:-0.19711238 12:-0.19430768 13:-0.18327057 14:-0.20218205 15:-0.17696189 16:-0.18380225 17:-0.19497572 18:-0.23831583 19:-0.12620361 20:-0.22561685 21:-0.19048468 22:-0.18754289 23:-0.2125972 24:-0.14157538 25:-0.17067567 26:-0.22072872 27:-0.17348519 28:-0.2017556 29:-0.20031816 30:-0.16715866 31:-0.15902467 32:-0.19297459 33:-0.19958541 34:-0.22153905 35:-0.11744534 36:-0.20380843 37:-0.16169089 38:-0.19295015 39:-0.21989808 40:-0.13570113 41:-0.196565 42:-0.202957 43:-0.15921134 44:-0.18199766 45:-0.18853652 46:-0.20924504 47:-0.19192191 48:-0.1883208 49:-0.22977101 50:-0.25024363 51:-0.17002226 52:-0.24482269 53:-0.1729575 54:-0.015645151 55:-0.17319072 56:-0.12400156 57:-0.19980869 58:-0.22588452 59:-0.21822128 60:-0.24370298 61:-0.17469963 62:-0.22703885 63:-0.17641807 64:-0.20066673 65:-0.1623282 66:-0.24108044 67:-0.037858373 68:-0.19154819 69:-0.19743867 70:-0.23206179 71:-0.19506888 72:-0.23108159 73:-0.084575961 74:-0.22561543 75:-0.090890407 76:-0.18097579 77:-0.15849113 78:-0.20674983 79:-0.17643604 80:-0.15544152 81:-0.18151497 82:-0.23526622 83:-0.16481711 84:-0.24422428 85:-0.21971707 86:-0.17073682 87:-0.22144242 88:-0.10334596 89:-0.17982353 90:-0.22206944 91:-0.21151884 92:-0.19398735 93:-0.43734358 94:-0.45761245 95:-0.47061101 96:-0.45137451 97:-0.45198573 98:-0.45570763 99:-0.45512692 100:-0.45196398 101:-0.44957018 102:-0.46197109 103:-0.46213567 104:-0.44477558 105:-0.4282023 106:-0.44193431 107:-0.45850456 108:-0.41732378 109:-0.4410794 110:-0.47297939 111:-0.44034257 112:-0.46038361 113:-0.43742846 114:-0.47484821 115:-0.49375605 116:-0.47626434 117:-0.43877497 118:-0.44154074 119:-0.46576174 120:-0.4485583 121:-0.4316419 122:-0.42323119 123:-0.44612505 124:-0.40368534 125:-0.43238787 126:-0.46011401 127:-0.41247182 128:-0.44127142 129:-0.43186586 130:-0.44929403 131:-0.48536249 132:-0.46815453 133:-0.40510238 134:-0.4212055 135:-0.42447193 136:-0.41401086 137:-0.40431041 138:-0.44970718 139:-0.47702345 140:-0.41662329 141:-0.46895821 142:-0.47639079 143:-0.42610095 144:-0.47474371 145:-0.35764382 146:-0.45303674 147:-0.49007304 148:-0.44097081 149:-0.44088251 150:-0.46500033 151:-0.47848423 152:-0.44315122 153:-0.4324267 154:-0.43177984 155:-0.44427005 156:-0.43391202 157:-0.42870779 158:-0.51992376 159:-0.45472211 160:-0.48147071 161:-0.44973999 162:-0.52667359 163:-0.49799774 164:-0.50873938 165:-0.47615743 166:-0.45807805 167:-0.48569397 168:-0.46983554 169:-0.43643049 170:-0.45448602 171:-0.45657337 172:-0.41552939 173:-0.43109341 174:-0.44213218 175:-0.45925072 176:-0.44436221 177:-0.43935401 178:-0.45864416 179:-0.49337242 180:-0.46636552 181:-0.4405784 182:-0.41993442 183:-0.46199924 184:-0.45859607 
69.84290531672238 1:-0.43734358 2:-0.45761245 3:-0.47061101 4:-0.45137451 5:-0.45198573 6:-0.45570763 7:-0.45512692 8:-0.45196398 9:-0.44957018 10:-0.46197109 11:-0.46213567 12:-0.44477558 13:-0.4282023 14:-0.44193431 15:-0.45850456 16:-0.41732378 17:-0.4410794 18:-0.47297939 19:-0.44034257 20:-0.46038361 21:-0.43742846 22:-0.47484821 23:-0.49375605 24:-0.47626434 25:-0.43877497 26:-0.44154074 27:-0.46576174 28:-0.4485583 29:-0.4316419 30:-0.42323119 31:-0.44612505 32:-0.40368534 33:-0.43238787 34:-0.46011401 35:-0.41247182 36:-0.44127142 37:-0.43186586 38:-0.44929403 39:-0.48536249 40:-0.46815453 41:-0.40510238 42:-0.4212055 43:-0.42447193 44:-0.41401086 45:-0.40431041 46:-0.44970718 47:-0.47702345 48:-0.41662329 49:-0.46895821 50:-0.47639079 51:-0.42610095 52:-0.47474371 53:-0.35764382 54:-0.45303674 55:-0.49007304 56:-0.44097081 57:-0.44088251 58:-0.46500033 59:-0.47848423 60:-0.44315122 61:-0.4324267 62:-0.43177984 63:-0.44427005 64:-0.43391202 65:-0.42870779 66:-0.51992376 67:-0.45472211 68:-0.48147071 69:-0.44973999 70:-0.52667359 71:-0.49799774 72:-0.50873938 73:-0.47615743 74:-0.45807805 75:-0.48569397 76:-0.46983554 77:-0.43643049 78:-0.45448602 79:-0.45657337 80:-0.41552939 81:-0.43109341 82:-0.44213218 83:-0.45925072 84:-0.44436221 85:-0.43935401 86:-0.45864416 87:-0.49337242 88:-0.46636552 89:-0.4405784 90:-0.41993442 91:-0.46199924 92:-0.45859607 93:-0.18578022 94:-0.21432208 95:-0.18267632 96:-0.1925703 97:-0.19399347 98:-0.20088898 99:-0.20059199 100:-0.18215748 101:-0.19783669 102:-0.18435357 103:-0.19711238 104:-0.19430768 105:-0.18327057 106:-0.20218205 107:-0.17696189 108:-0.18380225 109:-0.19497572 110:-0.23831583 111:-0.12620361 112:-0.22561685 113:-0.19048468 114:-0.18754289 115:-0.2125972 116:-0.14157538 117:-0.17067567 118:-0.22072872 119:-0.17348519 120:-0.2017556 121:-0.20031816 122:-0.16715866 123:-0.15902467 124:-0.19297459 125:-0.19958541 126:-0.22153905 127:-0.11744534 128:-0.20380843 129:-0.16169089 130:-0.19295015 131:-0.21989808 132:-0.13570113 133:-0.196565 134:-0.202957 135:-0.15921134 136:-0.18199766 137:-0.18853652 138:-0.20924504 139:-0.19192191 140:-0.1883208 141:-0.22977101 142:-0.25024363 143:-0.17002226 144:-0.24482269 145:-0.1729575 146:-0.015645151 147:-0.17319072 148:-0.12400156 149:-0.19980869 150:-0.22588452 151:-0.21822128 152:-0.24370298 153:-0.17469963 154:-0.22703885 155:-0.17641807 156:-0.20066673 157:-0.1623282 158:-0.24108044 159:-0.037858373 160:-0.19154819 161:-0.19743867 162:-0.23206179 163:-0.19506888 164:-0.23108159 165:-0.084575961 166:-0.22561543 167:-0.090890407 168:-0.18097579 169:-0.15849113 170:-0.20674983 171:-0.17643604 172:-0.15544152 173:-0.18151497 174:-0.23526622 175:-0.16481711 176:-0.24422428 177:-0.21971707 178:-0.17073682 179:-0.22144242 180:-0.10334596 181:-0.17982353 182:-0.22206944 183:-0.21151884 184:-0.19398735 
13.722514558296766 1:-0.12110332 2:-0.076858815 3:-0.10719698 4:-0.13155304 5:-0.1064877 6:-0.12733011 7:-0.11098751 8:-0.10502129 9:-0.12259227 10:-0.11691597 11:-0.10513219 12:-0.10641447 13:-0.13605482 14:-0.083037762 15:-0.10929498 16:-0.14255524 17:-0.077265033 18:-0.045339552 19:-0.086936236 20:-0.096504824 21:-0.11403822 22:-0.09233125 23:-0.08459882 24:-0.13100625 25:-0.1587222 26:-0.087122289 27:-0.12212201 28:-0.15034485 29:-0.13081493 30:-0.087687882 31:-0.14344558 32:-0.16827589 33:-0.0846037 34:-0.015556295 35:-0.068274262 36:-0.13088673 37:-0.10702019 38:-0.077936541 39:-0.085940657 40:-0.16333362 41:-0.16422042 42:-0.1100853 43:-0.1089433 44:-0.17350937 45:-0.10185813 46:-0.055126453 47:-0.054573715 48:-0.099018809 49:-0.016600663 50:-0.0023116531 51:-0.09533264 52:-0.095914111 53:-0.083798582 54:-0.050358769 55:-0.15095337 56:-0.057769174 57:-0.11172403 58:-0.043931083 59:-0.090718729 60:-0.13432813 61:-0.12903627 62:-0.068574936 63:-0.098061378 64:-0.14981704 65:-0.099238299 66:-0.085446955 67:-0.031445085 68:-0.098292859 69:-0.10110545 70:-0.097677458 71:-0.055658705 72:-0.082840571 73:-0.16413537 74:-0.066765973 75:-0.11782632 76:-0.16482835 77:-0.18236322 78:-0.13052331 79:-0.15635072 80:-0.15384589 81:-0.10797148 82:-0.074370465 83:-0.14679057 84:-0.073671956 85:-0.13529879 86:-0.10675742 87:-0.094998779 88:-0.14066573 89:-0.1806113 90:-0.121032 91:-0.17037365 92:-0.13887806 93:-0.19314094 94:-0.20487323 95:-0.20745146 96:-0.22090328 97:-0.21188811 98:-0.20336155 99:-0.2056664 100:-0.20854617 101:-0.19887677 102:-0.2138707 103:-0.1943756 104:-0.2204555 105:-0.1945212 106:-0.16968815 107:-0.19589251 108:-0.2034739 109:-0.17094056 110:-0.22837713 111:-0.19164922 112:-0.22018872 113:-0.20495404 114:-0.18219768 115:-0.23393027 116:-0.20272532 117:-0.20287686 118:-0.22725748 119:-0.20035489 120:-0.24307059 121:-0.21517381 122:-0.17488499 123:-0.16866887 124:-0.20378027 125:-0.15841912 126:-0.18112471 127:-0.12837225 128:-0.18137098 129:-0.21191165 130:-0.15298779 131:-0.22234852 132:-0.18146744 133:-0.1837974 134:-0.20179611 135:-0.18009191 136:-0.24000096 137:-0.15810687 138:-0.15911008 139:-0.17457996 140:-0.18443811 141:-0.18109432 142:-0.27929005 143:-0.27672171 144:-0.22399092 145:-0.22390545 146:-0.12672873 147:-0.16763138 148:-0.22808101 149:-0.18358257 150:-0.22507942 151:-0.20244777 152:-0.25078017 153:-0.20643179 154:-0.16112908 155:-0.22998847 156:-0.1995613 157:-0.13428824 158:-0.19439039 159:-0.11481783 160:-0.22478772 161:-0.2102831 162:-0.19071276 163:-0.27892462 164:-0.24990585 165:-0.19148392 166:-0.22174106 167:-0.19170769 168:-0.20699111 169:-0.1798055 170:-0.18360964 171:-0.2176638 172:-0.22325584 173:-0.20263917 174:-0.23791834 175:-0.23091445 176:-0.23668285 177:-0.18834037 178:-0.20931264 179:-0.21839559 180:-0.18929451 181:-0.23890696 182:-0.2459255 183:-0.22090283 184:-0.2545655 
13.716744385653891 1:-0.19314094 2:-0.20487323 3:-0.20745146 4:-0.22090328 5:-0.21188811 6:-0.20336155 7:-0.2056664 8:-0.20854617 9:-0.19887677 10:-0.2138707 11:-0.1943756 12:-0.2204555 13:-0.1945212 14:-0.16968815 15:-0.19589251 16:-0.2034739 17:-0.17094056 18:-0.22837713 19:-0.19164922 20:-0.22018872 21:-0.20495404 22:-0.18219768 23:-0.23393027 24:-0.20272532 25:-0.20287686 26:-0.22725748 27:-0.20035489 28:-0.24307059 29:-0.21517381 30:-0.17488499 31:-0.16866887 32:-0.20378027 33:-0.15841912 34:-0.18112471 35:-0.12837225 36:-0.18137098 37:-0.21191165 38:-0.15298779 39:-0.22234852 40:-0.18146744 41:-0.1837974 42:-0.20179611 43:-0.18009191 44:-0.24000096 45:-0.15810687 46:-0.15911008 47:-0.17457996 48:-0.18443811 49:-0.18109432 50:-0.27929005 51:-0.27672171 52:-0.22399092 53:-0.22390545 54:-0.12672873 55:-0.16763138 56:-0.22808101 57:-0.18358257 58:-0.22507942 59:-0.20244777 60:-0.25078017 61:-0.20643179 62:-0.16112908 63:-0.22998847 64:-0.1995613 65:-0.13428824 66:-0.19439039 67:-0.11481783 68:-0.22478772 69:-0.2102831 70:-0.19071276 71:-0.27892462 72:-0.24990585 73:-0.19148392 74:-0.22174106 75:-0.19170769 76:-0.20699111 77:-0.1798055 78:-0.18360964 79:-0.2176638 80:-0.22325584 81:-0.20263917 82:-0.23791834 83:-0.23091445 84:-0.23668285 85:-0.18834037 86:-0.20931264 87:-0.21839559 88:-0.18929451 89:-0.23890696 90:-0.2459255 91:-0.22090283 92:-0.2545655 93:-0.12110332 94:-0.076858815 95:-0.10719698 96:-0.13155304 97:-0.1064877 98:-0.12733011 99:-0.11098751 100:-0.10502129 101:-0.12259227 102:-0.11691597 103:-0.10513219 104:-0.10641447 105:-0.13605482 106:-0.083037762 107:-0.10929498 108:-0.14255524 109:-0.077265033 110:-0.045339552 111:-0.086936236 112:-0.096504824 113:-0.11403822 114:-0.09233125 115:-0.08459882 116:-0.13100625 117:-0.1587222 118:-0.087122289 119:-0.12212201 120:-0.15034485 121:-0.13081493 122:-0.087687882 123:-0.14344558 124:-0.16827589 125:-0.0846037 126:-0.015556295 127:-0.068274262 128:-0.13088673 129:-0.10702019 130:-0.077936541 131:-0.085940657 132:-0.16333362 133:-0.16422042 134:-0.1100853 135:-0.1089433 136:-0.17350937 137:-0.10185813 138:-0.055126453 139:-0.054573715 140:-0.099018809 141:-0.016600663 142:-0.0023116531 143:-0.09533264 144:-0.095914111 145:-0.083798582 146:-0.050358769 147:-0.15095337 148:-0.057769174 149:-0.11172403 150:-0.043931083 151:-0.090718729 152:-0.13432813 153:-0.12903627 154:-0.068574936 155:-0.098061378 156:-0.14981704 157:-0.099238299 158:-0.085446955 159:-0.031445085 160:-0.098292859 161:-0.10110545 162:-0.097677458 163:-0.055658705 164:-0.082840571 165:-0.16413537 166:-0.066765973 167:-0.11782632 168:-0.16482835 169:-0.18236322 170:-0.13052331 171:-0.15635072 172:-0.15384589 173:-0.10797148 174:-0.074370465 175:-0.14679057 176:-0.073671956 177:-0.13529879 178:-0.10675742 179:-0.094998779 180:-0.14066573 181:-0.1806113 182:-0.121032 183:-0.17037365 184:-0.13887806 
128 1:-0.33223686 2:-0.28662327 3:-0.29603109 4:-0.33176286 5:-0.31592307 6:-0.31003516 7:-0.3167094 8:-0.31774881 9:-0.31448707 10:-0.31469307 11:-0.32107423 12:-0.31235769 13:-0.34280818 14:-0.32542466 15:-0.31592071 16:-0.33842565 17:-0.31864385 18:-0.24742629 19:-0.2280079 20:-0.28900969 21:-0.30045183 22:-0.28676345 23:-0.26210085 24:-0.32678671 25:-0.36168727 26:-0.28671584 27:-0.30655419 28:-0.36033682 29:-0.36266922 30:-0.3382416 31:-0.31407371 32:-0.34348227 33:-0.35218458 34:-0.29193822 35:-0.2157875 36:-0.32908418 37:-0.31871023 38:-0.31478659 39:-0.28034228 40:-0.34639887 41:-0.35999021 42:-0.30047229 43:-0.3162023 44:-0.36025171 45:-0.30656668 46:-0.31508552 47:-0.323027 48:-0.32110899 49:-0.30026829 50:-0.19111341 51:-0.15935231 52:-0.25022352 53:-0.21753695 54:-0.24475503 55:-0.26769948 56:-0.18550305 57:-0.32266362 58:-0.24601212 59:-0.28394425 60:-0.30546759 61:-0.31555947 62:-0.29855796 63:-0.27396417 64:-0.31342037 65:-0.31354368 66:-0.25923768 67:-0.2943899 68:-0.27649364 69:-0.27634018 70:-0.25919709 71:-0.20555084 72:-0.30637862 73:-0.36303389 74:-0.29018838 75:-0.28636819 76:-0.36756842 77:-0.37078223 78:-0.34422981 79:-0.35614678 80:-0.36526701 81:-0.30043636 82:-0.25471515 83:-0.25494985 84:-0.29875462 85:-0.30562948 86:-0.28175991 87:-0.28237912 88:-0.33800813 89:-0.38543387 90:-0.3090739 91:-0.33495443 92:-0.38960429 93:-0.4298205 94:-0.44375414 95:-0.45913978 96:-0.44010065 97:-0.44388704 98:-0.44022465 99:-0.44640415 100:-0.44165627 101:-0.44324003 102:-0.44631066 103:-0.44716235 104:-0.43870843 105:-0.4221159 106:-0.42905385 107:-0.45024758 108:-0.41267027 109:-0.42546681 110:-0.45531061 111:-0.48979037 112:-0.44274218 113:-0.43742846 114:-0.46014886 115:-0.48172201 116:-0.45588103 117:-0.43145652 118:-0.43081492 119:-0.44419286 120:-0.44327744 121:-0.43429469 122:-0.42654247 123:-0.41719245 124:-0.40214167 125:-0.41393402 126:-0.44446975 127:-0.43978909 128:-0.43098759 129:-0.42932304 130:-0.44831934 131:-0.47882798 132:-0.4439761 133:-0.40340003 134:-0.40030937 135:-0.4198318 136:-0.41684029 137:-0.39601141 138:-0.41071332 139:-0.46453725 140:-0.41118752 141:-0.44545912 142:-0.4535686 143:-0.54880532 144:-0.44619647 145:-0.45317123 146:-0.51552125 147:-0.52342908 148:-0.45989435 149:-0.4269744 150:-0.43923701 151:-0.45548119 152:-0.43543064 153:-0.42236528 154:-0.44299852 155:-0.45786254 156:-0.41954146 157:-0.43471635 158:-0.48750012 159:-0.49320184 160:-0.45284779 161:-0.45891458 162:-0.48661672 163:-0.49590135 164:-0.48403254 165:-0.45129511 166:-0.45291222 167:-0.45414047 168:-0.45548226 169:-0.42278929 170:-0.43679058 171:-0.45551625 172:-0.41552939 173:-0.40918684 174:-0.43771197 175:-0.45925072 176:-0.43740089 177:-0.42366566 178:-0.43888581 179:-0.46290407 180:-0.44600928 181:-0.44372952 182:-0.42554761 183:-0.4360128 184:-0.45438925 
128 1:-0.4298205 2:-0.44375414 3:-0.45913978 4:-0.44010065 5:-0.44388704 6:-0.44022465 7:-0.44640415 8:-0.44165627 9:-0.44324003 10:-0.44631066 11:-0.44716235 12:-0.43870843 13:-0.4221159 14:-0.42905385 15:-0.45024758 16:-0.41267027 17:-0.42546681 18:-0.45531061 19:-0.48979037 20:-0.44274218 21:-0.43742846 22:-0.46014886 23:-0.48172201 24:-0.45588103 25:-0.43145652 26:-0.43081492 27:-0.44419286 28:-0.44327744 29:-0.43429469 30:-0.42654247 31:-0.41719245 32:-0.40214167 33:-0.41393402 34:-0.44446975 35:-0.43978909 36:-0.43098759 37:-0.42932304 38:-0.44831934 39:-0.47882798 40:-0.4439761 41:-0.40340003 42:-0.40030937 43:-0.4198318 44:-0.41684029 45:-0.39601141 46:-0.41071332 47:-0.46453725 48:-0.41118752 49:-0.44545912 50:-0.4535686 51:-0.54880532 52:-0.44619647 53:-0.45317123 54:-0.51552125 55:-0.52342908 56:-0.45989435 57:-0.4269744 58:-0.43923701 59:-0.45548119 60:-0.43543064 61:-0.42236528 62:-0.44299852 63:-0.45786254 64:-0.41954146 65:-0.43471635 66:-0.48750012 67:-0.49320184 68:-0.45284779 69:-0.45891458 70:-0.48661672 71:-0.49590135 72:-0.48403254 73:-0.45129511 74:-0.45291222 75:-0.45414047 76:-0.45548226 77:-0.42278929 78:-0.43679058 79:-0.45551625 80:-0.41552939 81:-0.40918684 82:-0.43771197 83:-0.45925072 84:-0.43740089 85:-0.42366566 86:-0.43888581 87:-0.46290407 88:-0.44600928 89:-0.44372952 90:-0.42554761 91:-0.4360128 92:-0.45438925 93:-0.33223686 94:-0.28662327 95:-0.29603109 96:-0.33176286 97:-0.31592307 98:-0.31003516 99:-0.3167094 100:-0.31774881 101:-0.31448707 102:-0.31469307 103:-0.32107423 104:-0.31235769 105:-0.34280818 106:-0.32542466 107:-0.31592071 108:-0.33842565 109:-0.31864385 110:-0.24742629 111:-0.2280079 112:-0.28900969 113:-0.30045183 114:-0.28676345 115:-0.26210085 116:-0.32678671 117:-0.36168727 118:-0.28671584 119:-0.30655419 120:-0.36033682 121:-0.36266922 122:-0.3382416 123:-0.31407371 124:-0.34348227 125:-0.35218458 126:-0.29193822 127:-0.2157875 128:-0.32908418 129:-0.31871023 130:-0.31478659 131:-0.28034228 132:-0.34639887 133:-0.35999021 134:-0.30047229 135:-0.3162023 136:-0.36025171 137:-0.30656668 138:-0.31508552 139:-0.323027 140:-0.32110899 141:-0.30026829 142:-0.19111341 143:-0.15935231 144:-0.25022352 145:-0.21753695 146:-0.24475503 147:-0.26769948 148:-0.18550305 149:-0.32266362 150:-0.24601212 151:-0.28394425 152:-0.30546759 153:-0.31555947 154:-0.29855796 155:-0.27396417 156:-0.31342037 157:-0.31354368 158:-0.25923768 159:-0.2943899 160:-0.27649364 161:-0.27634018 162:-0.25919709 163:-0.20555084 164:-0.30637862 165:-0.36303389 166:-0.29018838 167:-0.28636819 168:-0.36756842 169:-0.37078223 170:-0.34422981 171:-0.35614678 172:-0.36526701 173:-0.30043636 174:-0.25471515 175:-0.25494985 176:-0.29875462 177:-0.30562948 178:-0.28175991 179:-0.28237912 180:-0.33800813 181:-0.38543387 182:-0.3090739 183:-0.33495443 184:-0.38960429 
37.201062373900953 1:-0.092255805 2:-0.17519684 3:-0.13645201 4:-0.075381546 5:-0.12692529 6:-0.11105237 7:-0.12391124 8:-0.10024505 9:-0.11687183 10:-0.11470087 11:-0.10595673 12:-0.11754653 13:-0.058591469 14:-0.14246354 15:-0.13567702 16:-0.047792881 17:-0.16251798 18:-0.22451209 19:-0.16983402 20:-0.1515616 21:-0.12971336 22:-0.1818636 23:-0.16172605 24:-0.084703421 25:-0.014060798 26:-0.15357575 27:-0.11499332 28:-0.027953077 29:-0.048047719 30:-0.10314053 31:-0.098192035 32:-0.00078785849 33:-0.16338746 34:-0.19546528 35:-0.18847024 36:-0.067313959 37:-0.1190986 38:-0.20074768 39:-0.16272113 40:-0.070073969 41:-0.0067534243 42:-0.11356799 43:-0.069502223 44:-0.021427543 45:-0.14796366 46:-0.18324913 47:-0.19608397 48:-0.11687921 49:-0.21046819 50:-0.27410319 51:-0.28205669 52:-0.1892713 53:-0.058324607 54:-0.34195316 55:-0.16207204 56:-0.13819421 57:-0.10245196 58:-0.2001212 59:-0.19258933 60:-0.097655393 61:-0.074085453 62:-0.21582017 63:-0.1740194 64:-0.077964225 65:-0.1473068 66:-0.21514152 67:-0.082751391 68:-0.20170471 69:-0.15890538 70:-0.19588139 71:-0.18563511 72:-0.10519438 73:-0.024906405 74:-0.15975102 75:-0.12321351 76:-0.02936928 77:0.024812432 78:-0.05701917 79:-0.043238668 80:-0.003058753 81:-0.12753092 82:-0.20609281 83:-0.098719775 84:-0.14270504 85:-0.12558696 86:-0.13027926 87:-0.14146301 88:-0.077335211 89:0.046269074 90:-0.13225838 91:-0.062096823 92:0.014670725 93:-0.45818091 94:-0.46454161 95:-0.4801138 96:-0.47268605 97:-0.46513802 98:-0.47015155 99:-0.46959851 100:-0.46783004 101:-0.46397349 102:-0.47826968 103:-0.47318452 104:-0.46585492 105:-0.44443272 106:-0.4674025 107:-0.48267131 108:-0.43636086 109:-0.46490914 110:-0.45365416 111:-0.33562958 112:-0.48461635 113:-0.45865019 114:-0.4735119 115:-0.48855953 116:-0.49513778 117:-0.46121822 118:-0.46159337 119:-0.48623389 120:-0.47045835 121:-0.44596699 122:-0.45744778 123:-0.45428552 124:-0.41912202 125:-0.45297102 126:-0.47445458 127:-0.42339873 128:-0.48334163 129:-0.4579298 130:-0.48438293 131:-0.49924832 132:-0.49060593 133:-0.42297701 134:-0.43745805 135:-0.43993902 136:-0.43876837 137:-0.42828528 138:-0.47198938 139:-0.50338321 140:-0.43836639 141:-0.48406477 142:-0.42452218 143:-0.14868237 144:-0.48554537 145:-0.3831178 146:-0.18227052 147:-0.2843775 148:-0.44097081 149:-0.46869872 150:-0.47385647 151:-0.51463186 152:-0.46566957 153:-0.44403603 154:-0.45702188 155:-0.47625237 156:-0.44938801 157:-0.46876487 158:-0.46415509 159:-0.33286963 160:-0.49809048 161:-0.46258442 162:-0.49178535 163:-0.48332299 164:-0.51815151 165:-0.49480416 166:-0.48519869 167:-0.50031632 168:-0.48777714 169:-0.45262941 170:-0.47354265 171:-0.48934416 172:-0.43786823 173:-0.45378236 174:-0.45274069 175:-0.44122417 176:-0.47220749 177:-0.46101888 178:-0.48310687 179:-0.50555976 180:-0.48954901 181:-0.46578734 182:-0.44800037 183:-0.47499245 184:-0.48005083 
37.180572307301425 1:-0.45818091 2:-0.46454161 3:-0.4801138 4:-0.47268605 5:-0.46513802 6:-0.47015155 7:-0.46959851 8:-0.46783004 9:-0.46397349 10:-0.47826968 11:-0.47318452 12:-0.46585492 13:-0.44443272 14:-0.4674025 15:-0.48267131 16:-0.43636086 17:-0.46490914 18:-0.45365416 19:-0.33562958 20:-0.48461635 21:-0.45865019 22:-0.4735119 23:-0.48855953 24:-0.49513778 25:-0.46121822 26:-0.46159337 27:-0.48623389 28:-0.47045835 29:-0.44596699 30:-0.45744778 31:-0.45428552 32:-0.41912202 33:-0.45297102 34:-0.47445458 35:-0.42339873 36:-0.48334163 37:-0.4579298 38:-0.48438293 39:-0.49924832 40:-0.49060593 41:-0.42297701 42:-0.43745805 43:-0.43993902 44:-0.43876837 45:-0.42828528 46:-0.47198938 47:-0.50338321 48:-0.43836639 49:-0.48406477 50:-0.42452218 51:-0.14868237 52:-0.48554537 53:-0.3831178 54:-0.18227052 55:-0.2843775 56:-0.44097081 57:-0.46869872 58:-0.47385647 59:-0.51463186 60:-0.46566957 61:-0.44403603 62:-0.45702188 63:-0.47625237 64:-0.44938801 65:-0.46876487 66:-0.46415509 67:-0.33286963 68:-0.49809048 69:-0.46258442 70:-0.49178535 71:-0.48332299 72:-0.51815151 73:-0.49480416 74:-0.48519869 75:-0.50031632 76:-0.48777714 77:-0.45262941 78:-0.47354265 79:-0.48934416 80:-0.43786823 81:-0.45378236 82:-0.45274069 83:-0.44122417 84:-0.47220749 85:-0.46101888 86:-0.48310687 87:-0.50555976 88:-0.48954901 89:-0.46578734 90:-0.44800037 91:-0.47499245 92:-0.48005083 93:-0.092255805 94:-0.17519684 95:-0.13645201 96:-0.075381546 97:-0.12692529 98:-0.11105237 99:-0.12391124 100:-0.10024505 101:-0.11687183 102:-0.11470087 103:-0.10595673 104:-0.11754653 105:-0.058591469 106:-0.14246354 107:-0.13567702 108:-0.047792881 109:-0.16251798 110:-0.22451209 111:-0.16983402 112:-0.1515616 113:-0.12971336 114:-0.1818636 115:-0.16172605 116:-0.084703421 117:-0.014060798 118:-0.15357575 119:-0.11499332 120:-0.027953077 121:-0.048047719 122:-0.10314053 123:-0.098192035 124:-0.00078785849 125:-0.16338746 126:-0.19546528 127:-0.18847024 128:-0.067313959 129:-0.1190986 130:-0.20074768 131:-0.16272113 132:-0.070073969 133:-0.0067534243 134:-0.11356799 135:-0.069502223 136:-0.021427543 137:-0.14796366 138:-0.18324913 139:-0.19608397 140:-0.11687921 141:-0.21046819 142:-0.27410319 143:-0.28205669 144:-0.1892713 145:-0.058324607 146:-0.34195316 147:-0.16207204 148:-0.13819421 149:-0.10245196 150:-0.2001212 151:-0.19258933 152:-0.097655393 153:-0.074085453 154:-0.21582017 155:-0.1740194 156:-0.077964225 157:-0.1473068 158:-0.21514152 159:-0.082751391 160:-0.20170471 161:-0.15890538 162:-0.19588139 163:-0.18563511 164:-0.10519438 165:-0.024906405 166:-0.15975102 167:-0.12321351 168:-0.02936928 169:0.024812432 170:-0.05701917 171:-0.043238668 172:-0.003058753 173:-0.12753092 174:-0.20609281 175:-0.098719775 176:-0.14270504 177:-0.12558696 178:-0.13027926 179:-0.14146301 180:-0.077335211 181:0.046269074 182:-0.13225838 183:-0.062096823 184:0.014670725 
90.823299813772138 1:-0.39285454 2:-0.36837332 3:-0.41325485 4:-0.40296616 5:-0.39770573 6:-0.39257475 7:-0.38951006 8:-0.40420462 9:-0.38650007 10:-0.39910258 11:-0.40515462 12:-0.39387412 13:-0.39979907 14:-0.37401914 15:-0.40251825 16:-0.38390312 17:-0.36137303 18:-0.33991135 19:-0.47815559 20:-0.37682913 21:-0.39763771 22:-0.40569449 23:-0.41963733 24:-0.42543188 25:-0.41047695 26:-0.35899855 27:-0.4069043 28:-0.41951355 29:-0.40352227 30:-0.38459956 31:-0.40977384 32:-0.39133599 33:-0.36850915 34:-0.35451525 35:-0.40700837 36:-0.3851778 37:-0.38990928 38:-0.39081254 39:-0.40449794 40:-0.42238822 41:-0.38212071 42:-0.35155172 43:-0.38889762 44:-0.39632693 45:-0.37295865 46:-0.33736772 47:-0.36464766 48:-0.36148902 49:-0.32544589 50:-0.3187102 51:-0.51146052 52:-0.33972298 53:-0.45317123 54:-0.55023487 55:-0.47339503 56:-0.44097081 57:-0.39684018 58:-0.31283572 59:-0.37792809 60:-0.41033876 61:-0.39372894 62:-0.37989342 63:-0.40988905 64:-0.39411661 65:-0.3956607 66:-0.37855668 67:-0.56374801 68:-0.40575846 69:-0.40019718 70:-0.4181324 71:-0.42881676 72:-0.4299128 73:-0.43762084 74:-0.38833927 75:-0.43028294 76:-0.42946694 77:-0.42108414 78:-0.4013997 79:-0.43120245 80:-0.38760585 81:-0.35754992 82:-0.31836622 83:-0.42319762 84:-0.37822968 85:-0.39453015 86:-0.38619689 87:-0.41491643 88:-0.41999853 89:-0.42482282 90:-0.38485197 91:-0.42518511 92:-0.43083108 93:0.029196041 94:-0.041653103 95:-0.06558831 96:-0.0048210565 97:-0.017748631 98:-0.016594418 99:-0.012083904 100:-0.019705797 101:-0.026420713 102:-0.020013981 103:0.0081808066 104:-0.018395978 105:0.055943624 106:0.026446176 107:-0.019072432 108:0.050776894 109:0.0053173355 110:-0.075707778 111:-0.21637312 112:-0.038346253 113:-0.014923094 114:-0.099012769 115:-0.12425644 116:-0.038652234 117:0.066198227 118:-0.02673125 119:-0.049007179 120:0.0021789069 121:0.059125204 122:0.05359351 123:0.040536053 124:0.068677224 125:0.039604932 126:-0.0077341647 127:-0.27588549 128:0.085073704 129:0.011221087 130:-0.06526555 131:-0.065520318 132:0.030093807 133:0.10730375 134:0.059405552 135:0.027940441 136:0.018891826 137:0.033692135 138:0.0061496125 139:-0.067059915 140:0.061724781 141:-0.0090473833 142:-0.11849735 143:-0.23404193 144:-0.081254717 145:-0.18569449 146:-0.27252592 147:-0.20654676 148:-0.20442659 149:0.052855209 150:-0.10109345 151:-0.078888595 152:0.0014253459 153:0.040459913 154:0.0029441768 155:-0.082070215 156:-0.014954833 157:-0.043158386 158:-0.12565227 159:-0.24949689 160:-0.10844938 161:-0.045140427 162:-0.17520688 163:-0.19821347 164:-0.094605731 165:0.068327277 166:-0.05772576 167:-0.13244868 168:0.0074109979 169:0.08790296 170:0.045069919 171:0.051902313 172:0.067946831 173:0.018773677 174:-0.050501315 175:-0.092710926 176:-0.038285249 177:-0.00082719936 178:-0.051245871 179:-0.11251808 180:-0.036622737 181:0.035240166 182:0.0031598477 183:-0.0086802547 184:-0.0097288078 
90.809443932637677 1:0.029196041 2:-0.041653103 3:-0.06558831 4:-0.0048210565 5:-0.017748631 6:-0.016594418 7:-0.012083904 8:-0.019705797 9:-0.026420713 10:-0.020013981 11:0.0081808066 12:-0.018395978 13:0.055943624 14:0.026446176 15:-0.019072432 16:0.050776894 17:0.0053173355 18:-0.075707778 19:-0.21637312 20:-0.038346253 21:-0.014923094 22:-0.099012769 23:-0.12425644 24:-0.038652234 25:0.066198227 26:-0.02673125 27:-0.049007179 28:0.0021789069 29:0.059125204 30:0.05359351 31:0.040536053 32:0.068677224 33:0.039604932 34:-0.0077341647 35:-0.27588549 36:0.085073704 37:0.011221087 38:-0.06526555 39:-0.065520318 40:0.030093807 41:0.10730375 42:0.059405552 43:0.027940441 44:0.018891826 45:0.033692135 46:0.0061496125 47:-0.067059915 48:0.061724781 49:-0.0090473833 50:-0.11849735 51:-0.23404193 52:-0.081254717 53:-0.18569449 54:-0.27252592 55:-0.20654676 56:-0.20442659 57:0.052855209 58:-0.10109345 59:-0.078888595 60:0.0014253459 61:0.040459913 62:0.0029441768 63:-0.082070215 64:-0.014954833 65:-0.043158386 66:-0.12565227 67:-0.24949689 68:-0.10844938 69:-0.045140427 70:-0.17520688 71:-0.19821347 72:-0.094605731 73:0.068327277 74:-0.05772576 75:-0.13244868 76:0.0074109979 77:0.08790296 78:0.045069919 79:0.051902313 80:0.067946831 81:0.018773677 82:-0.050501315 83:-0.092710926 84:-0.038285249 85:-0.00082719936 86:-0.051245871 87:-0.11251808 88:-0.036622737 89:0.035240166 90:0.0031598477 91:-0.0086802547 92:-0.0097288078 93:-0.39285454 94:-0.36837332 95:-0.41325485 96:-0.40296616 97:-0.39770573 98:-0.39257475 99:-0.38951006 100:-0.40420462 101:-0.38650007 102:-0.39910258 103:-0.40515462 104:-0.39387412 105:-0.39979907 106:-0.37401914 107:-0.40251825 108:-0.38390312 109:-0.36137303 110:-0.33991135 111:-0.47815559 112:-0.37682913 113:-0.39763771 114:-0.40569449 115:-0.41963733 116:-0.42543188 117:-0.41047695 118:-0.35899855 119:-0.4069043 120:-0.41951355 121:-0.40352227 122:-0.38459956 123:-0.40977384 124:-0.39133599 125:-0.36850915 126:-0.35451525 127:-0.40700837 128:-0.3851778 129:-0.38990928 130:-0.39081254 131:-0.40449794 132:-0.42238822 133:-0.38212071 134:-0.35155172 135:-0.38889762 136:-0.39632693 137:-0.37295865 138:-0.33736772 139:-0.36464766 140:-0.36148902 141:-0.32544589 142:-0.3187102 143:-0.51146052 144:-0.33972298 145:-0.45317123 146:-0.55023487 147:-0.47339503 148:-0.44097081 149:-0.39684018 150:-0.31283572 151:-0.37792809 152:-0.41033876 153:-0.39372894 154:-0.37989342 155:-0.40988905 156:-0.39411661 157:-0.3956607 158:-0.37855668 159:-0.56374801 160:-0.40575846 161:-0.40019718 162:-0.4181324 163:-0.42881676 164:-0.4299128 165:-0.43762084 166:-0.38833927 167:-0.43028294 168:-0.42946694 169:-0.42108414 170:-0.4013997 171:-0.43120245 172:-0.38760585 173:-0.35754992 174:-0.31836622 175:-0.42319762 176:-0.37822968 177:-0.39453015 178:-0.38619689 179:-0.41491643 180:-0.41999853 181:-0.42482282 182:-0.38485197 183:-0.42518511 184:-0.43083108 
25.1232173455242 1:0.029196041 2:-0.041653103 3:-0.06558831 4:-0.0048210565 5:-0.017748631 6:-0.016594418 7:-0.012083904 8:-0.019705797 9:-0.026420713 10:-0.020013981 11:0.0081808066 12:-0.018395978 13:0.055943624 14:0.026446176 15:-0.019072432 16:0.050776894 17:0.0053173355 18:-0.075707778 19:-0.21637312 20:-0.038346253 21:-0.014923094 22:-0.099012769 23:-0.12425644 24:-0.038652234 25:0.066198227 26:-0.02673125 27:-0.049007179 28:0.0021789069 29:0.059125204 30:0.05359351 31:0.040536053 32:0.068677224 33:0.039604932 34:-0.0077341647 35:-0.27588549 36:0.085073704 37:0.011221087 38:-0.06526555 39:-0.065520318 40:0.030093807 41:0.10730375 42:0.059405552 43:0.027940441 44:0.018891826 45:0.033692135 46:0.0061496125 47:-0.067059915 48:0.061724781 49:-0.0090473833 50:-0.11849735 51:-0.23404193 52:-0.081254717 53:-0.18569449 54:-0.27252592 55:-0.20654676 56:-0.20442659 57:0.052855209 58:-0.10109345 59:-0.078888595 60:0.0014253459 61:0.040459913 62:0.0029441768 63:-0.082070215 64:-0.014954833 65:-0.043158386 66:-0.12565227 67:-0.24949689 68:-0.10844938 69:-0.045140427 70:-0.17520688 71:-0.19821347 72:-0.094605731 73:0.068327277 74:-0.05772576 75:-0.13244868 76:0.0074109979 77:0.08790296 78:0.045069919 79:0.051902313 80:0.067946831 81:0.018773677 82:-0.050501315 83:-0.092710926 84:-0.038285249 85:-0.00082719936 86:-0.051245871 87:-0.11251808 88:-0.036622737 89:0.035240166 90:0.0031598477 91:-0.0086802547 92:-0.0097288078 93:-0.33223686 94:-0.28662327 95:-0.29603109 96:-0.33176286 97:-0.31592307 98:-0.31003516 99:-0.3167094 100:-0.31774881 101:-0.31448707 102:-0.31469307 103:-0.32107423 104:-0.31235769 105:-0.34280818 106:-0.32542466 107:-0.31592071 108:-0.33842565 109:-0.31864385 110:-0.24742629 111:-0.2280079 112:-0.28900969 113:-0.30045183 114:-0.28676345 115:-0.26210085 116:-0.32678671 117:-0.36168727 118:-0.28671584 119:-0.30655419 120:-0.36033682 121:-0.36266922 122:-0.3382416 123:-0.31407371 124:-0.34348227 125:-0.35218458 126:-0.29193822 127:-0.2157875 128:-0.32908418 129:-0.31871023 130:-0.31478659 131:-0.28034228 132:-0.34639887 133:-0.35999021 134:-0.30047229 135:-0.3162023 136:-0.36025171 137:-0.30656668 138:-0.31508552 139:-0.323027 140:-0.32110899 141:-0.30026829 142:-0.19111341 143:-0.15935231 144:-0.25022352 145:-0.21753695 146:-0.24475503 147:-0.26769948 148:-0.18550305 149:-0.32266362 150:-0.24601212 151:-0.28394425 152:-0.30546759 153:-0.31555947 154:-0.29855796 155:-0.27396417 156:-0.31342037 157:-0.31354368 158:-0.25923768 159:-0.2943899 160:-0.27649364 161:-0.27634018 162:-0.25919709 163:-0.20555084 164:-0.30637862 165:-0.36303389 166:-0.29018838 167:-0.28636819 168:-0.36756842 169:-0.37078223 170:-0.34422981 171:-0.35614678 172:-0.36526701 173:-0.30043636 174:-0.25471515 175:-0.25494985 176:-0.29875462 177:-0.30562948 178:-0.28175991 179:-0.28237912 180:-0.33800813 181:-0.38543387 182:-0.3090739 183:-0.33495443 184:-0.38960429 
25.115417139910754 1:-0.33223686 2:-0.28662327 3:-0.29603109 4:-0.33176286 5:-0.31592307 6:-0.31003516 7:-0.3167094 8:-0.31774881 9:-0.31448707 10:-0.31469307 11:-0.32107423 12:-0.31235769 13:-0.34280818 14:-0.32542466 15:-0.31592071 16:-0.33842565 17:-0.31864385 18:-0.24742629 19:-0.2280079 20:-0.28900969 21:-0.30045183 22:-0.28676345 23:-0.26210085 24:-0.32678671 25:-0.36168727 26:-0.28671584 27:-0.30655419 28:-0.36033682 29:-0.36266922 30:-0.3382416 31:-0.31407371 32:-0.34348227 33:-0.35218458 34:-0.29193822 35:-0.2157875 36:-0.32908418 37:-0.31871023 38:-0.31478659 39:-0.28034228 40:-0.34639887 41:-0.35999021 42:-0.30047229 43:-0.3162023 44:-0.36025171 45:-0.30656668 46:-0.31508552 47:-0.323027 48:-0.32110899 49:-0.30026829 50:-0.19111341 51:-0.15935231 52:-0.25022352 53:-0.21753695 54:-0.24475503 55:-0.26769948 56:-0.18550305 57:-0.32266362 58:-0.24601212 59:-0.28394425 60:-0.30546759 61:-0.31555947 62:-0.29855796 63:-0.27396417 64:-0.31342037 65:-0.31354368 66:-0.25923768 67:-0.2943899 68:-0.27649364 69:-0.27634018 70:-0.25919709 71:-0.20555084 72:-0.30637862 73:-0.36303389 74:-0.29018838 75:-0.28636819 76:-0.36756842 77:-0.37078223 78:-0.34422981 79:-0.35614678 80:-0.36526701 81:-0.30043636 82:-0.25471515 83:-0.25494985 84:-0.29875462 85:-0.30562948 86:-0.28175991 87:-0.28237912 88:-0.33800813 89:-0.38543387 90:-0.3090739 91:-0.33495443 92:-0.38960429 93:0.029196041 94:-0.041653103 95:-0.06558831 96:-0.0048210565 97:-0.017748631 98:-0.016594418 99:-0.012083904 100:-0.019705797 101:-0.026420713 102:-0.020013981 103:0.0081808066 104:-0.018395978 105:0.055943624 106:0.026446176 107:-0.019072432 108:0.050776894 109:0.0053173355 110:-0.075707778 111:-0.21637312 112:-0.038346253 113:-0.014923094 114:-0.099012769 115:-0.12425644 116:-0.038652234 117:0.066198227 118:-0.02673125 119:-0.049007179 120:0.0021789069 121:0.059125204 122:0.05359351 123:0.040536053 124:0.068677224 125:0.039604932 126:-0.0077341647 127:-0.27588549 128:0.085073704 129:0.011221087 130:-0.06526555 131:-0.065520318 132:0.030093807 133:0.10730375 134:0.059405552 135:0.027940441 136:0.018891826 137:0.033692135 138:0.0061496125 139:-0.067059915 140:0.061724781 141:-0.0090473833 142:-0.11849735 143:-0.23404193 144:-0.081254717 145:-0.18569449 146:-0.27252592 147:-0.20654676 148:-0.20442659 149:0.052855209 150:-0.10109345 151:-0.078888595 152:0.0014253459 153:0.040459913 154:0.0029441768 155:-0.082070215 156:-0.014954833 157:-0.043158386 158:-0.12565227 159:-0.24949689 160:-0.10844938 161:-0.045140427 162:-0.17520688 163:-0.19821347 164:-0.094605731 165:0.068327277 166:-0.05772576 167:-0.13244868 168:0.0074109979 169:0.08790296 170:0.045069919 171:0.051902313 172:0.067946831 173:0.018773677 174:-0.050501315 175:-0.092710926 176:-0.038285249 177:-0.00082719936 178:-0.051245871 179:-0.11251808 180:-0.036622737 181:0.035240166 182:0.0031598477 183:-0.0086802547 184:-0.0097288078 
128 1:-0.27004962 2:-0.27017527 3:-0.28673193 4:-0.30308375 5:-0.28842335 6:-0.28227765 7:-0.2812984 8:-0.28450621 9:-0.2826391 10:-0.2886744 11:-0.28319797 12:-0.28159238 13:-0.25298759 14:-0.25868045 15:-0.27705252 16:-0.28723706 17:-0.24592206 18:-0.275862 19:-0.30072525 20:-0.28261225 21:-0.28646478 22:-0.25803292 23:-0.28398092 24:-0.30841657 25:-0.30094412 26:-0.28088659 27:-0.29302794 28:-0.32430269 29:-0.2204794 30:-0.24883697 31:-0.25991783 32:-0.29331304 33:-0.24004193 34:-0.2606497 35:-0.2048606 36:-0.28888375 37:-0.27611794 38:-0.25922917 39:-0.27462459 40:-0.29286092 41:-0.29785458 42:-0.27261078 43:-0.24969382 44:-0.31851762 45:-0.20605662 46:-0.25009575 47:-0.25088451 48:-0.26597471 49:-0.23816355 50:-0.29588801 51:-0.37275122 52:-0.27799921 53:-0.30669587 54:-0.24475503 55:-0.33997089 56:-0.2943134 57:-0.27514426 58:-0.25969888 59:-0.27737195 60:-0.30611097 61:-0.28073148 62:-0.28172994 63:-0.28355886 64:-0.29794438 65:-0.22742096 66:-0.2657224 67:-0.35852279 68:-0.26264384 69:-0.26624812 70:-0.24239905 71:-0.31980429 72:-0.30049604 73:-0.28347448 74:-0.2927713 75:-0.32100009 76:-0.31733195 77:-0.31536488 78:-0.2557526 79:-0.32654737 80:-0.2926658 81:-0.27227077 82:-0.27328005 83:-0.2609587 84:-0.29237341 85:-0.31011187 86:-0.26670594 87:-0.25571931 88:-0.32161006 89:-0.32950155 90:-0.29504092 91:-0.31835198 92:-0.33996386 93:-0.43701884 94:-0.46671134 95:-0.47373336 96:-0.45152285 97:-0.45466082 98:-0.45910152 99:-0.45745913 100:-0.45466554 101:-0.45149791 102:-0.46289229 103:-0.46115324 104:-0.45411614 105:-0.42174702 106:-0.45393656 107:-0.46394208 108:-0.40886285 109:-0.44272283 110:-0.48733528 111:-0.47088386 112:-0.46988285 113:-0.45455053 114:-0.47752081 115:-0.48992704 116:-0.47173471 117:-0.4263336 118:-0.44830267 119:-0.46813797 120:-0.45042213 121:-0.42686686 122:-0.43758008 123:-0.42683665 124:-0.39365149 125:-0.43309763 126:-0.47445458 127:-0.44525254 128:-0.46277397 129:-0.44585139 130:-0.4756107 131:-0.4739271 132:-0.46210992 133:-0.38978126 134:-0.40959654 135:-0.41519167 136:-0.41401086 137:-0.39693352 138:-0.45899143 139:-0.48534759 140:-0.41196406 141:-0.47315448 142:-0.49506349 143:-0.46878073 144:-0.4909462 145:-0.47227671 146:-0.41138039 147:-0.51786974 148:-0.45989435 149:-0.42813341 150:-0.48351771 151:-0.49951558 152:-0.44636812 153:-0.43165274 154:-0.47665458 155:-0.48424796 156:-0.42175231 157:-0.44172634 158:-0.5069543 159:-0.53809486 160:-0.47408415 161:-0.46900663 162:-0.49953829 163:-0.49694955 164:-0.49344467 165:-0.45378134 166:-0.45420368 167:-0.48184598 168:-0.47701218 169:-0.42108414 170:-0.43542939 171:-0.44705928 172:-0.40755124 173:-0.42248726 174:-0.47130559 175:-0.42319762 176:-0.45190364 177:-0.44682466 178:-0.46617115 179:-0.49108729 180:-0.46523462 181:-0.43742729 182:-0.43326574 183:-0.46055554 184:-0.45817539 
128 1:-0.43701884 2:-0.46671134 3:-0.47373336 4:-0.45152285 5:-0.45466082 6:-0.45910152 7:-0.45745913 8:-0.45466554 9:-0.45149791 10:-0.46289229 11:-0.46115324 12:-0.45411614 13:-0.42174702 14:-0.45393656 15:-0.46394208 16:-0.40886285 17:-0.44272283 18:-0.48733528 19:-0.47088386 20:-0.46988285 21:-0.45455053 22:-0.47752081 23:-0.48992704 24:-0.47173471 25:-0.4263336 26:-0.44830267 27:-0.46813797 28:-0.45042213 29:-0.42686686 30:-0.43758008 31:-0.42683665 32:-0.39365149 33:-0.43309763 34:-0.47445458 35:-0.44525254 36:-0.46277397 37:-0.44585139 38:-0.4756107 39:-0.4739271 40:-0.46210992 41:-0.38978126 42:-0.40959654 43:-0.41519167 44:-0.41401086 45:-0.39693352 46:-0.45899143 47:-0.48534759 48:-0.41196406 49:-0.47315448 50:-0.49506349 51:-0.46878073 52:-0.4909462 53:-0.47227671 54:-0.41138039 55:-0.51786974 56:-0.45989435 57:-0.42813341 58:-0.48351771 59:-0.49951558 60:-0.44636812 61:-0.43165274 62:-0.47665458 63:-0.48424796 64:-0.42175231 65:-0.44172634 66:-0.5069543 67:-0.53809486 68:-0.47408415 69:-0.46900663 70:-0.49953829 71:-0.49694955 72:-0.49344467 73:-0.45378134 74:-0.45420368 75:-0.48184598 76:-0.47701218 77:-0.42108414 78:-0.43542939 79:-0.44705928 80:-0.40755124 81:-0.42248726 82:-0.47130559 83:-0.42319762 84:-0.45190364 85:-0.44682466 86:-0.46617115 87:-0.49108729 88:-0.46523462 89:-0.43742729 90:-0.43326574 91:-0.46055554 92:-0.45817539 93:-0.27004962 94:-0.27017527 95:-0.28673193 96:-0.30308375 97:-0.28842335 98:-0.28227765 99:-0.2812984 100:-0.28450621 101:-0.2826391 102:-0.2886744 103:-0.28319797 104:-0.28159238 105:-0.25298759 106:-0.25868045 107:-0.27705252 108:-0.28723706 109:-0.24592206 110:-0.275862 111:-0.30072525 112:-0.28261225 113:-0.28646478 114:-0.25803292 115:-0.28398092 116:-0.30841657 117:-0.30094412 118:-0.28088659 119:-0.29302794 120:-0.32430269 121:-0.2204794 122:-0.24883697 123:-0.25991783 124:-0.29331304 125:-0.24004193 126:-0.2606497 127:-0.2048606 128:-0.28888375 129:-0.27611794 130:-0.25922917 131:-0.27462459 132:-0.29286092 133:-0.29785458 134:-0.27261078 135:-0.24969382 136:-0.31851762 137:-0.20605662 138:-0.25009575 139:-0.25088451 140:-0.26597471 141:-0.23816355 142:-0.29588801 143:-0.37275122 144:-0.27799921 145:-0.30669587 146:-0.24475503 147:-0.33997089 148:-0.2943134 149:-0.27514426 150:-0.25969888 151:-0.27737195 152:-0.30611097 153:-0.28073148 154:-0.28172994 155:-0.28355886 156:-0.29794438 157:-0.22742096 158:-0.2657224 159:-0.35852279 160:-0.26264384 161:-0.26624812 162:-0.24239905 163:-0.31980429 164:-0.30049604 165:-0.28347448 166:-0.2927713 167:-0.32100009 168:-0.31733195 169:-0.31536488 170:-0.2557526 171:-0.32654737 172:-0.2926658 173:-0.27227077 174:-0.27328005 175:-0.2609587 176:-0.29237341 177:-0.31011187 178:-0.26670594 179:-0.25571931 180:-0.32161006 181:-0.32950155 182:-0.29504092 183:-0.31835198 184:-0.33996386 
25.796722931338373 1:-0.070390143 2:-0.066500077 3:-0.11221988 4:-0.10005547 5:-0.097443482 6:-0.079644881 7:-0.07812858 8:-0.093289661 9:-0.08425276 10:-0.10058398 11:-0.097009582 12:-0.071675979 13:-0.065784494 14:-0.060496952 15:-0.083315717 16:-0.068310624 17:-0.053024437 18:-0.061904039 19:-0.038942784 20:-0.085454695 21:-0.093057647 22:-0.094669782 23:-0.12152143 24:-0.13578753 25:-0.073096312 26:-0.054944824 27:-0.14058351 28:-0.11182561 29:-0.072453435 30:-0.056782577 31:-0.056647795 32:-0.071024775 33:-0.01788592 34:-0.070311203 35:0.051921712 36:-0.12808205 37:-0.068242139 38:-0.054543943 39:-0.089207911 40:-0.12188489 41:0.00090713244 42:-0.02998346 43:-0.12750381 44:-0.094285348 45:-0.029933497 46:-0.029130546 47:-0.073303014 48:-0.068733785 49:-0.065277357 50:-0.065591363 51:-0.073992749 52:-0.053479023 53:-0.032850631 54:-0.07118694 55:-0.028647909 56:-0.029383867 57:-0.081589803 58:-0.074525024 59:-0.10452055 60:-0.076423806 61:-0.071763587 62:-0.10223099 63:-0.11085431 64:-0.090123933 65:-0.066191207 66:-0.11268281 67:-0.14047099 68:-0.1001395 69:-0.11486734 70:-0.11318334 71:-0.14370723 72:-0.11107696 73:-0.13554371 74:-0.10163537 75:-0.1886293 76:-0.095753197 77:-0.080906832 78:-0.069269861 79:-0.098209012 80:-0.048534239 81:-0.069634985 82:-0.017791739 83:-0.0025781913 84:-0.073091846 85:-0.11064567 86:-0.12181139 87:-0.14679497 88:-0.16893828 89:-0.095531163 90:-0.027011053 91:-0.14438721 92:-0.15191919 93:-0.070552512 94:-0.1483901 95:-0.12070452 96:-0.062822075 97:-0.096856195 98:-0.10384072 99:-0.10284705 100:-0.085647685 101:-0.10001536 102:-0.077079268 103:-0.095325413 104:-0.10181488 105:-0.030741551 106:-0.10704226 107:-0.12580892 108:-0.031082554 109:-0.14649453 110:-0.18834629 111:-0.14656447 112:-0.12093142 113:-0.10149811 114:-0.16616203 115:-0.16145255 116:-0.067843151 117:-0.0008875839 118:-0.13398947 119:-0.084467874 120:-0.035719052 121:-0.027886476 122:-0.065612664 123:-0.074452469 124:0.035488351 125:-0.10092826 126:-0.1706952 127:-0.21032405 128:-0.050485874 129:-0.087313313 130:-0.1987983 131:-0.16353795 132:-0.071800999 133:0.011972381 134:-0.1414295 135:-0.031607854 136:0.0012078922 137:-0.11292345 138:-0.18417756 139:-0.19608397 140:-0.085041106 141:-0.19871864 142:-0.20978611 143:-0.089997668 144:-0.17461191 145:-0.23027394 146:-0.16144235 147:-0.11203799 148:-0.10034713 149:-0.082748812 150:-0.15906091 151:-0.14724048 152:-0.084144383 153:-0.043901201 154:-0.13728938 155:-0.16922205 156:-0.061382806 157:-0.1843596 158:-0.20995374 159:-0.23667031 160:-0.10567942 161:-0.13229906 162:-0.21267943 163:-0.20764724 164:-0.098135279 165:0.001199026 166:-0.10034391 167:-0.12860069 168:-0.023089721 169:0.055505121 170:-0.013461159 171:-0.032667448 172:-0.022206326 173:-0.11736002 174:-0.16542685 175:-0.050648983 176:-0.13284317 177:-0.07702777 178:-0.099230427 179:-0.13079909 180:-0.046235404 181:0.041542399 182:-0.12454024 183:-0.021673474 184:-0.031604251 
25.797448051294957 1:-0.070552512 2:-0.1483901 3:-0.12070452 4:-0.062822075 5:-0.096856195 6:-0.10384072 7:-0.10284705 8:-0.085647685 9:-0.10001536 10:-0.077079268 11:-0.095325413 12:-0.10181488 13:-0.030741551 14:-0.10704226 15:-0.12580892 16:-0.031082554 17:-0.14649453 18:-0.18834629 19:-0.14656447 20:-0.12093142 21:-0.10149811 22:-0.16616203 23:-0.16145255 24:-0.067843151 25:-0.0008875839 26:-0.13398947 27:-0.084467874 28:-0.035719052 29:-0.027886476 30:-0.065612664 31:-0.074452469 32:0.035488351 33:-0.10092826 34:-0.1706952 35:-0.21032405 36:-0.050485874 37:-0.087313313 38:-0.1987983 39:-0.16353795 40:-0.071800999 41:0.011972381 42:-0.1414295 43:-0.031607854 44:0.0012078922 45:-0.11292345 46:-0.18417756 47:-0.19608397 48:-0.085041106 49:-0.19871864 50:-0.20978611 51:-0.089997668 52:-0.17461191 53:-0.23027394 54:-0.16144235 55:-0.11203799 56:-0.10034713 57:-0.082748812 58:-0.15906091 59:-0.14724048 60:-0.084144383 61:-0.043901201 62:-0.13728938 63:-0.16922205 64:-0.061382806 65:-0.1843596 66:-0.20995374 67:-0.23667031 68:-0.10567942 69:-0.13229906 70:-0.21267943 71:-0.20764724 72:-0.098135279 73:0.001199026 74:-0.10034391 75:-0.12860069 76:-0.023089721 77:0.055505121 78:-0.013461159 79:-0.032667448 80:-0.022206326 81:-0.11736002 82:-0.16542685 83:-0.050648983 84:-0.13284317 85:-0.07702777 86:-0.099230427 87:-0.13079909 88:-0.046235404 89:0.041542399 90:-0.12454024 91:-0.021673474 92:-0.031604251 93:-0.070390143 94:-0.066500077 95:-0.11221988 96:-0.10005547 97:-0.097443482 98:-0.079644881 99:-0.07812858 100:-0.093289661 101:-0.08425276 102:-0.10058398 103:-0.097009582 104:-0.071675979 105:-0.065784494 106:-0.060496952 107:-0.083315717 108:-0.068310624 109:-0.053024437 110:-0.061904039 111:-0.038942784 112:-0.085454695 113:-0.093057647 114:-0.094669782 115:-0.12152143 116:-0.13578753 117:-0.073096312 118:-0.054944824 119:-0.14058351 120:-0.11182561 121:-0.072453435 122:-0.056782577 123:-0.056647795 124:-0.071024775 125:-0.01788592 126:-0.070311203 127:0.051921712 128:-0.12808205 129:-0.068242139 130:-0.054543943 131:-0.089207911 132:-0.12188489 133:0.00090713244 134:-0.02998346 135:-0.12750381 136:-0.094285348 137:-0.029933497 138:-0.029130546 139:-0.073303014 140:-0.068733785 141:-0.065277357 142:-0.065591363 143:-0.073992749 144:-0.053479023 145:-0.032850631 146:-0.07118694 147:-0.028647909 148:-0.029383867 149:-0.081589803 150:-0.074525024 151:-0.10452055 152:-0.076423806 153:-0.071763587 154:-0.10223099 155:-0.11085431 156:-0.090123933 157:-0.066191207 158:-0.11268281 159:-0.14047099 160:-0.1001395 161:-0.11486734 162:-0.11318334 163:-0.14370723 164:-0.11107696 165:-0.13554371 166:-0.10163537 167:-0.1886293 168:-0.095753197 169:-0.080906832 170:-0.069269861 171:-0.098209012 172:-0.048534239 173:-0.069634985 174:-0.017791739 175:-0.0025781913 176:-0.073091846 177:-0.11064567 178:-0.12181139 179:-0.14679497 180:-0.16893828 181:-0.095531163 182:-0.027011053 183:-0.14438721 184:-0.15191919 
127.05681921378257 1:-0.33223686 2:-0.28662327 3:-0.29603109 4:-0.33176286 5:-0.31592307 6:-0.31003516 7:-0.3167094 8:-0.31774881 9:-0.31448707 10:-0.31469307 11:-0.32107423 12:-0.31235769 13:-0.34280818 14:-0.32542466 15:-0.31592071 16:-0.33842565 17:-0.31864385 18:-0.24742629 19:-0.2280079 20:-0.28900969 21:-0.30045183 22:-0.28676345 23:-0.26210085 24:-0.32678671 25:-0.36168727 26:-0.28671584 27:-0.30655419 28:-0.36033682 29:-0.36266922 30:-0.3382416 31:-0.31407371 32:-0.34348227 33:-0.35218458 34:-0.29193822 35:-0.2157875 36:-0.32908418 37:-0.31871023 38:-0.31478659 39:-0.28034228 40:-0.34639887 41:-0.35999021 42:-0.30047229 43:-0.3162023 44:-0.36025171 45:-0.30656668 46:-0.31508552 47:-0.323027 48:-0.32110899 49:-0.30026829 50:-0.19111341 51:-0.15935231 52:-0.25022352 53:-0.21753695 54:-0.24475503 55:-0.26769948 56:-0.18550305 57:-0.32266362 58:-0.24601212 59:-0.28394425 60:-0.30546759 61:-0.31555947 62:-0.29855796 63:-0.27396417 64:-0.31342037 65:-0.31354368 66:-0.25923768 67:-0.2943899 68:-0.27649364 69:-0.27634018 70:-0.25919709 71:-0.20555084 72:-0.30637862 73:-0.36303389 74:-0.29018838 75:-0.28636819 76:-0.36756842 77:-0.37078223 78:-0.34422981 79:-0.35614678 80:-0.36526701 81:-0.30043636 82:-0.25471515 83:-0.25494985 84:-0.29875462 85:-0.30562948 86:-0.28175991 87:-0.28237912 88:-0.33800813 89:-0.38543387 90:-0.3090739 91:-0.33495443 92:-0.38960429 93:-0.38224644 94:-0.41106812 95:-0.41759899 96:-0.37928117 97:-0.39288116 98:-0.39839117 99:-0.39877355 100:-0.39533277 101:-0.39468622 102:-0.39976711 103:-0.39419348 104:-0.39502491 105:-0.36715381 106:-0.39831638 107:-0.4091641 108:-0.3553475 109:-0.39239278 110:-0.42991173 111:-0.45197734 112:-0.40610228 113:-0.39956696 114:-0.43175241 115:-0.44206439 116:-0.39926071 117:-0.36705414 118:-0.38767846 119:-0.40105511 120:-0.3586283 121:-0.38017767 122:-0.38570332 123:-0.37416449 124:-0.32495824 125:-0.38767276 126:-0.42882549 127:-0.40700837 128:-0.3842429 129:-0.40262339 130:-0.41323044 131:-0.42736872 132:-0.38957463 133:-0.34552027 134:-0.36432158 135:-0.37652395 136:-0.33478684 137:-0.35636065 138:-0.38935954 139:-0.44303325 140:-0.36148902 141:-0.41692451 142:-0.44319488 143:-0.44210587 144:-0.42459315 145:-0.45317123 146:-0.46692218 147:-0.50119172 148:-0.38893108 149:-0.38061405 150:-0.415889 151:-0.43247815 152:-0.38074322 153:-0.3736061 154:-0.43177984 155:-0.41948375 156:-0.37753519 157:-0.41268495 158:-0.43951313 159:-0.52526828 160:-0.42422486 161:-0.40845432 162:-0.46852653 163:-0.46760004 164:-0.42638325 165:-0.39784113 166:-0.40512824 167:-0.40796461 168:-0.37923046 169:-0.34520499 170:-0.38642663 171:-0.38468908 172:-0.36048012 173:-0.35598517 174:-0.40853856 175:-0.42920647 176:-0.3909921 177:-0.37884179 178:-0.41254135 179:-0.42481864 180:-0.39059508 181:-0.35471048 182:-0.36380251 183:-0.37465593 184:-0.34543272 
127.02886379676362 1:-0.38224644 2:-0.41106812 3:-0.41759899 4:-0.37928117 5:-0.39288116 6:-0.39839117 7:-0.39877355 8:-0.39533277 9:-0.39468622 10:-0.39976711 11:-0.39419348 12:-0.39502491 13:-0.36715381 14:-0.39831638 15:-0.4091641 16:-0.3553475 17:-0.39239278 18:-0.42991173 19:-0.45197734 20:-0.40610228 21:-0.39956696 22:-0.43175241 23:-0.44206439 24:-0.39926071 25:-0.36705414 26:-0.38767846 27:-0.40105511 28:-0.3586283 29:-0.38017767 30:-0.38570332 31:-0.37416449 32:-0.32495824 33:-0.38767276 34:-0.42882549 35:-0.40700837 36:-0.3842429 37:-0.40262339 38:-0.41323044 39:-0.42736872 40:-0.38957463 41:-0.34552027 42:-0.36432158 43:-0.37652395 44:-0.33478684 45:-0.35636065 46:-0.38935954 47:-0.44303325 48:-0.36148902 49:-0.41692451 50:-0.44319488 51:-0.44210587 52:-0.42459315 53:-0.45317123 54:-0.46692218 55:-0.50119172 56:-0.38893108 57:-0.38061405 58:-0.415889 59:-0.43247815 60:-0.38074322 61:-0.3736061 62:-0.43177984 63:-0.41948375 64:-0.37753519 65:-0.41268495 66:-0.43951313 67:-0.52526828 68:-0.42422486 69:-0.40845432 70:-0.46852653 71:-0.46760004 72:-0.42638325 73:-0.39784113 74:-0.40512824 75:-0.40796461 76:-0.37923046 77:-0.34520499 78:-0.38642663 79:-0.38468908 80:-0.36048012 81:-0.35598517 82:-0.40853856 83:-0.42920647 84:-0.3909921 85:-0.37884179 86:-0.41254135 87:-0.42481864 88:-0.39059508 89:-0.35471048 90:-0.36380251 91:-0.37465593 92:-0.34543272 93:-0.33223686 94:-0.28662327 95:-0.29603109 96:-0.33176286 97:-0.31592307 98:-0.31003516 99:-0.3167094 100:-0.31774881 101:-0.31448707 102:-0.31469307 103:-0.32107423 104:-0.31235769 105:-0.34280818 106:-0.32542466 107:-0.31592071 108:-0.33842565 109:-0.31864385 110:-0.24742629 111:-0.2280079 112:-0.28900969 113:-0.30045183 114:-0.28676345 115:-0.26210085 116:-0.32678671 117:-0.36168727 118:-0.28671584 119:-0.30655419 120:-0.36033682 121:-0.36266922 122:-0.3382416 123:-0.31407371 124:-0.34348227 125:-0.35218458 126:-0.29193822 127:-0.2157875 128:-0.32908418 129:-0.31871023 130:-0.31478659 131:-0.28034228 132:-0.34639887 133:-0.35999021 134:-0.30047229 135:-0.3162023 136:-0.36025171 137:-0.30656668 138:-0.31508552 139:-0.323027 140:-0.32110899 141:-0.30026829 142:-0.19111341 143:-0.15935231 144:-0.25022352 145:-0.21753695 146:-0.24475503 147:-0.26769948 148:-0.18550305 149:-0.32266362 150:-0.24601212 151:-0.28394425 152:-0.30546759 153:-0.31555947 154:-0.29855796 155:-0.27396417 156:-0.31342037 157:-0.31354368 158:-0.25923768 159:-0.2943899 160:-0.27649364 161:-0.27634018 162:-0.25919709 163:-0.20555084 164:-0.30637862 165:-0.36303389 166:-0.29018838 167:-0.28636819 168:-0.36756842 169:-0.37078223 170:-0.34422981 171:-0.35614678 172:-0.36526701 173:-0.30043636 174:-0.25471515 175:-0.25494985 176:-0.29875462 177:-0.30562948 178:-0.28175991 179:-0.28237912 180:-0.33800813 181:-0.38543387 182:-0.3090739 183:-0.33495443 184:-0.38960429 
43.542466957857691 1:-0.45818091 2:-0.46454161 3:-0.4801138 4:-0.47268605 5:-0.46513802 6:-0.47015155 7:-0.46959851 8:-0.46783004 9:-0.46397349 10:-0.47826968 11:-0.47318452 12:-0.46585492 13:-0.44443272 14:-0.4674025 15:-0.48267131 16:-0.43636086 17:-0.46490914 18:-0.45365416 19:-0.33562958 20:-0.48461635 21:-0.45865019 22:-0.4735119 23:-0.48855953 24:-0.49513778 25:-0.46121822 26:-0.46159337 27:-0.48623389 28:-0.47045835 29:-0.44596699 30:-0.45744778 31:-0.45428552 32:-0.41912202 33:-0.45297102 34:-0.47445458 35:-0.42339873 36:-0.48334163 37:-0.4579298 38:-0.48438293 39:-0.49924832 40:-0.49060593 41:-0.42297701 42:-0.43745805 43:-0.43993902 44:-0.43876837 45:-0.42828528 46:-0.47198938 47:-0.50338321 48:-0.43836639 49:-0.48406477 50:-0.42452218 51:-0.14868237 52:-0.48554537 53:-0.3831178 54:-0.18227052 55:-0.2843775 56:-0.44097081 57:-0.46869872 58:-0.47385647 59:-0.51463186 60:-0.46566957 61:-0.44403603 62:-0.45702188 63:-0.47625237 64:-0.44938801 65:-0.46876487 66:-0.46415509 67:-0.33286963 68:-0.49809048 69:-0.46258442 70:-0.49178535 71:-0.48332299 72:-0.51815151 73:-0.49480416 74:-0.48519869 75:-0.50031632 76:-0.48777714 77:-0.45262941 78:-0.47354265 79:-0.48934416 80:-0.43786823 81:-0.45378236 82:-0.45274069 83:-0.44122417 84:-0.47220749 85:-0.46101888 86:-0.48310687 87:-0.50555976 88:-0.48954901 89:-0.46578734 90:-0.44800037 91:-0.47499245 92:-0.48005083 93:0.090409071 94:0.065853806 95:0.073627637 96:0.10322006 97:0.078419622 98:0.095701341 99:0.099386911 100:0.074057659 101:0.070001896 102:0.096612978 103:0.095494443 104:0.085264675 105:0.10315938 106:0.07123506 107:0.098740489 108:0.079755562 109:0.068589399 110:0.034446061 111:-0.014218884 112:0.095418459 113:0.077921977 114:0.094083126 115:0.029451023 116:0.093713474 117:0.11059684 118:0.067935784 119:0.090824943 120:0.13140474 121:0.1174867 122:0.093328902 123:0.10804544 124:0.083342075 125:0.024699897 126:0.08873877 127:0.030067898 128:0.12620902 129:0.094498548 130:0.1491666 131:0.024329173 132:0.13716971 133:0.097940851 134:0.065210033 135:0.06583481 136:0.085383415 137:0.044757462 138:0.046071897 139:0.11607101 140:0.052406312 141:0.043825577 142:-0.024096471 143:-0.0099730762 144:0.075369335 145:-0.051956113 146:-0.15449962 147:-0.017529231 148:0.11254267 149:0.10964664 150:0.045435429 151:0.1182803 152:0.10372299 153:0.089219089 154:0.040807236 155:0.085037434 156:0.080111969 157:0.12808563 158:0.064998744 159:-0.089164679 160:0.10853085 161:0.037430912 162:0.021200988 163:-0.010586243 164:0.071283031 165:0.10810698 166:0.062379928 167:0.066107501 168:0.13569343 169:0.14843576 170:0.10904575 171:0.074101875 172:0.10305072 173:0.093099543 174:0.02641039 175:0.0034306577 176:0.08237762 177:0.10600301 178:0.12657925 179:0.069530297 180:0.073074762 181:0.12347142 182:0.091567604 183:0.10537134 184:0.17368837 
43.54604333559017 1:0.090409071 2:0.065853806 3:0.073627637 4:0.10322006 5:0.078419622 6:0.095701341 7:0.099386911 8:0.074057659 9:0.070001896 10:0.096612978 11:0.095494443 12:0.085264675 13:0.10315938 14:0.07123506 15:0.098740489 16:0.079755562 17:0.068589399 18:0.034446061 19:-0.014218884 20:0.095418459 21:0.077921977 22:0.094083126 23:0.029451023 24:0.093713474 25:0.11059684 26:0.067935784 27:0.090824943 28:0.13140474 29:0.1174867 30:0.093328902 31:0.10804544 32:0.083342075 33:0.024699897 34:0.08873877 35:0.030067898 36:0.12620902 37:0.094498548 38:0.1491666 39:0.024329173 40:0.13716971 41:0.097940851 42:0.065210033 43:0.06583481 44:0.085383415 45:0.044757462 46:0.046071897 47:0.11607101 48:0.052406312 49:0.043825577 50:-0.024096471 51:-0.0099730762 52:0.075369335 53:-0.051956113 54:-0.15449962 55:-0.017529231 56:0.11254267 57:0.10964664 58:0.045435429 59:0.1182803 60:0.10372299 61:0.089219089 62:0.040807236 63:0.085037434 64:0.080111969 65:0.12808563 66:0.064998744 67:-0.089164679 68:0.10853085 69:0.037430912 70:0.021200988 71:-0.010586243 72:0.071283031 73:0.10810698 74:0.062379928 75:0.066107501 76:0.13569343 77:0.14843576 78:0.10904575 79:0.074101875 80:0.10305072 81:0.093099543 82:0.02641039 83:0.0034306577 84:0.08237762 85:0.10600301 86:0.12657925 87:0.069530297 88:0.073074762 89:0.12347142 90:0.091567604 91:0.10537134 92:0.17368837 93:-0.45818091 94:-0.46454161 95:-0.4801138 96:-0.47268605 97:-0.46513802 98:-0.47015155 99:-0.46959851 100:-0.46783004 101:-0.46397349 102:-0.47826968 103:-0.47318452 104:-0.46585492 105:-0.44443272 106:-0.4674025 107:-0.48267131 108:-0.43636086 109:-0.46490914 110:-0.45365416 111:-0.33562958 112:-0.48461635 113:-0.45865019 114:-0.4735119 115:-0.48855953 116:-0.49513778 117:-0.46121822 118:-0.46159337 119:-0.48623389 120:-0.47045835 121:-0.44596699 122:-0.45744778 123:-0.45428552 124:-0.41912202 125:-0.45297102 126:-0.47445458 127:-0.42339873 128:-0.48334163 129:-0.4579298 130:-0.48438293 131:-0.49924832 132:-0.49060593 133:-0.42297701 134:-0.43745805 135:-0.43993902 136:-0.43876837 137:-0.42828528 138:-0.47198938 139:-0.50338321 140:-0.43836639 141:-0.48406477 142:-0.42452218 143:-0.14868237 144:-0.48554537 145:-0.3831178 146:-0.18227052 147:-0.2843775 148:-0.44097081 149:-0.46869872 150:-0.47385647 151:-0.51463186 152:-0.46566957 153:-0.44403603 154:-0.45702188 155:-0.47625237 156:-0.44938801 157:-0.46876487 158:-0.46415509 159:-0.33286963 160:-0.49809048 161:-0.46258442 162:-0.49178535 163:-0.48332299 164:-0.51815151 165:-0.49480416 166:-0.48519869 167:-0.50031632 168:-0.48777714 169:-0.45262941 170:-0.47354265 171:-0.48934416 172:-0.43786823 173:-0.45378236 174:-0.45274069 175:-0.44122417 176:-0.47220749 177:-0.46101888 178:-0.48310687 179:-0.50555976 180:-0.48954901 181:-0.46578734 182:-0.44800037 183:-0.47499245 184:-0.48005083 
91.325263692263178 1:-0.17706643 2:-0.15391943 3:-0.1352981 4:-0.17768684 5:-0.16791793 6:-0.16088637 7:-0.16309834 8:-0.16251521 9:-0.1716195 10:-0.14813838 11:-0.16935868 12:-0.16388242 13:-0.18954142 14:-0.18754516 15:-0.14876734 16:-0.18274463 17:-0.1705297 18:-0.14058535 19:-0.12329491 20:-0.15020457 21:-0.1552759 22:-0.11037135 23:-0.09772686 24:-0.16648832 25:-0.18775206 26:-0.16779912 27:-0.14844336 28:-0.20082369 29:-0.21994884 30:-0.20027149 31:-0.14492931 32:-0.18216891 33:-0.21945879 34:-0.13028087 35:-0.15022606 36:-0.19071992 37:-0.17631213 38:-0.1403168 39:-0.10554418 40:-0.16247011 41:-0.19826734 42:-0.15884294 43:-0.17777185 44:-0.18694916 45:-0.18484808 46:-0.18974811 47:-0.14197711 48:-0.17123694 49:-0.13409613 50:-0.17244071 51:-0.068657777 52:-0.13140528 53:-0.12200955 54:-0.1475569 55:-0.089800637 56:-0.13346332 57:-0.1349042 58:-0.17918851 59:-0.12095129 60:-0.16199354 61:-0.15999448 62:-0.16954309 63:-0.15083221 64:-0.14097362 65:-0.13028254 66:-0.090634738 67:-0.17253743 68:-0.095522899 69:-0.1313816 70:-0.038238235 71:-0.11226133 72:-0.091076183 73:-0.17532341 74:-0.10938412 75:-0.14399264 76:-0.22403563 77:-0.17554263 78:-0.18224845 79:-0.15846497 80:-0.22325584 81:-0.1807326 82:-0.15305026 83:-0.11073747 84:-0.17229065 85:-0.15248128 86:-0.12745664 87:-0.079764605 88:-0.2079544 89:-0.22000026 90:-0.19330183 91:-0.15232751 92:-0.22175233 93:-0.12110332 94:-0.076858815 95:-0.10719698 96:-0.13155304 97:-0.1064877 98:-0.12733011 99:-0.11098751 100:-0.10502129 101:-0.12259227 102:-0.11691597 103:-0.10513219 104:-0.10641447 105:-0.13605482 106:-0.083037762 107:-0.10929498 108:-0.14255524 109:-0.077265033 110:-0.045339552 111:-0.086936236 112:-0.096504824 113:-0.11403822 114:-0.09233125 115:-0.08459882 116:-0.13100625 117:-0.1587222 118:-0.087122289 119:-0.12212201 120:-0.15034485 121:-0.13081493 122:-0.087687882 123:-0.14344558 124:-0.16827589 125:-0.0846037 126:-0.015556295 127:-0.068274262 128:-0.13088673 129:-0.10702019 130:-0.077936541 131:-0.085940657 132:-0.16333362 133:-0.16422042 134:-0.1100853 135:-0.1089433 136:-0.17350937 137:-0.10185813 138:-0.055126453 139:-0.054573715 140:-0.099018809 141:-0.016600663 142:-0.0023116531 143:-0.09533264 144:-0.095914111 145:-0.083798582 146:-0.050358769 147:-0.15095337 148:-0.057769174 149:-0.11172403 150:-0.043931083 151:-0.090718729 152:-0.13432813 153:-0.12903627 154:-0.068574936 155:-0.098061378 156:-0.14981704 157:-0.099238299 158:-0.085446955 159:-0.031445085 160:-0.098292859 161:-0.10110545 162:-0.097677458 163:-0.055658705 164:-0.082840571 165:-0.16413537 166:-0.066765973 167:-0.11782632 168:-0.16482835 169:-0.18236322 170:-0.13052331 171:-0.15635072 172:-0.15384589 173:-0.10797148 174:-0.074370465 175:-0.14679057 176:-0.073671956 177:-0.13529879 178:-0.10675742 179:-0.094998779 180:-0.14066573 181:-0.1806113 182:-0.121032 183:-0.17037365 184:-0.13887806 
91.327067803182075 1:-0.12110332 2:-0.076858815 3:-0.10719698 4:-0.13155304 5:-0.1064877 6:-0.12733011 7:-0.11098751 8:-0.10502129 9:-0.12259227 10:-0.11691597 11:-0.10513219 12:-0.10641447 13:-0.13605482 14:-0.083037762 15:-0.10929498 16:-0.14255524 17:-0.077265033 18:-0.045339552 19:-0.086936236 20:-0.096504824 21:-0.11403822 22:-0.09233125 23:-0.08459882 24:-0.13100625 25:-0.1587222 26:-0.087122289 27:-0.12212201 28:-0.15034485 29:-0.13081493 30:-0.087687882 31:-0.14344558 32:-0.16827589 33:-0.0846037 34:-0.015556295 35:-0.068274262 36:-0.13088673 37:-0.10702019 38:-0.077936541 39:-0.085940657 40:-0.16333362 41:-0.16422042 42:-0.1100853 43:-0.1089433 44:-0.17350937 45:-0.10185813 46:-0.055126453 47:-0.054573715 48:-0.099018809 49:-0.016600663 50:-0.0023116531 51:-0.09533264 52:-0.095914111 53:-0.083798582 54:-0.050358769 55:-0.15095337 56:-0.057769174 57:-0.11172403 58:-0.043931083 59:-0.090718729 60:-0.13432813 61:-0.12903627 62:-0.068574936 63:-0.098061378 64:-0.14981704 65:-0.099238299 66:-0.085446955 67:-0.031445085 68:-0.098292859 69:-0.10110545 70:-0.097677458 71:-0.055658705 72:-0.082840571 73:-0.16413537 74:-0.066765973 75:-0.11782632 76:-0.16482835 77:-0.18236322 78:-0.13052331 79:-0.15635072 80:-0.15384589 81:-0.10797148 82:-0.074370465 83:-0.14679057 84:-0.073671956 85:-0.13529879 86:-0.10675742 87:-0.094998779 88:-0.14066573 89:-0.1806113 90:-0.121032 91:-0.17037365 92:-0.13887806 93:-0.17706643 94:-0.15391943 95:-0.1352981 96:-0.17768684 97:-0.16791793 98:-0.16088637 99:-0.16309834 100:-0.16251521 101:-0.1716195 102:-0.14813838 103:-0.16935868 104:-0.16388242 105:-0.18954142 106:-0.18754516 107:-0.14876734 108:-0.18274463 109:-0.1705297 110:-0.14058535 111:-0.12329491 112:-0.15020457 113:-0.1552759 114:-0.11037135 115:-0.09772686 116:-0.16648832 117:-0.18775206 118:-0.16779912 119:-0.14844336 120:-0.20082369 121:-0.21994884 122:-0.20027149 123:-0.14492931 124:-0.18216891 125:-0.21945879 126:-0.13028087 127:-0.15022606 128:-0.19071992 129:-0.17631213 130:-0.1403168 131:-0.10554418 132:-0.16247011 133:-0.19826734 134:-0.15884294 135:-0.17777185 136:-0.18694916 137:-0.18484808 138:-0.18974811 139:-0.14197711 140:-0.17123694 141:-0.13409613 142:-0.17244071 143:-0.068657777 144:-0.13140528 145:-0.12200955 146:-0.1475569 147:-0.089800637 148:-0.13346332 149:-0.1349042 150:-0.17918851 151:-0.12095129 152:-0.16199354 153:-0.15999448 154:-0.16954309 155:-0.15083221 156:-0.14097362 157:-0.13028254 158:-0.090634738 159:-0.17253743 160:-0.095522899 161:-0.1313816 162:-0.038238235 163:-0.11226133 164:-0.091076183 165:-0.17532341 166:-0.10938412 167:-0.14399264 168:-0.22403563 169:-0.17554263 170:-0.18224845 171:-0.15846497 172:-0.22325584 173:-0.1807326 174:-0.15305026 175:-0.11073747 176:-0.17229065 177:-0.15248128 178:-0.12745664 179:-0.079764605 180:-0.2079544 181:-0.22000026 182:-0.19330183 183:-0.15232751 184:-0.22175233 
56.706763455130869 1:0.022376553 2:-0.11087467 3:-0.10142742 4:0.046059632 5:-0.017484351 6:-0.06045305 7:-0.040545802 8:-0.0061233794 9:-0.037287758 10:-0.037840291 11:-0.022099149 12:-0.013993264 13:0.083424669 14:-0.043810897 15:-0.088149068 16:0.11592602 17:-0.08445504 18:-0.16487993 19:-0.033125396 20:-0.10716723 21:-0.0691832 22:-0.14678563 23:-0.19317865 24:-0.015500817 25:0.16085021 26:-0.09271837 27:-0.059791617 28:0.15485798 29:0.13393403 30:-0.02256599 31:-0.034391952 32:0.20606372 33:-0.014337102 34:-0.15113988 35:-0.084664622 36:0.0018681698 37:-0.04980667 38:-0.14226618 39:-0.20437862 40:0.031820838 41:0.17369525 42:-0.02069629 43:0.0093799335 44:0.24736824 45:-0.085260134 46:-0.094120313 47:-0.17180525 48:0.023674366 49:-0.15675597 50:-0.19837502 51:0.011366815 52:-0.17075417 53:-0.058324607 54:0.15792294 55:-0.13983469 56:-0.053038289 57:-0.021321349 58:-0.17999361 59:-0.17813027 60:-0.025596674 61:-0.0036555322 62:-0.14850806 63:-0.15163177 64:0.014891721 65:-0.12327255 66:-0.16845148 67:-0.01220522 68:-0.17031183 69:-0.17358473 70:-0.23076963 71:-0.26634626 72:-0.099311795 73:0.16529031 74:-0.13004746 75:-0.12783109 76:0.064824115 77:0.25330245 78:0.10632337 79:0.048730947 80:0.18921479 81:-0.063375965 82:-0.1415577 83:-0.044640134 84:-0.086434375 85:-0.0075507791 86:-0.12933838 87:-0.13460763 88:-0.0015647732 89:0.26842278 90:-0.038939084 91:0.070000906 92:0.25866605 93:-0.45818091 94:-0.46454161 95:-0.4801138 96:-0.47268605 97:-0.46513802 98:-0.47015155 99:-0.46959851 100:-0.46783004 101:-0.46397349 102:-0.47826968 103:-0.47318452 104:-0.46585492 105:-0.44443272 106:-0.4674025 107:-0.48267131 108:-0.43636086 109:-0.46490914 110:-0.45365416 111:-0.33562958 112:-0.48461635 113:-0.45865019 114:-0.4735119 115:-0.48855953 116:-0.49513778 117:-0.46121822 118:-0.46159337 119:-0.48623389 120:-0.47045835 121:-0.44596699 122:-0.45744778 123:-0.45428552 124:-0.41912202 125:-0.45297102 126:-0.47445458 127:-0.42339873 128:-0.48334163 129:-0.4579298 130:-0.48438293 131:-0.49924832 132:-0.49060593 133:-0.42297701 134:-0.43745805 135:-0.43993902 136:-0.43876837 137:-0.42828528 138:-0.47198938 139:-0.50338321 140:-0.43836639 141:-0.48406477 142:-0.42452218 143:-0.14868237 144:-0.48554537 145:-0.3831178 146:-0.18227052 147:-0.2843775 148:-0.44097081 149:-0.46869872 150:-0.47385647 151:-0.51463186 152:-0.46566957 153:-0.44403603 154:-0.45702188 155:-0.47625237 156:-0.44938801 157:-0.46876487 158:-0.46415509 159:-0.33286963 160:-0.49809048 161:-0.46258442 162:-0.49178535 163:-0.48332299 164:-0.51815151 165:-0.49480416 166:-0.48519869 167:-0.50031632 168:-0.48777714 169:-0.45262941 170:-0.47354265 171:-0.48934416 172:-0.43786823 173:-0.45378236 174:-0.45274069 175:-0.44122417 176:-0.47220749 177:-0.46101888 178:-0.48310687 179:-0.50555976 180:-0.48954901 181:-0.46578734 182:-0.44800037 183:-0.47499245 184:-0.48005083 
56.71650865220704 1:-0.45818091 2:-0.46454161 3:-0.4801138 4:-0.47268605 5:-0.46513802 6:-0.47015155 7:-0.46959851 8:-0.46783004 9:-0.46397349 10:-0.47826968 11:-0.47318452 12:-0.46585492 13:-0.44443272 14:-0.4674025 15:-0.48267131 16:-0.43636086 17:-0.46490914 18:-0.45365416 19:-0.33562958 20:-0.48461635 21:-0.45865019 22:-0.4735119 23:-0.48855953 24:-0.49513778 25:-0.46121822 26:-0.46159337 27:-0.48623389 28:-0.47045835 29:-0.44596699 30:-0.45744778 31:-0.45428552 32:-0.41912202 33:-0.45297102 34:-0.47445458 35:-0.42339873 36:-0.48334163 37:-0.4579298 38:-0.48438293 39:-0.49924832 40:-0.49060593 41:-0.42297701 42:-0.43745805 43:-0.43993902 44:-0.43876837 45:-0.42828528 46:-0.47198938 47:-0.50338321 48:-0.43836639 49:-0.48406477 50:-0.42452218 51:-0.14868237 52:-0.48554537 53:-0.3831178 54:-0.18227052 55:-0.2843775 56:-0.44097081 57:-0.46869872 58:-0.47385647 59:-0.51463186 60:-0.46566957 61:-0.44403603 62:-0.45702188 63:-0.47625237 64:-0.44938801 65:-0.46876487 66:-0.46415509 67:-0.33286963 68:-0.49809048 69:-0.46258442 70:-0.49178535 71:-0.48332299 72:-0.51815151 73:-0.49480416 74:-0.48519869 75:-0.50031632 76:-0.48777714 77:-0.45262941 78:-0.47354265 79:-0.48934416 80:-0.43786823 81:-0.45378236 82:-0.45274069 83:-0.44122417 84:-0.47220749 85:-0.46101888 86:-0.48310687 87:-0.50555976 88:-0.48954901 89:-0.46578734 90:-0.44800037 91:-0.47499245 92:-0.48005083 93:0.022376553 94:-0.11087467 95:-0.10142742 96:0.046059632 97:-0.017484351 98:-0.06045305 99:-0.040545802 100:-0.0061233794 101:-0.037287758 102:-0.037840291 103:-0.022099149 104:-0.013993264 105:0.083424669 106:-0.043810897 107:-0.088149068 108:0.11592602 109:-0.08445504 110:-0.16487993 111:-0.033125396 112:-0.10716723 113:-0.0691832 114:-0.14678563 115:-0.19317865 116:-0.015500817 117:0.16085021 118:-0.09271837 119:-0.059791617 120:0.15485798 121:0.13393403 122:-0.02256599 123:-0.034391952 124:0.20606372 125:-0.014337102 126:-0.15113988 127:-0.084664622 128:0.0018681698 129:-0.04980667 130:-0.14226618 131:-0.20437862 132:0.031820838 133:0.17369525 134:-0.02069629 135:0.0093799335 136:0.24736824 137:-0.085260134 138:-0.094120313 139:-0.17180525 140:0.023674366 141:-0.15675597 142:-0.19837502 143:0.011366815 144:-0.17075417 145:-0.058324607 146:0.15792294 147:-0.13983469 148:-0.053038289 149:-0.021321349 150:-0.17999361 151:-0.17813027 152:-0.025596674 153:-0.0036555322 154:-0.14850806 155:-0.15163177 156:0.014891721 157:-0.12327255 158:-0.16845148 159:-0.01220522 160:-0.17031183 161:-0.17358473 162:-0.23076963 163:-0.26634626 164:-0.099311795 165:0.16529031 166:-0.13004746 167:-0.12783109 168:0.064824115 169:0.25330245 170:0.10632337 171:0.048730947 172:0.18921479 173:-0.063375965 174:-0.1415577 175:-0.044640134 176:-0.086434375 177:-0.0075507791 178:-0.12933838 179:-0.13460763 180:-0.0015647732 181:0.26842278 182:-0.038939084 183:0.070000906 184:0.25866605 
10.053046009254828 1:-0.126245 2:-0.13586163 3:-0.14541179 4:-0.14895829 5:-0.15229609 6:-0.10843263 7:-0.14227183 8:-0.15060448 9:-0.14466707 10:-0.11427894 11:-0.16537632 12:-0.13964959 13:-0.1198244 14:-0.11260428 15:-0.13265617 16:-0.13536345 17:-0.13766109 18:-0.12153619 19:-0.20910139 20:-0.13314472 21:-0.11669094 22:-0.16649611 23:-0.14887151 24:-0.15491261 25:-0.12920444 26:-0.14401578 27:-0.14533597 28:-0.16618744 29:-0.11542872 30:-0.11859319 31:-0.12267346 32:-0.1235095 33:-0.14564337 34:-0.05727432 35:-0.19393369 36:-0.093490981 37:-0.1082916 38:-0.15396248 39:-0.15945388 40:-0.1167038 41:-0.11995943 42:-0.14839488 43:-0.11358343 44:-0.15865487 45:-0.12491089 46:-0.12940047 47:-0.16070641 48:-0.12697422 49:-0.100526 50:-0.12264684 51:-0.16468729 52:-0.13217682 53:-0.10290406 54:-0.25864048 55:-0.20098742 56:-0.25646632 57:-0.10361097 58:-0.10592407 59:-0.14658325 60:-0.1562031 61:-0.13058418 62:-0.106438 63:-0.10925519 64:-0.11333792 65:-0.18135531 66:-0.1775301 67:-0.26873675 68:-0.1278391 69:-0.14973079 70:-0.19071276 71:-0.16571937 72:-0.088723151 73:-0.13057124 74:-0.15975102 75:-0.15476701 76:-0.16662251 77:-0.1090418 78:-0.084242927 79:-0.13309404 80:-0.17060002 81:-0.1283133 82:-0.12476089 83:-0.21288791 84:-0.16068845 85:-0.10018677 86:-0.14627411 87:-0.11785004 88:-0.19834173 89:-0.15303904 90:-0.16453423 91:-0.1617115 92:-0.17547736 93:-0.30506715 94:-0.22776044 95:-0.23534896 96:-0.30145201 97:-0.26340199 98:-0.26702132 99:-0.27575754 100:-0.28375694 101:-0.27760009 102:-0.27812628 103:-0.26993514 104:-0.27380709 105:-0.33487741 106:-0.27185365 107:-0.27624696 108:-0.32171532 109:-0.26215093 110:-0.16736461 111:-0.018581925 112:-0.26341992 113:-0.26548421 114:-0.19622887 115:-0.16883707 116:-0.29231123 117:-0.35217329 118:-0.26386518 119:-0.26798611 120:-0.31917715 121:-0.3642609 122:-0.30181749 123:-0.3103644 124:-0.33730759 125:-0.28688633 126:-0.19937635 127:-0.22671441 128:-0.30851652 129:-0.29264629 130:-0.24363411 131:-0.23541754 132:-0.32222044 133:-0.35743669 134:-0.27261078 135:-0.29145496 136:-0.34610456 137:-0.27060437 138:-0.20831662 139:-0.26614542 140:-0.29082396 141:-0.22389624 142:-0.095675159 143:0.16074605 144:-0.21396081 145:-0.051956113 146:0.081552979 147:0.19928499 148:-0.24700455 149:-0.33077668 150:-0.21380797 151:-0.20441946 152:-0.31962198 153:-0.31865529 154:-0.25228089 155:-0.189211 156:-0.3023661 157:-0.25445949 158:-0.10749503 159:0.12888712 160:-0.24971736 161:-0.21854024 162:-0.1416108 163:-0.052514114 164:-0.25814146 165:-0.34438716 166:-0.25919337 167:-0.25481469 168:-0.31643487 169:-0.36140391 170:-0.34150743 171:-0.35191829 172:-0.34771507 173:-0.2746179 174:-0.24587473 175:-0.12876402 176:-0.27903088 177:-0.29442352 178:-0.2253075 179:-0.24048514 180:-0.2922066 181:-0.36337605 182:-0.30205741 183:-0.32268305 184:-0.30126115 
10.060262652813766 1:-0.30506715 2:-0.22776044 3:-0.23534896 4:-0.30145201 5:-0.26340199 6:-0.26702132 7:-0.27575754 8:-0.28375694 9:-0.27760009 10:-0.27812628 11:-0.26993514 12:-0.27380709 13:-0.33487741 14:-0.27185365 15:-0.27624696 16:-0.32171532 17:-0.26215093 18:-0.16736461 19:-0.018581925 20:-0.26341992 21:-0.26548421 22:-0.19622887 23:-0.16883707 24:-0.29231123 25:-0.35217329 26:-0.26386518 27:-0.26798611 28:-0.31917715 29:-0.3642609 30:-0.30181749 31:-0.3103644 32:-0.33730759 33:-0.28688633 34:-0.19937635 35:-0.22671441 36:-0.30851652 37:-0.29264629 38:-0.24363411 39:-0.23541754 40:-0.32222044 41:-0.35743669 42:-0.27261078 43:-0.29145496 44:-0.34610456 45:-0.27060437 46:-0.20831662 47:-0.26614542 48:-0.29082396 49:-0.22389624 50:-0.095675159 51:0.16074605 52:-0.21396081 53:-0.051956113 54:0.081552979 55:0.19928499 56:-0.24700455 57:-0.33077668 58:-0.21380797 59:-0.20441946 60:-0.31962198 61:-0.31865529 62:-0.25228089 63:-0.189211 64:-0.3023661 65:-0.25445949 66:-0.10749503 67:0.12888712 68:-0.24971736 69:-0.21854024 70:-0.1416108 71:-0.052514114 72:-0.25814146 73:-0.34438716 74:-0.25919337 75:-0.25481469 76:-0.31643487 77:-0.36140391 78:-0.34150743 79:-0.35191829 80:-0.34771507 81:-0.2746179 82:-0.24587473 83:-0.12876402 84:-0.27903088 85:-0.29442352 86:-0.2253075 87:-0.24048514 88:-0.2922066 89:-0.36337605 90:-0.30205741 91:-0.32268305 92:-0.30126115 93:-0.126245 94:-0.13586163 95:-0.14541179 96:-0.14895829 97:-0.15229609 98:-0.10843263 99:-0.14227183 100:-0.15060448 101:-0.14466707 102:-0.11427894 103:-0.16537632 104:-0.13964959 105:-0.1198244 106:-0.11260428 107:-0.13265617 108:-0.13536345 109:-0.13766109 110:-0.12153619 111:-0.20910139 112:-0.13314472 113:-0.11669094 114:-0.16649611 115:-0.14887151 116:-0.15491261 117:-0.12920444 118:-0.14401578 119:-0.14533597 120:-0.16618744 121:-0.11542872 122:-0.11859319 123:-0.12267346 124:-0.1235095 125:-0.14564337 126:-0.05727432 127:-0.19393369 128:-0.093490981 129:-0.1082916 130:-0.15396248 131:-0.15945388 132:-0.1167038 133:-0.11995943 134:-0.14839488 135:-0.11358343 136:-0.15865487 137:-0.12491089 138:-0.12940047 139:-0.16070641 140:-0.12697422 141:-0.100526 142:-0.12264684 143:-0.16468729 144:-0.13217682 145:-0.10290406 146:-0.25864048 147:-0.20098742 148:-0.25646632 149:-0.10361097 150:-0.10592407 151:-0.14658325 152:-0.1562031 153:-0.13058418 154:-0.106438 155:-0.10925519 156:-0.11333792 157:-0.18135531 158:-0.1775301 159:-0.26873675 160:-0.1278391 161:-0.14973079 162:-0.19071276 163:-0.16571937 164:-0.088723151 165:-0.13057124 166:-0.15975102 167:-0.15476701 168:-0.16662251 169:-0.1090418 170:-0.084242927 171:-0.13309404 172:-0.17060002 173:-0.1283133 174:-0.12476089 175:-0.21288791 176:-0.16068845 177:-0.10018677 178:-0.14627411 179:-0.11785004 180:-0.19834173 181:-0.15303904 182:-0.16453423 183:-0.1617115 184:-0.17547736 
